{"learner":{"attributes":{"best_iteration":"252","best_score":"1.5275317410105154","scikit_learn":"{\"_estimator_type\": \"regressor\"}"},"feature_names":["is_home","lagged_GC_1","lagged_GC_2","lagged_GC_3","lagged_GC_4","lagged_GC_5","lagged_GS_1","lagged_GS_2","lagged_GS_3","lagged_GS_4","lagged_GS_5","days_rest","days_till_next","opponent_lagged_GC_1","opponent_lagged_GC_2","opponent_lagged_GC_3","opponent_lagged_GC_4","opponent_lagged_GC_5","opponent_lagged_GS_1","opponent_lagged_GS_2","opponent_lagged_GS_3","opponent_lagged_GS_4","opponent_lagged_GS_5","opponent_days_rest","opponent_days_till_next"],"feature_types":["int","float","float","float","float","float","float","float","float","float","float","float","float","float","float","float","float","float","float","float","float","float","float","float","float"],"gradient_booster":{"model":{"cats":{"enc":[],"feature_segments":[],"sorted_idx":[]},"gbtree_model_param":{"num_parallel_tree":"1","num_trees":"273"},"iteration_indptr":[0,1,2,3,4,5,6,7,8,9,10,11,12,13,14,15,16,17,18,19,20,21,22,23,24,25,26,27,28,29,30,31,32,33,34,35,36,37,38,39,40,41,42,43,44,45,46,47,48,49,50,51,52,53,54,55,56,57,58,59,60,61,62,63,64,65,66,67,68,69,70,71,72,73,74,75,76,77,78,79,80,81,82,83,84,85,86,87,88,89,90,91,92,93,94,95,96,97,98,99,100,101,102,103,104,105,106,107,108,109,110,111,112,113,114,115,116,117,118,119,120,121,122,123,124,125,126,127,128,129,130,131,132,133,134,135,136,137,138,139,140,141,142,143,144,145,146,147,148,149,150,151,152,153,154,155,156,157,158,159,160,161,162,163,164,165,166,167,168,169,170,171,172,173,174,175,176,177,178,179,180,181,182,183,184,185,186,187,188,189,190,191,192,193,194,195,196,197,198,199,200,201,202,203,204,205,206,207,208,209,210,211,212,213,214,215,216,217,218,219,220,221,222,223,224,225,226,227,228,229,230,231,232,233,234,235,236,237,238,239,240,241,242,243,244,245,246,247,248,249,250,251,252,253,254,255,256,257,258,259,260,261,262,263,264,265,266,267,268,269,270,271,272,273],"tree_info":[0,0,0,0,0,0,0,0,0,0,0,0,0,0,0,0,0,0,0,0,0,0,0,0,0,0,0,0,0,0,0,0,0,0,0,0,0,0,0,0,0,0,0,0,0,0,0,0,0,0,0,0,0,0,0,0,0,0,0,0,0,0,0,0,0,0,0,0,0,0,0,0,0,0,0,0,0,0,0,0,0,0,0,0,0,0,0,0,0,0,0,0,0,0,0,0,0,0,0,0,0,0,0,0,0,0,0,0,0,0,0,0,0,0,0,0,0,0,0,0,0,0,0,0,0,0,0,0,0,0,0,0,0,0,0,0,0,0,0,0,0,0,0,0,0,0,0,0,0,0,0,0,0,0,0,0,0,0,0,0,0,0,0,0,0,0,0,0,0,0,0,0,0,0,0,0,0,0,0,0,0,0,0,0,0,0,0,0,0,0,0,0,0,0,0,0,0,0,0,0,0,0,0,0,0,0,0,0,0,0,0,0,0,0,0,0,0,0,0,0,0,0,0,0,0,0,0,0,0,0,0,0,0,0,0,0,0,0,0,0,0,0,0,0,0,0,0,0,0,0,0,0,0,0,0,0,0,0,0,0,0,0,0,0,0,0,0,0,0,0,0,0,0],"trees":[{"base_weights":[-1.5547046E-8,5.6178495E-2,-5.6178525E-2,4.1953813E-2,2.6060325E-1,-1.04547046E-1,1.8353775E-3,2.9228473E-2,2.330921E-1,8.004247E-2,4.386383E-1,-1.4296749E-1,-4.2776898E-2,3.6952637E-2,-1.6721924E-1,5.00462E-4,-7.610873E-4,4.6071135E-3,1.1924327E-3,-3.5407778E-4,4.4168653E-3,1.6346622E-3,5.494901E-3,-1.567525E-3,1.2726791E-3,-5.081209E-4,6.9999998E-3,-4.260958E-7,1.9990138E-3,-3.0465056E-3,-8.649902E-4],"categories":[],"categories_nodes":[],"categories_segments":[],"categories_sizes":[],"default_left":[0,1,1,1,1,1,1,1,1,0,1,1,1,1,0,0,0,0,0,0,0,0,0,0,0,0,0,0,0,0,0],"id":0,"left_children":[1,3,5,7,9,11,13,15,17,19,21,23,25,27,29,-1,-1,-1,-1,-1,-1,-1,-1,-1,-1,-1,-1,-1,-1,-1,-1],"loss_changes":[1.994337E1,9.176711E0,8.8660965E0,7.1811438E0,6.5664377E0,4.0830593E0,8.540436E0,6.0822296E0,4.721653E0,4.3236094E0,3.0575142E0,3.975624E0,4.068552E0,7.1803455E0,2.7185621E0,0E0,0E0,0E0,0E0,0E0,0E0,0E0,0E0,0E0,0E0,0E0,0E0,0E0,0E0,0E0,0E0],"parents":[2147483647,0,0,1,1,2,2,3,3,4,4,5,5,6,6,7,7,8,8,9,9,10,10,11,11,12,12,13,13,14,14],"right_children":[2,4,6,8,10,12,14,16,18,20,22,24,26,28,30,-1,-1,-1,-1,-1,-1,-1,-1,-1,-1,-1,-1,-1,-1,-1,-1],"split_conditions":[1E0,4E0,2E0,4E0,6E0,2E0,3E0,3E0,1E0,3E0,1E0,4E0,5E0,3E0,1E0,5.00462E-4,-7.610873E-4,4.6071135E-3,1.1924327E-3,-3.5407778E-4,4.4168653E-3,1.6346622E-3,5.494901E-3,-1.567525E-3,1.2726791E-3,-5.081209E-4,6.9999998E-3,-4.260958E-7,1.9990138E-3,-3.0465056E-3,-8.649902E-4],"split_indices":[0,21,18,20,24,4,10,7,16,22,5,20,22,5,13,0,0,0,0,0,0,0,0,0,0,0,0,0,0,0,0],"split_type":[0,0,0,0,0,0,0,0,0,0,0,0,0,0,0,0,0,0,0,0,0,0,0,0,0,0,0,0,0,0,0],"sum_hessian":[6.317142E3,3.158571E3,3.158571E3,2.9542107E3,2.0436046E2,1.7220374E3,1.4365338E3,2.7708872E3,1.8332335E2,1.0218023E2,1.0218023E2,1.0608712E3,6.6116614E2,1.1900991E3,2.4643466E2,2.3140815E3,4.5680573E2,6.0106014E1,1.2321733E2,7.813782E1,2.4042406E1,3.0053007E1,7.212722E1,1.00978107E3,5.1090115E1,6.551556E2,6.0106015E0,9.7071216E2,2.1938696E2,9.015902E1,1.5627563E2],"tree_param":{"num_deleted":"0","num_feature":"25","num_nodes":"31","size_leaf_vector":"1"}},{"base_weights":[1.3254837E-6,5.5870615E-2,-5.5930573E-2,4.1728765E-2,2.5867113E-1,-1.04135446E-1,1.8252344E-3,2.9074699E-2,2.3141523E-1,7.960262E-2,4.3460783E-1,-1.4246175E-1,-4.2577643E-2,3.6756232E-2,-1.6667342E-1,4.977281E-4,-7.5789273E-4,4.563828E-3,1.1851529E-3,-3.5246517E-4,4.3771593E-3,1.6242279E-3,5.4383567E-3,-1.5621992E-3,1.2648965E-3,-5.058586E-4,6.9999998E-3,-4.2414533E-7,1.9851676E-3,-3.040714E-3,-8.6146407E-4],"categories":[],"categories_nodes":[],"categories_segments":[],"categories_sizes":[],"default_left":[0,1,1,1,1,1,1,1,1,0,1,1,1,1,0,0,0,0,0,0,0,0,0,0,0,0,0,0,0,0,0],"id":1,"left_children":[1,3,5,7,9,11,13,15,17,19,21,23,25,27,29,-1,-1,-1,-1,-1,-1,-1,-1,-1,-1,-1,-1,-1,-1,-1,-1],"loss_changes":[1.9746483E1,9.055823E0,8.791836E0,7.0896444E0,6.4517775E0,4.0548077E0,8.467372E0,6.0218763E0,4.6382914E0,4.2623672E0,2.9925156E0,3.9433708E0,4.014395E0,7.092718E0,2.706955E0,0E0,0E0,0E0,0E0,0E0,0E0,0E0,0E0,0E0,0E0,0E0,0E0,0E0,0E0,0E0,0E0],"parents":[2147483647,0,0,1,1,2,2,3,3,4,4,5,5,6,6,7,7,8,8,9,9,10,10,11,11,12,12,13,13,14,14],"right_children":[2,4,6,8,10,12,14,16,18,20,22,24,26,28,30,-1,-1,-1,-1,-1,-1,-1,-1,-1,-1,-1,-1,-1,-1,-1,-1],"split_conditions":[1E0,4E0,2E0,4E0,6E0,2E0,3E0,3E0,1E0,3E0,1E0,4E0,5E0,3E0,1E0,4.977281E-4,-7.5789273E-4,4.563828E-3,1.1851529E-3,-3.5246517E-4,4.3771593E-3,1.6242279E-3,5.4383567E-3,-1.5621992E-3,1.2648965E-3,-5.058586E-4,6.9999998E-3,-4.2414533E-7,1.9851676E-3,-3.040714E-3,-8.6146407E-4],"split_indices":[0,21,18,20,24,4,10,7,16,22,5,20,22,5,13,0,0,0,0,0,0,0,0,0,0,0,0,0,0,0,0],"split_type":[0,0,0,0,0,0,0,0,0,0,0,0,0,0,0,0,0,0,0,0,0,0,0,0,0,0,0,0,0,0,0],"sum_hessian":[6.317125E3,3.1603318E3,3.1567932E3,2.955446E3,2.0488582E2,1.7202302E3,1.4365631E3,2.7716982E3,1.8374792E2,1.02258995E2,1.0262682E2,1.0593546E3,6.6087555E2,1.1905378E3,2.460253E2,2.31524E3,4.564582E2,6.0383568E1,1.2336435E2,7.811016E1,2.4148832E1,3.0102177E1,7.252465E1,1.00819946E3,5.1155178E1,6.548227E2,6.0528235E0,9.7071185E2,2.1982597E2,8.988477E1,1.5614053E2],"tree_param":{"num_deleted":"0","num_feature":"25","num_nodes":"31","size_leaf_vector":"1"}},{"base_weights":[2.617616E-6,5.5564582E-2,-5.5683628E-2,4.1505013E-2,2.567581E-1,-7.132436E-2,1.2142984E-1,2.8921772E-2,2.2975416E-1,7.916543E-2,4.3063134E-1,-4.2482805E-2,-1.3351247E-1,2.8670624E-1,-1.1519105E-1,4.950105E-4,-7.5470936E-4,4.521139E-3,1.1779258E-3,-3.5085948E-4,4.337969E-3,1.6138762E-3,5.382693E-3,-9.039293E-4,2.443441E-4,-9.852151E-4,-2.0093773E-3,5.2980897E-3,1.5733809E-3,-4.3672365E-3,-1.597253E-4],"categories":[],"categories_nodes":[],"categories_segments":[],"categories_sizes":[],"default_left":[0,1,1,1,1,0,0,1,1,0,1,0,1,1,1,0,0,0,0,0,0,0,0,0,0,0,0,0,0,0,0],"id":2,"left_children":[1,3,5,7,9,11,13,15,17,19,21,23,25,27,29,-1,-1,-1,-1,-1,-1,-1,-1,-1,-1,-1,-1,-1,-1,-1,-1],"loss_changes":[1.9551556E1,8.93674E0,8.751434E0,6.9994493E0,6.3395214E0,5.196784E0,1.0062653E1,5.962132E0,4.5567007E0,4.202155E0,2.929203E0,6.359812E0,2.1472893E0,4.674367E0,3.3803897E0,0E0,0E0,0E0,0E0,0E0,0E0,0E0,0E0,0E0,0E0,0E0,0E0,0E0,0E0,0E0,0E0],"parents":[2147483647,0,0,1,1,2,2,3,3,4,4,5,5,6,6,7,7,8,8,9,9,10,10,11,11,12,12,13,13,14,14],"right_children":[2,4,6,8,10,12,14,16,18,20,22,24,26,28,30,-1,-1,-1,-1,-1,-1,-1,-1,-1,-1,-1,-1,-1,-1,-1,-1],"split_conditions":[1E0,4E0,4E0,4E0,6E0,3E0,2E0,3E0,1E0,3E0,1E0,2E0,2E0,1E0,1E0,4.950105E-4,-7.5470936E-4,4.521139E-3,1.1779258E-3,-3.5085948E-4,4.337969E-3,1.6138762E-3,5.382693E-3,-9.039293E-4,2.443441E-4,-9.852151E-4,-2.0093773E-3,5.2980897E-3,1.5733809E-3,-4.3672365E-3,-1.597253E-4],"split_indices":[0,21,18,20,24,10,6,7,16,22,5,18,8,16,3,0,0,0,0,0,0,0,0,0,0,0,0,0,0,0,0],"split_type":[0,0,0,0,0,0,0,0,0,0,0,0,0,0,0,0,0,0,0,0,0,0,0,0,0,0,0,0,0,0,0],"sum_hessian":[6.3171084E3,3.162084E3,3.1550247E3,2.9566753E3,2.0540863E2,2.899564E3,2.5546068E2,2.772505E3,1.8417043E2,1.02337395E2,1.03071236E2,1.9820249E3,9.1753906E2,1.502803E2,1.05180374E2,2.3163926E3,4.5611237E2,6.0659775E1,1.2351064E2,7.8082634E1,2.4254766E1,3.0151104E1,7.2920135E1,1.1548478E3,8.2717706E2,6.056781E2,3.1186096E2,5.112089E1,9.915942E1,2.4000734E1,8.117964E1],"tree_param":{"num_deleted":"0","num_feature":"25","num_nodes":"31","size_leaf_vector":"1"}},{"base_weights":[3.4044303E-6,5.5260375E-2,-5.5438504E-2,1.4492097E-2,1.23928815E-1,-7.102157E-2,1.2068339E-1,2.3050567E-3,2.4253528E-1,9.370807E-2,3.4652036E-1,-4.229006E-2,-1.3302863E-1,2.84498E-1,-1.1476832E-1,5.216102E-4,-5.0004676E-4,5.4220967E-3,1.0613578E-3,1.2376142E-3,-5.494519E-4,2.6172511E-3,6.324762E-3,-9.0025907E-4,2.4307288E-4,-9.812979E-4,-2.0034497E-3,5.2448898E-3,1.5632032E-3,-4.3647215E-3,-1.5896674E-4],"categories":[],"categories_nodes":[],"categories_segments":[],"categories_sizes":[],"default_left":[0,1,1,1,0,0,0,1,0,0,0,0,1,1,1,0,0,0,0,0,0,0,0,0,0,0,0,0,0,0,0],"id":3,"left_children":[1,3,5,7,9,11,13,15,17,19,21,23,25,27,29,-1,-1,-1,-1,-1,-1,-1,-1,-1,-1,-1,-1,-1,-1,-1,-1],"loss_changes":[1.9358887E1,8.858118E0,8.665528E0,5.521577E0,7.8975525E0,5.1582174E0,9.936413E0,4.924287E0,4.062322E0,4.6499386E0,3.242426E0,6.303709E0,2.135355E0,4.584775E0,3.366643E0,0E0,0E0,0E0,0E0,0E0,0E0,0E0,0E0,0E0,0E0,0E0,0E0,0E0,0E0,0E0,0E0],"parents":[2147483647,0,0,1,1,2,2,3,3,4,4,5,5,6,6,7,7,8,8,9,9,10,10,11,11,12,12,13,13,14,14],"right_children":[2,4,6,8,10,12,14,16,18,20,22,24,26,28,30,-1,-1,-1,-1,-1,-1,-1,-1,-1,-1,-1,-1,-1,-1,-1,-1],"split_conditions":[1E0,2E0,4E0,4E0,4E0,3E0,2E0,7E0,1E0,3E0,3E0,2E0,2E0,1E0,1E0,5.216102E-4,-5.0004676E-4,5.4220967E-3,1.0613578E-3,1.2376142E-3,-5.494519E-4,2.6172511E-3,6.324762E-3,-9.0025907E-4,2.4307288E-4,-9.812979E-4,-2.0034497E-3,5.2448898E-3,1.5632032E-3,-4.3647215E-3,-1.5896674E-4],"split_indices":[0,22,18,20,21,10,6,23,14,16,6,18,8,16,3,0,0,0,0,0,0,0,0,0,0,0,0,0,0,0,0],"split_type":[0,0,0,0,0,0,0,0,0,0,0,0,0,0,0,0,0,0,0,0,0,0,0,0,0,0,0,0,0,0,0],"sum_hessian":[6.317099E3,3.163828E3,3.153271E3,1.9859722E3,1.1778557E3,2.8975002E3,2.5577081E2,1.8861814E3,9.979084E1,1.038308E3,1.3954773E2,1.9811836E3,9.163166E2,1.50708E2,1.0506281E2,9.6574286E2,9.204385E2,3.028296E1,6.950787E1,8.6383344E2,1.7447452E2,1.0910871E2,3.0439018E1,1.1538044E3,8.273792E2,6.0508167E2,3.1123495E2,5.1392456E1,9.9315544E1,2.3896145E1,8.116667E1],"tree_param":{"num_deleted":"0","num_feature":"25","num_nodes":"31","size_leaf_vector":"1"}},{"base_weights":[4.1732096E-6,5.4958005E-2,-5.5194344E-2,1.4419545E-2,1.2316497E-1,-7.071986E-2,1.1994226E-1,2.293515E-3,2.407908E-1,9.315545E-2,3.4365633E-1,-4.209813E-2,-1.3254589E-1,2.8231272E-1,-1.1434677E-1,5.187519E-4,-4.9781543E-4,5.3677117E-3,1.0550551E-3,1.2299506E-3,-5.470381E-4,2.59761E-3,6.2558274E-3,-8.966007E-4,2.4180839E-4,-1.1150105E-3,-2.4410267E-3,5.1924894E-3,1.5531062E-3,-4.3621985E-3,-1.5821203E-4],"categories":[],"categories_nodes":[],"categories_segments":[],"categories_sizes":[],"default_left":[0,1,1,1,0,0,0,1,0,0,0,0,1,1,1,0,0,0,0,0,0,0,0,0,0,0,0,0,0,0,0],"id":4,"left_children":[1,3,5,7,9,11,13,15,17,19,21,23,25,27,29,-1,-1,-1,-1,-1,-1,-1,-1,-1,-1,-1,-1,-1,-1,-1,-1],"loss_changes":[1.9168137E1,8.753788E0,8.580473E0,5.45443E0,7.777899E0,5.119879E0,9.812002E0,4.875338E0,3.988762E0,4.5965166E0,3.1731052E0,6.2480783E0,2.1235065E0,4.4972696E0,3.35293E0,0E0,0E0,0E0,0E0,0E0,0E0,0E0,0E0,0E0,0E0,0E0,0E0,0E0,0E0,0E0,0E0],"parents":[2147483647,0,0,1,1,2,2,3,3,4,4,5,5,6,6,7,7,8,8,9,9,10,10,11,11,12,12,13,13,14,14],"right_children":[2,4,6,8,10,12,14,16,18,20,22,24,26,28,30,-1,-1,-1,-1,-1,-1,-1,-1,-1,-1,-1,-1,-1,-1,-1,-1],"split_conditions":[1E0,2E0,4E0,4E0,4E0,3E0,2E0,7E0,1E0,3E0,3E0,2E0,3E0,1E0,1E0,5.187519E-4,-4.9781543E-4,5.3677117E-3,1.0550551E-3,1.2299506E-3,-5.470381E-4,2.59761E-3,6.2558274E-3,-8.966007E-4,2.4180839E-4,-1.1150105E-3,-2.4410267E-3,5.1924894E-3,1.5531062E-3,-4.3621985E-3,-1.5821203E-4],"split_indices":[0,22,18,20,21,10,6,23,14,16,6,18,13,16,3,0,0,0,0,0,0,0,0,0,0,0,0,0,0,0,0],"split_type":[0,0,0,0,0,0,0,0,0,0,0,0,0,0,0,0,0,0,0,0,0,0,0,0,0,0,0,0,0,0,0],"sum_hessian":[6.317089E3,3.1655627E3,3.1515261E3,1.9862542E3,1.1793086E3,2.8954468E3,2.560795E2,1.8862249E3,1.0002929E2,1.0392819E3,1.400268E2,1.9803464E3,9.151002E2,1.5113364E2,1.0494585E2,9.662466E2,9.199783E2,3.0447603E1,6.958169E1,8.6490314E2,1.7437866E2,1.09394646E2,3.0632149E1,1.1527661E3,8.275804E2,7.715493E2,1.4355089E2,5.166271E1,9.9470924E1,2.3792072E1,8.115378E1],"tree_param":{"num_deleted":"0","num_feature":"25","num_nodes":"31","size_leaf_vector":"1"}},{"base_weights":[4.874481E-6,5.4657426E-2,-5.495121E-2,1.4347341E-2,1.22406736E-1,-1.02506794E-1,1.7868171E-3,2.2820141E-3,2.390627E-1,9.2606604E-2,3.4082532E-1,-1.4083865E-1,-4.1011274E-2,3.613352E-2,-1.649523E-1,5.159104E-4,-4.9559306E-4,5.314142E-3,1.0487958E-3,1.2223436E-3,-5.44634E-4,2.578166E-3,6.1880443E-3,-1.5460908E-3,1.2749617E-3,-4.901501E-4,6.9999998E-3,-3.5732573E-6,1.9608212E-3,-3.0282359E-3,-8.4318465E-4],"categories":[],"categories_nodes":[],"categories_segments":[],"categories_sizes":[],"default_left":[0,1,1,1,0,1,1,1,0,0,0,1,1,1,0,0,0,0,0,0,0,0,0,0,0,0,0,0,0,0,0],"id":5,"left_children":[1,3,5,7,9,11,13,15,17,19,21,23,25,27,29,-1,-1,-1,-1,-1,-1,-1,-1,-1,-1,-1,-1,-1,-1,-1,-1],"loss_changes":[1.8979296E1,8.650783E0,8.5016775E0,5.388187E0,7.6603603E0,4.034807E0,8.23943E0,4.8268776E0,3.9168181E0,4.5437584E0,3.10561E0,3.9199314E0,3.965836E0,6.962798E0,2.706417E0,0E0,0E0,0E0,0E0,0E0,0E0,0E0,0E0,0E0,0E0,0E0,0E0,0E0,0E0,0E0,0E0],"parents":[2147483647,0,0,1,1,2,2,3,3,4,4,5,5,6,6,7,7,8,8,9,9,10,10,11,11,12,12,13,13,14,14],"right_children":[2,4,6,8,10,12,14,16,18,20,22,24,26,28,30,-1,-1,-1,-1,-1,-1,-1,-1,-1,-1,-1,-1,-1,-1,-1,-1],"split_conditions":[1E0,2E0,2E0,4E0,4E0,2E0,3E0,7E0,1E0,3E0,3E0,4E0,5E0,3E0,1E0,5.159104E-4,-4.9559306E-4,5.314142E-3,1.0487958E-3,1.2223436E-3,-5.44634E-4,2.578166E-3,6.1880443E-3,-1.5460908E-3,1.2749617E-3,-4.901501E-4,6.9999998E-3,-3.5732573E-6,1.9608212E-3,-3.0282359E-3,-8.4318465E-4],"split_indices":[0,22,18,20,21,4,10,23,14,16,6,20,22,5,13,0,0,0,0,0,0,0,0,0,0,0,0,0,0,0,0],"split_type":[0,0,0,0,0,0,0,0,0,0,0,0,0,0,0,0,0,0,0,0,0,0,0,0,0,0,0,0,0,0,0],"sum_hessian":[6.31708E3,3.1672896E3,3.1497905E3,1.986535E3,1.1807544E3,1.7131167E3,1.4366738E3,1.8862684E3,1.0026662E2,1.0402509E3,1.4050356E2,1.0545168E3,6.585999E2,1.1919305E3,2.4474329E2,9.6674805E2,9.195204E2,3.0611479E1,6.9655136E1,8.659675E2,1.7428331E2,1.0967918E2,3.0824379E1,1.0034458E3,5.107106E1,6.52521E2,6.0789022E0,9.713284E2,2.2060214E2,8.92995E1,1.5544379E2],"tree_param":{"num_deleted":"0","num_feature":"25","num_nodes":"31","size_leaf_vector":"1"}},{"base_weights":[6.088536E-6,5.4358635E-2,-5.470807E-2,1.4275503E-2,1.21654056E-1,-7.016316E-2,1.19194716E-1,2.2705717E-3,2.3735082E-1,9.2061475E-2,3.3802682E-1,-4.174223E-2,-1.3165717E-1,2.8011212E-1,-1.1391713E-1,5.1308586E-4,-4.9337937E-4,5.261373E-3,1.0425799E-3,1.2147927E-3,-5.4223917E-4,2.5589163E-3,6.1213863E-3,-8.891673E-4,2.3833252E-4,-9.6769724E-4,-1.990244E-3,5.137946E-3,1.5435986E-3,-4.3591657E-3,-1.5850384E-4],"categories":[],"categories_nodes":[],"categories_segments":[],"categories_sizes":[],"default_left":[0,1,1,1,0,0,0,1,0,0,0,0,1,1,1,0,0,0,0,0,0,0,0,0,0,0,0,0,0,0,0],"id":6,"left_children":[1,3,5,7,9,11,13,15,17,19,21,23,25,27,29,-1,-1,-1,-1,-1,-1,-1,-1,-1,-1,-1,-1,-1,-1,-1,-1],"loss_changes":[1.8791975E1,8.549077E0,8.47203E0,5.322836E0,7.544901E0,5.050066E0,9.687117E0,4.7789006E0,3.846448E0,4.4916515E0,3.0398827E0,6.126601E0,2.128581E0,4.4039736E0,3.3348327E0,0E0,0E0,0E0,0E0,0E0,0E0,0E0,0E0,0E0,0E0,0E0,0E0,0E0,0E0,0E0,0E0],"parents":[2147483647,0,0,1,1,2,2,3,3,4,4,5,5,6,6,7,7,8,8,9,9,10,10,11,11,12,12,13,13,14,14],"right_children":[2,4,6,8,10,12,14,16,18,20,22,24,26,28,30,-1,-1,-1,-1,-1,-1,-1,-1,-1,-1,-1,-1,-1,-1,-1,-1],"split_conditions":[1E0,2E0,4E0,4E0,4E0,3E0,2E0,7E0,1E0,3E0,3E0,2E0,2E0,1E0,1E0,5.1308586E-4,-4.9337937E-4,5.261373E-3,1.0425799E-3,1.2147927E-3,-5.4223917E-4,2.5589163E-3,6.1213863E-3,-8.891673E-4,2.3833252E-4,-9.6769724E-4,-1.990244E-3,5.137946E-3,1.5435986E-3,-4.3591657E-3,-1.5850384E-4],"split_indices":[0,22,18,20,21,10,6,23,14,16,6,18,8,16,3,0,0,0,0,0,0,0,0,0,0,0,0,0,0,0,0],"split_type":[0,0,0,0,0,0,0,0,0,0,0,0,0,0,0,0,0,0,0,0,0,0,0,0,0,0,0,0,0,0,0],"sum_hessian":[6.317065E3,3.1690078E3,3.148057E3,1.9868146E3,1.1821932E3,2.8916655E3,2.5639157E2,1.8863118E3,1.00502815E2,1.0412152E3,1.4097803E2,1.9787961E3,9.128692E2,1.5156467E2,1.04826904E2,9.672469E2,9.190648E2,3.0774584E1,6.972823E1,8.6702673E2,1.7418842E2,1.0996232E2,3.1015713E1,1.1506625E3,8.281337E2,6.0301996E2,3.0984927E2,5.1947E1,9.961767E1,2.3668135E1,8.115877E1],"tree_param":{"num_deleted":"0","num_feature":"25","num_nodes":"31","size_leaf_vector":"1"}},{"base_weights":[6.8037E-6,5.4061633E-2,-5.4466743E-2,1.4204033E-2,1.2090688E-1,-6.9864504E-2,1.1846432E-1,2.2591895E-3,2.3565498E-1,9.1520056E-2,3.352603E-1,-1.0144578E-1,-1.4867043E-2,2.779723E-1,-1.134979E-1,5.1027845E-4,-4.9117475E-4,5.209385E-3,1.0364075E-3,1.2072977E-3,-5.398534E-4,2.5398585E-3,6.0558245E-3,-8.339193E-4,-1.8568225E-3,-5.8648287E-4,1.4355042E-3,5.0871396E-3,1.5336579E-3,-4.3566227E-3,-1.5775111E-4],"categories":[],"categories_nodes":[],"categories_segments":[],"categories_sizes":[],"default_left":[0,1,1,1,0,1,0,1,0,0,0,0,0,1,1,0,0,0,0,0,0,0,0,0,0,0,0,0,0,0,0],"id":7,"left_children":[1,3,5,7,9,11,13,15,17,19,21,23,25,27,29,-1,-1,-1,-1,-1,-1,-1,-1,-1,-1,-1,-1,-1,-1,-1,-1],"loss_changes":[1.8606827E1,8.448663E0,8.388853E0,5.2583647E0,7.431465E0,5.0192165E0,9.566301E0,4.731407E0,3.7776089E0,4.4401884E0,2.9758625E0,2.7767696E0,7.329684E0,4.3206253E0,3.3212085E0,0E0,0E0,0E0,0E0,0E0,0E0,0E0,0E0,0E0,0E0,0E0,0E0,0E0,0E0,0E0,0E0],"parents":[2147483647,0,0,1,1,2,2,3,3,4,4,5,5,6,6,7,7,8,8,9,9,10,10,11,11,12,12,13,13,14,14],"right_children":[2,4,6,8,10,12,14,16,18,20,22,24,26,28,30,-1,-1,-1,-1,-1,-1,-1,-1,-1,-1,-1,-1,-1,-1,-1,-1],"split_conditions":[1E0,2E0,4E0,4E0,4E0,2E0,2E0,7E0,1E0,3E0,3E0,4E0,3E0,1E0,1E0,5.1027845E-4,-4.9117475E-4,5.209385E-3,1.0364075E-3,1.2072977E-3,-5.398534E-4,2.5398585E-3,6.0558245E-3,-8.339193E-4,-1.8568225E-3,-5.8648287E-4,1.4355042E-3,5.0871396E-3,1.5336579E-3,-4.3566227E-3,-1.5775111E-4],"split_indices":[0,22,18,20,21,5,6,23,14,16,6,7,3,16,3,0,0,0,0,0,0,0,0,0,0,0,0,0,0,0,0],"split_type":[0,0,0,0,0,0,0,0,0,0,0,0,0,0,0,0,0,0,0,0,0,0,0,0,0,0,0,0,0,0,0],"sum_hessian":[6.317055E3,3.1707175E3,3.146338E3,1.9870927E3,1.1836248E3,2.8896406E3,2.5669724E2,1.8863549E3,1.0073789E2,1.0421746E3,1.4145021E2,1.8350515E3,1.0545891E3,1.5198615E2,1.0471108E2,9.6774335E2,9.186115E2,3.093693E1,6.9800964E1,8.680806E2,1.7409398E2,1.10244064E2,3.1206154E1,1.5128107E3,3.2224088E2,8.2673676E2,2.2785237E2,5.221459E1,9.977156E1,2.3565187E1,8.11459E1],"tree_param":{"num_deleted":"0","num_feature":"25","num_nodes":"31","size_leaf_vector":"1"}},{"base_weights":[7.64234E-6,5.3766407E-2,-5.4226108E-2,1.4132929E-2,1.20165184E-1,-1.01415284E-1,1.9359443E-3,2.2478707E-3,2.3397493E-1,9.098232E-2,3.3252522E-1,-1.3967162E-1,-4.012322E-2,3.5935454E-2,-1.6376895E-1,5.074877E-4,-4.889785E-4,5.158163E-3,1.0302777E-3,1.199858E-3,-5.374774E-4,2.5209896E-3,5.9913355E-3,-1.5343846E-3,1.2779288E-3,-4.8111795E-4,6.9812792E-3,-2.8151583E-6,1.9423593E-3,-3.0186165E-3,-8.318837E-4],"categories":[],"categories_nodes":[],"categories_segments":[],"categories_sizes":[],"default_left":[0,1,1,1,0,1,1,1,0,0,0,1,1,1,0,0,0,0,0,0,0,0,0,0,0,0,0,0,0,0,0],"id":8,"left_children":[1,3,5,7,9,11,13,15,17,19,21,23,25,27,29,-1,-1,-1,-1,-1,-1,-1,-1,-1,-1,-1,-1,-1,-1,-1,-1],"loss_changes":[1.8423426E1,8.349517E0,8.336865E0,5.1947556E0,7.3200207E0,4.002569E0,8.103151E0,4.6843853E0,3.7102637E0,4.389365E0,2.913496E0,3.893467E0,3.9160588E0,6.8418655E0,2.699697E0,0E0,0E0,0E0,0E0,0E0,0E0,0E0,0E0,0E0,0E0,0E0,0E0,0E0,0E0,0E0,0E0],"parents":[2147483647,0,0,1,1,2,2,3,3,4,4,5,5,6,6,7,7,8,8,9,9,10,10,11,11,12,12,13,13,14,14],"right_children":[2,4,6,8,10,12,14,16,18,20,22,24,26,28,30,-1,-1,-1,-1,-1,-1,-1,-1,-1,-1,-1,-1,-1,-1,-1,-1],"split_conditions":[1E0,2E0,2E0,4E0,4E0,2E0,3E0,7E0,1E0,3E0,3E0,4E0,5E0,3E0,1E0,5.074877E-4,-4.889785E-4,5.158163E-3,1.0302777E-3,1.199858E-3,-5.374774E-4,2.5209896E-3,5.9913355E-3,-1.5343846E-3,1.2779288E-3,-4.8111795E-4,6.9812792E-3,-2.8151583E-6,1.9423593E-3,-3.0186165E-3,-8.318837E-4],"split_indices":[0,22,18,20,21,4,10,23,14,16,6,20,22,5,13,0,0,0,0,0,0,0,0,0,0,0,0,0,0,0,0],"split_type":[0,0,0,0,0,0,0,0,0,0,0,0,0,0,0,0,0,0,0,0,0,0,0,0,0,0,0,0,0,0,0],"sum_hessian":[6.317045E3,3.172419E3,3.144626E3,1.9873695E3,1.1850494E3,1.7083821E3,1.4362438E3,1.8863977E3,1.00971855E2,1.0431293E3,1.4192014E2,1.0510656E3,6.5731665E2,1.1923743E3,2.438695E2,9.6823724E2,9.1816046E2,3.109851E1,6.9873344E1,8.691293E2,1.7400003E2,1.1052442E2,3.1395706E1,1.00001917E3,5.1046318E1,6.5120483E2,6.11182E0,9.7117993E2,2.2119435E2,8.885341E1,1.550161E2],"tree_param":{"num_deleted":"0","num_feature":"25","num_nodes":"31","size_leaf_vector":"1"}},{"base_weights":[8.792653E-6,5.3472932E-2,-5.398582E-2,1.4062173E-2,1.194289E-1,-6.931324E-2,1.17726356E-1,2.2365963E-3,2.3231052E-1,9.044823E-2,3.2982117E-1,-7.094744E-2,6.9999998E-3,2.7581587E-1,-1.1307144E-1,5.0471385E-4,-4.867916E-4,5.107691E-3,1.0241901E-3,1.1924729E-3,-5.3511E-4,2.5023082E-3,5.9278924E-3,-4.3480832E-4,-1.3040656E-3,5.0341976E-3,1.5242941E-3,-4.35357E-3,-1.5804007E-4],"categories":[],"categories_nodes":[],"categories_segments":[],"categories_sizes":[],"default_left":[0,1,1,1,0,1,0,1,0,0,0,0,0,1,1,0,0,0,0,0,0,0,0,0,0,0,0,0,0],"id":9,"left_children":[1,3,5,7,9,11,13,15,17,19,21,23,-1,25,27,-1,-1,-1,-1,-1,-1,-1,-1,-1,-1,-1,-1,-1,-1],"loss_changes":[1.8241623E1,8.251626E0,8.282658E0,5.1319995E0,7.2105236E0,4.986067E0,9.445006E0,4.6378417E0,3.6443715E0,4.3391657E0,2.8527317E0,4.7041407E0,0E0,4.2316074E0,3.303254E0,0E0,0E0,0E0,0E0,0E0,0E0,0E0,0E0,0E0,0E0,0E0,0E0,0E0,0E0],"parents":[2147483647,0,0,1,1,2,2,3,3,4,4,5,5,6,6,7,7,8,8,9,9,10,10,11,11,13,13,14,14],"right_children":[2,4,6,8,10,12,14,16,18,20,22,24,-1,26,28,-1,-1,-1,-1,-1,-1,-1,-1,-1,-1,-1,-1,-1,-1],"split_conditions":[1E0,2E0,4E0,4E0,4E0,7E0,2E0,7E0,1E0,3E0,3E0,3E0,6.9999998E-3,1E0,1E0,5.0471385E-4,-4.867916E-4,5.107691E-3,1.0241901E-3,1.1924729E-3,-5.3511E-4,2.5023082E-3,5.9278924E-3,-4.3480832E-4,-1.3040656E-3,5.0341976E-3,1.5242941E-3,-4.35357E-3,-1.5804007E-4],"split_indices":[0,22,18,20,21,22,6,23,14,16,6,10,0,16,3,0,0,0,0,0,0,0,0,0,0,0,0,0,0],"split_type":[0,0,0,0,0,0,0,0,0,0,0,0,0,0,0,0,0,0,0,0,0,0,0,0,0,0,0,0,0],"sum_hessian":[6.3170303E3,3.174112E3,3.1429182E3,1.987645E3,1.186467E3,2.8859114E3,2.570068E2,1.8864403E3,1.0120471E2,1.0440792E3,1.4238777E2,2.882899E3,3.0125098E0,1.5241325E2,1.04593544E2,9.6872876E2,9.177116E2,3.1259335E1,6.994537E1,8.701727E2,1.7390652E2,1.10803406E2,3.1584373E1,1.9731509E3,9.0974805E2,5.2496315E1,9.991695E1,2.3442701E1,8.115084E1],"tree_param":{"num_deleted":"0","num_feature":"25","num_nodes":"29","size_leaf_vector":"1"}},{"base_weights":[1.1519214E-5,5.3181212E-2,-5.374362E-2,1.3991789E-2,1.1869798E-1,-1.0072853E-1,2.096142E-3,2.2253934E-3,2.306615E-1,8.991774E-2,3.271475E-1,-1.3889202E-1,-3.965642E-2,3.5849348E-2,-1.6287673E-1,5.019564E-4,-4.8461295E-4,5.0579524E-3,1.0181447E-3,1.185142E-3,-5.327522E-4,2.48381E-3,5.8654705E-3,-1.5263938E-3,1.2740174E-3,-4.7621198E-4,6.914222E-3,-1.6614146E-6,1.9293587E-3,-3.0105182E-3,-8.2438294E-4],"categories":[],"categories_nodes":[],"categories_segments":[],"categories_sizes":[],"default_left":[0,1,1,1,0,1,1,1,0,0,0,1,1,1,0,0,0,0,0,0,0,0,0,0,0,0,0,0,0,0,0],"id":10,"left_children":[1,3,5,7,9,11,13,15,17,19,21,23,25,27,29,-1,-1,-1,-1,-1,-1,-1,-1,-1,-1,-1,-1,-1,-1,-1,-1],"loss_changes":[1.80606E1,8.154968E0,8.244166E0,5.0700803E0,7.10293E0,3.9716797E0,8.006363E0,4.5917587E0,3.5798912E0,4.289587E0,2.793522E0,3.8624935E0,3.862309E0,6.7526956E0,2.6895294E0,0E0,0E0,0E0,0E0,0E0,0E0,0E0,0E0,0E0,0E0,0E0,0E0,0E0,0E0,0E0,0E0],"parents":[2147483647,0,0,1,1,2,2,3,3,4,4,5,5,6,6,7,7,8,8,9,9,10,10,11,11,12,12,13,13,14,14],"right_children":[2,4,6,8,10,12,14,16,18,20,22,24,26,28,30,-1,-1,-1,-1,-1,-1,-1,-1,-1,-1,-1,-1,-1,-1,-1,-1],"split_conditions":[1E0,2E0,2E0,4E0,4E0,2E0,3E0,7E0,1E0,3E0,3E0,4E0,5E0,3E0,1E0,5.019564E-4,-4.8461295E-4,5.0579524E-3,1.0181447E-3,1.185142E-3,-5.327522E-4,2.48381E-3,5.8654705E-3,-1.5263938E-3,1.2740174E-3,-4.7621198E-4,6.914222E-3,-1.6614146E-6,1.9293587E-3,-3.0105182E-3,-8.2438294E-4],"split_indices":[0,22,18,20,21,4,10,23,14,16,6,20,22,5,13,0,0,0,0,0,0,0,0,0,0,0,0,0,0,0,0],"split_type":[0,0,0,0,0,0,0,0,0,0,0,0,0,0,0,0,0,0,0,0,0,0,0,0,0,0,0,0,0,0,0],"sum_hessian":[6.3169956E3,3.1757969E3,3.1411987E3,1.9879193E3,1.1878777E3,1.7054166E3,1.4357821E3,1.8864828E3,1.01436455E2,1.0450245E3,1.4285318E2,1.0487725E3,6.566441E2,1.1925673E3,2.4321483E2,9.6921783E2,9.17265E2,3.141941E1,7.0017044E1,8.71211E2,1.7381349E2,1.11081024E2,3.1772158E1,9.9769354E2,5.107894E1,6.504921E2,6.1519623E0,9.70954E2,2.216133E2,8.848128E1,1.5473355E2],"tree_param":{"num_deleted":"0","num_feature":"25","num_nodes":"31","size_leaf_vector":"1"}},{"base_weights":[1.2630147E-5,5.2891217E-2,-5.3505212E-2,1.3921747E-2,1.1797236E-1,-6.876215E-2,1.16992615E-1,2.214232E-3,2.2902772E-1,8.939084E-2,3.2450396E-1,-7.039474E-2,6.9999998E-3,2.7368063E-1,-1.1264697E-1,7.2188023E-4,-3.2256503E-4,5.0089327E-3,1.0121409E-3,5.525434E-4,2.0932509E-3,2.4654942E-3,5.8040475E-3,-4.3123803E-4,-1.2952569E-3,4.9820496E-3,1.5149922E-3,-4.3505076E-3,-1.583276E-4],"categories":[],"categories_nodes":[],"categories_segments":[],"categories_sizes":[],"default_left":[0,1,1,1,0,1,0,0,0,0,0,0,0,1,1,0,0,0,0,0,0,0,0,0,0,0,0,0,0],"id":11,"left_children":[1,3,5,7,9,11,13,15,17,19,21,23,-1,25,27,-1,-1,-1,-1,-1,-1,-1,-1,-1,-1,-1,-1,-1,-1],"loss_changes":[1.7882387E1,8.059532E0,8.177368E0,5.0089874E0,6.9972057E0,4.9544315E0,9.325472E0,4.5551305E0,3.5167909E0,4.274851E0,2.7358131E0,4.638835E0,0E0,4.1447287E0,3.285387E0,0E0,0E0,0E0,0E0,0E0,0E0,0E0,0E0,0E0,0E0,0E0,0E0,0E0,0E0],"parents":[2147483647,0,0,1,1,2,2,3,3,4,4,5,5,6,6,7,7,8,8,9,9,10,10,11,11,13,13,14,14],"right_children":[2,4,6,8,10,12,14,16,18,20,22,24,-1,26,28,-1,-1,-1,-1,-1,-1,-1,-1,-1,-1,-1,-1,-1,-1],"split_conditions":[1E0,2E0,4E0,4E0,4E0,7E0,2E0,6E0,1E0,3E0,3E0,3E0,6.9999998E-3,1E0,1E0,7.2188023E-4,-3.2256503E-4,5.0089327E-3,1.0121409E-3,5.525434E-4,2.0932509E-3,2.4654942E-3,5.8040475E-3,-4.3123803E-4,-1.2952569E-3,4.9820496E-3,1.5149922E-3,-4.3505076E-3,-1.583276E-4],"split_indices":[0,22,18,20,21,22,6,23,14,5,6,10,0,16,3,0,0,0,0,0,0,0,0,0,0,0,0,0,0],"split_type":[0,0,0,0,0,0,0,0,0,0,0,0,0,0,0,0,0,0,0,0,0,0,0,0,0,0,0,0,0],"sum_hessian":[6.3169814E3,3.1774736E3,3.139508E3,1.9881921E3,1.1892814E3,2.8821926E3,2.5731534E2,1.886525E3,1.016671E2,1.0459651E3,1.4331633E2,2.879159E3,3.0336661E0,1.5283853E2,1.0447679E2,6.2226514E2,1.2642599E3,3.157873E1,7.008837E1,8.153541E2,2.3061096E2,1.1135727E2,3.1959064E1,1.9715966E3,9.075625E2,5.277675E1,1.0006179E2,2.3321045E1,8.115575E1],"tree_param":{"num_deleted":"0","num_feature":"25","num_nodes":"29","size_leaf_vector":"1"}},{"base_weights":[1.5484191E-5,5.2603364E-2,-5.3264912E-2,1.3852156E-2,1.1725306E-1,-1.00045495E-1,2.2536812E-3,2.2032242E-3,2.2740898E-1,8.886863E-2,3.2188988E-1,-1.3811561E-1,-3.9193492E-2,3.5762295E-2,-1.6198762E-1,4.9731677E-4,-4.809984E-4,4.960617E-3,1.0061784E-3,1.1722352E-3,-5.3377706E-4,3.8415843E-3,2.2593988E-4,-1.5184325E-3,1.2701023E-3,-4.7134407E-4,6.8481276E-3,-5.273583E-7,1.9164614E-3,-3.0024173E-3,-8.169301E-4],"categories":[],"categories_nodes":[],"categories_segments":[],"categories_sizes":[],"default_left":[0,1,1,1,0,1,1,1,0,0,0,1,1,1,0,0,0,0,0,0,0,0,0,0,0,0,0,0,0,0,0],"id":12,"left_children":[1,3,5,7,9,11,13,15,17,19,21,23,25,27,29,-1,-1,-1,-1,-1,-1,-1,-1,-1,-1,-1,-1,-1,-1,-1,-1],"loss_changes":[1.7705069E1,7.965433E0,8.152308E0,4.9487042E0,6.893242E0,3.940937E0,7.910624E0,4.5152373E0,3.4550352E0,4.232833E0,2.6894941E0,3.831707E0,3.8094277E0,6.664768E0,2.6793118E0,0E0,0E0,0E0,0E0,0E0,0E0,0E0,0E0,0E0,0E0,0E0,0E0,0E0,0E0,0E0,0E0],"parents":[2147483647,0,0,1,1,2,2,3,3,4,4,5,5,6,6,7,7,8,8,9,9,10,10,11,11,12,12,13,13,14,14],"right_children":[2,4,6,8,10,12,14,16,18,20,22,24,26,28,30,-1,-1,-1,-1,-1,-1,-1,-1,-1,-1,-1,-1,-1,-1,-1,-1],"split_conditions":[1E0,2E0,2E0,4E0,4E0,2E0,3E0,7E0,1E0,3E0,3E0,4E0,5E0,3E0,1E0,4.9731677E-4,-4.809984E-4,4.960617E-3,1.0061784E-3,1.1722352E-3,-5.3377706E-4,3.8415843E-3,2.2593988E-4,-1.5184325E-3,1.2701023E-3,-4.7134407E-4,6.8481276E-3,-5.273583E-7,1.9164614E-3,-3.0024173E-3,-8.169301E-4],"split_indices":[0,22,18,20,21,4,10,23,14,16,16,20,22,5,13,0,0,0,0,0,0,0,0,0,0,0,0,0,0,0,0],"split_type":[0,0,0,0,0,0,0,0,0,0,0,0,0,0,0,0,0,0,0,0,0,0,0,0,0,0,0,0,0,0,0],"sum_hessian":[6.3169453E3,3.1791394E3,3.1378057E3,1.9884633E3,1.1906761E3,1.7024773E3,1.4353284E3,1.8865667E3,1.0189665E2,1.0468989E3,1.4377725E2,1.0464988E3,6.559785E2,1.1927625E3,2.4256589E2,9.700417E2,9.165249E2,3.17373E1,7.015935E1,8.7304504E2,1.7385391E2,1.1878125E2,2.4996002E1,9.9538715E2,5.1111637E1,6.4978656E2,6.191975E0,9.70732E2,2.2203047E2,8.811209E1,1.544538E2],"tree_param":{"num_deleted":"0","num_feature":"25","num_nodes":"31","size_leaf_vector":"1"}},{"base_weights":[1.6238157E-5,5.2316103E-2,-5.3028367E-2,1.3782836E-2,1.165358E-1,-9.964727E-2,2.2414871E-3,2.19219E-3,2.2580509E-1,8.834882E-2,3.1928164E-1,-1.3762031E-1,-3.900986E-2,3.5572663E-2,-1.6145061E-1,7.1496126E-4,-3.2008401E-4,4.9129906E-3,1.0002567E-3,5.447683E-4,2.0715778E-3,2.4243402E-3,5.707522E-3,-1.5131988E-3,1.2623386E-3,-4.6922834E-4,6.778645E-3,-5.246658E-7,1.9033435E-3,-2.9965802E-3,-8.1356097E-4],"categories":[],"categories_nodes":[],"categories_segments":[],"categories_sizes":[],"default_left":[0,1,1,1,0,1,1,0,0,0,0,1,1,1,0,0,0,0,0,0,0,0,0,0,0,0,0,0,0,0,0],"id":13,"left_children":[1,3,5,7,9,11,13,15,17,19,21,23,25,27,29,-1,-1,-1,-1,-1,-1,-1,-1,-1,-1,-1,-1,-1,-1,-1,-1],"loss_changes":[1.7530153E1,7.8720675E0,8.083421E0,4.889225E0,6.7899456E0,3.913103E0,7.842615E0,4.4763646E0,3.3945832E0,4.2095175E0,2.6683817E0,3.8002644E0,3.7570937E0,6.584051E0,2.667491E0,0E0,0E0,0E0,0E0,0E0,0E0,0E0,0E0,0E0,0E0,0E0,0E0,0E0,0E0,0E0,0E0],"parents":[2147483647,0,0,1,1,2,2,3,3,4,4,5,5,6,6,7,7,8,8,9,9,10,10,11,11,12,12,13,13,14,14],"right_children":[2,4,6,8,10,12,14,16,18,20,22,24,26,28,30,-1,-1,-1,-1,-1,-1,-1,-1,-1,-1,-1,-1,-1,-1,-1,-1],"split_conditions":[1E0,2E0,2E0,4E0,4E0,2E0,3E0,6E0,1E0,3E0,3E0,4E0,5E0,3E0,1E0,7.1496126E-4,-3.2008401E-4,4.9129906E-3,1.0002567E-3,5.447683E-4,2.0715778E-3,2.4243402E-3,5.707522E-3,-1.5131988E-3,1.2623386E-3,-4.6922834E-4,6.778645E-3,-5.246658E-7,1.9033435E-3,-2.9965802E-3,-8.1356097E-4],"split_indices":[0,22,18,20,21,4,10,23,14,5,6,20,22,5,13,0,0,0,0,0,0,0,0,0,0,0,0,0,0,0,0],"split_type":[0,0,0,0,0,0,0,0,0,0,0,0,0,0,0,0,0,0,0,0,0,0,0,0,0,0,0,0,0,0,0],"sum_hessian":[6.3169355E3,3.180804E3,3.1361318E3,1.9887335E3,1.1920703E3,1.7007683E3,1.4353635E3,1.8866084E3,1.0212511E2,1.0478302E3,1.4424008E2,1.0450535E3,6.5571484E2,1.1931879E3,2.4217561E2,6.2302423E2,1.2635842E3,3.1895132E1,7.022997E1,8.16506E2,2.3132425E2,1.1198295E2,3.2257133E1,9.938769E2,5.1176598E1,6.4948035E2,6.234524E0,9.707315E2,2.2245639E2,8.784794E1,1.5432767E2],"tree_param":{"num_deleted":"0","num_feature":"25","num_nodes":"31","size_leaf_vector":"1"}},{"base_weights":[1.747825E-5,5.203166E-2,-5.2792765E-2,1.3713942E-2,1.1582689E-1,-6.796601E-2,1.162482E-1,2.1812883E-3,2.2421587E-1,8.783361E-2,3.1672564E-1,-6.959764E-2,6.9999998E-3,2.7152586E-1,-1.12217754E-1,4.9272453E-4,-4.7740815E-4,4.599274E-3,8.496401E-4,1.1595001E-3,-5.347557E-4,3.7800819E-3,2.1061304E-4,-4.2611937E-4,-1.2824761E-3,4.9278466E-3,1.5062223E-3,-4.3469365E-3,-1.5964652E-4],"categories":[],"categories_nodes":[],"categories_segments":[],"categories_sizes":[],"default_left":[0,1,1,1,0,1,0,1,0,0,0,0,0,1,1,0,0,0,0,0,0,0,0,0,0,0,0,0,0],"id":14,"left_children":[1,3,5,7,9,11,13,15,17,19,21,23,-1,25,27,-1,-1,-1,-1,-1,-1,-1,-1,-1,-1,-1,-1,-1,-1],"loss_changes":[1.7357325E1,7.780325E0,8.050058E0,4.8305306E0,6.6895523E0,4.920327E0,9.205508E0,4.440009E0,3.3532877E0,4.176985E0,2.6319227E0,4.544486E0,0E0,4.0526533E0,3.2633305E0,0E0,0E0,0E0,0E0,0E0,0E0,0E0,0E0,0E0,0E0,0E0,0E0,0E0,0E0],"parents":[2147483647,0,0,1,1,2,2,3,3,4,4,5,5,6,6,7,7,8,8,9,9,10,10,11,11,13,13,14,14],"right_children":[2,4,6,8,10,12,14,16,18,20,22,24,-1,26,28,-1,-1,-1,-1,-1,-1,-1,-1,-1,-1,-1,-1,-1,-1],"split_conditions":[1E0,2E0,4E0,4E0,4E0,7E0,2E0,7E0,1E0,3E0,3E0,3E0,6.9999998E-3,1E0,1E0,4.9272453E-4,-4.7740815E-4,4.599274E-3,8.496401E-4,1.1595001E-3,-5.347557E-4,3.7800819E-3,2.1061304E-4,-4.2611937E-4,-1.2824761E-3,4.9278466E-3,1.5062223E-3,-4.3469365E-3,-1.5964652E-4],"split_indices":[0,22,18,20,21,22,6,23,15,16,16,10,0,16,3,0,0,0,0,0,0,0,0,0,0,0,0,0,0],"split_type":[0,0,0,0,0,0,0,0,0,0,0,0,0,0,0,0,0,0,0,0,0,0,0,0,0,0,0,0,0],"sum_hessian":[6.31692E3,3.1824534E3,3.1344663E3,1.9890021E3,1.1934513E3,2.8768372E3,2.5762912E2,1.8866495E3,1.0235248E2,1.0487548E3,1.4469653E2,2.8737822E3,3.054973E0,1.532701E2,1.0435901E2,9.708586E2,9.15791E2,3.715588E1,6.5196594E1,8.748623E2,1.7389253E2,1.19623566E2,2.5072971E1,1.9693723E3,9.044099E2,5.3071365E1,1.0019874E2,2.3180717E1,8.117829E1],"tree_param":{"num_deleted":"0","num_feature":"25","num_nodes":"29","size_leaf_vector":"1"}},{"base_weights":[1.9725552E-5,5.174773E-2,-5.2555274E-2,1.3645208E-2,1.15119986E-1,-9.896983E-2,2.3954103E-3,2.1703567E-3,2.2263826E-1,8.732076E-2,3.141752E-1,-1.3684876E-1,-3.8552452E-2,3.5484903E-2,-1.605662E-1,7.081156E-4,-3.1762038E-4,4.8472243E-3,9.807538E-4,5.3710275E-4,2.0502007E-3,2.3840799E-3,5.6133964E-3,-1.5052818E-3,1.2584587E-3,-4.6441503E-4,6.7144977E-3,5.821717E-7,1.8906547E-3,-2.9884707E-3,-8.0617814E-4],"categories":[],"categories_nodes":[],"categories_segments":[],"categories_sizes":[],"default_left":[0,1,1,1,0,1,1,0,0,0,0,1,1,1,0,0,0,0,0,0,0,0,0,0,0,0,0,0,0,0,0],"id":15,"left_children":[1,3,5,7,9,11,13,15,17,19,21,23,25,27,29,-1,-1,-1,-1,-1,-1,-1,-1,-1,-1,-1,-1,-1,-1,-1,-1],"loss_changes":[1.7184855E1,7.689312E0,7.993004E0,4.7725124E0,6.589797E0,3.8826618E0,7.748636E0,4.398984E0,3.3339028E0,4.1453934E0,2.6032085E0,3.7698898E0,3.70593E0,6.498459E0,2.6572194E0,0E0,0E0,0E0,0E0,0E0,0E0,0E0,0E0,0E0,0E0,0E0,0E0,0E0,0E0,0E0,0E0],"parents":[2147483647,0,0,1,1,2,2,3,3,4,4,5,5,6,6,7,7,8,8,9,9,10,10,11,11,12,12,13,13,14,14],"right_children":[2,4,6,8,10,12,14,16,18,20,22,24,26,28,30,-1,-1,-1,-1,-1,-1,-1,-1,-1,-1,-1,-1,-1,-1,-1,-1],"split_conditions":[1E0,2E0,2E0,4E0,4E0,2E0,3E0,6E0,1E0,3E0,3E0,4E0,5E0,3E0,1E0,7.081156E-4,-3.1762038E-4,4.8472243E-3,9.807538E-4,5.3710275E-4,2.0502007E-3,2.3840799E-3,5.6133964E-3,-1.5052818E-3,1.2584587E-3,-4.6441503E-4,6.7144977E-3,5.821717E-7,1.8906547E-3,-2.9884707E-3,-8.0617814E-4],"split_indices":[0,22,18,20,21,4,10,23,14,5,6,20,22,5,13,0,0,0,0,0,0,0,0,0,0,0,0,0,0,0,0],"split_type":[0,0,0,0,0,0,0,0,0,0,0,0,0,0,0,0,0,0,0,0,0,0,0,0,0,0,0,0,0,0,0],"sum_hessian":[6.316891E3,3.1841018E3,3.1327893E3,1.9892701E3,1.1948317E3,1.6978689E3,1.4349204E3,1.886691E3,1.0257917E2,1.0496769E3,1.4515486E2,1.0428099E3,6.55059E2,1.1933848E3,2.4153557E2,6.237771E2,1.2629138E3,3.211559E1,7.0463585E1,8.176447E2,2.3203212E2,1.1260183E2,3.2553024E1,9.916008E2,5.120912E1,6.487848E2,6.2742558E0,9.705149E2,2.2286992E2,8.748358E1,1.5405199E2],"tree_param":{"num_deleted":"0","num_feature":"25","num_nodes":"31","size_leaf_vector":"1"}},{"base_weights":[2.0934076E-5,5.1466662E-2,-5.2321527E-2,1.3577035E-2,1.1442127E-1,-6.742434E-2,1.1552298E-1,2.1595843E-3,2.2107801E-1,8.681244E-2,3.1167546E-1,-6.905426E-2,6.9999998E-3,2.6943266E-1,-1.1179728E-1,4.88179E-4,-4.7384208E-4,4.538163E-3,8.3155103E-4,1.1469331E-3,-5.356889E-4,3.7199787E-3,1.9563416E-4,-4.2262234E-4,-1.2737615E-3,4.8772926E-3,1.4970362E-3,-4.343854E-3,-1.59921E-4],"categories":[],"categories_nodes":[],"categories_segments":[],"categories_sizes":[],"default_left":[0,1,1,1,0,1,0,1,0,0,0,0,0,1,1,0,0,0,0,0,0,0,0,0,0,0,0,0,0],"id":16,"left_children":[1,3,5,7,9,11,13,15,17,19,21,23,-1,25,27,-1,-1,-1,-1,-1,-1,-1,-1,-1,-1,-1,-1,-1,-1],"loss_changes":[1.7015444E1,7.5998535E0,7.947528E0,4.7153654E0,6.49284E0,4.888446E0,9.089447E0,4.366051E0,3.2943769E0,4.122028E0,2.5760708E0,4.480933E0,0E0,3.9700737E0,3.2456806E0,0E0,0E0,0E0,0E0,0E0,0E0,0E0,0E0,0E0,0E0,0E0,0E0,0E0,0E0],"parents":[2147483647,0,0,1,1,2,2,3,3,4,4,5,5,6,6,7,7,8,8,9,9,10,10,11,11,13,13,14,14],"right_children":[2,4,6,8,10,12,14,16,18,20,22,24,-1,26,28,-1,-1,-1,-1,-1,-1,-1,-1,-1,-1,-1,-1,-1,-1],"split_conditions":[1E0,2E0,4E0,4E0,4E0,7E0,2E0,7E0,1E0,3E0,3E0,3E0,6.9999998E-3,1E0,1E0,4.88179E-4,-4.7384208E-4,4.538163E-3,8.3155103E-4,1.1469331E-3,-5.356889E-4,3.7199787E-3,1.9563416E-4,-4.2262234E-4,-1.2737615E-3,4.8772926E-3,1.4970362E-3,-4.343854E-3,-1.59921E-4],"split_indices":[0,22,18,20,21,22,6,23,15,16,16,10,0,16,3,0,0,0,0,0,0,0,0,0,0,0,0,0,0],"split_type":[0,0,0,0,0,0,0,0,0,0,0,0,0,0,0,0,0,0,0,0,0,0,0,0,0,0,0,0,0],"sum_hessian":[6.316876E3,3.1857354E3,3.1311404E3,1.9895361E3,1.1961991E3,2.8732048E3,2.5793555E2,1.8867318E3,1.0280437E2,1.0505923E3,1.4560687E2,2.8701284E3,3.0764349E0,1.5369165E2,1.0424389E2,9.7166864E2,9.150631E2,3.7401222E1,6.5403145E1,8.766629E2,1.7392938E2,1.2045824E2,2.5148636E1,1.9678557E3,9.022728E2,5.3349075E1,1.00342575E2,2.3060896E1,8.118299E1],"tree_param":{"num_deleted":"0","num_feature":"25","num_nodes":"29","size_leaf_vector":"1"}},{"base_weights":[2.3130913E-5,5.118609E-2,-5.2085914E-2,4.327402E-2,3.5007685E-1,-9.8296106E-2,2.546732E-3,8.191657E-3,1.0281355E-1,4.2918423E-1,-2.5120595E-1,-1.3608041E-1,-3.8098868E-2,3.5396233E-2,-1.5968496E-1,7.7152014E-4,-2.5905322E-4,6.2657834E-4,2.005901E-3,2.622775E-3,6.9999998E-3,-1.4845063E-3,-3.7253415E-3,-1.497394E-3,1.2545756E-3,-4.596393E-4,6.6512534E-3,1.6696982E-6,1.8780665E-3,-2.9803594E-3,-7.988433E-4],"categories":[],"categories_nodes":[],"categories_segments":[],"categories_sizes":[],"default_left":[0,1,1,1,0,1,1,0,0,0,0,1,1,1,0,0,0,0,0,0,0,0,0,0,0,0,0,0,0,0,0],"id":17,"left_children":[1,3,5,7,9,11,13,15,17,19,21,23,25,27,29,-1,-1,-1,-1,-1,-1,-1,-1,-1,-1,-1,-1,-1,-1,-1,-1],"loss_changes":[1.684638E1,7.524843E0,7.903412E0,6.4896154E0,4.012166E0,3.852377E0,7.655682E0,4.6019316E0,4.510442E0,3.8825808E0,7.154238E-2,3.7396908E0,3.6555812E0,6.414056E0,2.6469011E0,0E0,0E0,0E0,0E0,0E0,0E0,0E0,0E0,0E0,0E0,0E0,0E0,0E0,0E0,0E0,0E0],"parents":[2147483647,0,0,1,1,2,2,3,3,4,4,5,5,6,6,7,7,8,8,9,9,10,10,11,11,12,12,13,13,14,14],"right_children":[2,4,6,8,10,12,14,16,18,20,22,24,26,28,30,-1,-1,-1,-1,-1,-1,-1,-1,-1,-1,-1,-1,-1,-1,-1,-1],"split_conditions":[1E0,5E0,2E0,2E0,4E0,2E0,3E0,6E0,8E0,8E0,2E0,4E0,5E0,3E0,1E0,7.7152014E-4,-2.5905322E-4,6.2657834E-4,2.005901E-3,2.622775E-3,6.9999998E-3,-1.4845063E-3,-3.7253415E-3,-1.497394E-3,1.2545756E-3,-4.596393E-4,6.6512534E-3,1.6696982E-6,1.8780665E-3,-2.9803594E-3,-7.988433E-4],"split_indices":[0,20,18,22,9,4,10,23,24,23,1,20,22,5,13,0,0,0,0,0,0,0,0,0,0,0,0,0,0,0,0],"split_type":[0,0,0,0,0,0,0,0,0,0,0,0,0,0,0,0,0,0,0,0,0,0,0,0,0,0,0,0,0,0,0],"sum_hessian":[6.316848E3,3.1873677E3,3.1294802E3,3.1062847E3,8.1083015E1,1.6949952E3,1.4344851E3,1.9553029E3,1.1509818E3,7.190863E1,9.174389E0,1.0405852E3,6.5441E2,1.1935839E3,2.4090117E2,6.4650287E2,1.3087999E3,8.1706384E2,3.33918E2,4.972931E1,2.217932E1,6.17132E0,3.003069E0,9.893435E2,5.1241714E1,6.480961E2,6.3138566E0,9.7030225E2,2.232817E2,8.71221E1,1.5377907E2],"tree_param":{"num_deleted":"0","num_feature":"25","num_nodes":"31","size_leaf_vector":"1"}},{"base_weights":[2.4999514E-5,5.0909866E-2,-5.185401E-2,4.3040875E-2,3.473412E-1,-6.688644E-2,1.1480192E-1,8.150389E-3,1.0219887E-1,4.2556182E-1,-2.5071484E-1,-6.85146E-2,6.9999998E-3,2.6735985E-1,-1.11378774E-1,7.6710235E-4,-2.578347E-4,7.9535483E-4,2.7337035E-3,2.6032885E-3,6.9999998E-3,-1.4800563E-3,-3.7218716E-3,-4.1915482E-4,-1.2650837E-3,4.827482E-3,1.4879105E-3,-4.3407623E-3,-1.601941E-4],"categories":[],"categories_nodes":[],"categories_segments":[],"categories_sizes":[],"default_left":[0,1,1,1,0,1,0,0,0,0,0,0,0,1,1,0,0,0,0,0,0,0,0,0,0,0,0,0,0],"id":18,"left_children":[1,3,5,7,9,11,13,15,17,19,21,23,-1,25,27,-1,-1,-1,-1,-1,-1,-1,-1,-1,-1,-1,-1,-1,-1],"loss_changes":[1.668079E1,7.4260387E0,7.846202E0,6.415534E0,3.959011E0,4.8564262E0,8.975058E0,4.553689E0,4.4517574E0,3.8289843E0,7.159978E-2,4.418069E0,0E0,3.8894606E0,3.2281156E0,0E0,0E0,0E0,0E0,0E0,0E0,0E0,0E0,0E0,0E0,0E0,0E0,0E0,0E0],"parents":[2147483647,0,0,1,1,2,2,3,3,4,4,5,5,6,6,7,7,8,8,9,9,10,10,11,11,13,13,14,14],"right_children":[2,4,6,8,10,12,14,16,18,20,22,24,-1,26,28,-1,-1,-1,-1,-1,-1,-1,-1,-1,-1,-1,-1,-1,-1],"split_conditions":[1E0,5E0,4E0,2E0,4E0,7E0,2E0,6E0,4E0,8E0,2E0,3E0,6.9999998E-3,1E0,1E0,7.6710235E-4,-2.578347E-4,7.9535483E-4,2.7337035E-3,2.6032885E-3,6.9999998E-3,-1.4800563E-3,-3.7218716E-3,-4.1915482E-4,-1.2650837E-3,4.827482E-3,1.4879105E-3,-4.3407623E-3,-1.601941E-4],"split_indices":[0,20,18,22,9,22,6,23,21,23,1,10,0,16,3,0,0,0,0,0,0,0,0,0,0,0,0,0,0],"split_type":[0,0,0,0,0,0,0,0,0,0,0,0,0,0,0,0,0,0,0,0,0,0,0,0,0,0,0,0,0],"sum_hessian":[6.316824E3,3.1889763E3,3.127848E3,3.1076272E3,8.13491E1,2.869607E3,2.582409E2,1.9554626E3,1.1521644E3,7.219503E1,9.154068E0,2.866509E3,3.0980506E0,1.5411137E2,1.0412954E2,6.470019E2,1.3084608E3,1.0187455E3,1.3341888E2,4.985991E1,2.233512E1,6.1621656E0,2.991902E0,1.9663542E3,9.001548E2,5.36255E1,1.0048587E2,2.2941881E1,8.118765E1],"tree_param":{"num_deleted":"0","num_feature":"25","num_nodes":"29","size_leaf_vector":"1"}},{"base_weights":[2.829637E-5,5.063511E-2,-5.162027E-2,7.282455E-2,-5.395976E-2,-9.7626075E-2,2.6954708E-3,5.7434015E-2,2.8617814E-1,-1.8466465E-2,-1.9964486E-1,-1.3531527E-1,-3.764908E-2,3.530666E-2,-1.588069E-1,4.5690677E-4,2.2594295E-3,1.0819071E-3,4.589399E-3,-8.733425E-5,-4.468879E-3,-3.4038215E-3,2.3690095E-4,-1.489536E-3,1.2506887E-3,-4.5490096E-4,6.5888944E-3,2.7380013E-6,1.8655777E-3,-2.9722466E-3,-7.915561E-4],"categories":[],"categories_nodes":[],"categories_segments":[],"categories_sizes":[],"default_left":[0,1,1,1,0,1,1,1,1,0,0,1,1,1,0,0,0,0,0,0,0,0,0,0,0,0,0,0,0,0,0],"id":19,"left_children":[1,3,5,7,9,11,13,15,17,19,21,23,25,27,29,-1,-1,-1,-1,-1,-1,-1,-1,-1,-1,-1,-1,-1,-1,-1,-1],"loss_changes":[1.6515837E1,7.411269E0,7.814643E0,8.63074E0,2.887621E0,3.8222408E0,7.563744E0,4.8526993E0,5.390932E0,1.8755188E0,3.4478717E0,3.7096767E0,3.6060336E0,6.330827E0,2.636538E0,0E0,0E0,0E0,0E0,0E0,0E0,0E0,0E0,0E0,0E0,0E0,0E0,0E0,0E0,0E0,0E0],"parents":[2147483647,0,0,1,1,2,2,3,3,4,4,5,5,6,6,7,7,8,8,9,9,10,10,11,11,12,12,13,13,14,14],"right_children":[2,4,6,8,10,12,14,16,18,20,22,24,26,28,30,-1,-1,-1,-1,-1,-1,-1,-1,-1,-1,-1,-1,-1,-1,-1,-1],"split_conditions":[1E0,3E0,2E0,4E0,3E0,2E0,3E0,4E0,6E0,5E0,7E0,4E0,5E0,3E0,1E0,4.5690677E-4,2.2594295E-3,1.0819071E-3,4.589399E-3,-8.733425E-5,-4.468879E-3,-3.4038215E-3,2.3690095E-4,-1.489536E-3,1.2506887E-3,-4.5490096E-4,6.5888944E-3,2.7380013E-6,1.8655777E-3,-2.9722466E-3,-7.915561E-4],"split_indices":[0,16,18,21,7,4,10,20,24,19,24,20,22,5,13,0,0,0,0,0,0,0,0,0,0,0,0,0,0,0,0],"split_type":[0,0,0,0,0,0,0,0,0,0,0,0,0,0,0,0,0,0,0,0,0,0,0,0,0,0,0,0,0,0,0],"sum_hessian":[6.316782E3,3.190578E3,3.1262043E3,2.6324224E3,5.581557E2,1.6921469E3,1.4340574E3,2.4564895E3,1.7593288E2,4.4971762E2,1.0843806E2,1.0383793E3,6.5376764E2,1.193785E3,2.4027234E2,2.2976387E3,1.5885062E2,8.7456856E1,8.847601E1,4.4072543E2,8.992181E0,6.6198296E1,4.223976E1,9.8710486E2,5.1274376E1,6.474143E2,6.3533278E0,9.700933E2,2.2369171E2,8.676348E1,1.5350885E2],"tree_param":{"num_deleted":"0","num_feature":"25","num_nodes":"31","size_leaf_vector":"1"}},{"base_weights":[2.8186887E-5,5.0357915E-2,-5.1390193E-2,7.241165E-2,-5.37273E-2,-9.723513E-2,2.6810735E-3,5.7116468E-2,2.8396505E-1,-1.8383097E-2,-1.9906053E-1,-1.3482623E-1,-3.747206E-2,3.5119597E-2,-1.5827554E-1,4.5443073E-4,2.2432248E-3,1.0754413E-3,4.5461333E-3,-8.690921E-5,-4.466877E-3,-3.3985751E-3,2.3569708E-4,-1.4843593E-3,1.2430672E-3,-4.5285156E-4,6.5232734E-3,2.724495E-6,1.8529017E-3,-2.96638E-3,-7.882721E-4],"categories":[],"categories_nodes":[],"categories_segments":[],"categories_sizes":[],"default_left":[0,1,1,1,0,1,1,1,1,0,0,1,1,1,0,0,0,0,0,0,0,0,0,0,0,0,0,0,0,0,0],"id":20,"left_children":[1,3,5,7,9,11,13,15,17,19,21,23,25,27,29,-1,-1,-1,-1,-1,-1,-1,-1,-1,-1,-1,-1,-1,-1,-1,-1],"loss_changes":[1.635221E1,7.333765E0,7.7482595E0,8.511053E0,2.8670406E0,3.794982E0,7.4984884E0,4.789238E0,5.292939E0,1.866812E0,3.4316812E0,3.6791E0,3.5570283E0,6.2544794E0,2.6246777E0,0E0,0E0,0E0,0E0,0E0,0E0,0E0,0E0,0E0,0E0,0E0,0E0,0E0,0E0,0E0,0E0],"parents":[2147483647,0,0,1,1,2,2,3,3,4,4,5,5,6,6,7,7,8,8,9,9,10,10,11,11,12,12,13,13,14,14],"right_children":[2,4,6,8,10,12,14,16,18,20,22,24,26,28,30,-1,-1,-1,-1,-1,-1,-1,-1,-1,-1,-1,-1,-1,-1,-1,-1],"split_conditions":[1E0,3E0,2E0,4E0,3E0,2E0,3E0,4E0,6E0,5E0,7E0,4E0,5E0,3E0,1E0,4.5443073E-4,2.2432248E-3,1.0754413E-3,4.5461333E-3,-8.690921E-5,-4.466877E-3,-3.3985751E-3,2.3569708E-4,-1.4843593E-3,1.2430672E-3,-4.5285156E-4,6.5232734E-3,2.724495E-6,1.8529017E-3,-2.96638E-3,-7.882721E-4],"split_indices":[0,16,18,21,7,4,10,20,24,19,24,20,22,5,13,0,0,0,0,0,0,0,0,0,0,0,0,0,0,0,0],"split_type":[0,0,0,0,0,0,0,0,0,0,0,0,0,0,0,0,0,0,0,0,0,0,0,0,0,0,0,0,0,0,0],"sum_hessian":[6.3167837E3,3.1921953E3,3.1245881E3,2.6343333E3,5.578622E2,1.6904894E3,1.4340989E3,2.4578987E3,1.7643452E2,4.4963904E2,1.0822312E2,1.0369742E3,6.535152E2,1.1942054E3,2.3989339E2,2.2986887E3,1.5920993E2,8.755153E1,8.8882996E1,4.4068695E2,8.9520855E0,6.597335E1,4.224977E1,9.856357E2,5.1338543E1,6.471199E2,6.3953276E0,9.7009607E2,2.241094E2,8.650599E1,1.5338739E2],"tree_param":{"num_deleted":"0","num_feature":"25","num_nodes":"31","size_leaf_vector":"1"}},{"base_weights":[2.8074479E-5,5.0082378E-2,-5.1161032E-2,1.2954582E-2,1.1155738E-1,-6.6109695E-2,1.1406725E-1,3.4583908E-2,-9.441596E-2,8.4650055E-2,3.022725E-1,-6.77367E-2,6.9999998E-3,2.652643E-1,-1.10957816E-1,1.2775891E-3,-9.632308E-5,-1.9285916E-3,-8.472224E-6,5.1403104E-4,2.0088663E-3,2.2854789E-3,5.4175262E-3,-4.1419032E-4,-1.2524923E-3,4.775637E-3,1.4792779E-3,-4.3371655E-3,-1.6149176E-4],"categories":[],"categories_nodes":[],"categories_segments":[],"categories_sizes":[],"default_left":[0,1,1,1,0,1,0,0,0,0,0,0,0,1,1,0,0,0,0,0,0,0,0,0,0,0,0,0,0],"id":21,"left_children":[1,3,5,7,9,11,13,15,17,19,21,23,-1,25,27,-1,-1,-1,-1,-1,-1,-1,-1,-1,-1,-1,-1,-1,-1],"loss_changes":[1.619021E1,7.2904778E0,7.723592E0,4.6316395E0,6.1469326E0,4.8219976E0,8.86023E0,6.838282E0,3.0803187E0,4.068683E0,2.495079E0,4.3271933E0,0E0,3.8038807E0,3.2064817E0,0E0,0E0,0E0,0E0,0E0,0E0,0E0,0E0,0E0,0E0,0E0,0E0,0E0,0E0],"parents":[2147483647,0,0,1,1,2,2,3,3,4,4,5,5,6,6,7,7,8,8,9,9,10,10,11,11,13,13,14,14],"right_children":[2,4,6,8,10,12,14,16,18,20,22,24,-1,26,28,-1,-1,-1,-1,-1,-1,-1,-1,-1,-1,-1,-1,-1,-1],"split_conditions":[1E0,2E0,4E0,3E0,4E0,7E0,2E0,6E0,7E0,3E0,3E0,3E0,6.9999998E-3,1E0,1E0,1.2775891E-3,-9.632308E-5,-1.9285916E-3,-8.472224E-6,5.1403104E-4,2.0088663E-3,2.2854789E-3,5.4175262E-3,-4.1419032E-4,-1.2524923E-3,4.775637E-3,1.4792779E-3,-4.3371655E-3,-1.6149176E-4],"split_indices":[0,22,18,7,21,22,6,23,24,5,6,10,0,16,3,0,0,0,0,0,0,0,0,0,0,0,0,0,0],"split_type":[0,0,0,0,0,0,0,0,0,0,0,0,0,0,0,0,0,0,0,0,0,0,0,0,0,0,0,0,0],"sum_hessian":[6.316785E3,3.193805E3,3.1229802E3,1.9919678E3,1.201837E3,2.8644272E3,2.585528E2,1.65854E3,3.3342773E2,1.0545045E3,1.4733252E2,2.8613076E3,3.1198301E0,1.5453802E2,1.0401478E2,5.33155E2,1.125385E3,1.6196452E2,1.7146321E2,8.2109143E2,2.3341315E2,1.14146545E2,3.3185966E1,1.9642084E3,8.970991E2,5.3916225E1,1.006218E2,2.280492E1,8.1209854E1],"tree_param":{"num_deleted":"0","num_feature":"25","num_nodes":"29","size_leaf_vector":"1"}},{"base_weights":[3.0150348E-5,4.9809977E-2,-5.093005E-2,7.170726E-2,-5.3676415E-2,-9.657066E-2,2.8263538E-3,5.6580264E-2,2.801003E-1,-1.8599069E-2,-1.983292E-1,-1.3406596E-1,-3.7027687E-2,3.5029415E-2,-1.5740225E-1,4.9564557E-4,3.3213852E-3,1.0565601E-3,4.482507E-3,-8.958721E-5,-4.4649164E-3,-3.3914922E-3,2.3167297E-4,-1.4765459E-3,1.2392157E-3,-4.4816683E-4,6.4627114E-3,3.7668344E-6,1.8406127E-3,-2.9582595E-3,-7.8105455E-4],"categories":[],"categories_nodes":[],"categories_segments":[],"categories_sizes":[],"default_left":[0,1,1,1,0,1,1,1,1,0,0,1,1,1,0,0,0,0,0,0,0,0,0,0,0,0,0,0,0,0,0],"id":22,"left_children":[1,3,5,7,9,11,13,15,17,19,21,23,25,27,29,-1,-1,-1,-1,-1,-1,-1,-1,-1,-1,-1,-1,-1,-1,-1,-1],"loss_changes":[1.6029364E1,7.247113E0,7.6609087E0,8.30197E0,2.8316722E0,3.765152E0,7.408256E0,4.7417765E0,5.1832066E0,1.855741E0,3.4062977E0,3.6494884E0,3.5090644E0,6.1734495E0,2.6142669E0,0E0,0E0,0E0,0E0,0E0,0E0,0E0,0E0,0E0,0E0,0E0,0E0,0E0,0E0,0E0,0E0],"parents":[2147483647,0,0,1,1,2,2,3,3,4,4,5,5,6,6,7,7,8,8,9,9,10,10,11,11,12,12,13,13,14,14],"right_children":[2,4,6,8,10,12,14,16,18,20,22,24,26,28,30,-1,-1,-1,-1,-1,-1,-1,-1,-1,-1,-1,-1,-1,-1,-1,-1],"split_conditions":[1E0,3E0,2E0,4E0,3E0,2E0,3E0,5E0,6E0,5E0,7E0,4E0,5E0,3E0,1E0,4.9564557E-4,3.3213852E-3,1.0565601E-3,4.482507E-3,-8.958721E-5,-4.4649164E-3,-3.3914922E-3,2.3167297E-4,-1.4765459E-3,1.2392157E-3,-4.4816683E-4,6.4627114E-3,3.7668344E-6,1.8406127E-3,-2.9582595E-3,-7.8105455E-4],"split_indices":[0,16,18,21,7,4,10,20,24,19,24,20,22,5,13,0,0,0,0,0,0,0,0,0,0,0,0,0,0,0,0],"split_type":[0,0,0,0,0,0,0,0,0,0,0,0,0,0,0,0,0,0,0,0,0,0,0,0,0,0,0,0,0,0,0],"sum_hessian":[6.316759E3,3.1953975E3,3.121361E3,2.6375996E3,5.57798E2,1.6876797E3,1.4336814E3,2.4602822E3,1.7731744E2,4.4984265E2,1.0795531E2,1.0347974E3,6.5288226E2,1.1944082E3,2.3927316E2,2.400349E3,5.9932945E1,8.7829155E1,8.948828E1,4.4092953E2,8.913132E0,6.567205E1,4.2283253E1,9.834264E2,5.1371033E1,6.4644775E2,6.4345164E0,9.6989233E2,2.2451584E2,8.615203E1,1.5312112E2],"tree_param":{"num_deleted":"0","num_feature":"25","num_nodes":"31","size_leaf_vector":"1"}},{"base_weights":[3.0112891E-5,4.953789E-2,-5.070271E-2,1.2679648E-2,1.1049281E-1,-6.5581076E-2,1.1335466E-1,3.4151774E-2,-9.408464E-2,8.3915E-2,2.9813224E-1,-6.720621E-2,6.9999998E-3,2.63232E-1,-1.105432E-1,1.2667386E-3,-9.8143624E-5,-1.9210239E-3,-1.219893E-5,5.0905306E-4,1.9913837E-3,2.2539163E-3,5.3363447E-3,-4.1079422E-4,-1.2439092E-3,4.7273217E-3,1.4702659E-3,-4.334054E-3,-1.6175144E-4],"categories":[],"categories_nodes":[],"categories_segments":[],"categories_sizes":[],"default_left":[0,1,1,1,0,1,0,0,0,0,0,0,0,1,1,0,0,0,0,0,0,0,0,0,0,0,0,0,0],"id":23,"left_children":[1,3,5,7,9,11,13,15,17,19,21,23,-1,25,27,-1,-1,-1,-1,-1,-1,-1,-1,-1,-1,-1,-1,-1,-1],"loss_changes":[1.5870636E1,7.183494E0,7.624937E0,4.5744715E0,5.984103E0,4.789731E0,8.749142E0,6.7574816E0,3.0413535E0,4.0095444E0,2.4339828E0,4.2660437E0,0E0,3.7272062E0,3.1891308E0,0E0,0E0,0E0,0E0,0E0,0E0,0E0,0E0,0E0,0E0,0E0,0E0,0E0,0E0],"parents":[2147483647,0,0,1,1,2,2,3,3,4,4,5,5,6,6,7,7,8,8,9,9,10,10,11,11,13,13,14,14],"right_children":[2,4,6,8,10,12,14,16,18,20,22,24,-1,26,28,-1,-1,-1,-1,-1,-1,-1,-1,-1,-1,-1,-1,-1,-1],"split_conditions":[1E0,2E0,4E0,3E0,4E0,7E0,2E0,6E0,7E0,3E0,3E0,3E0,6.9999998E-3,1E0,1E0,1.2667386E-3,-9.8143624E-5,-1.9210239E-3,-1.219893E-5,5.0905306E-4,1.9913837E-3,2.2539163E-3,5.3363447E-3,-4.1079422E-4,-1.2439092E-3,4.7273217E-3,1.4702659E-3,-4.334054E-3,-1.6175144E-4],"split_indices":[0,22,18,7,21,22,6,23,24,5,6,10,0,16,3,0,0,0,0,0,0,0,0,0,0,0,0,0,0],"split_type":[0,0,0,0,0,0,0,0,0,0,0,0,0,0,0,0,0,0,0,0,0,0,0,0,0,0,0,0,0],"sum_hessian":[6.316759E3,3.19699E3,3.1197688E3,1.9930437E3,1.2039463E3,2.8609128E3,2.5885605E2,1.6598912E3,3.3315244E2,1.0558411E3,1.4810529E2,2.857771E3,3.1417572E0,1.5495406E2,1.0390199E2,5.3408496E2,1.1258064E3,1.615595E2,1.7159296E2,8.2183887E2,2.3400218E2,1.1464993E2,3.3455353E1,1.9627432E3,8.9502795E2,5.4189953E1,1.007641E2,2.268769E1,8.12143E1],"tree_param":{"num_deleted":"0","num_feature":"25","num_nodes":"29","size_leaf_vector":"1"}},{"base_weights":[3.2150434E-5,4.9268723E-2,-5.0473575E-2,7.10112E-2,-5.362383E-2,-9.5909886E-2,2.9691195E-3,5.6050293E-2,2.763057E-1,-1.8810825E-2,-1.9759883E-1,-1.3330892E-1,-3.658704E-2,3.4938376E-2,-1.5653218E-1,4.4502006E-4,2.2098916E-3,1.0380108E-3,4.420164E-3,-9.2218615E-5,-4.4629485E-3,-3.384396E-3,2.2771204E-4,-1.4687623E-3,1.2353614E-3,-5.282233E-4,2.8898376E-3,4.7905096E-6,1.8284199E-3,-2.9501377E-3,-7.738846E-4],"categories":[],"categories_nodes":[],"categories_segments":[],"categories_sizes":[],"default_left":[0,1,1,1,0,1,1,1,1,0,0,1,1,1,0,0,0,0,0,0,0,0,0,0,0,0,0,0,0,0,0],"id":24,"left_children":[1,3,5,7,9,11,13,15,17,19,21,23,25,27,29,-1,-1,-1,-1,-1,-1,-1,-1,-1,-1,-1,-1,-1,-1,-1,-1],"loss_changes":[1.57129755E1,7.1616826E0,7.574366E0,8.098625E0,2.7967587E0,3.7354755E0,7.319015E0,4.682815E0,5.076502E0,1.8447652E0,3.3811007E0,3.6200619E0,3.468203E0,6.093542E0,2.6038132E0,0E0,0E0,0E0,0E0,0E0,0E0,0E0,0E0,0E0,0E0,0E0,0E0,0E0,0E0,0E0,0E0],"parents":[2147483647,0,0,1,1,2,2,3,3,4,4,5,5,6,6,7,7,8,8,9,9,10,10,11,11,12,12,13,13,14,14],"right_children":[2,4,6,8,10,12,14,16,18,20,22,24,26,28,30,-1,-1,-1,-1,-1,-1,-1,-1,-1,-1,-1,-1,-1,-1,-1,-1],"split_conditions":[1E0,3E0,2E0,4E0,3E0,2E0,3E0,4E0,6E0,5E0,7E0,4E0,4E0,3E0,1E0,4.4502006E-4,2.2098916E-3,1.0380108E-3,4.420164E-3,-9.2218615E-5,-4.4629485E-3,-3.384396E-3,2.2771204E-4,-1.4687623E-3,1.2353614E-3,-5.282233E-4,2.8898376E-3,4.7905096E-6,1.8284199E-3,-2.9501377E-3,-7.738846E-4],"split_indices":[0,16,18,21,7,4,10,20,24,19,24,20,22,5,13,0,0,0,0,0,0,0,0,0,0,0,0,0,0,0,0],"split_type":[0,0,0,0,0,0,0,0,0,0,0,0,0,0,0,0,0,0,0,0,0,0,0,0,0,0,0,0,0,0,0],"sum_hessian":[6.316733E3,3.198567E3,3.118166E3,2.6408354E3,5.577316E2,1.6848948E3,1.4332712E3,2.4626426E3,1.781929E2,4.5004245E2,1.0768914E2,1.0326388E3,6.522559E2,1.1946129E3,2.3865839E2,2.3026882E3,1.5995415E2,8.810359E1,9.008931E1,4.4116812E2,8.87434E0,6.537288E1,4.2316265E1,9.812353E2,5.140358E1,6.220727E2,3.0183235E1,9.696923E2,2.2492055E2,8.580087E1,1.5285751E2],"tree_param":{"num_deleted":"0","num_feature":"25","num_nodes":"31","size_leaf_vector":"1"}},{"base_weights":[3.1718966E-5,4.899965E-2,-5.024856E-2,7.0609845E-2,-5.3392652E-2,-6.505672E-2,1.1264618E-1,5.5741172E-2,2.7419546E-1,-1.8725852E-2,-1.9701661E-1,-6.6679925E-2,6.9999998E-3,2.6121923E-1,-1.1013051E-1,4.879624E-4,3.273221E-3,1.0318519E-3,4.3792203E-3,-5.5509526E-4,9.1744744E-4,-3.3791156E-3,2.2655693E-4,-9.592553E-4,-1.5965017E-4,4.679703E-3,1.4613132E-3,-4.330933E-3,-1.6200959E-4],"categories":[],"categories_nodes":[],"categories_segments":[],"categories_sizes":[],"default_left":[0,1,1,1,0,1,0,1,1,0,0,1,0,1,1,0,0,0,0,0,0,0,0,0,0,0,0,0,0],"id":25,"left_children":[1,3,5,7,9,11,13,15,17,19,21,23,-1,25,27,-1,-1,-1,-1,-1,-1,-1,-1,-1,-1,-1,-1,-1,-1],"loss_changes":[1.55575E1,7.087001E0,7.5274954E0,7.9873323E0,2.7767754E0,4.757325E0,8.6396475E0,4.633334E0,4.9857597E0,1.8375845E0,3.3651252E0,4.2333727E0,0E0,3.6523256E0,3.1718664E0,0E0,0E0,0E0,0E0,0E0,0E0,0E0,0E0,0E0,0E0,0E0,0E0,0E0,0E0],"parents":[2147483647,0,0,1,1,2,2,3,3,4,4,5,5,6,6,7,7,8,8,9,9,10,10,11,11,13,13,14,14],"right_children":[2,4,6,8,10,12,14,16,18,20,22,24,-1,26,28,-1,-1,-1,-1,-1,-1,-1,-1,-1,-1,-1,-1,-1,-1],"split_conditions":[1E0,3E0,4E0,4E0,3E0,7E0,2E0,5E0,6E0,2E0,7E0,2E0,6.9999998E-3,1E0,1E0,4.879624E-4,3.273221E-3,1.0318519E-3,4.3792203E-3,-5.5509526E-4,9.1744744E-4,-3.3791156E-3,2.2655693E-4,-9.592553E-4,-1.5965017E-4,4.679703E-3,1.4613132E-3,-4.330933E-3,-1.6200959E-4],"split_indices":[0,16,18,21,7,22,6,20,24,7,24,5,0,16,3,0,0,0,0,0,0,0,0,0,0,0,0,0,0],"split_type":[0,0,0,0,0,0,0,0,0,0,0,0,0,0,0,0,0,0,0,0,0,0,0,0,0,0,0,0,0],"sum_hessian":[6.316739E3,3.200145E3,3.1165935E3,2.6427048E3,5.574402E2,2.8574353E3,2.591582E2,2.4640215E3,1.786835E2,4.4996228E2,1.07477905E2,2.8542715E3,3.1638417E0,1.5536826E2,1.03789955E2,2.4037322E3,6.028915E1,8.819509E1,9.04884E1,3.3793628E2,1.12025986E2,6.515201E1,4.23259E1,1.8097548E3,1.0445168E3,5.4462418E1,1.00905846E2,2.2571245E1,8.121871E1],"tree_param":{"num_deleted":"0","num_feature":"25","num_nodes":"29","size_leaf_vector":"1"}},{"base_weights":[3.354234E-5,4.8733197E-2,-5.002119E-2,1.2203991E-2,1.0905784E-1,-9.525496E-2,3.1114707E-3,3.347809E-2,-9.378722E-2,8.295021E-2,2.9233584E-1,-1.3256745E-1,-3.613185E-2,3.4892112E-2,-1.558032E-1,1.2532208E-3,-1.0223491E-4,-1.9115754E-3,-1.9540044E-5,5.0194963E-4,1.971004E-3,2.2082387E-3,5.2300612E-3,-1.4611387E-3,1.2316757E-3,-4.3889316E-4,6.3800514E-3,6.55578E-6,1.8149532E-3,-2.9429349E-3,-7.6833E-4],"categories":[],"categories_nodes":[],"categories_segments":[],"categories_sizes":[],"default_left":[0,1,1,1,0,1,1,0,0,0,0,1,1,1,0,0,0,0,0,0,0,0,0,0,0,0,0,0,0,0,0],"id":26,"left_children":[1,3,5,7,9,11,13,15,17,19,21,23,25,27,29,-1,-1,-1,-1,-1,-1,-1,-1,-1,-1,-1,-1,-1,-1,-1,-1],"loss_changes":[1.5402805E1,7.0561986E0,7.4892735E0,4.5036473E0,5.755025E0,3.7082787E0,7.2470317E0,6.6761193E0,2.9853547E0,3.9482322E0,2.3621712E0,3.5915298E0,3.440888E0,6.0014067E0,2.5928311E0,0E0,0E0,0E0,0E0,0E0,0E0,0E0,0E0,0E0,0E0,0E0,0E0,0E0,0E0,0E0,0E0],"parents":[2147483647,0,0,1,1,2,2,3,3,4,4,5,5,6,6,7,7,8,8,9,9,10,10,11,11,12,12,13,13,14,14],"right_children":[2,4,6,8,10,12,14,16,18,20,22,24,26,28,30,-1,-1,-1,-1,-1,-1,-1,-1,-1,-1,-1,-1,-1,-1,-1,-1],"split_conditions":[1E0,2E0,2E0,3E0,4E0,2E0,3E0,6E0,7E0,3E0,3E0,4E0,5E0,3E0,1E0,1.2532208E-3,-1.0223491E-4,-1.9115754E-3,-1.9540044E-5,5.0194963E-4,1.971004E-3,2.2082387E-3,5.2300612E-3,-1.4611387E-3,1.2316757E-3,-4.3889316E-4,6.3800514E-3,6.55578E-6,1.8149532E-3,-2.9429349E-3,-7.6833E-4],"split_indices":[0,22,18,7,21,4,10,23,24,5,6,20,22,5,13,0,0,0,0,0,0,0,0,0,0,0,0,0,0,0,0],"split_type":[0,0,0,0,0,0,0,0,0,0,0,0,0,0,0,0,0,0,0,0,0,0,0,0,0,0,0,0,0,0,0],"sum_hessian":[6.3167153E3,3.2017092E3,3.1150063E3,1.9949078E3,1.2068013E3,1.6821436E3,1.4328627E3,1.6620022E3,3.329057E2,1.0576005E3,1.4920079E2,1.0305334E3,6.516101E2,1.194717E3,2.3814572E2,5.35248E2,1.1267542E3,1.610566E2,1.7184912E2,8.229079E2,2.346926E2,1.1538628E2,3.3814518E1,9.7909863E2,5.1434746E1,6.4512146E2,6.488681E0,9.693478E2,2.2536922E2,8.549181E1,1.5265392E2],"tree_param":{"num_deleted":"0","num_feature":"25","num_nodes":"31","size_leaf_vector":"1"}},{"base_weights":[3.40705E-5,4.8468776E-2,-4.9797446E-2,6.992604E-2,-5.3334557E-2,-6.453541E-2,1.11941695E-1,5.5220343E-2,2.7050522E-1,-1.892731E-2,-1.9628747E-1,-6.615665E-2,6.9999998E-3,2.592257E-1,-1.0971976E-1,4.3789545E-4,2.1802273E-3,1.0137565E-3,4.3188888E-3,-9.391045E-5,-4.4607203E-3,-3.3719912E-3,2.2268889E-4,-9.5254224E-4,-1.576157E-4,1.6527072E-3,5.1039937E-3,-4.327802E-3,-1.62267E-4],"categories":[],"categories_nodes":[],"categories_segments":[],"categories_sizes":[],"default_left":[0,1,1,1,0,1,0,1,1,0,0,1,0,0,1,0,0,0,0,0,0,0,0,0,0,0,0,0,0],"id":27,"left_children":[1,3,5,7,9,11,13,15,17,19,21,23,-1,25,27,-1,-1,-1,-1,-1,-1,-1,-1,-1,-1,-1,-1,-1,-1],"loss_changes":[1.5250675E1,7.0031905E0,7.4311447E0,7.7924967E0,2.742678E0,4.7247677E0,8.531711E0,4.582092E0,4.884227E0,1.8335196E0,3.3402057E0,4.1803045E0,0E0,3.6155176E0,3.154684E0,0E0,0E0,0E0,0E0,0E0,0E0,0E0,0E0,0E0,0E0,0E0,0E0,0E0,0E0],"parents":[2147483647,0,0,1,1,2,2,3,3,4,4,5,5,6,6,7,7,8,8,9,9,10,10,11,11,13,13,14,14],"right_children":[2,4,6,8,10,12,14,16,18,20,22,24,-1,26,28,-1,-1,-1,-1,-1,-1,-1,-1,-1,-1,-1,-1,-1,-1],"split_conditions":[1E0,3E0,4E0,4E0,3E0,7E0,2E0,4E0,6E0,5E0,7E0,2E0,6.9999998E-3,4E0,1E0,4.3789545E-4,2.1802273E-3,1.0137565E-3,4.3188888E-3,-9.391045E-5,-4.4607203E-3,-3.3719912E-3,2.2268889E-4,-9.5254224E-4,-1.576157E-4,1.6527072E-3,5.1039937E-3,-4.327802E-3,-1.62267E-4],"split_indices":[0,16,18,21,7,22,6,20,24,19,24,5,0,20,3,0,0,0,0,0,0,0,0,0,0,0,0,0,0],"split_type":[0,0,0,0,0,0,0,0,0,0,0,0,0,0,0,0,0,0,0,0,0,0,0,0,0,0,0,0,0],"sum_hessian":[6.3167085E3,3.203263E3,3.1134458E3,2.645896E3,5.57367E2,2.8539863E3,2.594594E2,2.466348E3,1.795479E2,4.5015247E2,1.07214516E2,2.8508003E3,3.1860876E0,1.557807E2,1.036787E2,2.3057258E3,1.6062228E2,8.846501E1,9.1082886E1,4.413217E2,8.830788E0,6.4856316E1,4.23582E1,1.806726E3,1.0440745E3,1.1457889E2,4.1201817E1,2.2455584E1,8.122312E1],"tree_param":{"num_deleted":"0","num_feature":"25","num_nodes":"29","size_leaf_vector":"1"}},{"base_weights":[3.543859E-5,4.820444E-2,-4.95718E-2,1.1941862E-2,1.0801683E-1,-9.460281E-2,3.251583E-3,3.3060092E-2,-9.3444794E-2,1.3829097E-1,-4.5125376E-2,-1.3182911E-1,-3.5678014E-2,3.4842312E-2,-1.550692E-1,1.2426106E-3,-1.0394212E-4,-1.903879E-3,-2.3077973E-5,1.0903227E-3,3.436179E-3,5.401459E-5,-2.2977686E-3,-1.453544E-3,1.227985E-3,-5.184558E-4,2.8697322E-3,8.191012E-6,1.8020655E-3,-2.9357725E-3,-7.626176E-4],"categories":[],"categories_nodes":[],"categories_segments":[],"categories_sizes":[],"default_left":[0,1,1,1,0,1,1,0,0,0,0,1,1,1,0,0,0,0,0,0,0,0,0,0,0,0,0,0,0,0,0],"id":28,"left_children":[1,3,5,7,9,11,13,15,17,19,21,23,25,27,29,-1,-1,-1,-1,-1,-1,-1,-1,-1,-1,-1,-1,-1,-1,-1,-1],"loss_changes":[1.5098711E1,6.951971E0,7.40487E0,4.447431E0,5.615552E0,3.6813707E0,7.1748123E0,6.597096E0,2.9471462E0,6.032774E0,1.8714405E0,3.5631657E0,3.4158592E0,5.9141345E0,2.5823884E0,0E0,0E0,0E0,0E0,0E0,0E0,0E0,0E0,0E0,0E0,0E0,0E0,0E0,0E0,0E0,0E0],"parents":[2147483647,0,0,1,1,2,2,3,3,4,4,5,5,6,6,7,7,8,8,9,9,10,10,11,11,12,12,13,13,14,14],"right_children":[2,4,6,8,10,12,14,16,18,20,22,24,26,28,30,-1,-1,-1,-1,-1,-1,-1,-1,-1,-1,-1,-1,-1,-1,-1,-1],"split_conditions":[1E0,2E0,2E0,3E0,3E0,2E0,3E0,6E0,7E0,4E0,3E0,4E0,4E0,3E0,1E0,1.2426106E-3,-1.0394212E-4,-1.903879E-3,-2.3077973E-5,1.0903227E-3,3.436179E-3,5.401459E-5,-2.2977686E-3,-1.453544E-3,1.227985E-3,-5.184558E-4,2.8697322E-3,8.191012E-6,1.8020655E-3,-2.9357725E-3,-7.626176E-4],"split_indices":[0,22,18,7,16,4,10,23,24,21,7,20,22,5,13,0,0,0,0,0,0,0,0,0,0,0,0,0,0,0,0],"split_type":[0,0,0,0,0,0,0,0,0,0,0,0,0,0,0,0,0,0,0,0,0,0,0,0,0,0,0,0,0,0,0],"sum_hessian":[6.3166914E3,3.2048176E3,3.1118738E3,1.9959368E3,1.208881E3,1.6794128E3,1.4324608E3,1.6633146E3,3.326221E2,1.00942773E3,1.9945319E2,1.0284454E3,6.509675E2,1.194829E3,2.3763174E2,5.361644E2,1.1271501E3,1.6064926E2,1.7197284E2,8.8486694E2,1.245608E2,1.573639E2,4.2089287E1,9.769794E2,5.146599E1,6.207043E2,3.0263248E1,9.6902875E2,2.2580028E2,8.518665E1,1.5244508E2],"tree_param":{"num_deleted":"0","num_feature":"25","num_nodes":"31","size_leaf_vector":"1"}},{"base_weights":[3.507333E-5,4.794185E-2,-4.9350355E-2,6.9189385E-2,-5.305999E-2,-9.422195E-2,3.2344025E-3,2.7041322E-2,1.3741624E-1,-1.897969E-2,-1.9518694E-1,-1.3134807E-1,-3.5511997E-2,3.465786E-2,-1.5454468E-1,1.1914122E-3,-1.5590593E-4,1.0837306E-3,3.4075861E-3,-9.489313E-5,-4.458669E-3,-3.3635183E-3,2.2830669E-4,-1.4484402E-3,1.2205285E-3,-5.161532E-4,2.8479951E-3,8.150278E-6,1.7899341E-3,-2.929873E-3,-7.5943186E-4],"categories":[],"categories_nodes":[],"categories_segments":[],"categories_sizes":[],"default_left":[0,1,1,1,0,1,1,0,0,0,0,1,1,1,0,0,0,0,0,0,0,0,0,0,0,0,0,0,0,0,0],"id":29,"left_children":[1,3,5,7,9,11,13,15,17,19,21,23,25,27,29,-1,-1,-1,-1,-1,-1,-1,-1,-1,-1,-1,-1,-1,-1,-1,-1],"loss_changes":[1.4949383E1,6.886803E0,7.341687E0,7.617688E0,2.6991992E0,3.6546173E0,7.112648E0,6.4392633E0,5.9385967E0,1.8237325E0,3.3259764E0,3.5336266E0,3.3763902E0,5.8431764E0,2.5705094E0,0E0,0E0,0E0,0E0,0E0,0E0,0E0,0E0,0E0,0E0,0E0,0E0,0E0,0E0,0E0,0E0],"parents":[2147483647,0,0,1,1,2,2,3,3,4,4,5,5,6,6,7,7,8,8,9,9,10,10,11,11,12,12,13,13,14,14],"right_children":[2,4,6,8,10,12,14,16,18,20,22,24,26,28,30,-1,-1,-1,-1,-1,-1,-1,-1,-1,-1,-1,-1,-1,-1,-1,-1],"split_conditions":[1E0,3E0,2E0,2E0,3E0,2E0,3E0,6E0,4E0,5E0,7E0,4E0,4E0,3E0,1E0,1.1914122E-3,-1.5590593E-4,1.0837306E-3,3.4075861E-3,-9.489313E-5,-4.458669E-3,-3.3635183E-3,2.2830669E-4,-1.4484402E-3,1.2205285E-3,-5.161532E-4,2.8479951E-3,8.150278E-6,1.7899341E-3,-2.929873E-3,-7.5943186E-4],"split_indices":[0,16,18,22,7,4,10,23,21,19,24,20,22,5,13,0,0,0,0,0,0,0,0,0,0,0,0,0,0,0,0],"split_type":[0,0,0,0,0,0,0,0,0,0,0,0,0,0,0,0,0,0,0,0,0,0,0,0,0,0,0,0,0,0,0],"sum_hessian":[6.316696E3,3.2063635E3,3.1103325E3,2.6493423E3,5.570213E2,1.6778224E3,1.4325101E3,1.6385205E3,1.0108218E3,4.5020193E2,1.0681938E2,1.0270896E3,6.507328E2,1.1952443E3,2.3726581E2,5.178937E2,1.1206268E3,8.858323E2,1.2498955E2,4.4141092E2,8.791031E0,6.450807E1,4.2311306E1,9.755603E2,5.152923E1,6.2038257E2,3.0350218E1,9.690367E2,2.2620755E2,8.493693E1,1.5232887E2],"tree_param":{"num_deleted":"0","num_feature":"25","num_nodes":"31","size_leaf_vector":"1"}},{"base_weights":[3.4423792E-5,4.76802E-2,-4.9129795E-2,4.0076055E-2,3.2972628E-1,-6.3784145E-2,1.1122137E-1,2.043126E-2,1.3749465E-1,-1.635945E-1,4.1815943E-1,-6.540397E-2,6.9999998E-3,2.572087E-1,-1.09309696E-1,4.0817534E-4,-7.927602E-4,7.835777E-4,3.076356E-3,-2.5576497E-3,1.0694623E-3,2.544383E-3,6.9999998E-3,-9.43057E-4,-1.5432024E-4,1.6414641E-3,5.0511006E-3,-4.324171E-3,-1.6354467E-4],"categories":[],"categories_nodes":[],"categories_segments":[],"categories_sizes":[],"default_left":[0,1,1,1,0,1,0,1,0,0,0,1,0,0,1,0,0,0,0,0,0,0,0,0,0,0,0,0,0],"id":30,"left_children":[1,3,5,7,9,11,13,15,17,19,21,23,-1,25,27,-1,-1,-1,-1,-1,-1,-1,-1,-1,-1,-1,-1,-1,-1],"loss_changes":[1.4801355E1,6.8689895E0,7.3146296E0,5.979249E0,3.737547E0,4.6898756E0,8.423475E0,5.2930813E0,5.2519627E0,3.6407787E-1,3.4699335E0,4.1101418E0,0E0,3.5437422E0,3.1335745E0,0E0,0E0,0E0,0E0,0E0,0E0,0E0,0E0,0E0,0E0,0E0,0E0,0E0,0E0],"parents":[2147483647,0,0,1,1,2,2,3,3,4,4,5,5,6,6,7,7,8,8,9,9,10,10,11,11,13,13,14,14],"right_children":[2,4,6,8,10,12,14,16,18,20,22,24,-1,26,28,-1,-1,-1,-1,-1,-1,-1,-1,-1,-1,-1,-1,-1,-1],"split_conditions":[1E0,5E0,4E0,3E0,1E0,7E0,2E0,3E0,3E0,2E0,8E0,2E0,6.9999998E-3,4E0,1E0,4.0817534E-4,-7.927602E-4,7.835777E-4,3.076356E-3,-2.5576497E-3,1.0694623E-3,2.544383E-3,6.9999998E-3,-9.43057E-4,-1.5432024E-4,1.6414641E-3,5.0511006E-3,-4.324171E-3,-1.6354467E-4],"split_indices":[0,20,18,22,19,22,6,7,19,1,23,5,0,20,3,0,0,0,0,0,0,0,0,0,0,0,0,0,0],"split_type":[0,0,0,0,0,0,0,0,0,0,0,0,0,0,0,0,0,0,0,0,0,0,0,0,0,0,0,0,0],"sum_hessian":[6.316704E3,3.2079055E3,3.1087988E3,3.124801E3,8.3104576E1,2.8490305E3,2.597681E2,2.6014246E3,5.233764E2,1.2503632E1,7.0600945E1,2.845822E3,3.2085207E0,1.5620023E2,1.0356786E2,2.1603145E3,4.4110995E2,3.894675E2,1.3390894E2,9.367003E0,3.136628E0,4.7595787E1,2.3005154E1,1.8024635E3,1.0433586E3,1.1477556E2,4.1424656E1,2.2322868E1,8.1244995E1],"tree_param":{"num_deleted":"0","num_feature":"25","num_nodes":"29","size_leaf_vector":"1"}},{"base_weights":[3.72692E-5,4.7423773E-2,-4.8906837E-2,3.4847785E-2,2.1628103E-1,-9.3576156E-2,3.3712003E-3,5.588206E-2,-6.3415065E-2,2.770648E-1,-1.1394153E-1,-1.3061453E-1,-3.50662E-2,3.4606665E-2,-1.5381457E-1,4.277875E-4,2.5404436E-3,-3.0689567E-4,-1.9544505E-3,-5.303633E-4,3.2781092E-3,-2.0094302E-3,5.8691488E-3,-1.4408898E-3,1.2168688E-3,-4.278057E-4,6.272398E-3,9.750799E-6,1.7772522E-3,-2.9227042E-3,-7.5377343E-4],"categories":[],"categories_nodes":[],"categories_segments":[],"categories_sizes":[],"default_left":[0,1,1,1,0,1,1,1,0,0,0,1,1,1,0,0,0,0,0,0,0,0,0,0,0,0,0,0,0,0,0],"id":31,"left_children":[1,3,5,7,9,11,13,15,17,19,21,23,25,27,29,-1,-1,-1,-1,-1,-1,-1,-1,-1,-1,-1,-1,-1,-1,-1,-1],"loss_changes":[1.4654824E1,6.809936E0,7.2587767E0,6.1816373E0,4.494356E0,3.6277866E0,7.0416036E0,6.38343E0,2.2731886E0,3.1677303E0,2.268662E0,3.5056458E0,3.3534994E0,5.7582684E0,2.5600462E0,0E0,0E0,0E0,0E0,0E0,0E0,0E0,0E0,0E0,0E0,0E0,0E0,0E0,0E0,0E0,0E0],"parents":[2147483647,0,0,1,1,2,2,3,3,4,4,5,5,6,6,7,7,8,8,9,9,10,10,11,11,12,12,13,13,14,14],"right_children":[2,4,6,8,10,12,14,16,18,20,22,24,26,28,30,-1,-1,-1,-1,-1,-1,-1,-1,-1,-1,-1,-1,-1,-1,-1,-1],"split_conditions":[1E0,4E0,2E0,3E0,3E0,2E0,3E0,4E0,3E0,1E0,5E0,4E0,5E0,3E0,1E0,4.277875E-4,2.5404436E-3,-3.0689567E-4,-1.9544505E-3,-5.303633E-4,3.2781092E-3,-2.0094302E-3,5.8691488E-3,-1.4408898E-3,1.2168688E-3,-4.278057E-4,6.272398E-3,9.750799E-6,1.7772522E-3,-2.9227042E-3,-7.5377343E-4],"split_indices":[0,20,18,16,3,4,10,21,7,22,2,20,22,5,13,0,0,0,0,0,0,0,0,0,0,0,0,0,0,0,0],"split_type":[0,0,0,0,0,0,0,0,0,0,0,0,0,0,0,0,0,0,0,0,0,0,0,0,0,0,0,0,0,0,0],"sum_hessian":[6.316668E3,3.209418E3,3.10725E3,2.988081E3,2.2133704E2,1.6751322E3,1.4321178E3,2.4615828E3,5.2649835E2,1.870651E2,3.427193E1,1.0250289E3,6.501033E2,1.1953595E3,2.3675829E2,2.3100486E3,1.5153406E2,4.2290726E2,1.0359109E2,2.491954E1,1.6214555E2,3.1121876E1,3.150055E0,9.7346857E2,5.1560326E1,6.4354285E2,6.5604157E0,9.687247E2,2.2663487E2,8.463538E1,1.5212291E2],"tree_param":{"num_deleted":"0","num_feature":"25","num_nodes":"31","size_leaf_vector":"1"}},{"base_weights":[3.7647726E-5,4.716682E-2,-4.8687536E-2,6.812692E-2,-5.2729987E-2,-6.3271925E-2,1.1052678E-1,2.6452364E-2,1.3545464E-1,-1.904467E-2,-1.9384962E-1,-6.488966E-2,6.9999998E-3,2.55257E-1,-1.08902864E-1,1.1788346E-3,-1.592657E-4,1.0681704E-3,3.3512504E-3,-9.580625E-5,-4.45755E-3,-3.354071E-3,2.3940117E-4,-3.9358996E-4,-1.2105841E-3,4.559758E-3,1.4273319E-3,-4.321021E-3,-1.6379051E-4],"categories":[],"categories_nodes":[],"categories_segments":[],"categories_sizes":[],"default_left":[0,1,1,1,0,1,0,0,0,0,0,0,0,1,1,0,0,0,0,0,0,0,0,0,0,0,0,0,0],"id":32,"left_children":[1,3,5,7,9,11,13,15,17,19,21,23,-1,25,27,-1,-1,-1,-1,-1,-1,-1,-1,-1,-1,-1,-1,-1,-1],"loss_changes":[1.4510037E1,6.728891E0,7.220951E0,7.4468784E0,2.646979E0,4.657049E0,8.318773E0,6.361767E0,5.7678375E0,1.8181138E0,3.3173928E0,4.0727873E0,0E0,3.4946003E0,3.1165996E0,0E0,0E0,0E0,0E0,0E0,0E0,0E0,0E0,0E0,0E0,0E0,0E0,0E0,0E0],"parents":[2147483647,0,0,1,1,2,2,3,3,4,4,5,5,6,6,7,7,8,8,9,9,10,10,11,11,13,13,14,14],"right_children":[2,4,6,8,10,12,14,16,18,20,22,24,-1,26,28,-1,-1,-1,-1,-1,-1,-1,-1,-1,-1,-1,-1,-1,-1],"split_conditions":[1E0,3E0,4E0,2E0,3E0,7E0,2E0,6E0,4E0,5E0,7E0,3E0,6.9999998E-3,1E0,1E0,1.1788346E-3,-1.592657E-4,1.0681704E-3,3.3512504E-3,-9.580625E-5,-4.45755E-3,-3.354071E-3,2.3940117E-4,-3.9358996E-4,-1.2105841E-3,4.559758E-3,1.4273319E-3,-4.321021E-3,-1.6379051E-4],"split_indices":[0,16,18,22,7,22,6,23,21,19,24,10,0,16,3,0,0,0,0,0,0,0,0,0,0,0,0,0,0],"split_type":[0,0,0,0,0,0,0,0,0,0,0,0,0,0,0,0,0,0,0,0,0,0,0,0,0,0,0,0,0],"sum_hessian":[6.316663E3,3.210935E3,3.105728E3,2.6543286E3,5.5660645E2,2.8456616E3,2.6006644E2,1.6403667E3,1.01396204E3,4.5026337E2,1.06343094E2,2.8424304E3,3.2310905E0,1.5660829E2,1.0345814E2,5.189558E2,1.1214109E3,8.8811914E2,1.2584294E2,4.4149387E2,8.769478E0,6.41241E1,4.2218994E1,1.9553541E3,8.870764E2,5.516079E1,1.014475E2,2.2208925E1,8.124921E1],"tree_param":{"num_deleted":"0","num_feature":"25","num_nodes":"29","size_leaf_vector":"1"}},{"base_weights":[3.8654136E-5,4.6909746E-2,-4.846655E-2,3.4422066E-2,2.1423511E-1,-9.293183E-2,3.5032548E-3,5.521228E-2,-6.29278E-2,2.7437526E-1,-1.1376639E-1,-1.6003905E-1,-6.0708813E-2,3.451129E-2,-1.5295711E-1,1.6428214E-4,1.2103406E-3,-3.047436E-4,-1.942977E-3,-5.28916E-4,3.2446657E-3,-2.00589E-3,5.811291E-3,-1.9252766E-3,1.0391421E-4,-8.6267316E-4,5.812925E-4,1.0679337E-5,1.7655486E-3,-2.9145696E-3,-7.467834E-4],"categories":[],"categories_nodes":[],"categories_segments":[],"categories_sizes":[],"default_left":[0,1,1,1,0,1,1,1,0,0,0,1,1,1,0,0,0,0,0,0,0,0,0,0,0,0,0,0,0,0,0],"id":33,"left_children":[1,3,5,7,9,11,13,15,17,19,21,23,25,27,29,-1,-1,-1,-1,-1,-1,-1,-1,-1,-1,-1,-1,-1,-1,-1,-1],"loss_changes":[1.43654E1,6.707155E0,7.1759753E0,6.058001E0,4.4296722E0,3.608962E0,6.956254E0,6.2922134E0,2.240491E0,3.1109114E0,2.2436435E0,3.0045357E0,3.443852E0,5.6840353E0,2.5494833E0,0E0,0E0,0E0,0E0,0E0,0E0,0E0,0E0,0E0,0E0,0E0,0E0,0E0,0E0,0E0,0E0],"parents":[2147483647,0,0,1,1,2,2,3,3,4,4,5,5,6,6,7,7,8,8,9,9,10,10,11,11,12,12,13,13,14,14],"right_children":[2,4,6,8,10,12,14,16,18,20,22,24,26,28,30,-1,-1,-1,-1,-1,-1,-1,-1,-1,-1,-1,-1,-1,-1,-1,-1],"split_conditions":[1E0,4E0,2E0,3E0,3E0,1E0,3E0,2E0,3E0,1E0,5E0,1.2E1,3E0,3E0,1E0,1.6428214E-4,1.2103406E-3,-3.047436E-4,-1.942977E-3,-5.28916E-4,3.2446657E-3,-2.00589E-3,5.811291E-3,-1.9252766E-3,1.0391421E-4,-8.6267316E-4,5.812925E-4,1.0679337E-5,1.7655486E-3,-2.9145696E-3,-7.467834E-4],"split_indices":[0,20,18,16,3,4,10,22,7,22,2,12,22,5,13,0,0,0,0,0,0,0,0,0,0,0,0,0,0,0,0],"split_type":[0,0,0,0,0,0,0,0,0,0,0,0,0,0,0,0,0,0,0,0,0,0,0,0,0,0,0,0,0,0,0],"sum_hessian":[6.3166504E3,3.2124543E3,3.104196E3,2.9904775E3,2.2197697E2,1.6724565E3,1.4317394E3,2.4645718E3,5.2590564E2,1.8772118E2,3.4255795E1,5.41263E2,1.1311936E3,1.1955743E3,2.3616501E2,1.551584E3,9.129878E2,4.2271155E2,1.0319411E2,2.4911085E1,1.6281009E2,3.108346E1,3.1723347E0,4.544945E2,8.676849E1,9.3119543E2,1.9999812E2,9.685437E2,2.2703064E2,8.42958E1,1.5186922E2],"tree_param":{"num_deleted":"0","num_feature":"25","num_nodes":"31","size_leaf_vector":"1"}},{"base_weights":[3.8294856E-5,4.6655558E-2,-4.8250113E-2,3.916446E-2,3.225785E-1,-6.276459E-2,1.098347E-1,1.9798802E-2,1.3492797E-1,-1.6434316E-1,4.0925992E-1,-6.438019E-2,6.9999998E-3,2.5332072E-1,-1.0849788E-1,3.9953867E-4,-7.9000543E-4,3.5148265E-4,2.3313707E-3,-2.5583804E-3,1.029918E-3,2.4825456E-3,6.9999998E-3,-9.306402E-4,-1.4881346E-4,1.6163316E-3,4.9638073E-3,-4.317861E-3,-1.6403453E-4],"categories":[],"categories_nodes":[],"categories_segments":[],"categories_sizes":[],"default_left":[0,1,1,1,0,1,0,1,0,0,0,1,0,0,1,0,0,0,0,0,0,0,0,0,0,0,0,0,0],"id":34,"left_children":[1,3,5,7,9,11,13,15,17,19,21,23,-1,25,27,-1,-1,-1,-1,-1,-1,-1,-1,-1,-1,-1,-1,-1,-1],"loss_changes":[1.4223757E1,6.632577E0,7.128385E0,5.8040624E0,3.6480398E0,4.6240797E0,8.215424E0,5.1917305E0,5.1511984E0,3.573894E-1,3.3975925E0,4.0310097E0,0E0,3.4412298E0,3.0997086E0,0E0,0E0,0E0,0E0,0E0,0E0,0E0,0E0,0E0,0E0,0E0,0E0,0E0,0E0],"parents":[2147483647,0,0,1,1,2,2,3,3,4,4,5,5,6,6,7,7,8,8,9,9,10,10,11,11,13,13,14,14],"right_children":[2,4,6,8,10,12,14,16,18,20,22,24,-1,26,28,-1,-1,-1,-1,-1,-1,-1,-1,-1,-1,-1,-1,-1,-1],"split_conditions":[1E0,5E0,4E0,3E0,1E0,7E0,2E0,3E0,7E0,2E0,8E0,2E0,6.9999998E-3,4E0,1E0,3.9953867E-4,-7.9000543E-4,3.5148265E-4,2.3313707E-3,-2.5583804E-3,1.029918E-3,2.4825456E-3,6.9999998E-3,-9.306402E-4,-1.4881346E-4,1.6163316E-3,4.9638073E-3,-4.317861E-3,-1.6403453E-4],"split_indices":[0,20,18,22,19,22,6,7,12,1,23,5,0,20,3,0,0,0,0,0,0,0,0,0,0,0,0,0,0],"split_type":[0,0,0,0,0,0,0,0,0,0,0,0,0,0,0,0,0,0,0,0,0,0,0,0,0,0,0,0,0],"sum_hessian":[6.3166553E3,3.213958E3,3.102697E3,3.1301196E3,8.383845E1,2.8423325E3,2.6036438E2,2.604612E3,5.255077E2,1.25340605E1,7.130439E1,2.8390789E3,3.253822E0,1.5701524E2,1.0334914E2,2.1637937E3,4.408183E2,2.61343E2,2.6416467E2,9.370151E0,3.1639104E0,4.7999237E1,2.3305153E1,1.7969141E3,1.0421648E3,1.1521762E2,4.1797623E1,2.2095741E1,8.1253395E1],"tree_param":{"num_deleted":"0","num_feature":"25","num_nodes":"29","size_leaf_vector":"1"}},{"base_weights":[4.068943E-5,4.640435E-2,-4.8030753E-2,6.709287E-2,-5.2442566E-2,-9.229431E-2,3.6352442E-3,5.2856807E-2,2.5924373E-1,-1.9149443E-2,-1.9254707E-1,-1.2921615E-1,-3.4065466E-2,3.4457453E-2,-1.5223207E-1,7.9820363E-4,-1.21185505E-4,9.413678E-4,4.1609243E-3,-9.713512E-5,-4.4564162E-3,-3.3445433E-3,2.4871208E-4,-1.4269098E-3,1.223475E-3,-5.009094E-4,2.82732E-3,1.2232308E-5,1.7530622E-3,-2.9073956E-3,-7.4119866E-4],"categories":[],"categories_nodes":[],"categories_segments":[],"categories_sizes":[],"default_left":[0,1,1,1,0,1,1,0,1,0,0,1,1,1,0,0,0,0,0,0,0,0,0,0,0,0,0,0,0,0,0],"id":35,"left_children":[1,3,5,7,9,11,13,15,17,19,21,23,25,27,29,-1,-1,-1,-1,-1,-1,-1,-1,-1,-1,-1,-1,-1,-1,-1,-1],"loss_changes":[1.4082747E1,6.5811386E0,7.0947742E0,7.2632E0,2.595594E0,3.587717E0,6.88656E0,4.3422747E0,4.706108E0,1.8121122E0,3.3060102E0,3.4822311E0,3.3125513E0,5.601517E0,2.5389671E0,0E0,0E0,0E0,0E0,0E0,0E0,0E0,0E0,0E0,0E0,0E0,0E0,0E0,0E0,0E0,0E0],"parents":[2147483647,0,0,1,1,2,2,3,3,4,4,5,5,6,6,7,7,8,8,9,9,10,10,11,11,12,12,13,13,14,14],"right_children":[2,4,6,8,10,12,14,16,18,20,22,24,26,28,30,-1,-1,-1,-1,-1,-1,-1,-1,-1,-1,-1,-1,-1,-1,-1,-1],"split_conditions":[1E0,3E0,2E0,4E0,3E0,2E0,3E0,3E0,6E0,5E0,7E0,4E0,4E0,3E0,1E0,7.9820363E-4,-1.21185505E-4,9.413678E-4,4.1609243E-3,-9.713512E-5,-4.4564162E-3,-3.3445433E-3,2.4871208E-4,-1.4269098E-3,1.223475E-3,-5.009094E-4,2.82732E-3,1.2232308E-5,1.7530622E-3,-2.9073956E-3,-7.4119866E-4],"split_indices":[0,16,18,21,7,4,10,15,24,19,24,20,22,5,13,0,0,0,0,0,0,0,0,0,0,0,0,0,0,0,0],"split_type":[0,0,0,0,0,0,0,0,0,0,0,0,0,0,0,0,0,0,0,0,0,0,0,0,0,0,0,0,0,0,0],"sum_hessian":[6.3166245E3,3.2154453E3,3.1011792E3,2.6591997E3,5.562456E2,1.6698177E3,1.4313613E3,2.4769617E3,1.8223798E2,4.5036237E2,1.0588322E2,1.0211233E3,6.4869446E2,1.1956957E3,2.3566565E2,1.7503647E3,7.2659705E2,8.956134E1,9.267664E1,4.4161462E2,8.747734E0,6.374139E1,4.2141823E1,9.696191E2,5.1504223E1,6.182611E2,3.043339E1,9.682413E2,2.274544E2,8.399853E1,1.5166713E2],"tree_param":{"num_deleted":"0","num_feature":"25","num_nodes":"31","size_leaf_vector":"1"}},{"base_weights":[4.0061896E-5,4.615187E-2,-4.781545E-2,3.379647E-2,2.1119183E-1,-6.2260143E-2,1.0914812E-1,5.433414E-2,-6.25971E-2,2.7053267E-1,-1.13912106E-1,-6.387355E-2,6.9999998E-3,2.514059E-1,-1.08094804E-1,1.5974512E-4,1.1931189E-3,-3.0516257E-4,-1.9301695E-3,-5.313049E-4,3.1982474E-3,-2.0044548E-3,5.736966E-3,-9.241086E-4,-1.468742E-4,4.480425E-3,1.4061966E-3,-4.314691E-3,-1.6427758E-4],"categories":[],"categories_nodes":[],"categories_segments":[],"categories_sizes":[],"default_left":[0,1,1,1,0,1,0,1,0,0,0,1,0,1,1,0,0,0,0,0,0,0,0,0,0,0,0,0,0],"id":36,"left_children":[1,3,5,7,9,11,13,15,17,19,21,23,-1,25,27,-1,-1,-1,-1,-1,-1,-1,-1,-1,-1,-1,-1,-1,-1],"loss_changes":[1.3943351E1,6.554679E0,7.036964E0,5.932614E0,4.350971E0,4.5909605E0,8.113666E0,6.1533823E0,2.1969922E0,3.0429392E0,2.2135527E0,3.980424E0,0E0,3.388111E0,3.0829E0,0E0,0E0,0E0,0E0,0E0,0E0,0E0,0E0,0E0,0E0,0E0,0E0,0E0,0E0],"parents":[2147483647,0,0,1,1,2,2,3,3,4,4,5,5,6,6,7,7,8,8,9,9,10,10,11,11,13,13,14,14],"right_children":[2,4,6,8,10,12,14,16,18,20,22,24,-1,26,28,-1,-1,-1,-1,-1,-1,-1,-1,-1,-1,-1,-1,-1,-1],"split_conditions":[1E0,4E0,4E0,3E0,3E0,7E0,2E0,2E0,3E0,1E0,5E0,2E0,6.9999998E-3,1E0,1E0,1.5974512E-4,1.1931189E-3,-3.0516257E-4,-1.9301695E-3,-5.313049E-4,3.1982474E-3,-2.0044548E-3,5.736966E-3,-9.241086E-4,-1.468742E-4,4.480425E-3,1.4061966E-3,-4.314691E-3,-1.6427758E-4],"split_indices":[0,20,18,16,3,22,6,22,7,22,2,5,0,16,3,0,0,0,0,0,0,0,0,0,0,0,0,0,0],"split_type":[0,0,0,0,0,0,0,0,0,0,0,0,0,0,0,0,0,0,0,0,0,0,0,0,0,0,0,0,0],"sum_hessian":[6.3166323E3,3.2169417E3,3.099691E3,2.9940059E3,2.2293573E2,2.8390303E3,2.606606E2,2.4685017E3,5.2550415E2,1.886665E2,3.4269222E1,2.8357534E3,3.2767189E0,1.5741975E2,1.0324086E2,1.5529583E3,9.155435E2,4.2274963E2,1.0275451E2,2.4925043E1,1.6374146E2,3.1067911E1,3.2013094E0,1.7940085E3,1.041745E3,5.5632446E1,1.0178731E2,2.198331E1,8.125755E1],"tree_param":{"num_deleted":"0","num_feature":"25","num_nodes":"29","size_leaf_vector":"1"}},{"base_weights":[4.1680545E-5,4.5902126E-2,-4.7597952E-2,3.3616975E-2,2.0971735E-1,-9.165939E-2,3.7646631E-3,5.4035127E-2,-6.2327284E-2,2.6847032E-1,-1.1343637E-1,-1.5856744E-1,-5.959032E-2,3.4404207E-2,-1.5151691E-1,4.119393E-4,2.4697797E-3,-3.0374344E-4,-1.9243612E-3,-5.2903907E-4,3.1723361E-3,-1.9986986E-3,5.6902487E-3,-1.9110246E-3,1.1756733E-4,-8.506922E-4,5.8637146E-4,1.3860447E-5,1.7402372E-3,-2.9001778E-3,-7.358373E-4],"categories":[],"categories_nodes":[],"categories_segments":[],"categories_sizes":[],"default_left":[0,1,1,1,0,1,1,1,0,0,0,1,1,1,0,0,0,0,0,0,0,0,0,0,0,0,0,0,0,0,0],"id":37,"left_children":[1,3,5,7,9,11,13,15,17,19,21,23,25,27,29,-1,-1,-1,-1,-1,-1,-1,-1,-1,-1,-1,-1,-1,-1,-1,-1],"loss_changes":[1.3804745E1,6.472021E0,7.014152E0,5.8725843E0,4.291029E0,3.5699663E0,6.8182764E0,6.1116295E0,2.181662E0,2.9971123E0,2.1915913E0,2.994114E0,3.406774E0,5.517055E0,2.5278897E0,0E0,0E0,0E0,0E0,0E0,0E0,0E0,0E0,0E0,0E0,0E0,0E0,0E0,0E0,0E0,0E0],"parents":[2147483647,0,0,1,1,2,2,3,3,4,4,5,5,6,6,7,7,8,8,9,9,10,10,11,11,12,12,13,13,14,14],"right_children":[2,4,6,8,10,12,14,16,18,20,22,24,26,28,30,-1,-1,-1,-1,-1,-1,-1,-1,-1,-1,-1,-1,-1,-1,-1,-1],"split_conditions":[1E0,4E0,2E0,3E0,3E0,1E0,3E0,4E0,3E0,1E0,5E0,1.2E1,3E0,3E0,1E0,4.119393E-4,2.4697797E-3,-3.0374344E-4,-1.9243612E-3,-5.2903907E-4,3.1723361E-3,-1.9986986E-3,5.6902487E-3,-1.9110246E-3,1.1756733E-4,-8.506922E-4,5.8637146E-4,1.3860447E-5,1.7402372E-3,-2.9001778E-3,-7.358373E-4],"split_indices":[0,20,18,16,3,4,10,21,7,22,2,12,22,5,13,0,0,0,0,0,0,0,0,0,0,0,0,0,0,0,0],"split_type":[0,0,0,0,0,0,0,0,0,0,0,0,0,0,0,0,0,0,0,0,0,0,0,0,0,0,0,0,0,0,0],"sum_hessian":[6.316612E3,3.218423E3,3.0981887E3,2.99502E3,2.2340321E2,1.667198E3,1.4309908E3,2.4698428E3,5.25177E2,1.8917778E2,3.4225426E1,5.389022E2,1.1282958E3,1.1958157E3,2.3517516E2,2.3168591E3,1.5298364E2,4.2262064E2,1.02556366E2,2.4911804E1,1.6426598E2,3.10057E1,3.219728E0,4.5236942E2,8.653277E1,9.284815E2,1.9981425E2,9.679244E2,2.2789131E2,8.370153E1,1.5147363E2],"tree_param":{"num_deleted":"0","num_feature":"25","num_nodes":"31","size_leaf_vector":"1"}},{"base_weights":[4.1418807E-5,4.5654103E-2,-4.7385E-2,1.0813536E-2,1.0274745E-1,-9.128869E-2,3.7449114E-3,3.132834E-2,-9.220982E-2,7.789824E-2,2.74834E-1,-1.2809043E-1,-3.333595E-2,3.4222208E-2,-1.5099917E-1,1.2073306E-3,-1.14218805E-4,-1.8832822E-3,-2.4826128E-5,4.575882E-4,1.8961788E-3,2.0622942E-3,4.9478975E-3,-1.4155789E-3,1.226389E-3,-4.1020723E-4,6.186861E-3,1.37914885E-5,1.728628E-3,-2.8942495E-3,-7.327439E-4],"categories":[],"categories_nodes":[],"categories_segments":[],"categories_sizes":[],"default_left":[0,1,1,1,0,1,1,0,0,0,0,1,1,1,0,0,0,0,0,0,0,0,0,0,0,0,0,0,0,0,0],"id":38,"left_children":[1,3,5,7,9,11,13,15,17,19,21,23,25,27,29,-1,-1,-1,-1,-1,-1,-1,-1,-1,-1,-1,-1,-1,-1,-1,-1],"loss_changes":[1.3668721E1,6.40578E0,6.95408E0,4.232808E0,5.1977863E0,3.5503397E0,6.758963E0,6.383376E0,2.8680475E0,3.8257637E0,2.215909E0,3.458212E0,3.2756383E0,5.4511886E0,2.5160213E0,0E0,0E0,0E0,0E0,0E0,0E0,0E0,0E0,0E0,0E0,0E0,0E0,0E0,0E0,0E0,0E0],"parents":[2147483647,0,0,1,1,2,2,3,3,4,4,5,5,6,6,7,7,8,8,9,9,10,10,11,11,12,12,13,13,14,14],"right_children":[2,4,6,8,10,12,14,16,18,20,22,24,26,28,30,-1,-1,-1,-1,-1,-1,-1,-1,-1,-1,-1,-1,-1,-1,-1,-1],"split_conditions":[1E0,2E0,2E0,3E0,4E0,2E0,3E0,6E0,7E0,3E0,3E0,4E0,5E0,3E0,1E0,1.2073306E-3,-1.14218805E-4,-1.8832822E-3,-2.4826128E-5,4.575882E-4,1.8961788E-3,2.0622942E-3,4.9478975E-3,-1.4155789E-3,1.226389E-3,-4.1020723E-4,6.186861E-3,1.37914885E-5,1.728628E-3,-2.8942495E-3,-7.327439E-4],"split_indices":[0,22,18,7,21,4,10,23,24,5,6,20,22,5,13,0,0,0,0,0,0,0,0,0,0,0,0,0,0,0,0],"split_type":[0,0,0,0,0,0,0,0,0,0,0,0,0,0,0,0,0,0,0,0,0,0,0,0,0,0,0,0,0,0,0],"sum_hessian":[6.316615E3,3.2198958E3,3.0967195E3,2.0003774E3,1.2195183E3,1.6656721E3,1.4310474E3,1.6687742E3,3.316032E2,1.0669098E3,1.5260854E2,1.01800085E3,6.476713E2,1.1962261E3,2.3482133E2,5.392343E2,1.1295398E3,1.5956918E2,1.7203404E2,8.296471E2,2.3726265E2,1.1780312E2,3.4805405E1,9.665213E2,5.1479515E1,6.410529E2,6.618401E0,9.679378E2,2.2828825E2,8.345913E1,1.5136221E2],"tree_param":{"num_deleted":"0","num_feature":"25","num_nodes":"31","size_leaf_vector":"1"}},{"base_weights":[4.187894E-5,4.5407787E-2,-4.7171783E-2,3.8037557E-2,3.1491166E-1,-6.1532885E-2,1.08439095E-1,1.8977297E-2,1.320052E-1,-1.6513409E-1,3.9972422E-1,-6.314462E-2,6.9999998E-3,2.4945764E-1,-1.0769538E-1,3.8830005E-4,-7.862952E-4,7.396522E-4,2.9836542E-3,-2.5594917E-3,9.905702E-4,2.4174687E-3,6.9999998E-3,-3.811371E-4,-1.1844661E-3,1.5913978E-3,4.877261E-3,-4.3110265E-3,-1.6553608E-4],"categories":[],"categories_nodes":[],"categories_segments":[],"categories_sizes":[],"default_left":[0,1,1,1,0,1,0,1,0,0,0,0,0,0,1,0,0,0,0,0,0,0,0,0,0,0,0,0,0],"id":39,"left_children":[1,3,5,7,9,11,13,15,17,19,21,23,-1,25,27,-1,-1,-1,-1,-1,-1,-1,-1,-1,-1,-1,-1,-1,-1],"loss_changes":[1.353377E1,6.3886113E0,6.9259977E0,5.617299E0,3.5527477E0,4.555565E0,8.011357E0,5.0601482E0,5.085288E0,3.5084495E-1,3.301608E0,3.9156837E0,0E0,3.3404636E0,3.0623028E0,0E0,0E0,0E0,0E0,0E0,0E0,0E0,0E0,0E0,0E0,0E0,0E0,0E0,0E0],"parents":[2147483647,0,0,1,1,2,2,3,3,4,4,5,5,6,6,7,7,8,8,9,9,10,10,11,11,13,13,14,14],"right_children":[2,4,6,8,10,12,14,16,18,20,22,24,-1,26,28,-1,-1,-1,-1,-1,-1,-1,-1,-1,-1,-1,-1,-1,-1],"split_conditions":[1E0,5E0,4E0,3E0,1E0,7E0,2E0,3E0,3E0,2E0,8E0,3E0,6.9999998E-3,4E0,1E0,3.8830005E-4,-7.862952E-4,7.396522E-4,2.9836542E-3,-2.5594917E-3,9.905702E-4,2.4174687E-3,6.9999998E-3,-3.811371E-4,-1.1844661E-3,1.5913978E-3,4.877261E-3,-4.3110265E-3,-1.6553608E-4],"split_indices":[0,20,18,22,19,22,6,7,19,1,23,10,0,20,3,0,0,0,0,0,0,0,0,0,0,0,0,0,0],"split_type":[0,0,0,0,0,0,0,0,0,0,0,0,0,0,0,0,0,0,0,0,0,0,0,0,0,0,0,0,0],"sum_hessian":[6.3166094E3,3.2213594E3,3.09525E3,3.1367195E3,8.4639984E1,2.8342827E3,2.6096725E2,2.6087637E3,5.2795575E2,1.2566357E1,7.207362E1,2.830983E3,3.2998278E0,1.5783347E2,1.031338E2,2.1683376E3,4.404261E2,3.9247363E2,1.3548215E2,9.374939E0,3.191417E0,4.8431118E1,2.3642506E1,1.9500403E3,8.809425E2,1.1565954E2,4.2173923E1,2.1854677E1,8.127911E1],"tree_param":{"num_deleted":"0","num_feature":"25","num_nodes":"29","size_leaf_vector":"1"}},{"base_weights":[4.3933105E-5,4.5163393E-2,-4.6956893E-2,6.542862E-2,-5.203594E-2,-9.0657026E-2,3.8692974E-3,5.1464126E-2,2.5277984E-1,-1.9374462E-2,-1.9047776E-1,-1.573245E-1,-5.876016E-2,3.4122095E-2,-1.501445E-1,7.8057335E-4,-1.2732764E-4,9.0377836E-4,4.064466E-3,-5.588266E-4,9.005289E-4,-3.330086E-3,2.6694642E-4,-1.8988211E-3,1.2770026E-4,-8.41662E-4,5.893063E-4,1.4551255E-5,1.7177361E-3,-2.8861493E-3,-7.2570815E-4],"categories":[],"categories_nodes":[],"categories_segments":[],"categories_sizes":[],"default_left":[0,1,1,1,0,1,1,0,1,0,0,1,1,1,0,0,0,0,0,0,0,0,0,0,0,0,0,0,0,0,0],"id":40,"left_children":[1,3,5,7,9,11,13,15,17,19,21,23,25,27,29,-1,-1,-1,-1,-1,-1,-1,-1,-1,-1,-1,-1,-1,-1,-1,-1],"loss_changes":[1.3399514E1,6.353562E0,6.874181E0,6.967389E0,2.5137103E0,3.5293894E0,6.6758733E0,4.242124E0,4.5755606E0,1.8090734E0,3.2949617E0,2.9813833E0,3.3752162E0,5.384281E0,2.5059166E0,0E0,0E0,0E0,0E0,0E0,0E0,0E0,0E0,0E0,0E0,0E0,0E0,0E0,0E0,0E0,0E0],"parents":[2147483647,0,0,1,1,2,2,3,3,4,4,5,5,6,6,7,7,8,8,9,9,10,10,11,11,12,12,13,13,14,14],"right_children":[2,4,6,8,10,12,14,16,18,20,22,24,26,28,30,-1,-1,-1,-1,-1,-1,-1,-1,-1,-1,-1,-1,-1,-1,-1,-1],"split_conditions":[1E0,3E0,2E0,4E0,3E0,1E0,3E0,3E0,6E0,2E0,7E0,1.2E1,3E0,3E0,1E0,7.8057335E-4,-1.2732764E-4,9.0377836E-4,4.064466E-3,-5.588266E-4,9.005289E-4,-3.330086E-3,2.6694642E-4,-1.8988211E-3,1.2770026E-4,-8.41662E-4,5.893063E-4,1.4551255E-5,1.7177361E-3,-2.8861493E-3,-7.2570815E-4],"split_indices":[0,16,18,21,7,4,10,15,24,7,24,12,22,5,13,0,0,0,0,0,0,0,0,0,0,0,0,0,0,0,0],"split_type":[0,0,0,0,0,0,0,0,0,0,0,0,0,0,0,0,0,0,0,0,0,0,0,0,0,0,0,0,0,0,0],"sum_hessian":[6.3165835E3,3.2228132E3,3.09377E3,2.6670774E3,5.557359E2,1.6630786E3,1.4306914E3,2.4832588E3,1.8381856E2,4.505752E2,1.0516068E2,5.369242E2,1.1261545E3,1.1964519E3,2.3423956E2,1.755738E3,7.275206E2,9.0141304E1,9.367725E1,3.3822327E2,1.1235195E2,6.316919E1,4.1991493E1,4.5056555E2,8.6358635E1,9.2644635E2,1.9970816E2,9.6779E2,2.2866191E2,8.313018E1,1.5110939E2],"tree_param":{"num_deleted":"0","num_feature":"25","num_nodes":"31","size_leaf_vector":"1"}},{"base_weights":[4.3337855E-5,4.4919007E-2,-4.674651E-2,3.2778986E-2,2.0626497E-1,-6.1038055E-2,1.0776074E-1,5.2922517E-2,-6.2112525E-2,2.6419693E-1,-1.13805994E-1,-6.2647484E-2,6.9999998E-3,2.4757946E-1,-1.0729601E-1,1.5232748E-4,1.1657452E-3,-3.0629124E-4,-1.9098502E-3,-5.3256506E-4,3.1210727E-3,-1.9988234E-3,5.6083817E-3,-9.0911385E-4,-1.4048685E-4,4.400428E-3,1.3857499E-3,-4.307837E-3,-1.657662E-4],"categories":[],"categories_nodes":[],"categories_segments":[],"categories_sizes":[],"default_left":[0,1,1,1,0,1,0,1,0,0,0,1,0,1,1,0,0,0,0,0,0,0,0,0,0,0,0,0,0],"id":41,"left_children":[1,3,5,7,9,11,13,15,17,19,21,23,-1,25,27,-1,-1,-1,-1,-1,-1,-1,-1,-1,-1,-1,-1,-1,-1],"loss_changes":[1.3267308E1,6.31071E0,6.8370886E0,5.7390957E0,4.211466E0,4.5221663E0,7.91249E0,5.9378486E0,2.127977E0,2.9253387E0,2.1596494E0,3.8842525E0,0E0,3.2796574E0,3.0456977E0,0E0,0E0,0E0,0E0,0E0,0E0,0E0,0E0,0E0,0E0,0E0,0E0,0E0,0E0],"parents":[2147483647,0,0,1,1,2,2,3,3,4,4,5,5,6,6,7,7,8,8,9,9,10,10,11,11,13,13,14,14],"right_children":[2,4,6,8,10,12,14,16,18,20,22,24,-1,26,28,-1,-1,-1,-1,-1,-1,-1,-1,-1,-1,-1,-1,-1,-1],"split_conditions":[1E0,4E0,4E0,3E0,3E0,7E0,2E0,2E0,3E0,1E0,5E0,2E0,6.9999998E-3,1E0,1E0,1.5232748E-4,1.1657452E-3,-3.0629124E-4,-1.9098502E-3,-5.3256506E-4,3.1210727E-3,-1.9988234E-3,5.6083817E-3,-9.0911385E-4,-1.4048685E-4,4.400428E-3,1.3857499E-3,-4.307837E-3,-1.657662E-4],"split_indices":[0,20,18,16,3,22,6,22,7,22,2,5,0,16,3,0,0,0,0,0,0,0,0,0,0,0,0,0,0],"split_type":[0,0,0,0,0,0,0,0,0,0,0,0,0,0,0,0,0,0,0,0,0,0,0,0,0,0,0,0,0],"sum_hessian":[6.316591E3,3.224268E3,3.0923228E3,2.9997627E3,2.2450548E2,2.8310613E3,2.6126132E2,2.4748457E3,5.2491693E2,1.9024603E2,3.425944E1,2.8277383E3,3.323056E0,1.5823434E2,1.0302697E2,1.5552103E3,9.196353E2,4.228523E2,1.02064644E2,2.4932413E1,1.6531361E2,3.1007046E1,3.252398E0,1.7873737E3,1.0403646E3,5.6116142E1,1.02118195E2,2.1743904E1,8.1283066E1],"tree_param":{"num_deleted":"0","num_feature":"25","num_nodes":"29","size_leaf_vector":"1"}},{"base_weights":[4.488553E-5,4.467647E-2,-4.653338E-2,3.2605216E-2,2.048346E-1,-9.003215E-2,3.993269E-3,5.263201E-2,-6.184451E-2,2.621993E-1,-1.13331825E-1,-1.2671395E-1,-3.23634E-2,3.406642E-2,-1.4943586E-1,4.002221E-4,2.4098486E-3,-3.048673E-4,-1.904065E-3,-5.3029455E-4,3.0960229E-3,3.6587275E-3,-2.3522708E-3,-1.4018035E-3,1.2326078E-3,3.5133172E-4,-1.0644367E-3,1.6124306E-5,1.7052013E-3,-2.8789227E-3,-7.2043616E-4],"categories":[],"categories_nodes":[],"categories_segments":[],"categories_sizes":[],"default_left":[0,1,1,1,0,1,1,1,0,0,0,1,1,1,0,0,0,0,0,0,0,0,0,0,0,0,0,0,0,0,0],"id":42,"left_children":[1,3,5,7,9,11,13,15,17,19,21,23,25,27,29,-1,-1,-1,-1,-1,-1,-1,-1,-1,-1,-1,-1,-1,-1,-1,-1],"loss_changes":[1.3135436E1,6.2315574E0,6.7957907E0,5.6811376E0,4.153928E0,3.5106707E0,6.6094184E0,5.873824E0,2.1130795E0,2.88169E0,2.1431167E0,3.4347382E0,3.2404087E0,5.3031583E0,2.494813E0,0E0,0E0,0E0,0E0,0E0,0E0,0E0,0E0,0E0,0E0,0E0,0E0,0E0,0E0,0E0,0E0],"parents":[2147483647,0,0,1,1,2,2,3,3,4,4,5,5,6,6,7,7,8,8,9,9,10,10,11,11,12,12,13,13,14,14],"right_children":[2,4,6,8,10,12,14,16,18,20,22,24,26,28,30,-1,-1,-1,-1,-1,-1,-1,-1,-1,-1,-1,-1,-1,-1,-1,-1],"split_conditions":[1E0,4E0,2E0,3E0,3E0,2E0,3E0,4E0,3E0,1E0,4E0,4E0,7E0,3E0,1E0,4.002221E-4,2.4098486E-3,-3.048673E-4,-1.904065E-3,-5.3029455E-4,3.0960229E-3,3.6587275E-3,-2.3522708E-3,-1.4018035E-3,1.2326078E-3,3.5133172E-4,-1.0644367E-3,1.6124306E-5,1.7052013E-3,-2.8789227E-3,-7.2043616E-4],"split_indices":[0,20,18,16,3,4,10,21,7,22,23,20,12,5,13,0,0,0,0,0,0,0,0,0,0,0,0,0,0,0,0],"split_type":[0,0,0,0,0,0,0,0,0,0,0,0,0,0,0,0,0,0,0,0,0,0,0,0,0,0,0,0,0,0,0],"sum_hessian":[6.3165713E3,3.2257134E3,3.090858E3,3.000748E3,2.2496533E2,1.660521E3,1.4303369E3,2.4761553E3,5.245927E2,1.9074951E2,3.421582E1,1.01420856E3,6.463124E2,1.1965775E3,2.3375937E2,2.3219204E3,1.5423483E2,4.2272278E2,1.018699E2,2.4919138E1,1.6583038E2,6.5326385E0,2.768318E1,9.627817E2,5.142686E1,3.3845892E2,3.0785345E2,9.6748413E2,2.2909344E2,8.283887E1,1.509205E2],"tree_param":{"num_deleted":"0","num_feature":"25","num_nodes":"31","size_leaf_vector":"1"}},{"base_weights":[4.4510016E-5,4.443522E-2,-4.632454E-2,1.0223739E-2,1.003376E-1,-6.0546502E-2,1.0708481E-1,7.519451E-2,-2.1813938E-2,7.594739E-2,2.684167E-1,-6.2153574E-2,6.9999998E-3,2.4571587E-1,-1.0689851E-1,5.0929305E-4,4.4082026E-3,-2.672317E-4,6.1079245E-3,4.4158142E-4,1.8623628E-3,2.0114412E-3,4.8322324E-3,-9.026565E-4,-1.3875378E-4,1.5671245E-3,4.7942507E-3,-4.3046377E-3,-1.6599531E-4],"categories":[],"categories_nodes":[],"categories_segments":[],"categories_sizes":[],"default_left":[0,1,1,0,0,1,0,0,1,0,0,1,0,0,1,0,0,0,0,0,0,0,0,0,0,0,0,0,0],"id":43,"left_children":[1,3,5,7,9,11,13,15,17,19,21,23,-1,25,27,-1,-1,-1,-1,-1,-1,-1,-1,-1,-1,-1,-1,-1,-1],"loss_changes":[1.3005873E1,6.172827E0,6.749114E0,4.1723804E0,5.003315E0,4.4886093E0,7.81489E0,5.850466E0,4.1863637E0,3.7486253E0,2.1411562E0,3.8335476E0,0E0,3.2454062E0,3.0291739E0,0E0,0E0,0E0,0E0,0E0,0E0,0E0,0E0,0E0,0E0,0E0,0E0,0E0,0E0],"parents":[2147483647,0,0,1,1,2,2,3,3,4,4,5,5,6,6,7,7,8,8,9,9,10,10,11,11,13,13,14,14],"right_children":[2,4,6,8,10,12,14,16,18,20,22,24,-1,26,28,-1,-1,-1,-1,-1,-1,-1,-1,-1,-1,-1,-1,-1,-1],"split_conditions":[1E0,2E0,4E0,6E0,4E0,7E0,2E0,7E0,6E0,3E0,3E0,2E0,6.9999998E-3,4E0,1E0,5.0929305E-4,4.4082026E-3,-2.672317E-4,6.1079245E-3,4.4158142E-4,1.8623628E-3,2.0114412E-3,4.8322324E-3,-9.026565E-4,-1.3875378E-4,1.5671245E-3,4.7942507E-3,-4.3046377E-3,-1.6599531E-4],"split_indices":[0,22,18,23,21,22,6,4,4,5,6,5,0,20,3,0,0,0,0,0,0,0,0,0,0,0,0,0,0],"split_type":[0,0,0,0,0,0,0,0,0,0,0,0,0,0,0,0,0,0,0,0,0,0,0,0,0,0,0,0,0],"sum_hessian":[6.3165757E3,3.227152E3,3.0894238E3,2.0027064E3,1.2244457E3,2.827869E3,2.6155496E2,6.609621E2,1.3417444E3,1.0705486E3,1.5389708E2,2.8245222E3,3.3464532E0,1.5863411E2,1.0292086E2,6.2089496E2,4.006716E1,1.3323625E3,9.38181E0,8.3210596E2,2.3844261E2,1.1866901E2,3.522808E1,1.7845316E3,1.0399907E3,1.1609299E2,4.254112E1,2.1633865E1,8.1286995E1],"tree_param":{"num_deleted":"0","num_feature":"25","num_nodes":"29","size_leaf_vector":"1"}},{"base_weights":[4.7213834E-5,4.419795E-2,-4.611307E-2,3.6949974E-2,3.0728057E-1,-8.9410596E-2,4.1151764E-3,1.819024E-2,1.2915906E-1,-1.6596109E-1,3.9026937E-1,-1.558715E-1,-5.766983E-2,3.4007467E-2,-1.4872229E-1,3.7822704E-4,-7.853596E-4,3.0699407E-4,2.2594202E-3,-2.561095E-3,9.5242274E-4,2.3518181E-3,6.8431348E-3,-1.8847188E-3,1.409827E-4,-8.3027885E-4,5.9615716E-4,-3.537753E-4,9.7136956E-4,-2.8717373E-3,-7.1501144E-4],"categories":[],"categories_nodes":[],"categories_segments":[],"categories_sizes":[],"default_left":[0,1,1,1,0,1,1,1,0,0,0,1,1,0,0,0,0,0,0,0,0,0,0,0,0,0,0,0,0,0,0],"id":44,"left_children":[1,3,5,7,9,11,13,15,17,19,21,23,25,27,29,-1,-1,-1,-1,-1,-1,-1,-1,-1,-1,-1,-1,-1,-1,-1,-1],"loss_changes":[1.28772545E1,6.1468396E0,6.7181363E0,5.4363985E0,3.4601002E0,3.490676E0,6.5427604E0,4.96642E0,5.056526E0,3.4463948E-1,3.206935E0,2.9706259E0,3.3489301E0,5.2496967E0,2.48422E0,0E0,0E0,0E0,0E0,0E0,0E0,0E0,0E0,0E0,0E0,0E0,0E0,0E0,0E0,0E0,0E0],"parents":[2147483647,0,0,1,1,2,2,3,3,4,4,5,5,6,6,7,7,8,8,9,9,10,10,11,11,12,12,13,13,14,14],"right_children":[2,4,6,8,10,12,14,16,18,20,22,24,26,28,30,-1,-1,-1,-1,-1,-1,-1,-1,-1,-1,-1,-1,-1,-1,-1,-1],"split_conditions":[1E0,5E0,2E0,3E0,1E0,1E0,3E0,3E0,7E0,2E0,8E0,1.2E1,3E0,2E0,1E0,3.7822704E-4,-7.853596E-4,3.0699407E-4,2.2594202E-3,-2.561095E-3,9.5242274E-4,2.3518181E-3,6.8431348E-3,-1.8847188E-3,1.409827E-4,-8.3027885E-4,5.9615716E-4,-3.537753E-4,9.7136956E-4,-2.8717373E-3,-7.1501144E-4],"split_indices":[0,20,18,22,19,4,10,7,12,1,23,12,22,3,13,0,0,0,0,0,0,0,0,0,0,0,0,0,0,0,0],"split_type":[0,0,0,0,0,0,0,0,0,0,0,0,0,0,0,0,0,0,0,0,0,0,0,0,0,0,0,0,0,0,0],"sum_hessian":[6.3165415E3,3.2285686E3,3.087973E3,3.1431155E3,8.545296E1,1.6579846E3,1.4299884E3,2.612754E3,5.303617E2,1.260029E1,7.285267E1,5.346301E2,1.1233545E3,1.1967106E3,2.332778E2,2.1724265E3,4.403273E2,2.6355646E2,2.668052E2,9.381857E0,3.2184336E0,4.8874588E1,2.397808E1,4.4849872E2,8.613142E1,9.2389355E2,1.9946095E2,5.703186E2,6.2639197E2,8.2551186E1,1.5072662E2],"tree_param":{"num_deleted":"0","num_feature":"25","num_nodes":"31","size_leaf_vector":"1"}},{"base_weights":[4.7082714E-5,4.396039E-2,-4.5906235E-2,6.381997E-2,-5.1649097E-2,-8.904697E-2,4.093296E-3,2.4244128E-2,1.2718968E-1,-1.951026E-2,-1.8870115E-1,-1.2560518E-1,-3.1657822E-2,3.3827227E-2,-1.4821008E-1,1.1374984E-3,-1.7394203E-4,-4.862096E-5,1.6606718E-3,-1.0083195E-4,-4.4566793E-3,-3.3178527E-3,2.835852E-4,-1.3906301E-3,1.2352283E-3,-4.7572408E-4,2.8003894E-3,1.5873808E-5,1.690986E-3,-2.8657874E-3,-7.1199087E-4],"categories":[],"categories_nodes":[],"categories_segments":[],"categories_sizes":[],"default_left":[0,1,1,1,0,1,1,0,0,0,0,1,1,1,0,0,0,0,0,0,0,0,0,0,0,0,0,0,0,0,0],"id":45,"left_children":[1,3,5,7,9,11,13,15,17,19,21,23,25,27,29,-1,-1,-1,-1,-1,-1,-1,-1,-1,-1,-1,-1,-1,-1,-1,-1],"loss_changes":[1.2750581E1,6.1381783E0,6.6602716E0,6.7074194E0,2.4464376E0,3.4735413E0,6.485639E0,6.1450725E0,5.280504E0,1.8101884E0,3.2874992E0,3.410718E0,3.2194576E0,5.2248764E0,2.4723678E0,0E0,0E0,0E0,0E0,0E0,0E0,0E0,0E0,0E0,0E0,0E0,0E0,0E0,0E0,0E0,0E0],"parents":[2147483647,0,0,1,1,2,2,3,3,4,4,5,5,6,6,7,7,8,8,9,9,10,10,11,11,12,12,13,13,14,14],"right_children":[2,4,6,8,10,12,14,16,18,20,22,24,26,28,30,-1,-1,-1,-1,-1,-1,-1,-1,-1,-1,-1,-1,-1,-1,-1,-1],"split_conditions":[1E0,3E0,2E0,2E0,3E0,2E0,3E0,6E0,1E0,5E0,7E0,4E0,4E0,3E0,1E0,1.1374984E-3,-1.7394203E-4,-4.862096E-5,1.6606718E-3,-1.0083195E-4,-4.4566793E-3,-3.3178527E-3,2.835852E-4,-1.3906301E-3,1.2352283E-3,-4.7572408E-4,2.8003894E-3,1.5873808E-5,1.690986E-3,-2.8657874E-3,-7.1199087E-4],"split_indices":[0,16,18,22,7,4,10,23,5,19,24,20,22,5,13,0,0,0,0,0,0,0,0,0,0,0,0,0,0,0,0],"split_type":[0,0,0,0,0,0,0,0,0,0,0,0,0,0,0,0,0,0,0,0,0,0,0,0,0,0,0,0,0,0,0],"sum_hessian":[6.316543E3,3.2299878E3,3.0865554E3,2.674736E3,5.5525183E2,1.6565044E3,1.4300509E3,1.6473258E3,1.0274103E3,4.5070374E2,1.0454809E2,1.0111744E3,6.4533E2,1.1971176E3,2.3293335E2,5.224773E2,1.1248485E3,2.3388129E2,7.9352893E2,4.41951E2,8.7527685E0,6.2692867E1,4.1855225E1,9.597697E2,5.1404705E1,6.147876E2,3.054239E1,9.675328E2,2.2958478E2,8.231446E1,1.5061888E2],"tree_param":{"num_deleted":"0","num_feature":"25","num_nodes":"31","size_leaf_vector":"1"}},{"base_weights":[4.6181347E-5,4.372171E-2,-4.5699477E-2,3.178699E-2,2.0157997E-1,-5.9835114E-2,1.0634198E-1,5.1554497E-2,-6.1661586E-2,2.582264E-1,-1.13811366E-1,-6.1439823E-2,6.9999998E-3,2.4380618E-1,-1.0656725E-1,3.9092655E-4,2.3702197E-3,-3.067214E-4,-1.8924226E-3,-5.305143E-4,3.047606E-3,-1.9948375E-3,5.5014715E-3,-8.939212E-4,-1.35022E-4,1.5572672E-3,4.7419006E-3,-4.3010116E-3,-1.680471E-4],"categories":[],"categories_nodes":[],"categories_segments":[],"categories_sizes":[],"default_left":[0,1,1,1,0,1,0,1,0,0,0,1,0,0,1,0,0,0,0,0,0,0,0,0,0,0,0,0,0],"id":46,"left_children":[1,3,5,7,9,11,13,15,17,19,21,23,-1,25,27,-1,-1,-1,-1,-1,-1,-1,-1,-1,-1,-1,-1,-1,-1],"loss_changes":[1.2624256E1,6.0834413E0,6.6391025E0,5.5567317E0,4.0852604E0,4.4488125E0,7.71975E0,5.727352E0,2.0713332E0,2.8082933E0,2.1154335E0,3.7786903E0,0E0,3.1738195E0,3.0081983E0,0E0,0E0,0E0,0E0,0E0,0E0,0E0,0E0,0E0,0E0,0E0,0E0,0E0,0E0],"parents":[2147483647,0,0,1,1,2,2,3,3,4,4,5,5,6,6,7,7,8,8,9,9,10,10,11,11,13,13,14,14],"right_children":[2,4,6,8,10,12,14,16,18,20,22,24,-1,26,28,-1,-1,-1,-1,-1,-1,-1,-1,-1,-1,-1,-1,-1,-1],"split_conditions":[1E0,4E0,4E0,3E0,3E0,7E0,2E0,4E0,3E0,1E0,5E0,2E0,6.9999998E-3,4E0,1E0,3.9092655E-4,2.3702197E-3,-3.067214E-4,-1.8924226E-3,-5.305143E-4,3.047606E-3,-1.9948375E-3,5.5014715E-3,-8.939212E-4,-1.35022E-4,1.5572672E-3,4.7419006E-3,-4.3010116E-3,-1.680471E-4],"split_indices":[0,20,18,16,3,22,6,21,7,22,2,5,0,20,3,0,0,0,0,0,0,0,0,0,0,0,0,0,0],"split_type":[0,0,0,0,0,0,0,0,0,0,0,0,0,0,0,0,0,0,0,0,0,0,0,0,0,0,0,0,0],"sum_hessian":[6.3165547E3,3.231415E3,3.0851396E3,3.0053965E3,2.2601872E2,2.823261E3,2.6187845E2,2.4810247E3,5.243716E2,1.9175877E2,3.4259937E1,2.8198877E3,3.373289E0,1.5904585E2,1.02832596E2,2.3259514E3,1.550734E2,4.228914E2,1.01480225E2,2.4920422E1,1.6683836E2,3.0964108E1,3.2958305E0,1.7807012E3,1.0391866E3,1.1626993E2,4.277592E1,2.1510408E1,8.132218E1],"tree_param":{"num_deleted":"0","num_feature":"25","num_nodes":"29","size_leaf_vector":"1"}},{"base_weights":[4.7816284E-5,4.34864E-2,-4.549058E-2,6.310669E-2,-5.118922E-2,-8.8430084E-2,4.2122086E-3,2.3828734E-2,1.25922E-1,-1.931906E-2,-1.8754938E-1,-1.5467308E-1,-5.6845393E-2,3.376715E-2,-1.4750049E-1,1.1269642E-3,-1.756891E-4,-5.2393705E-5,1.6447477E-3,-9.919183E-5,-4.45502E-3,-3.3093723E-3,2.9183985E-4,-1.8729102E-3,1.504504E-4,-8.2108483E-4,5.977209E-4,-3.5221595E-4,9.644144E-4,-2.858597E-3,-7.066187E-4],"categories":[],"categories_nodes":[],"categories_segments":[],"categories_sizes":[],"default_left":[0,1,1,1,0,1,1,0,0,0,0,1,1,0,0,0,0,0,0,0,0,0,0,0,0,0,0,0,0,0,0],"id":47,"left_children":[1,3,5,7,9,11,13,15,17,19,21,23,25,27,29,-1,-1,-1,-1,-1,-1,-1,-1,-1,-1,-1,-1,-1,-1,-1,-1],"loss_changes":[1.2498841E1,6.0102634E0,6.583803E0,6.6071415E0,2.411251E0,3.4539032E0,6.4200883E0,6.0708675E0,5.2117443E0,1.8044119E0,3.2775438E0,2.9575949E0,3.3111777E0,5.1844287E0,2.4617686E0,0E0,0E0,0E0,0E0,0E0,0E0,0E0,0E0,0E0,0E0,0E0,0E0,0E0,0E0,0E0,0E0],"parents":[2147483647,0,0,1,1,2,2,3,3,4,4,5,5,6,6,7,7,8,8,9,9,10,10,11,11,12,12,13,13,14,14],"right_children":[2,4,6,8,10,12,14,16,18,20,22,24,26,28,30,-1,-1,-1,-1,-1,-1,-1,-1,-1,-1,-1,-1,-1,-1,-1,-1],"split_conditions":[1E0,3E0,2E0,2E0,3E0,1E0,3E0,6E0,1E0,5E0,7E0,1.2E1,3E0,2E0,1E0,1.1269642E-3,-1.756891E-4,-5.2393705E-5,1.6447477E-3,-9.919183E-5,