{"learner":{"attributes":{"best_iteration":"375","best_score":"0.11193835639483912","scikit_learn":"{\"_estimator_type\": \"regressor\"}"},"feature_names":["season","gameweek","player_position","expected_goals_lag_1","expected_goals_lag_2","expected_goals_lag_3","expected_goals_lag_4","expected_goals_lag_5","expected_assists_lag_1","expected_assists_lag_2","expected_assists_lag_3","expected_assists_lag_4","expected_assists_lag_5","influence_lag_1","influence_lag_2","influence_lag_3","influence_lag_4","influence_lag_5","threat_lag_1","threat_lag_2","threat_lag_3","threat_lag_4","threat_lag_5","creativity_lag_1","creativity_lag_2","creativity_lag_3","creativity_lag_4","creativity_lag_5","goals_scored_lag_1","goals_scored_lag_2","goals_scored_lag_3","goals_scored_lag_4","goals_scored_lag_5","bps_lag_1","bps_lag_2","bps_lag_3","bps_lag_4","bps_lag_5","minutes_lag_1","minutes_lag_2","minutes_lag_3","minutes_lag_4","minutes_lag_5","goals_per_90_season_to_date","xGoals_per_90_season_to_date","is_home","opponent_xGC_per_game"],"feature_types":["int","int","int","float","float","float","float","float","float","float","float","float","float","float","float","float","float","float","float","float","float","float","float","float","float","float","float","float","float","float","float","float","float","float","float","float","float","float","float","float","float","float","float","float","float","int","float"],"gradient_booster":{"model":{"cats":{"enc":[],"feature_segments":[],"sorted_idx":[]},"gbtree_model_param":{"num_parallel_tree":"1","num_trees":"396"},"iteration_indptr":[0,1,2,3,4,5,6,7,8,9,10,11,12,13,14,15,16,17,18,19,20,21,22,23,24,25,26,27,28,29,30,31,32,33,34,35,36,37,38,39,40,41,42,43,44,45,46,47,48,49,50,51,52,53,54,55,56,57,58,59,60,61,62,63,64,65,66,67,68,69,70,71,72,73,74,75,76,77,78,79,80,81,82,83,84,85,86,87,88,89,90,91,92,93,94,95,96,97,98,99,100,101,102,103,104,105,106,107,108,109,110,111,112,113,114,115,116,117,118,119,120,121,122,123,124,125,126,127,128,129,130,131,132,133,134,135,136,137,138,139,140,141,142,143,144,145,146,147,148,149,150,151,152,153,154,155,156,157,158,159,160,161,162,163,164,165,166,167,168,169,170,171,172,173,174,175,176,177,178,179,180,181,182,183,184,185,186,187,188,189,190,191,192,193,194,195,196,197,198,199,200,201,202,203,204,205,206,207,208,209,210,211,212,213,214,215,216,217,218,219,220,221,222,223,224,225,226,227,228,229,230,231,232,233,234,235,236,237,238,239,240,241,242,243,244,245,246,247,248,249,250,251,252,253,254,255,256,257,258,259,260,261,262,263,264,265,266,267,268,269,270,271,272,273,274,275,276,277,278,279,280,281,282,283,284,285,286,287,288,289,290,291,292,293,294,295,296,297,298,299,300,301,302,303,304,305,306,307,308,309,310,311,312,313,314,315,316,317,318,319,320,321,322,323,324,325,326,327,328,329,330,331,332,333,334,335,336,337,338,339,340,341,342,343,344,345,346,347,348,349,350,351,352,353,354,355,356,357,358,359,360,361,362,363,364,365,366,367,368,369,370,371,372,373,374,375,376,377,378,379,380,381,382,383,384,385,386,387,388,389,390,391,392,393,394,395,396],"tree_info":[0,0,0,0,0,0,0,0,0,0,0,0,0,0,0,0,0,0,0,0,0,0,0,0,0,0,0,0,0,0,0,0,0,0,0,0,0,0,0,0,0,0,0,0,0,0,0,0,0,0,0,0,0,0,0,0,0,0,0,0,0,0,0,0,0,0,0,0,0,0,0,0,0,0,0,0,0,0,0,0,0,0,0,0,0,0,0,0,0,0,0,0,0,0,0,0,0,0,0,0,0,0,0,0,0,0,0,0,0,0,0,0,0,0,0,0,0,0,0,0,0,0,0,0,0,0,0,0,0,0,0,0,0,0,0,0,0,0,0,0,0,0,0,0,0,0,0,0,0,0,0,0,0,0,0,0,0,0,0,0,0,0,0,0,0,0,0,0,0,0,0,0,0,0,0,0,0,0,0,0,0,0,0,0,0,0,0,0,0,0,0,0,0,0,0,0,0,0,0,0,0,0,0,0,0,0,0,0,0,0,0,0,0,0,0,0,0,0,0,0,0,0,0,0,0,0,0,0,0,0,0,0,0,0,0,0,0,0,0,0,0,0,0,0,0,0,0,0,0,0,0,0,0,0,0,0,0,0,0,0,0,0,0,0,0,0,0,0,0,0,0,0,0,0,0,0,0,0,0,0,0,0,0,0,0,0,0,0,0,0,0,0,0,0,0,0,0,0,0,0,0,0,0,0,0,0,0,0,0,0,0,0,0,0,0,0,0,0,0,0,0,0,0,0,0,0,0,0,0,0,0,0,0,0,0,0,0,0,0,0,0,0,0,0,0,0,0,0,0,0,0,0,0,0,0,0,0,0,0,0,0,0,0,0,0,0,0,0,0,0,0,0,0,0,0,0,0,0,0,0,0,0,0,0,0,0,0,0,0,0,0,0,0,0,0,0],"trees":[{"base_weights":[-2.9690323E-8,-3.4828392E-1,7E-1,-3.9105085E-1,3.6392763E-1,-3.1845357E-2,7E-1,-2.2240676E-2,-5.399206E-3,3.8795394E-3,3.5E-2,-8.605237E-3,5.2852924E-3,1.640627E-2,3.5E-2],"categories":[],"categories_nodes":[],"categories_segments":[],"categories_sizes":[],"default_left":[1,1,0,0,0,1,0,0,0,0,0,0,0,0,0],"id":0,"left_children":[1,3,5,7,9,11,13,-1,-1,-1,-1,-1,-1,-1,-1],"loss_changes":[2.22981E3,1.5264117E2,2.674546E2,7.1836975E1,4.1970566E1,9.669873E0,4.2184937E1,0E0,0E0,0E0,0E0,0E0,0E0,0E0,0E0],"parents":[2147483647,0,0,1,1,2,2,3,3,4,4,5,5,6,6],"right_children":[2,4,6,8,10,12,14,-1,-1,-1,-1,-1,-1,-1,-1],"split_conditions":[2E0,4E-2,3E0,1E-1,1.891924E-1,1.1E1,1.01960786E-1,-2.2240676E-2,-5.399206E-3,3.8795394E-3,3.5E-2,-8.605237E-3,5.2852924E-3,1.640627E-2,3.5E-2],"split_indices":[18,4,2,23,44,34,44,0,0,0,0,0,0,0,0],"split_type":[0,0,0,0,0,0,0,0,0,0,0,0,0,0,0],"sum_hessian":[6.6755913E3,5.0056743E3,1.669917E3,4.7225454E3,2.831289E2,4.9927246E2,1.1706444E3,3.968281E3,7.5426434E2,1.9144374E2,9.1685165E1,2.4707832E2,2.5219415E2,3.0758893E2,8.6305554E2],"tree_param":{"num_deleted":"0","num_feature":"47","num_nodes":"15","size_leaf_vector":"1"}},{"base_weights":[3.9194888E-3,-3.456511E-1,7E-1,-3.8896978E-1,3.519521E-1,-3.1119065E-2,7E-1,-2.2182476E-2,-5.2941553E-3,3.7689551E-3,3.5E-2,-7.0002167E-3,7.0954794E-3,1.5737405E-2,3.5E-2],"categories":[],"categories_nodes":[],"categories_segments":[],"categories_sizes":[],"default_left":[1,1,0,0,0,1,0,0,0,0,0,0,0,0,0],"id":1,"left_children":[1,3,5,7,9,11,13,-1,-1,-1,-1,-1,-1,-1,-1],"loss_changes":[2.1685857E3,1.4879578E2,2.6650598E2,7.1655396E1,3.9978115E1,9.4304285E0,4.6065796E1,0E0,0E0,0E0,0E0,0E0,0E0,0E0,0E0],"parents":[2147483647,0,0,1,1,2,2,3,3,4,4,5,5,6,6],"right_children":[2,4,6,8,10,12,14,-1,-1,-1,-1,-1,-1,-1,-1],"split_conditions":[2E0,4E-2,3E0,1E-1,1.891924E-1,1.76E1,1.01960786E-1,-2.2182476E-2,-5.2941553E-3,3.7689551E-3,3.5E-2,-7.0002167E-3,7.0954794E-3,1.5737405E-2,3.5E-2],"split_indices":[18,4,2,23,44,14,44,0,0,0,0,0,0,0,0],"split_type":[0,0,0,0,0,0,0,0,0,0,0,0,0,0,0],"sum_hessian":[6.6233057E3,4.9183394E3,1.7049662E3,4.6312007E3,2.8713885E2,4.9849185E2,1.2064744E3,3.8809978E3,7.502028E2,1.9218788E2,9.495097E1,3.0607358E2,1.9241829E2,3.1267694E2,8.937974E2],"tree_param":{"num_deleted":"0","num_feature":"47","num_nodes":"15","size_leaf_vector":"1"}},{"base_weights":[7.6465453E-3,-3.429974E-1,7E-1,-3.8685912E-1,3.4002498E-1,1.0148444E-1,7E-1,-2.2123123E-2,-5.1905997E-3,3.6619266E-3,3.5E-2,-2.3067687E-4,2.0831414E-2,5.2187727E-3,3.5E-2],"categories":[],"categories_nodes":[],"categories_segments":[],"categories_sizes":[],"default_left":[1,1,0,0,0,0,0,0,0,0,0,0,0,0,0],"id":2,"left_children":[1,3,5,7,9,11,13,-1,-1,-1,-1,-1,-1,-1,-1],"loss_changes":[2.1066084E3,1.4496136E2,2.6814233E2,7.1454956E1,3.781515E1,2.5075903E1,2.4597168E1,0E0,0E0,0E0,0E0,0E0,0E0,0E0,0E0],"parents":[2147483647,0,0,1,1,2,2,3,3,4,4,5,5,6,6],"right_children":[2,4,6,8,10,12,14,-1,-1,-1,-1,-1,-1,-1,-1],"split_conditions":[2E0,4E-2,1.0316206E-1,1E-1,1.891924E-1,8E0,3E0,-2.2123123E-2,-5.1905997E-3,3.6619266E-3,3.5E-2,-2.3067687E-4,2.0831414E-2,5.2187727E-3,3.5E-2],"split_indices":[18,4,44,23,44,19,2,0,0,0,0,0,0,0,0],"split_type":[0,0,0,0,0,0,0,0,0,0,0,0,0,0,0],"sum_hessian":[6.574342E3,4.8333438E3,1.7409978E3,4.542097E3,2.912467E2,7.4890686E2,9.9209094E2,3.7958555E3,7.462417E2,1.9291359E2,9.833311E1,5.610172E2,1.8788965E2,6.971441E1,9.223765E2],"tree_param":{"num_deleted":"0","num_feature":"47","num_nodes":"15","size_leaf_vector":"1"}},{"base_weights":[1.117261E-2,-3.4032407E-1,7E-1,-3.8471895E-1,3.2814333E-1,9.844893E-2,7E-1,-2.2062605E-2,-5.0885356E-3,4.1408255E-3,3.5E-2,-2.7266215E-3,1.5087291E-2,5.064569E-3,3.5E-2],"categories":[],"categories_nodes":[],"categories_segments":[],"categories_sizes":[],"default_left":[1,1,0,0,0,0,0,0,0,0,0,0,0,0,0],"id":3,"left_children":[1,3,5,7,9,11,13,-1,-1,-1,-1,-1,-1,-1,-1],"loss_changes":[2.0438608E3,1.411383E2,2.722583E2,7.12359E1,3.5762344E1,2.3458008E1,2.4988403E1,0E0,0E0,0E0,0E0,0E0,0E0,0E0,0E0],"parents":[2147483647,0,0,1,1,2,2,3,3,4,4,5,5,6,6],"right_children":[2,4,6,8,10,12,14,-1,-1,-1,-1,-1,-1,-1,-1],"split_conditions":[2E0,4E-2,1.0316206E-1,1E-1,2.0793104E-1,3E0,3E0,-2.2062605E-2,-5.0885356E-3,4.1408255E-3,3.5E-2,-2.7266215E-3,1.5087291E-2,5.064569E-3,3.5E-2],"split_indices":[18,4,44,23,44,2,2,0,0,0,0,0,0,0,0],"split_type":[0,0,0,0,0,0,0,0,0,0,0,0,0,0,0],"sum_hessian":[6.5286797E3,4.7506367E3,1.778043E3,4.4551797E3,2.9545703E2,7.527324E2,1.0253105E3,3.7128015E3,7.423783E2,2.0178947E2,9.366755E1,4.2993622E2,3.227962E2,7.0079185E1,9.552314E2],"tree_param":{"num_deleted":"0","num_feature":"47","num_nodes":"15","size_leaf_vector":"1"}},{"base_weights":[1.4498648E-2,-3.3762735E-1,7E-1,-3.8254923E-1,3.166934E-1,9.8126054E-2,7E-1,-2.2000901E-2,-4.987963E-3,4.8845676E-3,3.5E-2,-1.5904741E-4,1.9518135E-2,4.8865876E-3,3.5E-2],"categories":[],"categories_nodes":[],"categories_segments":[],"categories_sizes":[],"default_left":[1,1,0,0,0,0,0,0,0,0,0,0,0,0,0],"id":4,"left_children":[1,3,5,7,9,11,13,-1,-1,-1,-1,-1,-1,-1,-1],"loss_changes":[1.9802584E3,1.3741809E2,2.7635437E2,7.099823E1,3.3780785E1,2.262676E1,2.4836304E1,0E0,0E0,0E0,0E0,0E0,0E0,0E0,0E0],"parents":[2147483647,0,0,1,1,2,2,3,3,4,4,5,5,6,6],"right_children":[2,4,6,8,10,12,14,-1,-1,-1,-1,-1,-1,-1,-1],"split_conditions":[2E0,4E-2,1.0443038E-1,1E-1,2.3648208E-1,8E0,3E0,-2.2000901E-2,-4.987963E-3,4.8845676E-3,3.5E-2,-1.5904741E-4,1.9518135E-2,4.8865876E-3,3.5E-2],"split_indices":[18,4,44,23,44,19,2,0,0,0,0,0,0,0,0],"split_type":[0,0,0,0,0,0,0,0,0,0,0,0,0,0,0],"sum_hessian":[6.486186E3,4.670026E3,1.8161604E3,4.370395E3,2.9963077E2,7.632305E2,1.0529298E3,3.631785E3,7.386102E2,2.1522353E2,8.440724E1,5.674923E2,1.9573824E2,6.88223E1,9.841075E2],"tree_param":{"num_deleted":"0","num_feature":"47","num_nodes":"15","size_leaf_vector":"1"}},{"base_weights":[1.7628502E-2,-3.3490524E-1,7E-1,-4.3480733E-1,-3.6763195E-2,9.520846E-2,7E-1,-2.2820339E-2,-5.5628945E-4,-6.697215E-3,3.0824406E-2,-2.7286985E-3,1.44096585E-2,4.7437954E-3,3.5E-2],"categories":[],"categories_nodes":[],"categories_segments":[],"categories_sizes":[],"default_left":[1,0,0,1,1,0,0,0,0,0,0,0,0,0,0],"id":5,"left_children":[1,3,5,7,9,11,13,-1,-1,-1,-1,-1,-1,-1,-1],"loss_changes":[1.9158347E3,1.3676819E2,2.8042297E2,3.1472351E1,7.332367E1,2.2215271E1,2.5200684E1,0E0,0E0,0E0,0E0,0E0,0E0,0E0,0E0],"parents":[2147483647,0,0,1,1,2,2,3,3,4,4,5,5,6,6],"right_children":[2,4,6,8,10,12,14,-1,-1,-1,-1,-1,-1,-1,-1],"split_conditions":[2E0,3E-1,1.0443038E-1,1.7821783E-1,1.9575E-1,3E0,3E0,-2.2820339E-2,-5.5628945E-4,-6.697215E-3,3.0824406E-2,-2.7286985E-3,1.44096585E-2,4.7437954E-3,3.5E-2],"split_indices":[18,24,44,43,44,2,2,0,0,0,0,0,0,0,0],"split_type":[0,0,0,0,0,0,0,0,0,0,0,0,0,0,0],"sum_hessian":[6.4467007E3,4.591382E3,1.855319E3,3.438682E3,1.1526996E3,7.669983E2,1.0883207E3,3.271807E3,1.6687514E2,1.0041169E3,1.4858275E2,4.322391E2,3.347592E2,6.915944E1,1.0191612E3],"tree_param":{"num_deleted":"0","num_feature":"47","num_nodes":"15","size_leaf_vector":"1"}},{"base_weights":[2.0487433E-2,-3.3218592E-1,7E-1,-4.334507E-1,-3.594427E-2,9.238567E-2,7E-1,-2.2773981E-2,-5.428639E-4,-6.5754945E-3,2.9146036E-2,-2.6278265E-4,1.8408718E-2,4.605825E-3,3.5E-2],"categories":[],"categories_nodes":[],"categories_segments":[],"categories_sizes":[],"default_left":[1,0,0,1,1,0,0,0,0,0,0,0,0,0,0],"id":6,"left_children":[1,3,5,7,9,11,13,-1,-1,-1,-1,-1,-1,-1,-1],"loss_changes":[1.8506558E3,1.3547174E2,2.8441016E2,3.1327942E1,6.8187706E1,2.0781998E1,2.5556885E1,0E0,0E0,0E0,0E0,0E0,0E0,0E0,0E0],"parents":[2147483647,0,0,1,1,2,2,3,3,4,4,5,5,6,6],"right_children":[2,4,6,8,10,12,14,-1,-1,-1,-1,-1,-1,-1,-1],"split_conditions":[2E0,3E-1,1.0443038E-1,1.7821783E-1,1.9575E-1,8E0,3E0,-2.2773981E-2,-5.428639E-4,-6.5754945E-3,2.9146036E-2,-2.6278265E-4,1.8408718E-2,4.605825E-3,3.5E-2],"split_indices":[18,24,44,43,44,19,2,0,0,0,0,0,0,0,0],"split_type":[0,0,0,0,0,0,0,0,0,0,0,0,0,0,0],"sum_hessian":[6.411051E3,4.51542E3,1.8956309E3,3.3647712E3,1.1506487E3,7.7067914E2,1.1249518E3,3.1979888E3,1.6678235E2,9.974146E2,1.5323405E2,5.698929E2,2.0078622E2,6.94883E1,1.0554635E3],"tree_param":{"num_deleted":"0","num_feature":"47","num_nodes":"15","size_leaf_vector":"1"}},{"base_weights":[2.3130288E-2,-3.2944354E-1,7E-1,-4.320687E-1,-3.5140835E-2,8.9665346E-2,7E-1,-2.2726653E-2,-5.297537E-4,-8.037998E-3,2.0549929E-2,-2.75771E-3,1.36428615E-2,4.4724755E-3,3.5E-2],"categories":[],"categories_nodes":[],"categories_segments":[],"categories_sizes":[],"default_left":[1,0,0,1,1,0,0,0,0,0,0,0,0,0,0],"id":7,"left_children":[1,3,5,7,9,11,13,-1,-1,-1,-1,-1,-1,-1,-1],"loss_changes":[1.7845135E3,1.3415536E2,2.883009E2,3.1180237E1,6.4496284E1,2.0582508E1,2.5905518E1,0E0,0E0,0E0,0E0,0E0,0E0,0E0,0E0],"parents":[2147483647,0,0,1,1,2,2,3,3,4,4,5,5,6,6],"right_children":[2,4,6,8,10,12,14,-1,-1,-1,-1,-1,-1,-1,-1],"split_conditions":[2E0,3E-1,1.0443038E-1,1.7821783E-1,1.13745384E-1,3E0,3E0,-2.2726653E-2,-5.297537E-4,-8.037998E-3,2.0549929E-2,-2.75771E-3,1.36428615E-2,4.4724755E-3,3.5E-2],"split_indices":[18,24,44,43,44,2,2,0,0,0,0,0,0,0,0],"split_type":[0,0,0,0,0,0,0,0,0,0,0,0,0,0,0],"sum_hessian":[6.3784443E3,4.4413164E3,1.9371279E3,3.2926729E3,1.1486434E3,7.742599E2,1.162868E3,3.125981E3,1.6669183E2,8.96778E2,2.5186543E2,4.3280856E2,3.4145132E2,6.980908E1,1.093059E3],"tree_param":{"num_deleted":"0","num_feature":"47","num_nodes":"15","size_leaf_vector":"1"}},{"base_weights":[2.5547542E-2,-3.2667902E-1,7E-1,-4.3066102E-1,-3.435679E-2,8.7031804E-2,7E-1,-2.2678336E-2,-5.169535E-4,-7.902638E-3,1.9630479E-2,-2.6968974E-3,1.3123058E-2,4.343556E-3,3.5E-2],"categories":[],"categories_nodes":[],"categories_segments":[],"categories_sizes":[],"default_left":[1,0,0,1,1,0,0,0,0,0,0,0,0,0,0],"id":8,"left_children":[1,3,5,7,9,11,13,-1,-1,-1,-1,-1,-1,-1,-1],"loss_changes":[1.7173475E3,1.3281802E2,2.921128E2,3.1028809E1,6.0676357E1,1.927303E1,2.6246704E1,0E0,0E0,0E0,0E0,0E0,0E0,0E0,0E0],"parents":[2147483647,0,0,1,1,2,2,3,3,4,4,5,5,6,6],"right_children":[2,4,6,8,10,12,14,-1,-1,-1,-1,-1,-1,-1,-1],"split_conditions":[2E0,3E-1,1.0443038E-1,1.7821783E-1,1.13745384E-1,3E0,3E0,-2.2678336E-2,-5.169535E-4,-7.902638E-3,1.9630479E-2,-2.6968974E-3,1.3123058E-2,4.343556E-3,3.5E-2],"split_indices":[18,24,44,43,44,2,2,0,0,0,0,0,0,0,0],"split_type":[0,0,0,0,0,0,0,0,0,0,0,0,0,0,0],"sum_hessian":[6.34891E3,4.3690366E3,1.9798737E3,3.222343E3,1.1466934E3,7.777582E2,1.2021155E3,3.0557395E3,1.6660355E2,8.895986E2,2.5709482E2,4.316166E2,3.4614157E2,7.0122E1,1.1319934E3],"tree_param":{"num_deleted":"0","num_feature":"47","num_nodes":"15","size_leaf_vector":"1"}},{"base_weights":[2.7733596E-2,-2.8545287E-1,7E-1,-4.0918836E-1,6.1525106E-2,1.335467E-1,7E-1,-2.1734945E-2,9.726248E-3,-3.651638E-3,3.5E-2,2.352874E-4,2.0683853E-2,4.325782E-3,3.5E-2],"categories":[],"categories_nodes":[],"categories_segments":[],"categories_sizes":[],"default_left":[1,0,0,1,1,0,0,0,0,0,0,0,0,0,0],"id":9,"left_children":[1,3,5,7,9,11,13,-1,-1,-1,-1,-1,-1,-1,-1],"loss_changes":[1.6561415E3,1.9961118E2,1.779862E2,5.2861755E1,1.0556181E2,2.0073547E1,2.2421509E1,0E0,0E0,0E0,0E0,0E0,0E0,0E0,0E0],"parents":[2147483647,0,0,1,1,2,2,3,3,4,4,5,5,6,6],"right_children":[2,4,6,8,10,12,14,-1,-1,-1,-1,-1,-1,-1,-1],"split_conditions":[3E0,1E-1,1.0443038E-1,6E0,1.4142857E-1,7E0,3E0,-2.1734945E-2,9.726248E-3,-3.651638E-3,3.5E-2,2.352874E-4,2.0683853E-2,4.325782E-3,3.5E-2],"split_indices":[18,23,44,19,44,19,2,0,0,0,0,0,0,0,0],"split_type":[0,0,0,0,0,0,0,0,0,0,0,0,0,0,0],"sum_hessian":[6.3224355E3,4.647726E3,1.6747098E3,3.4258555E3,1.2218702E3,5.5522723E2,1.1194825E3,3.2872302E3,1.3862546E2,1.01067285E3,2.1119739E2,3.810068E2,1.7422046E2,5.9875546E1,1.059607E3],"tree_param":{"num_deleted":"0","num_feature":"47","num_nodes":"15","size_leaf_vector":"1"}},{"base_weights":[2.9710269E-2,-2.736011E-1,7E-1,-4.4591013E-1,4.8474673E-2,-2.3983171E-2,7E-1,-2.2797724E-2,3.3160367E-3,-3.9043233E-3,1.8055385E-2,-4.480323E-3,3.5E-2,-7.015547E-4,3.5E-2],"categories":[],"categories_nodes":[],"categories_segments":[],"categories_sizes":[],"default_left":[1,0,0,1,1,1,0,0,0,0,0,0,0,0,0],"id":10,"left_children":[1,3,5,7,9,11,13,-1,-1,-1,-1,-1,-1,-1,-1],"loss_changes":[1.6050078E3,2.5972818E2,1.7640381E2,1.5716187E1,6.4598854E1,2.4064674E1,7.187988E1,0E0,0E0,0E0,0E0,0E0,0E0,0E0,0E0],"parents":[2147483647,0,0,1,1,2,2,3,3,4,4,5,5,6,6],"right_children":[2,4,6,8,10,12,14,-1,-1,-1,-1,-1,-1,-1,-1],"split_conditions":[8.712488E-2,1E-1,6E0,7E0,8.25E-2,4.7E1,3E0,-2.2797724E-2,3.3160367E-3,-3.9043233E-3,1.8055385E-2,-4.480323E-3,3.5E-2,-7.015547E-4,3.5E-2],"split_indices":[43,23,38,19,44,22,2,0,0,0,0,0,0,0,0],"split_type":[0,0,0,0,0,0,0,0,0,0,0,0,0,0,0],"sum_hessian":[6.298686E3,4.678689E3,1.6199967E3,3.047765E3,1.6309243E3,3.3648596E2,1.2835107E3,2.9892583E3,5.8506535E1,1.1614802E3,4.694441E2,3.2210425E2,1.4381736E1,1.4094589E2,1.1425648E3],"tree_param":{"num_deleted":"0","num_feature":"47","num_nodes":"15","size_leaf_vector":"1"}},{"base_weights":[3.1679615E-2,-2.6531103E-1,7E-1,-4.4433618E-1,5.5282265E-2,-9.761559E-3,7E-1,-2.2742199E-2,3.1980032E-3,-4.6940623E-3,1.5678754E-2,-3.8642676E-3,3.5E-2,-4.8398293E-4,3.5E-2],"categories":[],"categories_nodes":[],"categories_segments":[],"categories_sizes":[],"default_left":[1,0,0,1,1,1,0,0,0,0,0,0,0,0,0],"id":11,"left_children":[1,3,5,7,9,11,13,-1,-1,-1,-1,-1,-1,-1,-1],"loss_changes":[1.5456235E3,2.6791827E2,1.6248645E2,1.6026672E1,6.450207E1,2.3126366E1,6.3120728E1,0E0,0E0,0E0,0E0,0E0,0E0,0E0,0E0],"parents":[2147483647,0,0,1,1,2,2,3,3,4,4,5,5,6,6],"right_children":[2,4,6,8,10,12,14,-1,-1,-1,-1,-1,-1,-1,-1],"split_conditions":[9.52381E-2,1E-1,6E0,7E0,6.547406E-2,4.7E1,3E0,-2.2742199E-2,3.1980032E-3,-4.6940623E-3,1.5678754E-2,-3.8642676E-3,3.5E-2,-4.8398293E-4,3.5E-2],"split_indices":[43,23,38,19,44,22,2,0,0,0,0,0,0,0,0],"split_type":[0,0,0,0,0,0,0,0,0,0,0,0,0,0,0],"sum_hessian":[6.2752007E3,4.6666045E3,1.6085967E3,2.9942017E3,1.6724026E3,3.225187E2,1.2860779E3,2.9336606E3,6.0541115E1,1.0605652E3,6.118374E2,3.0783997E2,1.4678734E1,1.25300835E2,1.1607771E3],"tree_param":{"num_deleted":"0","num_feature":"47","num_nodes":"15","size_leaf_vector":"1"}},{"base_weights":[3.3406332E-2,-2.62245E-1,7E-1,-4.431631E-1,5.3736024E-2,-8.759676E-3,7E-1,-2.2694206E-2,3.1099669E-3,-4.599415E-3,1.5049608E-2,-3.7833594E-3,3.5E-2,-4.722909E-4,3.5E-2],"categories":[],"categories_nodes":[],"categories_segments":[],"categories_sizes":[],"default_left":[1,0,0,1,1,1,0,0,0,0,0,0,0,0,0],"id":12,"left_children":[1,3,5,7,9,11,13,-1,-1,-1,-1,-1,-1,-1,-1],"loss_changes":[1.485046E3,2.6336414E2,1.6169263E2,1.5899902E1,6.049186E1,2.2429483E1,6.304834E1,0E0,0E0,0E0,0E0,0E0,0E0,0E0,0E0],"parents":[2147483647,0,0,1,1,2,2,3,3,4,4,5,5,6,6],"right_children":[2,4,6,8,10,12,14,-1,-1,-1,-1,-1,-1,-1,-1],"split_conditions":[9.52381E-2,1E-1,6E0,7E0,6.547406E-2,4.7E1,3E0,-2.2694206E-2,3.1099669E-3,-4.599415E-3,1.5049608E-2,-3.7833594E-3,3.5E-2,-4.722909E-4,3.5E-2],"split_indices":[43,23,38,19,44,22,2,0,0,0,0,0,0,0,0],"split_type":[0,0,0,0,0,0,0,0,0,0,0,0,0,0,0],"sum_hessian":[6.254753E3,4.6055347E3,1.6492181E3,2.9284304E3,1.6771044E3,3.2185428E2,1.3273639E3,2.8676953E3,6.073503E1,1.0555986E3,6.215058E2,3.0665268E2,1.5201588E1,1.25240204E2,1.2021237E3],"tree_param":{"num_deleted":"0","num_feature":"47","num_nodes":"15","size_leaf_vector":"1"}},{"base_weights":[3.4887444E-2,-2.5917453E-1,7E-1,-4.419669E-1,5.2238025E-2,-7.826293E-3,7E-1,-2.2645218E-2,3.024614E-3,-4.5062467E-3,1.4454879E-2,-3.7038417E-3,3.5E-2,-4.6087522E-4,3.5E-2],"categories":[],"categories_nodes":[],"categories_segments":[],"categories_sizes":[],"default_left":[1,0,0,1,1,1,0,0,0,0,0,0,0,0,0],"id":13,"left_children":[1,3,5,7,9,11,13,-1,-1,-1,-1,-1,-1,-1,-1],"loss_changes":[1.4231075E3,2.588534E2,1.6095703E2,1.5773865E1,5.6766228E1,2.1713129E1,6.2977783E1,0E0,0E0,0E0,0E0,0E0,0E0,0E0,0E0],"parents":[2147483647,0,0,1,1,2,2,3,3,4,4,5,5,6,6],"right_children":[2,4,6,8,10,12,14,-1,-1,-1,-1,-1,-1,-1,-1],"split_conditions":[9.52381E-2,1E-1,6E0,7E0,6.547406E-2,4.7E1,3E0,-2.2645218E-2,3.024614E-3,-4.5062467E-3,1.4454879E-2,-3.7038417E-3,3.5E-2,-4.6087522E-4,3.5E-2],"split_indices":[43,23,38,19,44,22,2,0,0,0,0,0,0,0,0],"split_type":[0,0,0,0,0,0,0,0,0,0,0,0,0,0,0],"sum_hessian":[6.2373193E3,4.5459575E3,1.6913619E3,2.8642727E3,1.6816847E3,3.2123773E2,1.3701241E3,2.8033484E3,6.0924206E1,1.0507546E3,6.3093E2,3.0549466E2,1.5743064E1,1.2518107E2,1.2449431E3],"tree_param":{"num_deleted":"0","num_feature":"47","num_nodes":"15","size_leaf_vector":"1"}},{"base_weights":[3.6117475E-2,-2.5610045E-1,7E-1,-4.4074723E-1,5.0786626E-2,7.999052E-2,7E-1,-2.2595212E-2,2.9418503E-3,-4.4145444E-3,1.3891998E-2,-7.278164E-3,1.9533796E-2,-6.729349E-4,3.5E-2],"categories":[],"categories_nodes":[],"categories_segments":[],"categories_sizes":[],"default_left":[1,0,0,1,1,1,0,0,0,0,0,0,0,0,0],"id":14,"left_children":[1,3,5,7,9,11,13,-1,-1,-1,-1,-1,-1,-1,-1],"loss_changes":[1.3597515E3,2.543854E2,1.6251953E2,1.5648499E1,5.330126E1,2.977266E1,6.114209E1,0E0,0E0,0E0,0E0,0E0,0E0,0E0,0E0],"parents":[2147483647,0,0,1,1,2,2,3,3,4,4,5,5,6,6],"right_children":[2,4,6,8,10,12,14,-1,-1,-1,-1,-1,-1,-1,-1],"split_conditions":[9.52381E-2,1E-1,1.7E1,7E0,6.547406E-2,1E0,3E0,-2.2595212E-2,2.9418503E-3,-4.4145444E-3,1.3891998E-2,-7.278164E-3,1.9533796E-2,-6.729349E-4,3.5E-2],"split_indices":[43,23,38,19,44,20,2,0,0,0,0,0,0,0,0],"split_type":[0,0,0,0,0,0,0,0,0,0,0,0,0,0,0],"sum_hessian":[6.222915E3,4.4878345E3,1.7350802E3,2.8016882E3,1.6861465E3,4.2304932E2,1.3120309E3,2.7405793E3,6.1108753E1,1.0460303E3,6.401162E2,2.4541356E2,1.7763577E2,1.20079216E2,1.1919517E3],"tree_param":{"num_deleted":"0","num_feature":"47","num_nodes":"15","size_leaf_vector":"1"}},{"base_weights":[3.7198253E-2,-2.6450497E-1,7E-1,-3.9800096E-1,4.873463E-2,2.1962775E-1,7E-1,-2.300293E-2,-5.308881E-3,-3.3800495E-3,2.6371723E-2,2.7866047E-4,1.7827598E-2,1.3239309E-2,3.5E-2],"categories":[],"categories_nodes":[],"categories_segments":[],"categories_sizes":[],"default_left":[1,0,0,1,1,0,0,0,0,0,0,0,0,0,0],"id":15,"left_children":[1,3,5,7,9,11,13,-1,-1,-1,-1,-1,-1,-1,-1],"loss_changes":[1.3012712E3,1.8118976E2,1.9620654E2,5.4968475E1,7.218537E1,2.4981068E1,2.0530884E1,0E0,0E0,0E0,0E0,0E0,0E0,0E0,0E0],"parents":[2147483647,0,0,1,1,2,2,3,3,4,4,5,5,6,6],"right_children":[2,4,6,8,10,12,14,-1,-1,-1,-1,-1,-1,-1,-1],"split_conditions":[4E0,1E-1,1.6363636E-1,8.181818E-2,1.3533835E-1,3E0,2.2E1,-2.300293E-2,-5.308881E-3,-3.3800495E-3,2.6371723E-2,2.7866047E-4,1.7827598E-2,1.3239309E-2,3.5E-2],"split_indices":[18,23,44,44,43,2,38,0,0,0,0,0,0,0,0],"split_type":[0,0,0,0,0,0,0,0,0,0,0,0,0,0,0],"sum_hessian":[6.210313E3,4.3315376E3,1.8787754E3,3.036974E3,1.2945636E3,8.5139526E2,1.0273801E3,2.5039258E3,5.330484E2,1.0421538E3,2.5240974E2,3.3255322E2,5.1884204E2,1.09979454E2,9.174007E2],"tree_param":{"num_deleted":"0","num_feature":"47","num_nodes":"15","size_leaf_vector":"1"}},{"base_weights":[3.8314793E-2,-2.502308E-1,7E-1,-4.382872E-1,4.7139846E-2,1.0887134E-1,7E-1,-2.2494957E-2,3.1766016E-3,-4.3114177E-3,1.2915961E-2,-6.004754E-3,1.9391479E-2,9.205034E-3,3.5E-2],"categories":[],"categories_nodes":[],"categories_segments":[],"categories_sizes":[],"default_left":[1,0,0,1,1,0,0,0,0,0,0,0,0,0,0],"id":16,"left_children":[1,3,5,7,9,11,13,-1,-1,-1,-1,-1,-1,-1,-1],"loss_changes":[1.2422749E3,2.4506635E2,1.6716711E2,1.56710205E1,4.785881E1,3.069224E1,6.6957275E1,0E0,0E0,0E0,0E0,0E0,0E0,0E0,0E0],"parents":[2147483647,0,0,1,1,2,2,3,3,4,4,5,5,6,6],"right_children":[2,4,6,8,10,12,14,-1,-1,-1,-1,-1,-1,-1,-1],"split_conditions":[9.52381E-2,1E-1,2.2E1,7E0,6.547406E-2,1E0,1.15384616E-1,-2.2494957E-2,3.1766016E-3,-4.3114177E-3,1.2915961E-2,-6.004754E-3,1.9391479E-2,9.205034E-3,3.5E-2],"split_indices":[43,23,38,19,44,20,44,0,0,0,0,0,0,0,0],"split_type":[0,0,0,0,0,0,0,0,0,0,0,0,0,0,0],"sum_hessian":[6.1973477E3,4.380883E3,1.8164647E3,2.6834207E3,1.6974622E3,4.7879752E2,1.3376672E3,2.6228325E3,6.0588142E1,1.0407677E3,6.566945E2,2.6327405E2,2.1552348E2,2.5241582E2,1.0852513E3],"tree_param":{"num_deleted":"0","num_feature":"47","num_nodes":"15","size_leaf_vector":"1"}},{"base_weights":[3.9218582E-2,-2.5862435E-1,6.801841E-1,-4.0939042E-1,1.48171615E-2,2.0510468E-1,7E-1,-2.199307E-2,1.5261628E-3,-7.2634504E-3,1.513374E-2,2.033755E-3,1.8143998E-2,1.23838885E-2,3.5E-2],"categories":[],"categories_nodes":[],"categories_segments":[],"categories_sizes":[],"default_left":[1,0,0,1,1,0,0,0,0,0,0,0,0,0,0],"id":17,"left_children":[1,3,5,7,9,11,13,-1,-1,-1,-1,-1,-1,-1,-1],"loss_changes":[1.1814883E3,1.7420404E2,2.1182977E2,3.652411E1,6.929253E1,2.255656E1,2.2737915E1,0E0,0E0,0E0,0E0,0E0,0E0,0E0,0E0],"parents":[2147483647,0,0,1,1,2,2,3,3,4,4,5,5,6,6],"right_children":[2,4,6,8,10,12,14,-1,-1,-1,-1,-1,-1,-1,-1],"split_conditions":[4E0,1E-1,1.6363636E-1,1.7821783E-1,8.090692E-2,5E0,2.2E1,-2.199307E-2,1.5261628E-3,-7.2634504E-3,1.513374E-2,2.033755E-3,1.8143998E-2,1.23838885E-2,3.5E-2],"split_indices":[18,24,44,43,44,27,38,0,0,0,0,0,0,0,0],"split_type":[0,0,0,0,0,0,0,0,0,0,0,0,0,0,0],"sum_hessian":[6.186892E3,4.2244688E3,1.9624233E3,2.722745E3,1.5017238E3,8.6903754E2,1.0933859E3,2.546369E3,1.7637634E2,9.65356E2,5.3636774E2,4.2616083E2,4.428767E2,1.1253054E2,9.808553E2],"tree_param":{"num_deleted":"0","num_feature":"47","num_nodes":"15","size_leaf_vector":"1"}},{"base_weights":[3.996538E-2,-2.4445248E-1,6.8125E-1,-4.3583137E-1,4.4562634E-2,2.545868E-1,7E-1,-2.2393702E-2,2.9184308E-3,-6.5939687E-3,9.550237E-3,1.69919E-3,2.861618E-2,1.8918557E-2,3.5E-2],"categories":[],"categories_nodes":[],"categories_segments":[],"categories_sizes":[],"default_left":[1,0,0,1,0,0,0,0,0,0,0,0,0,0,0],"id":18,"left_children":[1,3,5,7,9,11,13,-1,-1,-1,-1,-1,-1,-1,-1],"loss_changes":[1.1272227E3,2.368329E2,1.7302277E2,1.5356598E1,4.4119976E1,6.1519787E1,2.2978027E1,0E0,0E0,0E0,0E0,0E0,0E0,0E0,0E0],"parents":[2147483647,0,0,1,1,2,2,3,3,4,4,5,5,6,6],"right_children":[2,4,6,8,10,12,14,-1,-1,-1,-1,-1,-1,-1,-1],"split_conditions":[9.52381E-2,1E-1,8E0,7E0,3E0,4E-2,1.6645162E-1,-2.2393702E-2,2.9184308E-3,-6.5939687E-3,9.550237E-3,1.69919E-3,2.861618E-2,1.8918557E-2,3.5E-2],"split_indices":[43,23,18,19,2,4,44,0,0,0,0,0,0,0,0],"split_type":[0,0,0,0,0,0,0,0,0,0,0,0,0,0,0],"sum_hessian":[6.17828E3,4.28046E3,1.8978195E3,2.574909E3,1.7055511E3,8.769567E2,1.02086273E3,2.5137478E3,6.1161175E1,7.7358734E2,9.3196375E2,5.182473E2,3.587094E2,2.2586453E2,7.949982E2],"tree_param":{"num_deleted":"0","num_feature":"47","num_nodes":"15","size_leaf_vector":"1"}},{"base_weights":[4.0635068E-2,-1.9649266E-1,7E-1,-3.8824013E-1,9.645314E-2,2.665293E-1,7E-1,-2.2818152E-2,-4.6034367E-3,-6.163644E-4,3.026635E-2,3.756304E-3,2.2093251E-2,1.9219628E-2,3.5E-2],"categories":[],"categories_nodes":[],"categories_segments":[],"categories_sizes":[],"default_left":[1,0,0,1,1,0,0,0,0,0,0,0,0,0,0],"id":19,"left_children":[1,3,5,7,9,11,13,-1,-1,-1,-1,-1,-1,-1,-1],"loss_changes":[1.077823E3,2.6293243E2,9.836786E1,5.7033875E1,1.0254358E2,1.76236E1,1.2455566E1,0E0,0E0,0E0,0E0,0E0,0E0,0E0,0E0],"parents":[2147483647,0,0,1,1,2,2,3,3,4,4,5,5,6,6],"right_children":[2,4,6,8,10,12,14,-1,-1,-1,-1,-1,-1,-1,-1],"split_conditions":[8E0,1E-1,1.6363636E-1,8.181818E-2,2E-1,1.23E1,7.6988876E-2,-2.2818152E-2,-4.6034367E-3,-6.163644E-4,3.026635E-2,3.756304E-3,2.2093251E-2,1.9219628E-2,3.5E-2],"split_indices":[18,23,44,44,43,23,43,0,0,0,0,0,0,0,0],"split_type":[0,0,0,0,0,0,0,0,0,0,0,0,0,0,0],"sum_hessian":[6.1705767E3,4.6792104E3,1.4913665E3,2.8278909E3,1.8513195E3,5.2512885E2,9.662377E2,2.2986365E3,5.2925415E2,1.5260715E3,3.252479E2,2.5174394E2,2.733849E2,1.2896535E2,8.372723E2],"tree_param":{"num_deleted":"0","num_feature":"47","num_nodes":"15","size_leaf_vector":"1"}},{"base_weights":[4.1144986E-2,-1.9356403E-1,7E-1,-3.8612026E-1,9.3568414E-2,2.5643247E-1,7E-1,-2.2771753E-2,-4.5102914E-3,-6.014471E-4,2.862868E-2,5.215944E-3,2.3310592E-2,1.8387442E-2,3.5E-2],"categories":[],"categories_nodes":[],"categories_segments":[],"categories_sizes":[],"default_left":[1,0,0,1,1,1,0,0,0,0,0,0,0,0,0],"id":20,"left_children":[1,3,5,7,9,11,13,-1,-1,-1,-1,-1,-1,-1,-1],"loss_changes":[1.02385974E3,2.5630008E2,1.04414856E2,5.6869507E1,9.415829E1,1.6965397E1,1.4133301E1,0E0,0E0,0E0,0E0,0E0,0E0,0E0,0E0],"parents":[2147483647,0,0,1,1,2,2,3,3,4,4,5,5,6,6],"right_children":[2,4,6,8,10,12,14,-1,-1,-1,-1,-1,-1,-1,-1],"split_conditions":[8E0,1E-1,1.6363636E-1,8.181818E-2,2E-1,5E0,7.6988876E-2,-2.2771753E-2,-4.5102914E-3,-6.014471E-4,2.862868E-2,5.215944E-3,2.3310592E-2,1.8387442E-2,3.5E-2],"split_indices":[18,23,44,44,43,27,43,0,0,0,0,0,0,0,0],"split_type":[0,0,0,0,0,0,0,0,0,0,0,0,0,0,0],"sum_hessian":[6.164724E3,4.633977E3,1.5307471E3,2.7736035E3,1.8603737E3,5.321834E2,9.985637E2,2.24678E3,5.268234E2,1.5251312E3,3.3524243E2,3.0935995E2,2.2282347E2,1.3146797E2,8.670957E2],"tree_param":{"num_deleted":"0","num_feature":"47","num_nodes":"15","size_leaf_vector":"1"}},{"base_weights":[4.1488692E-2,-1.9065075E-1,7E-1,-3.8397092E-1,9.078549E-2,2.4684927E-1,7E-1,-2.2724386E-2,-4.4186125E-3,-5.8687845E-4,2.7124316E-2,3.330934E-3,2.0425819E-2,1.7605888E-2,3.5E-2],"categories":[],"categories_nodes":[],"categories_segments":[],"categories_sizes":[],"default_left":[1,0,0,1,1,0,0,0,0,0,0,0,0,0,0],"id":21,"left_children":[1,3,5,7,9,11,13,-1,-1,-1,-1,-1,-1,-1,-1],"loss_changes":[9.692549E2,2.4981007E2,1.104082E2,5.669171E1,8.661451E1,1.5708603E1,1.5836792E1,0E0,0E0,0E0,0E0,0E0,0E0,0E0,0E0],"parents":[2147483647,0,0,1,1,2,2,3,3,4,4,5,5,6,6],"right_children":[2,4,6,8,10,12,14,-1,-1,-1,-1,-1,-1,-1,-1],"split_conditions":[8E0,1E-1,1.6363636E-1,8.181818E-2,2E-1,1.23E1,7.6988876E-2,-2.2724386E-2,-4.4186125E-3,-5.8687845E-4,2.7124316E-2,3.330934E-3,2.0425819E-2,1.7605888E-2,3.5E-2],"split_indices":[18,23,44,44,43,23,43,0,0,0,0,0,0,0,0],"split_type":[0,0,0,0,0,0,0,0,0,0,0,0,0,0,0],"sum_hessian":[6.1607856E3,4.5898403E3,1.5709457E3,2.7206475E3,1.8691927E3,5.390564E2,1.0318893E3,2.1961948E3,5.244526E2,1.5242141E3,3.4497867E2,2.5556174E2,2.8349466E2,1.3390771E2,8.9798157E2],"tree_param":{"num_deleted":"0","num_feature":"47","num_nodes":"15","size_leaf_vector":"1"}},{"base_weights":[4.166326E-2,-2.3842178E-1,5.759601E-1,-4.3103245E-1,3.0938549E-2,2.2808129E-1,7E-1,-2.2187239E-2,3.7919362E-3,-5.829434E-4,2.962631E-2,-1.0745773E-2,1.6502338E-2,1.3325067E-2,3.5E-2],"categories":[],"categories_nodes":[],"categories_segments":[],"categories_sizes":[],"default_left":[1,0,0,1,0,0,0,0,0,0,0,0,0,0,0],"id":22,"left_children":[1,3,5,7,9,11,13,-1,-1,-1,-1,-1,-1,-1,-1],"loss_changes":[9.219406E2,2.0971904E2,1.8802893E2,1.5219879E1,4.0343853E1,4.4919044E1,5.1840332E1,0E0,0E0,0E0,0E0,0E0,0E0,0E0,0E0],"parents":[2147483647,0,0,1,1,2,2,3,3,4,4,5,5,6,6],"right_children":[2,4,6,8,10,12,14,-1,-1,-1,-1,-1,-1,-1,-1],"split_conditions":[8.712488E-2,1E-1,2.3902076E-1,7E0,4E0,1.1E1,2.2E1,-2.2187239E-2,3.7919362E-3,-5.829434E-4,2.962631E-2,-1.0745773E-2,1.6502338E-2,1.3325067E-2,3.5E-2],"split_indices":[43,23,44,19,2,38,38,0,0,0,0,0,0,0,0],"split_type":[0,0,0,0,0,0,0,0,0,0,0,0,0,0,0],"sum_hessian":[6.1587876E3,4.040999E3,2.1177883E3,2.3558257E3,1.6851733E3,9.918657E2,1.1259226E3,2.2983086E3,5.7517086E1,1.5672721E3,1.1790113E2,1.8537631E2,8.064894E2,2.7746982E2,8.484528E2],"tree_param":{"num_deleted":"0","num_feature":"47","num_nodes":"15","size_leaf_vector":"1"}},{"base_weights":[4.1855514E-2,-2.8557462E-1,4.7828886E-1,-4.1259295E-1,-2.5768239E-2,1.8169582E-1,7E-1,-2.3276545E-2,-9.273885E-3,-4.739705E-3,2.7648572E-2,-2.2854998E-3,1.482854E-2,1.0590399E-2,3.5E-2],"categories":[],"categories_nodes":[],"categories_segments":[],"categories_sizes":[],"default_left":[1,0,0,1,0,0,0,0,0,0,0,0,0,0,0],"id":23,"left_children":[1,3,5,7,9,11,13,-1,-1,-1,-1,-1,-1,-1,-1],"loss_changes":[8.800648E2,1.1610919E2,2.711515E2,2.832724E1,4.6252003E1,3.9047237E1,3.365747E1,0E0,0E0,0E0,0E0,0E0,0E0,0E0,0E0],"parents":[2147483647,0,0,1,1,2,2,3,3,4,4,5,5,6,6],"right_children":[2,4,6,8,10,12,14,-1,-1,-1,-1,-1,-1,-1,-1],"split_conditions":[2E0,1E-1,2.1891892E-1,5.9384163E-2,4E0,3E0,2.2E1,-2.3276545E-2,-9.273885E-3,-4.739705E-3,2.7648572E-2,-2.2854998E-3,1.482854E-2,1.0590399E-2,3.5E-2],"split_indices":[18,24,44,44,2,2,38,0,0,0,0,0,0,0,0],"split_type":[0,0,0,0,0,0,0,0,0,0,0,0,0,0,0],"sum_hessian":[6.156588E3,3.5177637E3,2.6388245E3,2.3622708E3,1.1554929E3,1.4932133E3,1.1456112E3,1.9148837E3,4.4738696E2,1.0331108E3,1.2238217E2,5.0134863E2,9.9186456E2,1.4227718E2,1.00333405E3],"tree_param":{"num_deleted":"0","num_feature":"47","num_nodes":"15","size_leaf_vector":"1"}},{"base_weights":[4.1743167E-2,-2.825552E-1,4.5983803E-1,-4.108447E-1,-2.5175484E-2,1.9715528E-1,7E-1,-2.3239998E-2,-9.129283E-3,-4.6443525E-3,2.622879E-2,-2.259179E-3,1.5160948E-2,1.0808164E-2,3.5E-2],"categories":[],"categories_nodes":[],"categories_segments":[],"categories_sizes":[],"default_left":[1,0,0,1,0,0,0,0,0,0,0,0,0,0,0],"id":24,"left_children":[1,3,5,7,9,11,13,-1,-1,-1,-1,-1,-1,-1,-1],"loss_changes":[8.351959E2,1.1453699E2,2.6218573E2,2.8427155E1,4.304448E1,4.2491814E1,3.0546753E1,0E0,0E0,0E0,0E0,0E0,0E0,0E0,0E0],"parents":[2147483647,0,0,1,1,2,2,3,3,4,4,5,5,6,6],"right_children":[2,4,6,8,10,12,14,-1,-1,-1,-1,-1,-1,-1,-1],"split_conditions":[2E0,1E-1,2.5034896E-1,5.9384163E-2,4E0,3E0,2.2E1,-2.3239998E-2,-9.129283E-3,-4.6443525E-3,2.622879E-2,-2.259179E-3,1.5160948E-2,1.0808164E-2,3.5E-2],"split_indices":[18,24,44,44,2,2,38,0,0,0,0,0,0,0,0],"split_type":[0,0,0,0,0,0,0,0,0,0,0,0,0,0,0],"sum_hessian":[6.157873E3,3.4681226E3,2.6897507E3,2.3140837E3,1.1540387E3,1.6516301E3,1.0381205E3,1.8708265E3,4.4325717E2,1.0282257E3,1.2581309E2,5.0297812E2,1.1486521E3,1.3158054E2,9.065399E2],"tree_param":{"num_deleted":"0","num_feature":"47","num_nodes":"15","size_leaf_vector":"1"}},{"base_weights":[4.1594002E-2,-2.3035498E-1,5.169927E-1,-4.2701164E-1,2.6676899E-2,2.1921803E-1,7E-1,-2.2380913E-2,-4.3938137E-3,-6.60432E-4,2.5911573E-2,-9.327135E-3,1.528276E-2,1.2159023E-2,3.5E-2],"categories":[],"categories_nodes":[],"categories_segments":[],"categories_sizes":[],"default_left":[1,0,0,1,0,0,0,0,0,0,0,0,0,0,0],"id":25,"left_children":[1,3,5,7,9,11,13,-1,-1,-1,-1,-1,-1,-1,-1],"loss_changes":[7.965846E2,1.9813187E2,1.7194128E2,1.5479218E1,3.333506E1,3.7613697E1,5.6915405E1,0E0,0E0,0E0,0E0,0E0,0E0,0E0,0E0],"parents":[2147483647,0,0,1,1,2,2,3,3,4,4,5,5,6,6],"right_children":[2,4,6,8,10,12,14,-1,-1,-1,-1,-1,-1,-1,-1],"split_conditions":[8.712488E-2,1E-1,2.5034896E-1,2E0,4E0,1.1E1,2.2E1,-2.2380913E-2,-4.3938137E-3,-6.60432E-4,2.5911573E-2,-9.327135E-3,1.528276E-2,1.2159023E-2,3.5E-2],"split_indices":[43,23,44,21,2,38,38,0,0,0,0,0,0,0,0],"split_type":[0,0,0,0,0,0,0,0,0,0,0,0,0,0,0],"sum_hessian":[6.15958E3,3.9185261E3,2.2410542E3,2.2196199E3,1.6989061E3,1.0698201E3,1.171234E3,2.092175E3,1.274449E2,1.5723003E3,1.2660589E2,1.8767274E2,8.821474E2,2.7408246E2,8.971515E2],"tree_param":{"num_deleted":"0","num_feature":"47","num_nodes":"15","size_leaf_vector":"1"}},{"base_weights":[4.1369192E-2,-2.8519824E-1,4.175232E-1,-4.4886178E-1,-3.9575547E-2,9.449876E-2,6.5697604E-1,-2.28757E-2,-4.856108E-3,-3.1124507E-3,3.0313266E-2,-2.5146925E-3,1.919583E-2,1.8320184E-2,3.5E-2],"categories":[],"categories_nodes":[],"categories_segments":[],"categories_sizes":[],"default_left":[1,0,0,1,0,1,0,0,0,0,0,0,0,0,0],"id":26,"left_children":[1,3,5,7,9,11,13,-1,-1,-1,-1,-1,-1,-1,-1],"loss_changes":[7.5719885E2,1.3262515E2,2.2150717E2,5.981598E0,1.9374907E1,5.1170616E1,8.937659E1,0E0,0E0,0E0,0E0,0E0,0E0,0E0,0E0],"parents":[2147483647,0,0,1,1,2,2,3,3,4,4,5,5,6,6],"right_children":[2,4,6,8,10,12,14,-1,-1,-1,-1,-1,-1,-1,-1],"split_conditions":[8.25E-2,1E-1,5.9E1,1.08E1,4E0,6E0,2.5034896E-1,-2.28757E-2,-4.856108E-3,-3.1124507E-3,3.0313266E-2,-2.5146925E-3,1.919583E-2,1.8320184E-2,3.5E-2],"split_indices":[44,23,38,26,2,21,44,0,0,0,0,0,0,0,0],"split_type":[0,0,0,0,0,0,0,0,0,0,0,0,0,0,0],"sum_hessian":[6.162155E3,3.2986187E3,2.863536E3,1.9790854E3,1.3195333E3,1.2196328E3,1.6439031E3,1.9312784E3,4.7806973E1,1.2756527E3,4.388059E1,8.1348254E2,4.0615027E2,8.338851E2,8.1001807E2],"tree_param":{"num_deleted":"0","num_feature":"47","num_nodes":"15","size_leaf_vector":"1"}},{"base_weights":[4.105728E-2,-2.7417907E-1,4.1301554E-1,-4.058925E-1,-2.3439502E-2,1.8004926E-1,7E-1,-2.3570253E-2,-1.0291695E-2,-4.4376613E-3,2.3850894E-2,2.5030011E-3,1.750133E-2,2.1175785E-2,3.5E-2],"categories":[],"categories_nodes":[],"categories_segments":[],"categories_sizes":[],"default_left":[1,0,0,1,0,0,1,0,0,0,0,0,0,0,0],"id":27,"left_children":[1,3,5,7,9,11,13,-1,-1,-1,-1,-1,-1,-1,-1],"loss_changes":[7.231918E2,1.1024602E2,2.2457376E2,2.858844E1,3.7658257E1,3.7420853E1,3.668866E1,0E0,0E0,0E0,0E0,0E0,0E0,0E0,0E0],"parents":[2147483647,0,0,1,1,2,2,3,3,4,4,5,5,6,6],"right_children":[2,4,6,8,10,12,14,-1,-1,-1,-1,-1,-1,-1,-1],"split_conditions":[2E0,1E-1,2.5034896E-1,2.8723404E-2,4E0,7E0,6.7E1,-2.3570253E-2,-1.0291695E-2,-4.4376613E-3,2.3850894E-2,2.5030011E-3,1.750133E-2,2.1175785E-2,3.5E-2],"split_indices":[18,24,44,44,2,22,39,0,0,0,0,0,0,0,0],"split_type":[0,0,0,0,0,0,0,0,0,0,0,0,0,0,0],"sum_hessian":[6.16573E3,3.3374707E3,2.8282593E3,2.18767E3,1.1498009E3,1.6934104E3,1.1348489E3,1.6469817E3,5.406882E2,1.01779333E3,1.3200757E2,9.603118E2,7.330986E2,4.8535593E2,6.49493E2],"tree_param":{"num_deleted":"0","num_feature":"47","num_nodes":"15","size_leaf_vector":"1"}},{"base_weights":[4.0739268E-2,-2.796877E-1,3.893613E-1,-4.4678777E-1,-3.910381E-2,8.830133E-2,6.046733E-1,-2.2789367E-2,-4.5700087E-3,-7.125107E-3,4.4994503E-3,-2.5374375E-3,1.7924944E-2,1.8717313E-2,3.5E-2],"categories":[],"categories_nodes":[],"categories_segments":[],"categories_sizes":[],"default_left":[1,0,0,1,0,1,0,0,0,0,0,0,0,0,0],"id":28,"left_children":[1,3,5,7,9,11,13,-1,-1,-1,-1,-1,-1,-1,-1],"loss_changes":[6.893891E2,1.292623E2,1.9153363E2,6.027527E0,1.7621101E1,4.6364513E1,9.593823E1,0E0,0E0,0E0,0E0,0E0,0E0,0E0,0E0],"parents":[2147483647,0,0,1,1,2,2,3,3,4,4,5,5,6,6],"right_children":[2,4,6,8,10,12,14,-1,-1,-1,-1,-1,-1,-1,-1],"split_conditions":[8.25E-2,1E-1,5.9E1,1.08E1,3E0,6E0,2.964072E-1,-2.2789367E-2,-4.5700087E-3,-7.125107E-3,4.4994503E-3,-2.5374375E-3,1.7924944E-2,1.8717313E-2,3.5E-2],"split_indices":[44,23,38,26,2,21,44,0,0,0,0,0,0,0,0],"split_type":[0,0,0,0,0,0,0,0,0,0,0,0,0,0,0],"sum_hessian":[6.16938E3,3.2147878E3,2.954592E3,1.8966162E3,1.3181716E3,1.2325667E3,1.7220254E3,1.8494985E3,4.7117725E1,7.318691E2,5.8630255E2,8.143136E2,4.18253E2,1.0559104E3,6.6611505E2],"tree_param":{"num_deleted":"0","num_feature":"47","num_nodes":"15","size_leaf_vector":"1"}},{"base_weights":[4.032696E-2,-2.6845142E-1,3.8430724E-1,-4.0241474E-1,-2.2207085E-2,2.1498962E-1,7E-1,-2.351196E-2,-1.0076432E-2,-1.1706159E-2,6.0423254E-3,-2.5474508E-3,1.5015815E-2,8.766245E-3,3.5E-2],"categories":[],"categories_nodes":[],"categories_segments":[],"categories_sizes":[],"default_left":[1,0,0,1,0,0,0,0,0,0,0,0,0,0,0],"id":29,"left_children":[1,3,5,7,9,11,13,-1,-1,-1,-1,-1,-1,-1,-1],"loss_changes":[6.5598517E2,1.0735466E2,2.040604E2,2.8624512E1,3.48246E1,4.7833282E1,2.880249E1,0E0,0E0,0E0,0E0,0E0,0E0,0E0,0E0],"parents":[2147483647,0,0,1,1,2,2,3,3,4,4,5,5,6,6],"right_children":[2,4,6,8,10,12,14,-1,-1,-1,-1,-1,-1,-1,-1],"split_conditions":[2E0,1E-1,3.2101083E-1,2.8723404E-2,3E0,3E0,1.7821783E-1,-2.351196E-2,-1.0076432E-2,-1.1706159E-2,6.0423254E-3,-2.5474508E-3,1.5015815E-2,8.766245E-3,3.5E-2],"split_indices":[18,24,44,44,2,2,43,0,0,0,0,0,0,0,0],"split_type":[0,0,0,0,0,0,0,0,0,0,0,0,0,0,0],"sum_hessian":[6.1741187E3,3.2536536E3,2.9204648E3,2.1068423E3,1.1468112E3,2.1062927E3,8.141722E2,1.5740581E3,5.3278424E2,4.6191095E2,6.849002E2,5.1174234E2,1.5945503E3,1.0540795E2,7.087642E2],"tree_param":{"num_deleted":"0","num_feature":"47","num_nodes":"15","size_leaf_vector":"1"}},{"base_weights":[3.9818577E-2,-2.7402228E-1,3.6248973E-1,-4.4462788E-1,-3.8069732E-2,1.9689554E-1,6.996427E-1,-2.269932E-2,-4.2915046E-3,-2.99283E-3,2.7231453E-2,-7.895724E-3,1.5055412E-2,1.5908753E-2,3.5E-2],"categories":[],"categories_nodes":[],"categories_segments":[],"categories_sizes":[],"default_left":[1,0,0,1,0,0,0,0,0,0,0,0,0,0,0],"id":30,"left_children":[1,3,5,7,9,11,13,-1,-1,-1,-1,-1,-1,-1,-1],"loss_changes":[6.260302E2,1.2613884E2,1.700362E2,6.067993E0,1.6741953E1,7.568037E1,6.491058E1,0E0,0E0,0E0,0E0,0E0,0E0,0E0,0E0],"parents":[2147483647,0,0,1,1,2,2,3,3,4,4,5,5,6,6],"right_children":[2,4,6,8,10,12,14,-1,-1,-1,-1,-1,-1,-1,-1],"split_conditions":[8.25E-2,1E-1,3.387704E-1,1.08E1,4E0,1.1E1,6.7E1,-2.269932E-2,-4.2915046E-3,-2.99283E-3,2.7231453E-2,-7.895724E-3,1.5055412E-2,1.5908753E-2,3.5E-2],"split_indices":[44,23,43,26,2,38,39,0,0,0,0,0,0,0,0],"split_type":[0,0,0,0,0,0,0,0,0,0,0,0,0,0,0],"sum_hessian":[6.1799707E3,3.132929E3,3.0470417E3,1.8177324E3,1.3151965E3,2.0444734E3,1.00256836E3,1.7712672E3,4.646522E1,1.2686592E3,4.6537365E1,4.640433E2,1.5804302E3,4.4759396E2,5.5497437E2],"tree_param":{"num_deleted":"0","num_feature":"47","num_nodes":"15","size_leaf_vector":"1"}},{"base_weights":[3.94014E-2,-2.2500744E-1,4.0361792E-1,-4.2003804E-1,8.436168E-3,2.2551374E-1,7E-1,-2.171195E-2,4.6739294E-3,-1.5633872E-3,2.2143696E-2,1.7196803E-3,1.7571922E-2,9.961784E-3,3.5E-2],"categories":[],"categories_nodes":[],"categories_segments":[],"categories_sizes":[],"default_left":[1,0,0,1,0,0,1,0,0,0,0,0,0,0,0],"id":31,"left_children":[1,3,5,7,9,11,13,-1,-1,-1,-1,-1,-1,-1,-1],"loss_changes":[5.957943E2,1.6320532E2,1.4553241E2,1.4282623E1,2.8174313E1,4.003244E1,5.1224274E1,0E0,0E0,0E0,0E0,0E0,0E0,0E0,0E0],"parents":[2147483647,0,0,1,1,2,2,3,3,4,4,5,5,6,6],"right_children":[2,4,6,8,10,12,14,-1,-1,-1,-1,-1,-1,-1,-1],"split_conditions":[6.7975834E-2,1E-1,3.2101083E-1,7E0,4E0,3E0,1.4E1,-2.171195E-2,4.6739294E-3,-1.5633872E-3,2.2143696E-2,1.7196803E-3,1.7571922E-2,9.961784E-3,3.5E-2],"split_indices":[43,23,44,19,2,22,39,0,0,0,0,0,0,0,0],"split_type":[0,0,0,0,0,0,0,0,0,0,0,0,0,0,0],"sum_hessian":[6.1847817E3,3.5835952E3,2.6011865E3,1.951998E3,1.6315972E3,1.6628945E3,9.38292E2,1.8996198E3,5.2378265E1,1.49582E3,1.3577719E2,6.6097845E2,1.001916E3,2.052263E2,7.3306573E2],"tree_param":{"num_deleted":"0","num_feature":"47","num_nodes":"15","size_leaf_vector":"1"}},{"base_weights":[3.877705E-2,-2.6017264E-1,3.4626797E-1,-3.971207E-1,-2.1469494E-2,1.9485892E-1,7E-1,-2.3422597E-2,-9.733393E-3,-1.1408595E-2,5.6652343E-3,7.2271856E-3,2.9954676E-2,1.8756146E-2,3.5E-2],"categories":[],"categories_nodes":[],"categories_segments":[],"categories_sizes":[],"default_left":[1,0,0,1,0,0,0,0,0,0,0,0,0,0,0],"id":32,"left_children":[1,3,5,7,9,11,13,-1,-1,-1,-1,-1,-1,-1,-1],"loss_changes":[5.69377E2,1.0266011E2,1.704584E2,2.8728455E1,3.1952105E1,4.399238E1,3.5046112E1,0E0,0E0,0E0,0E0,0E0,0E0,0E0,0E0],"parents":[2147483647,0,0,1,1,2,2,3,3,4,4,5,5,6,6],"right_children":[2,4,6,8,10,12,14,-1,-1,-1,-1,-1,-1,-1,-1],"split_conditions":[2E0,1E-1,3.387704E-1,2.8723404E-2,3E0,1.93E0,6.1E1,-2.3422597E-2,-9.733393E-3,-1.1408595E-2,5.6652343E-3,7.2271856E-3,2.9954676E-2,1.8756146E-2,3.5E-2],"split_indices":[18,24,43,44,2,46,41,0,0,0,0,0,0,0,0],"split_type":[0,0,0,0,0,0,0,0,0,0,0,0,0,0,0],"sum_hessian":[6.1919956E3,3.1396804E3,3.0523152E3,1.9946512E3,1.1450293E3,2.1661982E3,8.8611694E2,1.4739967E3,5.206545E2,4.5164728E2,6.9338196E2,1.9276238E3,2.385744E2,3.356913E2,5.5042566E2],"tree_param":{"num_deleted":"0","num_feature":"47","num_nodes":"15","size_leaf_vector":"1"}},{"base_weights":[3.8185775E-2,-2.660233E-1,3.2797158E-1,-4.412629E-1,-3.8730014E-2,1.5742294E-1,5.918841E-1,-2.3036677E-2,-1.2575491E-2,-6.7881136E-3,3.8828545E-3,-7.174857E-3,1.3322199E-2,1.6733184E-2,3.5E-2],"categories":[],"categories_nodes":[],"categories_segments":[],"categories_sizes":[],"default_left":[1,0,0,1,0,0,0,0,0,0,0,0,0,0,0],"id":33,"left_children":[1,3,5,7,9,11,13,-1,-1,-1,-1,-1,-1,-1,-1],"loss_changes":[5.4663727E2,1.2047908E2,1.4284222E2,6.1949463E0,1.4896188E1,6.3368084E1,7.124652E1,0E0,0E0,0E0,0E0,0E0,0E0,0E0,0E0],"parents":[2147483647,0,0,1,1,2,2,3,3,4,4,5,5,6,6],"right_children":[2,4,6,8,10,12,14,-1,-1,-1,-1,-1,-1,-1,-1],"split_conditions":[8.25E-2,1E-1,1.1E-1,1E-1,3E0,1.1E1,3.2142857E-1,-2.3036677E-2,-1.2575491E-2,-6.7881136E-3,3.8828545E-3,-7.174857E-3,1.3322199E-2,1.6733184E-2,3.5E-2],"split_indices":[44,23,5,26,2,38,43,0,0,0,0,0,0,0,0],"split_type":[0,0,0,0,0,0,0,0,0,0,0,0,0,0,0],"sum_hessian":[6.198843E3,3.024202E3,3.174641E3,1.7071073E3,1.3170946E3,1.9293987E3,1.2452423E3,1.5469464E3,1.601609E2,7.181797E2,5.989149E2,5.130263E2,1.4163724E3,6.456132E2,5.996291E2],"tree_param":{"num_deleted":"0","num_feature":"47","num_nodes":"15","size_leaf_vector":"1"}},{"base_weights":[3.751201E-2,-3.0259857E-1,2.8349432E-1,-4.4772032E-1,-7.685949E-2,1.4862707E-1,5.965291E-1,-2.2969289E-2,-9.066644E-3,-5.269608E-3,2.7855346E-2,-6.003496E-3,1.2064673E-2,1.656465E-2,3.5E-2],"categories":[],"categories_nodes":[],"categories_segments":[],"categories_sizes":[],"default_left":[1,0,0,1,0,0,0,0,0,0,0,0,0,0,0],"id":34,"left_children":[1,3,5,7,9,11,13,-1,-1,-1,-1,-1,-1,-1,-1],"loss_changes":[5.1942633E2,8.5331696E1,1.5201624E2,4.845001E0,1.8525457E1,6.2757984E1,5.3664E1,0E0,0E0,0E0,0E0,0E0,0E0,0E0,0E0],"parents":[2147483647,0,0,1,1,2,2,3,3,4,4,5,5,6,6],"right_children":[2,4,6,8,10,12,14,-1,-1,-1,-1,-1,-1,-1,-1],"split_conditions":[5.6435645E-2,1E-1,2E1,1E0,4E0,1.1E1,1.6E1,-2.2969289E-2,-9.066644E-3,-5.269608E-3,2.7855346E-2,-6.003496E-3,1.2064673E-2,1.656465E-2,3.5E-2],"split_indices":[44,23,19,24,2,38,18,0,0,0,0,0,0,0,0],"split_type":[0,0,0,0,0,0,0,0,0,0,0,0,0,0,0],"sum_hessian":[6.206664E3,2.604831E3,3.6018333E3,1.5849346E3,1.0198965E3,2.5183203E3,1.0835128E3,1.5177461E3,6.7188484E1,9.7676917E2,4.3127293E1,6.457109E2,1.8726095E3,4.8276263E2,6.007502E2],"tree_param":{"num_deleted":"0","num_feature":"47","num_nodes":"15","size_leaf_vector":"1"}},{"base_weights":[3.67096E-2,-2.9965222E-1,2.7316925E-1,-4.4661534E-1,-7.524355E-2,1.2458012E-1,5.3894424E-1,-2.2926103E-2,-8.925205E-3,-5.166372E-3,2.6439965E-2,-7.577736E-3,1.1020682E-2,1.649531E-2,3.5E-2],"categories":[],"categories_nodes":[],"categories_segments":[],"categories_sizes":[],"default_left":[1,0,0,1,0,0,0,0,0,0,0,0,0,0,0],"id":35,"left_children":[1,3,5,7,9,11,13,-1,-1,-1,-1,-1,-1,-1,-1],"loss_changes":[4.9455743E2,8.462041E1,1.4412183E2,4.869049E0,1.7306576E1,6.2040653E1,6.9878815E1,0E0,0E0,0E0,0E0,0E0,0E0,0E0,0E0],"parents":[2147483647,0,0,1,1,2,2,3,3,4,4,5,5,6,6],"right_children":[2,4,6,8,10,12,14,-1,-1,-1,-1,-1,-1,-1,-1],"split_conditions":[5.6435645E-2,1E-1,1.2E-1,1E0,4E0,1.1E1,3.6144578E-1,-2.2926103E-2,-8.925205E-3,-5.166372E-3,2.6439965E-2,-7.577736E-3,1.1020682E-2,1.649531E-2,3.5E-2],"split_indices":[44,23,5,24,2,38,43,0,0,0,0,0,0,0,0],"split_type":[0,0,0,0,0,0,0,0,0,0,0,0,0,0,0],"sum_hessian":[6.2160044E3,2.5658447E3,3.6501597E3,1.5498636E3,1.01598114E3,2.3421707E3,1.3079889E3,1.4832815E3,6.658207E1,9.716356E2,4.434551E1,6.032844E2,1.7388864E3,7.6064923E2,5.4733966E2],"tree_param":{"num_deleted":"0","num_feature":"47","num_nodes":"15","size_leaf_vector":"1"}},{"base_weights":[3.5952967E-2,-2.9669064E-1,2.6341462E-1,-4.4548815E-1,-7.365549E-2,9.8642826E-2,4.8431215E-1,-2.2881996E-2,-8.784751E-3,-5.0646304E-3,2.5130926E-2,-5.421963E-3,1.21983355E-2,1.5312555E-2,3.5E-2],"categories":[],"categories_nodes":[],"categories_segments":[],"categories_sizes":[],"default_left":[1,0,0,1,0,0,1,0,0,0,0,0,0,0,0],"id":36,"left_children":[1,3,5,7,9,11,13,-1,-1,-1,-1,-1,-1,-1,-1],"loss_changes":[4.7114786E2,8.3891174E1,1.345517E2,4.891876E0,1.6187092E1,6.380611E1,6.5545166E1,0E0,0E0,0E0,0E0,0E0,0E0,0E0,0E0],"parents":[2147483647,0,0,1,1,2,2,3,3,4,4,5,5,6,6],"right_children":[2,4,6,8,10,12,14,-1,-1,-1,-1,-1,-1,-1,-1],"split_conditions":[5.6435645E-2,1E-1,1.3E1,1E0,4E0,2E0,1.2E1,-2.2881996E-2,-8.784751E-3,-5.0646304E-3,2.5130926E-2,-5.421963E-3,1.21983355E-2,1.5312555E-2,3.5E-2],"split_indices":[44,23,18,24,2,20,22,0,0,0,0,0,0,0,0],"split_type":[0,0,0,0,0,0,0,0,0,0,0,0,0,0,0],"sum_hessian":[6.2248374E3,2.5278152E3,3.6970222E3,1.5156528E3,1.0121625E3,2.1183499E3,1.5786724E3,1.4496624E3,6.5990456E1,9.666288E2,4.5533638E1,8.7366205E2,1.2446879E3,8.9893005E2,6.797424E2],"tree_param":{"num_deleted":"0","num_feature":"47","num_nodes":"15","size_leaf_vector":"1"}},{"base_weights":[3.496778E-2,-2.9371464E-1,2.5354907E-1,-4.4433853E-1,-7.2095E-2,1.3070114E-1,5.286268E-1,-2.2836955E-2,-8.645314E-3,-4.9643777E-3,2.3917018E-2,-6.9611275E-4,1.38282655E-2,1.6252598E-2,3.5E-2],"categories":[],"categories_nodes":[],"categories_segments":[],"categories_sizes":[],"default_left":[1,0,0,1,0,1,0,0,0,0,0,0,0,0,0],"id":37,"left_children":[1,3,5,7,9,11,13,-1,-1,-1,-1,-1,-1,-1,-1],"loss_changes":[4.4819147E2,8.3144516E1,1.26540665E2,4.9136353E0,1.51565E1,5.4668594E1,4.8791534E1,0E0,0E0,0E0,0E0,0E0,0E0,0E0,0E0],"parents":[2147483647,0,0,1,1,2,2,3,3,4,4,5,5,6,6],"right_children":[2,4,6,8,10,12,14,-1,-1,-1,-1,-1,-1,-1,-1],"split_conditions":[5.6435645E-2,1E-1,2E1,1E0,4E0,4.1E1,3.2101083E-1,-2.2836955E-2,-8.645314E-3,-4.9643777E-3,2.3917018E-2,-6.9611275E-4,1.38282655E-2,1.6252598E-2,3.5E-2],"split_indices":[44,23,19,24,2,42,44,0,0,0,0,0,0,0,0],"split_type":[0,0,0,0,0,0,0,0,0,0,0,0,0,0,0],"sum_hessian":[6.2363765E3,2.490719E3,3.7456577E3,1.4822811E3,1.0084379E3,2.5903147E3,1.1553428E3,1.4168678E3,6.5413284E1,9.617455E2,4.6692444E1,1.3011437E3,1.2891711E3,5.911063E2,5.642365E2],"tree_param":{"num_deleted":"0","num_feature":"47","num_nodes":"15","size_leaf_vector":"1"}},{"base_weights":[3.4062345E-2,-3.1836018E-1,2.296414E-1,-4.0108562E-1,-3.7689712E-2,1.13764E-1,5.5436337E-1,-2.072164E-2,2.5236404E-2,-1.7619895E-2,6.4771497E-3,-4.72389E-3,9.647158E-3,1.6528722E-2,3.5E-2],"categories":[],"categories_nodes":[],"categories_segments":[],"categories_sizes":[],"default_left":[1,0,0,1,0,0,1,0,0,0,0,0,0,0,0],"id":38,"left_children":[1,3,5,7,9,11,13,-1,-1,-1,-1,-1,-1,-1,-1],"loss_changes":[4.3072693E2,5.1769455E1,1.5115282E2,2.1034058E1,2.6824747E1,4.8874245E1,4.7631958E1,0E0,0E0,0E0,0E0,0E0,0E0,0E0,0E0],"parents":[2147483647,0,0,1,1,2,2,3,3,4,4,5,5,6,6],"right_children":[2,4,6,8,10,12,14,-1,-1,-1,-1,-1,-1,-1,-1],"split_conditions":[1E-1,6E-1,3.2101083E-1,3E-1,3E0,3E0,6.3E1,-2.072164E-2,2.5236404E-2,-1.7619895E-2,6.4771497E-3,-4.72389E-3,9.647158E-3,1.6528722E-2,3.5E-2],"split_indices":[23,24,44,7,2,2,41,0,0,0,0,0,0,0,0],"split_type":[0,0,0,0,0,0,0,0,0,0,0,0,0,0,0],"sum_hessian":[6.247019E3,2.2293062E3,4.0177131E3,1.7214833E3,5.0782294E2,2.962052E3,1.0556611E3,1.6970201E3,2.4463142E1,1.7582951E2,3.319934E2,8.1593726E2,2.1461145E3,5.158247E2,5.398364E2],"tree_param":{"num_deleted":"0","num_feature":"47","num_nodes":"15","size_leaf_vector":"1"}},{"base_weights":[3.324039E-2,-3.383064E-1,2.1011147E-1,-4.350113E-1,-5.6863565E-2,1.9527001E-2,3.9681968E-1,-2.2313476E-2,-1.8896562E-3,-5.5064983E-3,3.5E-2,-2.2829206E-4,2.6297644E-2,1.0200959E-2,2.6181165E-2],"categories":[],"categories_nodes":[],"categories_segments":[],"categories_sizes":[],"default_left":[0,1,1,1,1,0,0,0,0,0,0,0,0,0,0],"id":39,"left_children":[1,3,5,7,9,11,13,-1,-1,-1,-1,-1,-1,-1,-1],"loss_changes":[4.113022E2,5.4914413E1,1.5087222E2,6.7009277E0,2.835683E1,2.5616982E1,5.2255524E1,0E0,0E0,0E0,0E0,0E0,0E0,0E0,0E0],"parents":[2147483647,0,0,1,1,2,2,3,3,4,4,5,5,6,6],"right_children":[2,4,6,8,10,12,14,-1,-1,-1,-1,-1,-1,-1,-1],"split_conditions":[1E-1,8.181818E-2,1.6363636E-1,1.08E1,4.6E1,4E0,6.3E1,-2.2313476E-2,-1.8896562E-3,-5.5064983E-3,3.5E-2,-2.2829206E-4,2.6297644E-2,1.0200959E-2,2.6181165E-2],"split_indices":[23,44,44,26,22,2,42,0,0,0,0,0,0,0,0],"split_type":[0,0,0,0,0,0,0,0,0,0,0,0,0,0,0],"sum_hessian":[6.2567124E3,2.0175674E3,4.239145E3,1.5012025E3,5.163649E2,2.0983428E3,2.140802E3,1.459707E3,4.1495464E1,4.9452063E2,2.1844278E1,2.0039951E3,9.4347626E1,8.504028E2,1.2903993E3],"tree_param":{"num_deleted":"0","num_feature":"47","num_nodes":"15","size_leaf_vector":"1"}},{"base_weights":[3.232927E-2,-2.858083E-1,2.2940882E-1,-4.409177E-1,-7.1118854E-2,9.710819E-2,4.4007266E-1,-2.2703681E-2,-8.078413E-3,-4.85863E-3,2.1230312E-2,-7.3140073E-3,8.8587385E-3,1.3124162E-2,3.3999182E-2],"categories":[],"categories_nodes":[],"categories_segments":[],"categories_sizes":[],"default_left":[1,0,0,1,0,0,0,0,0,0,0,0,0,0,0],"id":40,"left_children":[1,3,5,7,9,11,13,-1,-1,-1,-1,-1,-1,-1,-1],"loss_changes":[3.9308994E2,7.983133E1,1.0785243E2,5.042816E0,1.3048741E1,4.6389404E1,6.3434723E1,0E0,0E0,0E0,0E0,0E0,0E0,0E0,0E0],"parents":[2147483647,0,0,1,1,2,2,3,3,4,4,5,5,6,6],"right_children":[2,4,6,8,10,12,14,-1,-1,-1,-1,-1,-1,-1,-1],"split_conditions":[5.6435645E-2,1E-1,1.1E-1,1E0,4E0,1.1E1,3.6144578E-1,-2.2703681E-2,-8.078413E-3,-4.85863E-3,2.1230312E-2,-7.3140073E-3,8.8587385E-3,1.3124162E-2,3.3999182E-2],"split_indices":[44,23,5,24,2,38,43,0,0,0,0,0,0,0,0],"split_type":[0,0,0,0,0,0,0,0,0,0,0,0,0,0,0],"sum_hessian":[6.2674917E3,2.397253E3,3.870239E3,1.391131E3,1.00612195E3,2.3781682E3,1.4920708E3,1.3279653E3,6.3165653E1,9.566476E2,4.9474396E1,5.884763E2,1.7896918E3,8.586017E2,6.3346906E2],"tree_param":{"num_deleted":"0","num_feature":"47","num_nodes":"15","size_leaf_vector":"1"}},{"base_weights":[3.140331E-2,-3.329904E-1,1.9584428E-1,-4.3231365E-1,-5.4692294E-2,6.0705435E-2,4.2049652E-1,-2.2230223E-2,-2.2918107E-3,-5.3674616E-3,3.5E-2,-5.704225E-3,7.2289878E-3,1.4377366E-2,3.286163E-2],"categories":[],"categories_nodes":[],"categories_segments":[],"categories_sizes":[],"default_left":[0,1,1,1,1,0,1,0,0,0,0,0,0,0,0],"id":41,"left_children":[1,3,5,7,9,11,13,-1,-1,-1,-1,-1,-1,-1,-1],"loss_changes":[3.7633984E2,5.3959457E1,1.3135442E2,6.8157654E0,2.6966526E1,3.9647194E1,5.0964294E1,0E0,0E0,0E0,0E0,0E0,0E0,0E0,0E0],"parents":[2147483647,0,0,1,1,2,2,3,3,4,4,5,5,6,6],"right_children":[2,4,6,8,10,12,14,-1,-1,-1,-1,-1,-1,-1,-1],"split_conditions":[1E-1,8.181818E-2,2.5034896E-1,4E0,4.6E1,3E0,8.9E1,-2.2230223E-2,-2.2918107E-3,-5.3674616E-3,3.5E-2,-5.704225E-3,7.2289878E-3,1.4377366E-2,3.286163E-2],"split_indices":[23,44,44,21,22,2,39,0,0,0,0,0,0,0,0],"split_type":[0,0,0,0,0,0,0,0,0,0,0,0,0,0,0],"sum_hessian":[6.2784854E3,1.9519742E3,4.326511E3,1.4381514E3,5.138228E2,2.7022507E3,1.6242603E3,1.3936791E3,4.4472275E1,4.909806E2,2.2842205E1,8.7611346E2,1.8261373E3,1.0415488E3,5.827113E2],"tree_param":{"num_deleted":"0","num_feature":"47","num_nodes":"15","size_leaf_vector":"1"}},{"base_weights":[3.054209E-2,-3.0356207E-1,2.0179664E-1,-4.4117352E-1,-9.246979E-2,1.6666144E-2,3.404179E-1,-2.3198081E-2,-1.2674942E-2,-6.00177E-3,1.821505E-2,-9.259017E-3,5.4203514E-3,1.3871605E-2,3.417502E-2],"categories":[],"categories_nodes":[],"categories_segments":[],"categories_sizes":[],"default_left":[1,0,0,0,0,0,0,0,0,0,0,0,0,0,0],"id":42,"left_children":[1,3,5,7,9,11,13,-1,-1,-1,-1,-1,-1,-1,-1],"loss_changes":[3.599407E2,6.188672E1,1.0672409E2,5.4005585E0,1.0652702E1,3.3014153E1,5.1200012E1,0E0,0E0,0E0,0E0,0E0,0E0,0E0,0E0],"parents":[2147483647,0,0,1,1,2,2,3,3,4,4,5,5,6,6],"right_children":[2,4,6,8,10,12,14,-1,-1,-1,-1,-1,-1,-1,-1],"split_conditions":[4.2727273E-2,1E-1,5E0,1E-1,4E0,1E1,5.163934E-1,-2.3198081E-2,-1.2674942E-2,-6.00177E-3,1.821505E-2,-9.259017E-3,5.4203514E-3,1.3871605E-2,3.417502E-2],"split_indices":[44,23,19,24,2,38,44,0,0,0,0,0,0,0,0],"split_type":[0,0,0,0,0,0,0,0,0,0,0,0,0,0,0],"sum_hessian":[6.2887446E3,2.1308503E3,4.157894E3,1.289278E3,8.4157245E2,1.7807711E3,2.377123E3,1.1483672E3,1.4091077E2,7.943703E2,4.7202168E1,5.561414E2,1.2246298E3,2.0099324E3,3.671907E2],"tree_param":{"num_deleted":"0","num_feature":"47","num_nodes":"15","size_leaf_vector":"1"}},{"base_weights":[2.9673798E-2,-3.2760748E-1,1.828367E-1,-4.2953885E-1,-5.2404128E-2,9.751754E-2,4.971129E-1,-2.2291481E-2,-6.026221E-3,-5.2248896E-3,3.5E-2,-1.0742521E-4,1.4718845E-2,1.6954096E-2,3.5E-2],"categories":[],"categories_nodes":[],"categories_segments":[],"categories_sizes":[],"default_left":[0,1,0,1,1,1,1,0,0,0,0,0,0,0,0],"id":43,"left_children":[1,3,5,7,9,11,13,-1,-1,-1,-1,-1,-1,-1,-1],"loss_changes":[3.4481665E2,5.3016876E1,1.1820998E2,6.8912506E0,2.5666393E1,6.808136E1,3.1759506E1,0E0,0E0,0E0,0E0,0E0,0E0,0E0,0E0],"parents":[2147483647,0,0,1,1,2,2,3,3,4,4,5,5,6,6],"right_children":[2,4,6,8,10,12,14,-1,-1,-1,-1,-1,-1,-1,-1],"split_conditions":[1E-1,8.181818E-2,4E0,2E0,4.6E1,8E0,8.1E1,-2.2291481E-2,-6.026221E-3,-5.2248896E-3,3.5E-2,-1.0742521E-4,1.4718845E-2,1.6954096E-2,3.5E-2],"split_indices":[23,44,2,21,22,22,38,0,0,0,0,0,0,0,0],"split_type":[0,0,0,0,0,0,0,0,0,0,0,0,0,0,0],"sum_hessian":[6.299122E3,1.8897607E3,4.409362E3,1.37859E3,5.1117072E2,3.4689324E3,9.404293E2,1.3091317E3,6.945824E1,4.8740268E2,2.376804E1,2.3036355E3,1.1652968E3,5.4406934E2,3.9635995E2],"tree_param":{"num_deleted":"0","num_feature":"47","num_nodes":"15","size_leaf_vector":"1"}},{"base_weights":[2.8882982E-2,-2.98191E-1,1.8900853E-1,-4.3869135E-1,-9.131759E-2,1.4214834E-2,3.168096E-1,-2.3122681E-2,-1.2273272E-2,-5.9038005E-3,1.6730497E-2,-1.0831051E-2,4.360382E-3,1.043979E-2,2.4011213E-2],"categories":[],"categories_nodes":[],"categories_segments":[],"categories_sizes":[],"default_left":[1,0,0,0,0,0,0,0,0,0,0,0,0,0,0],"id":44,"left_children":[1,3,5,7,9,11,13,-1,-1,-1,-1,-1,-1,-1,-1],"loss_changes":[3.3050858E2,6.0246338E1,9.463321E1,5.5567627E0,9.615133E0,3.0184658E1,4.3094406E1,0E0,0E0,0E0,0E0,0E0,0E0,0E0,0E0],"parents":[2147483647,0,0,1,1,2,2,3,3,4,4,5,5,6,6],"right_children":[2,4,6,8,10,12,14,-1,-1,-1,-1,-1,-1,-1,-1],"split_conditions":[4.2727273E-2,1E-1,5E0,1E-1,4E0,1E0,3.2101083E-1,-2.3122681E-2,-1.2273272E-2,-5.9038005E-3,1.6730497E-2,-1.0831051E-2,4.360382E-3,1.043979E-2,2.4011213E-2],"split_indices":[44,23,19,24,2,38,44,0,0,0,0,0,0,0,0],"split_type":[0,0,0,0,0,0,0,0,0,0,0,0,0,0,0],"sum_hessian":[6.308604E3,2.0731353E3,4.2354683E3,1.2339584E3,8.39177E2,1.7893218E3,2.4461467E3,1.0975874E3,1.36371E2,7.90253E2,4.8923996E1,4.2939987E2,1.3599219E3,1.4740844E3,9.720623E2],"tree_param":{"num_deleted":"0","num_feature":"47","num_nodes":"15","size_leaf_vector":"1"}},{"base_weights":[2.806545E-2,-3.2209244E-1,1.7086998E-1,-4.2665714E-1,-4.9868412E-2,3.482518E-2,3.41359E-1,-2.1966694E-2,-4.5031254E-4,-5.0689685E-3,3.5E-2,-1.7939666E-3,1.0110616E-2,1.4151487E-2,3.3751342E-2],"categories":[],"categories_nodes":[],"categories_segments":[],"categories_sizes":[],"default_left":[0,1,1,1,1,1,0,0,0,0,0,0,0,0,0],"id":45,"left_children":[1,3,5,7,9,11,13,-1,-1,-1,-1,-1,-1,-1,-1],"loss_changes":[3.160529E2,5.2098206E1,1.04116745E2,6.999222E0,2.4331417E1,2.9571888E1,3.8585648E1,0E0,0E0,0E0,0E0,0E0,0E0,0E0,0E0],"parents":[2147483647,0,0,1,1,2,2,3,3,4,4,5,5,6,6],"right_children":[2,4,6,8,10,12,14,-1,-1,-1,-1,-1,-1,-1,-1],"split_conditions":[1E-1,8.181818E-2,1.9543974E-1,1.08E1,4.6E1,1E1,1.8292593E0,-2.1966694E-2,-4.5031254E-4,-5.0689685E-3,3.5E-2,-1.7939666E-3,1.0110616E-2,1.4151487E-2,3.3751342E-2],"split_indices":[23,44,43,26,22,18,46,0,0,0,0,0,0,0,0],"split_type":[0,0,0,0,0,0,0,0,0,0,0,0,0,0,0],"sum_hessian":[6.3184355E3,1.8300013E3,4.4884346E3,1.3217379E3,5.082635E2,2.4970625E3,1.9913718E3,1.2827513E3,3.898651E1,4.835489E2,2.4714584E1,1.7560786E3,7.4098395E2,1.6966284E3,2.9474344E2],"tree_param":{"num_deleted":"0","num_feature":"47","num_nodes":"15","size_leaf_vector":"1"}},{"base_weights":[2.7300417E-2,-3.165859E-1,1.666136E-1,-4.4280395E-1,-1.0466658E-1,2.410729E-2,3.1385273E-1,-2.3195742E-2,-1.2872909E-2,-1.0279377E-2,1.9184115E-3,-9.574636E-3,4.873468E-3,1.0040559E-2,2.5209025E-2],"categories":[],"categories_nodes":[],"categories_segments":[],"categories_sizes":[],"default_left":[1,0,0,0,0,0,0,0,0,0,0,0,0,0,0],"id":46,"left_children":[1,3,5,7,9,11,13,-1,-1,-1,-1,-1,-1,-1,-1],"loss_changes":[3.032457E2,4.8768494E1,9.4511826E1,4.3546753E0,9.860365E0,3.624264E1,4.7564377E1,0E0,0E0,0E0,0E0,0E0,0E0,0E0,0E0],"parents":[2147483647,0,0,1,1,2,2,3,3,4,4,5,5,6,6],"right_children":[2,4,6,8,10,12,14,-1,-1,-1,-1,-1,-1,-1,-1],"split_conditions":[2.9508196E-2,1E-1,8E0,1E-1,1.6937838E0,1.1E1,3.6144578E-1,-2.3195742E-2,-1.2872909E-2,-1.0279377E-2,1.9184115E-3,-9.574636E-3,4.873468E-3,1.0040559E-2,2.5209025E-2],"split_indices":[44,23,22,24,46,38,43,0,0,0,0,0,0,0,0],"split_type":[0,0,0,0,0,0,0,0,0,0,0,0,0,0,0],"sum_hessian":[6.327664E3,1.8239872E3,4.503677E3,1.1424564E3,6.815308E2,2.2892124E3,2.2144644E3,1.0242872E3,1.18169205E2,3.99335E2,2.821958E2,5.807794E2,1.708433E3,1.3905995E3,8.2386487E2],"tree_param":{"num_deleted":"0","num_feature":"47","num_nodes":"15","size_leaf_vector":"1"}},{"base_weights":[2.652851E-2,-3.1372634E-1,1.6108356E-1,-4.4160196E-1,-1.02622084E-1,5.576621E-2,3.479984E-1,-2.3157446E-2,-1.271932E-2,-1.0129421E-2,1.8673306E-3,-1.9534521E-3,1.0249809E-2,1.0876476E-2,2.5721455E-2],"categories":[],"categories_nodes":[],"categories_segments":[],"categories_sizes":[],"default_left":[1,0,0,0,0,0,0,0,0,0,0,0,0,0,0],"id":47,"left_children":[1,3,5,7,9,11,13,-1,-1,-1,-1,-1,-1,-1,-1],"loss_changes":[2.9022333E2,4.8449997E1,8.94025E1,4.3939514E0,9.508082E0,4.114379E1,3.5431717E1,0E0,0E0,0E0,0E0,0E0,0E0,0E0,0E0],"parents":[2147483647,0,0,1,1,2,2,3,3,4,4,5,5,6,6],"right_children":[2,4,6,8,10,12,14,-1,-1,-1,-1,-1,-1,-1,-1],"split_conditions":[2.9508196E-2,1E-1,1.2E-1,1E-1,1.6937838E0,1E1,3.6144578E-1,-2.3157446E-2,-1.271932E-2,-1.0129421E-2,1.8673306E-3,-1.9534521E-3,1.0249809E-2,1.0876476E-2,2.5721455E-2],"split_indices":[44,23,5,24,46,18,43,0,0,0,0,0,0,0,0],"split_type":[0,0,0,0,0,0,0,0,0,0,0,0,0,0,0],"sum_hessian":[6.3370024E3,1.7954481E3,4.5415547E3,1.1174594E3,6.779888E2,2.9056575E3,1.6358971E3,1.0008016E3,1.1665778E2,3.952511E2,2.8273767E2,1.7770715E3,1.1285859E3,9.183152E2,7.1758185E2],"tree_param":{"num_deleted":"0","num_feature":"47","num_nodes":"15","size_leaf_vector":"1"}},{"base_weights":[2.5781857E-2,-3.1414938E-1,1.5528326E-1,-4.2224732E-1,-4.876622E-2,7.9615474E-2,4.2053196E-1,-2.2006905E-2,-5.1259953E-3,-4.9505825E-3,3.5E-2,-4.8926694E-4,1.242978E-2,1.6311726E-2,3.5E-2],"categories":[],"categories_nodes":[],"categories_segments":[],"categories_sizes":[],"default_left":[0,1,0,1,1,1,0,0,0,0,0,0,0,0,0],"id":48,"left_children":[1,3,5,7,9,11,13,-1,-1,-1,-1,-1,-1,-1,-1],"loss_changes":[2.7945642E2,5.0219055E1,9.22275E1,7.072296E0,2.2196964E1,5.4051216E1,3.317186E1,0E0,0E0,0E0,0E0,0E0,0E0,0E0,0E0],"parents":[2147483647,0,0,1,1,2,2,3,3,4,4,5,5,6,6],"right_children":[2,4,6,8,10,12,14,-1,-1,-1,-1,-1,-1,-1,-1],"split_conditions":[1E-1,8.181818E-2,4E0,2E0,4.6E1,8E0,1.80125E0,-2.2006905E-2,-5.1259953E-3,-4.9505825E-3,3.5E-2,-4.8926694E-4,1.242978E-2,1.6311726E-2,3.5E-2],"split_indices":[23,44,2,21,22,22,46,0,0,0,0,0,0,0,0],"split_type":[0,0,0,0,0,0,0,0,0,0,0,0,0,0,0],"sum_hessian":[6.346062E3,1.7502814E3,4.5957803E3,1.2432714E3,5.0701004E2,3.5767402E3,1.0190403E3,1.1770323E3,6.623906E1,4.806632E2,2.6346859E1,2.3397903E3,1.2369498E3,8.102305E2,2.0880975E2],"tree_param":{"num_deleted":"0","num_feature":"47","num_nodes":"15","size_leaf_vector":"1"}},{"base_weights":[2.5149317E-2,-3.3190075E-1,1.4344795E-1,-4.4865927E-1,-1.12060435E-1,1.7758427E-2,2.8577626E-1,-2.2619637E-2,2.791569E-2,-7.5501623E-3,1.3241497E-2,-6.568186E-3,6.2699034E-3,1.1661756E-2,2.8258776E-2],"categories":[],"categories_nodes":[],"categories_segments":[],"categories_sizes":[],"default_left":[1,0,0,1,0,0,0,0,0,0,0,0,0,0,0],"id":49,"left_children":[1,3,5,7,9,11,13,-1,-1,-1,-1,-1,-1,-1,-1],"loss_changes":[2.684632E2,4.055153E1,8.539725E1,4.1352844E0,8.112734E0,4.0726734E1,3.2732635E1,0E0,0E0,0E0,0E0,0E0,0E0,0E0,0E0],"parents":[2147483647,0,0,1,1,2,2,3,3,4,4,5,5,6,6],"right_children":[2,4,6,8,10,12,14,-1,-1,-1,-1,-1,-1,-1,-1],"split_conditions":[1.8965518E-2,1E-1,1E1,1.6E-1,4E0,1E0,6.17849E-1,-2.2619637E-2,2.791569E-2,-7.5501623E-3,1.3241497E-2,-6.568186E-3,6.2699034E-3,1.1661756E-2,2.8258776E-2],"split_indices":[44,24,18,11,2,20,43,0,0,0,0,0,0,0,0],"split_type":[0,0,0,0,0,0,0,0,0,0,0,0,0,0,0],"sum_hessian":[6.353757E3,1.5807914E3,4.7729653E3,1.0317709E3,5.490206E2,2.535235E3,2.2377305E3,1.0285083E3,3.2625737E0,4.98148E2,5.08726E1,1.0627285E3,1.4725066E3,1.8850758E3,3.526546E2],"tree_param":{"num_deleted":"0","num_feature":"47","num_nodes":"15","size_leaf_vector":"1"}},{"base_weights":[2.4448784E-2,-3.08777E-1,1.4601001E-1,-4.1926125E-1,-4.6955504E-2,7.437591E-2,3.913667E-1,-2.1656996E-2,2.971522E-4,-4.8229606E-3,3.5E-2,-3.4763312E-4,1.240232E-2,1.5152848E-2,3.5E-2],"categories":[],"categories_nodes":[],"categories_segments":[],"categories_sizes":[],"default_left":[0,1,0,1,1,1,0,0,0,0,0,0,0,0,0],"id":50,"left_children":[1,3,5,7,9,11,13,-1,-1,-1,-1,-1,-1,-1,-1],"loss_changes":[2.5780545E2,4.9190735E1,8.192938E1,7.0618134E0,2.0803694E1,5.099879E1,3.0680573E1,0E0,0E0,0E0,0E0,0E0,0E0,0E0,0E0],"parents":[2147483647,0,0,1,1,2,2,3,3,4,4,5,5,6,6],"right_children":[2,4,6,8,10,12,14,-1,-1,-1,-1,-1,-1,-1,-1],"split_conditions":[1E-1,8.181818E-2,4E0,1.08E1,4.6E1,1.41E1,1.80125E0,-2.1656996E-2,2.971522E-4,-4.8229606E-3,3.5E-2,-3.4763312E-4,1.240232E-2,1.5152848E-2,3.5E-2],"split_indices":[23,44,2,26,22,25,46,0,0,0,0,0,0,0,0],"split_type":[0,0,0,0,0,0,0,0,0,0,0,0,0,0,0],"sum_hessian":[6.362301E3,1.7001847E3,4.662116E3,1.1952205E3,5.0496423E2,3.609572E3,1.0525441E3,1.1574235E3,3.779699E1,4.7759064E2,2.737361E1,2.4590007E3,1.1505714E3,8.33744E2,2.1880011E2],"tree_param":{"num_deleted":"0","num_feature":"47","num_nodes":"15","size_leaf_vector":"1"}},{"base_weights":[2.3801178E-2,-3.269909E-1,1.352088E-1,-4.4661227E-1,-1.0960565E-1,9.4250655E-3,2.6525414E-1,-2.2524739E-2,2.6826149E-2,-1.1229587E-2,6.125252E-4,-5.0273906E-3,5.953411E-3,6.996345E-3,1.950852E-2],"categories":[],"categories_nodes":[],"categories_segments":[],"categories_sizes":[],"default_left":[1,0,0,1,0,0,0,0,0,0,0,0,0,0,0],"id":51,"left_children":[1,3,5,7,9,11,13,-1,-1,-1,-1,-1,-1,-1,-1],"loss_changes":[2.4903728E2,3.9893005E1,7.9106415E1,4.022339E0,7.6606197E0,2.966721E1,3.7170776E1,0E0,0E0,0E0,0E0,0E0,0E0,0E0,0E0],"parents":[2147483647,0,0,1,1,2,2,3,3,4,4,5,5,6,6],"right_children":[2,4,6,8,10,12,14,-1,-1,-1,-1,-1,-1,-1,-1],"split_conditions":[1.8965518E-2,1E-1,8E0,1.6E-1,3E0,3E0,1.6E1,-2.2524739E-2,2.6826149E-2,-1.1229587E-2,6.125252E-4,-5.0273906E-3,5.953411E-3,6.996345E-3,1.950852E-2],"split_indices":[44,24,22,11,2,19,18,0,0,0,0,0,0,0,0],"split_type":[0,0,0,0,0,0,0,0,0,0,0,0,0,0,0],"sum_hessian":[6.3702197E3,1.5349977E3,4.835222E3,9.8946606E2,5.4553156E2,2.4584292E3,2.3767932E3,9.861136E2,3.352482E0,2.802441E2,2.6528745E2,1.2274105E3,1.2310187E3,1.1875029E3,1.1892902E3],"tree_param":{"num_deleted":"0","num_feature":"47","num_nodes":"15","size_leaf_vector":"1"}},{"base_weights":[2.3138598E-2,-3.2420322E-1,1.3093187E-1,-4.454838E-1,-1.0749346E-1,-1.1315952E-2,2.3917173E-1,-2.2472296E-2,2.576655E-2,-1.0703229E-2,1.1391813E-3,-5.1867934E-3,6.096666E-3,5.8767726E-3,1.6594686E-2],"categories":[],"categories_nodes":[],"categories_segments":[],"categories_sizes":[],"default_left":[1,0,0,1,0,1,0,0,0,0,0,0,0,0,0],"id":52,"left_children":[1,3,5,7,9,11,13,-1,-1,-1,-1,-1,-1,-1,-1],"loss_changes":[2.3889212E2,3.9669403E1,7.497298E1,3.91893E0,7.5516067E0,2.5935598E1,3.1147629E1,0E0,0E0,0E0,0E0,0E0,0E0,0E0,0E0],"parents":[2147483647,0,0,1,1,2,2,3,3,4,4,5,5,6,6],"right_children":[2,4,6,8,10,12,14,-1,-1,-1,-1,-1,-1,-1,-1],"split_conditions":[1.8965518E-2,1E-1,5E0,1.6E-1,1.701875E0,3E0,1E1,-2.2472296E-2,2.576655E-2,-1.0703229E-2,1.1391813E-3,-5.1867934E-3,6.096666E-3,5.8767726E-3,1.6594686E-2],"split_indices":[44,24,19,11,46,22,21,0,0,0,0,0,0,0,0],"split_type":[0,0,0,0,0,0,0,0,0,0,0,0,0,0,0],"sum_hessian":[6.3783423E3,1.5101582E3,4.868184E3,9.675935E2,5.425647E2,2.1040095E3,2.7641746E3,9.6414984E2,3.4436338E0,2.9808105E2,2.4448367E2,1.2424703E3,8.6153925E2,1.1966417E3,1.5675328E3],"tree_param":{"num_deleted":"0","num_feature":"47","num_nodes":"15","size_leaf_vector":"1"}},{"base_weights":[2.2496304E-2,-3.149855E-1,1.2960546E-1,-3.8223076E-1,4.7876082E-2,-1.3500822E-1,1.949624E-1,-2.1953752E-2,-1.0248604E-2,-2.172775E-3,2.5048947E-2,-1.1359645E-2,1.9819203E-3,5.467497E-3,1.585656E-2],"categories":[],"categories_nodes":[],"categories_segments":[],"categories_sizes":[],"default_left":[0,1,0,1,0,1,0,0,0,0,0,0,0,0,0],"id":53,"left_children":[1,3,5,7,9,11,13,-1,-1,-1,-1,-1,-1,-1,-1],"loss_changes":[2.3092273E2,3.7572952E1,8.388925E1,1.2994522E1,1.0016367E1,1.5481792E1,4.0642075E1,0E0,0E0,0E0,0E0,0E0,0E0,0E0,0E0],"parents":[2147483647,0,0,1,1,2,2,3,3,4,4,5,5,6,6],"right_children":[2,4,6,8,10,12,14,-1,-1,-1,-1,-1,-1,-1,-1],"split_conditions":[2E0,2E0,3E0,6.644295E-2,4.8413125E-1,2E-2,1.4E-1,-2.1953752E-2,-1.0248604E-2,-2.172775E-3,2.5048947E-2,-1.1359645E-2,1.9819203E-3,5.467497E-3,1.585656E-2],"split_indices":[38,21,2,44,43,9,5,0,0,0,0,0,0,0,0],"split_type":[0,0,0,0,0,0,0,0,0,0,0,0,0,0,0],"sum_hessian":[6.386236E3,1.53808E3,4.848156E3,1.2975631E3,2.4051683E2,9.600581E2,3.888098E3,9.8137384E2,3.161893E2,2.0092137E2,3.9595467E1,6.28181E2,3.318771E2,2.2871926E3,1.600905E3],"tree_param":{"num_deleted":"0","num_feature":"47","num_nodes":"15","size_leaf_vector":"1"}},{"base_weights":[2.1869369E-2,-3.1910548E-1,1.23416476E-1,-4.433026E-1,-1.0478694E-1,-2.4107726E-2,2.1637556E-1,-2.2371143E-2,2.5032243E-2,-1.0492484E-2,1.0715002E-3,-1.0433515E-2,2.2168152E-3,6.5838485E-3,1.7946584E-2],"categories":[],"categories_nodes":[],"categories_segments":[],"categories_sizes":[],"default_left":[1,0,0,1,0,0,1,0,0,0,0,0,0,0,0],"id":54,"left_children":[1,3,5,7,9,11,13,-1,-1,-1,-1,-1,-1,-1,-1],"loss_changes":[2.2146492E2,3.902182E1,6.75892E1,3.8369446E0,7.1627517E0,2.4085016E1,3.645703E1,0E0,0E0,0E0,0E0,0E0,0E0,0E0,0E0],"parents":[2147483647,0,0,1,1,2,2,3,3,4,4,5,5,6,6],"right_children":[2,4,6,8,10,12,14,-1,-1,-1,-1,-1,-1,-1,-1],"split_conditions":[1.8965518E-2,1E-1,3E0,1.6E-1,1.701875E0,1.1E1,1.4E-1,-2.2371143E-2,2.5032243E-2,-1.0492484E-2,1.0715002E-3,-1.0433515E-2,2.2168152E-3,6.5838485E-3,1.7946584E-2],"split_indices":[44,24,22,11,46,38,5,0,0,0,0,0,0,0,0],"split_type":[0,0,0,0,0,0,0,0,0,0,0,0,0,0,0],"sum_hessian":[6.3939595E3,1.4667534E3,4.927206E3,9.2794354E2,5.388098E2,1.9049034E3,3.022303E3,9.244345E2,3.509075E0,2.9368466E2,2.4512514E2,5.147654E2,1.3901381E3,1.8970873E3,1.1252157E3],"tree_param":{"num_deleted":"0","num_feature":"47","num_nodes":"15","size_leaf_vector":"1"}},{"base_weights":[2.126326E-2,-3.0959758E-1,1.2200806E-1,-3.781045E-1,4.5907386E-2,-1.3245058E-1,1.8336964E-1,-2.1831764E-2,-1.0003425E-2,-2.12714E-3,2.3521608E-2,-1.1179105E-2,1.8559564E-3,6.0541565E-3,1.685283E-2],"categories":[],"categories_nodes":[],"categories_segments":[],"categories_sizes":[],"default_left":[0,1,0,1,0,1,0,0,0,0,0,0,0,0,0],"id":55,"left_children":[1,3,5,7,9,11,13,-1,-1,-1,-1,-1,-1,-1,-1],"loss_changes":[2.1344733E2,3.6420868E1,7.666885E1,1.297319E1,9.12171E0,1.4755358E1,3.7822784E1,0E0,0E0,0E0,0E0,0E0,0E0,0E0,0E0],"parents":[2147483647,0,0,1,1,2,2,3,3,4,4,5,5,6,6],"right_children":[2,4,6,8,10,12,14,-1,-1,-1,-1,-1,-1,-1,-1],"split_conditions":[2E0,2E0,3E0,6.644295E-2,4.8413125E-1,2E-2,4E0,-2.1831764E-2,-1.0003425E-2,-2.12714E-3,2.3521608E-2,-1.1179105E-2,1.8559564E-3,6.0541565E-3,1.685283E-2],"split_indices":[38,21,2,44,43,9,2,0,0,0,0,0,0,0,0],"split_type":[0,0,0,0,0,0,0,0,0,0,0,0,0,0,0],"sum_hessian":[6.4014443E3,1.4937325E3,4.907712E3,1.2523392E3,2.413933E2,9.533078E2,3.954404E3,9.413954E2,3.1094385E2,2.0051547E2,4.0877823E1,6.198594E2,3.334484E2,2.8152305E3,1.1391737E3],"tree_param":{"num_deleted":"0","num_feature":"47","num_nodes":"15","size_leaf_vector":"1"}},{"base_weights":[2.0672912E-2,-3.1385842E-1,1.1633498E-1,-4.4104668E-1,-1.0155693E-1,-4.2121727E-3,2.2053576E-1,-2.226647E-2,2.432338E-2,-1.0272081E-2,1.0664676E-3,-3.8741787E-3,7.6956465E-3,6.3052187E-3,1.7370153E-2],"categories":[],"categories_nodes":[],"categories_segments":[],"categories_sizes":[],"default_left":[1,0,0,1,0,1,0,0,0,0,0,0,0,0,0],"id":56,"left_children":[1,3,5,7,9,11,13,-1,-1,-1,-1,-1,-1,-1,-1],"loss_changes":[2.0516115E2,3.84498E1,6.261988E1,3.756775E0,6.839248E0,2.6801928E1,3.198996E1,0E0,0E0,0E0,0E0,0E0,0E0,0E0,0E0],"parents":[2147483647,0,0,1,1,2,2,3,3,4,4,5,5,6,6],"right_children":[2,4,6,8,10,12,14,-1,-1,-1,-1,-1,-1,-1,-1],"split_conditions":[1.8965518E-2,1E-1,4E-2,1.6E-1,1.701875E0,8E0,3.2490975E-1,-2.226647E-2,2.432338E-2,-1.0272081E-2,1.0664676E-3,-3.8741787E-3,7.6956465E-3,6.3052187E-3,1.7370153E-2],"split_indices":[44,24,4,11,46,22,43,0,0,0,0,0,0,0,0],"split_type":[0,0,0,0,0,0,0,0,0,0,0,0,0,0,0],"sum_hessian":[6.4087515E3,1.4246063E3,4.984145E3,8.902104E2,5.34396E2,2.311264E3,2.6728813E3,8.866363E2,3.5741034E0,2.89223E2,2.4517297E2,1.5797538E3,7.315102E2,1.5334668E3,1.1394146E3],"tree_param":{"num_deleted":"0","num_feature":"47","num_nodes":"15","size_leaf_vector":"1"}},{"base_weights":[2.010245E-2,-3.045096E-1,1.152797E-1,-4.3946874E-1,-1.24331355E-1,-1.2916715E-1,1.7279157E-1,-2.309229E-2,-1.3425424E-2,-7.502325E-3,3.5E-2,-1.097103E-2,1.7927701E-3,3.1662777E-3,1.2537541E-2],"categories":[],"categories_nodes":[],"categories_segments":[],"categories_sizes":[],"default_left":[0,1,0,0,1,1,1,0,0,0,0,0,0,0,0],"id":57,"left_children":[1,3,5,7,9,11,13,-1,-1,-1,-1,-1,-1,-1,-1],"loss_changes":[1.9828738E2,3.532953E1,6.97908E1,3.057251E0,1.610282E1,1.4094171E1,3.4272507E1,0E0,0E0,0E0,0E0,0E0,0E0,0E0,0E0],"parents":[2147483647,0,0,1,1,2,2,3,3,4,4,5,5,6,6],"right_children":[2,4,6,8,10,12,14,-1,-1,-1,-1,-1,-1,-1,-1],"split_conditions":[2E0,1.950739E-2,3E0,1E0,5.8E1,2E-2,7.1E1,-2.309229E-2,-1.3425424E-2,-7.502325E-3,3.5E-2,-1.097103E-2,1.7927701E-3,3.1662777E-3,1.2537541E-2],"split_indices":[38,44,2,39,22,9,38,0,0,0,0,0,0,0,0],"split_type":[0,0,0,0,0,0,0,0,0,0,0,0,0,0,0],"sum_hessian":[6.4158286E3,1.454138E3,4.9616904E3,8.305735E2,6.235645E2,9.4477966E2,4.016911E3,7.329375E2,9.7636E1,6.0931146E2,1.425306E1,6.105375E2,3.342422E2,1.6715817E3,2.3453293E3],"tree_param":{"num_deleted":"0","num_feature":"47","num_nodes":"15","size_leaf_vector":"1"}},{"base_weights":[1.9559577E-2,-3.0155024E-1,1.11745834E-1,-4.3820268E-1,-1.2190384E-1,-1.2679702E-1,1.6702887E-1,-2.3051772E-2,-1.3272874E-2,-9.42082E-3,1.3365804E-2,-1.0818406E-2,1.7452302E-3,2.8824236E-3,1.21367825E-2],"categories":[],"categories_nodes":[],"categories_segments":[],"categories_sizes":[],"default_left":[0,1,0,0,1,1,0,0,0,0,0,0,0,0,0],"id":58,"left_children":[1,3,5,7,9,11,13,-1,-1,-1,-1,-1,-1,-1,-1],"loss_changes":[1.9018385E2,3.5126892E1,6.584621E1,3.086441E0,1.6114344E1,1.3618227E1,3.3546593E1,0E0,0E0,0E0,0E0,0E0,0E0,0E0,0E0],"parents":[2147483647,0,0,1,1,2,2,3,3,4,4,5,5,6,6],"right_children":[2,4,6,8,10,12,14,-1,-1,-1,-1,-1,-1,-1,-1],"split_conditions":[2E0,1.950739E-2,3E0,1E0,7.1E1,2E-2,7E0,-2.3051772E-2,-1.3272874E-2,-9.42082E-3,1.3365804E-2,-1.0818406E-2,1.7452302E-3,2.8824236E-3,1.21367825E-2],"split_indices":[38,44,2,39,39,9,21,0,0,0,0,0,0,0,0],"split_type":[0,0,0,0,0,0,0,0,0,0,0,0,0,0,0],"sum_hessian":[6.4225776E3,1.4320582E3,4.9905195E3,8.1254016E2,6.19518E2,9.387178E2,4.0518015E3,7.1620624E2,9.633396E1,5.295422E2,8.997587E1,6.0387585E2,3.3484192E2,1.6580411E3,2.3937605E3],"tree_param":{"num_deleted":"0","num_feature":"47","num_nodes":"15","size_leaf_vector":"1"}},{"base_weights":[1.9017214E-2,-3.0593637E-1,1.0667567E-1,-4.374369E-1,-9.79469E-2,2.656829E-2,2.4297833E-1,-2.2099202E-2,2.438153E-2,-1.0029255E-2,1.0755982E-3,-3.28914E-4,1.6532196E-2,7.5168074E-3,1.8249879E-2],"categories":[],"categories_nodes":[],"categories_segments":[],"categories_sizes":[],"default_left":[1,0,0,1,0,0,1,0,0,0,0,0,0,0,0],"id":59,"left_children":[1,3,5,7,9,11,13,-1,-1,-1,-1,-1,-1,-1,-1],"loss_changes":[1.8320027E2,3.7328323E1,5.529715E1,3.7355347E0,6.5093794E0,3.2166653E1,2.1137527E1,0E0,0E0,0E0,0E0,0E0,0E0,0E0,0E0],"parents":[2147483647,0,0,1,1,2,2,3,3,4,4,5,5,6,6],"right_children":[2,4,6,8,10,12,14,-1,-1,-1,-1,-1,-1,-1,-1],"split_conditions":[1.8965518E-2,1E-1,1.2E-1,1.6E-1,1.701875E0,1.96E0,2E1,-2.2099202E-2,2.438153E-2,-1.0029255E-2,1.0755982E-3,-3.28914E-4,1.6532196E-2,7.5168074E-3,1.8249879E-2],"split_indices":[44,24,5,11,46,46,19,0,0,0,0,0,0,0,0],"split_type":[0,0,0,0,0,0,0,0,0,0,0,0,0,0,0],"sum_hessian":[6.4293345E3,1.365368E3,5.0639663E3,8.358205E2,5.295475E2,3.190217E3,1.8737495E3,8.3225183E2,3.5686984E0,2.8446127E2,2.4508621E2,2.8775232E3,3.126937E2,1.0663577E3,8.0739185E2],"tree_param":{"num_deleted":"0","num_feature":"47","num_nodes":"15","size_leaf_vector":"1"}},{"base_weights":[1.849617E-2,-2.965606E-1,1.0583097E-1,-3.681533E-1,4.660344E-2,-1.23953186E-1,1.5795542E-1,-2.151642E-2,-9.642868E-3,-1.91384E-3,2.1779664E-2,-1.0627864E-2,1.6707414E-3,5.0584124E-3,1.477719E-2],"categories":[],"categories_nodes":[],"categories_segments":[],"categories_sizes":[],"default_left":[0,1,0,1,0,1,0,0,0,0,0,0,0,0,0],"id":60,"left_children":[1,3,5,7,9,11,13,-1,-1,-1,-1,-1,-1,-1,-1],"loss_changes":[1.7714369E2,3.434636E1,6.0391884E1,1.2518768E1,8.00965E0,1.3010006E1,3.2074623E1,0E0,0E0,0E0,0E0,0E0,0E0,0E0,0E0],"parents":[2147483647,0,0,1,1,2,2,3,3,4,4,5,5,6,6],"right_children":[2,4,6,8,10,12,14,-1,-1,-1,-1,-1,-1,-1,-1],"split_conditions":[2E0,2E0,3E0,6.644295E-2,4.8413125E-1,2E-2,4E0,-2.151642E-2,-9.642868E-3,-1.91384E-3,2.1779664E-2,-1.0627864E-2,1.6707414E-3,5.0584124E-3,1.477719E-2],"split_indices":[38,21,2,44,43,9,2,0,0,0,0,0,0,0,0],"split_type":[0,0,0,0,0,0,0,0,0,0,0,0,0,0,0],"sum_hessian":[6.4358394E3,1.3963104E3,5.039529E3,1.1552277E3,2.4108269E2,9.31546E2,4.107983E3,8.5169006E2,3.0353766E2,1.9863974E2,4.2442947E1,5.9576013E2,3.3578595E2,2.9090566E3,1.1989264E3],"tree_param":{"num_deleted":"0","num_feature":"47","num_nodes":"15","size_leaf_vector":"1"}},{"base_weights":[1.7986396E-2,-3.014344E-1,1.0062662E-1,-3.7230957E-1,4.24257E-2,-1.2296449E-1,1.5075248E-1,-1.9463105E-2,9.783185E-3,-1.3850244E-5,3.5E-2,-1.0540703E-2,1.6459903E-3,5.6355814E-3,1.8167732E-2],"categories":[],"categories_nodes":[],"categories_segments":[],"categories_sizes":[],"default_left":[0,1,0,1,0,1,1,0,0,0,0,0,0,0,0],"id":61,"left_children":[1,3,5,7,9,11,13,-1,-1,-1,-1,-1,-1,-1,-1],"loss_changes":[1.7011195E2,3.229776E1,5.7397663E1,1.0651581E1,8.443459E0,1.2853736E1,3.3785393E1,0E0,0E0,0E0,0E0,0E0,0E0,0E0,0E0],"parents":[2147483647,0,0,1,1,2,2,3,3,4,4,5,5,6,6],"right_children":[2,4,6,8,10,12,14,-1,-1,-1,-1,-1,-1,-1,-1],"split_conditions":[1E0,2E0,3E0,1.3E1,2.2271428E0,2E-2,1.8292593E0,-1.9463105E-2,9.783185E-3,-1.3850244E-5,3.5E-2,-1.0540703E-2,1.6459903E-3,5.6355814E-3,1.8167732E-2],"split_indices":[38,21,2,22,46,9,46,0,0,0,0,0,0,0,0],"split_type":[0,0,0,0,0,0,0,0,0,0,0,0,0,0,0],"sum_hessian":[6.4422163E3,1.3235985E3,5.1186177E3,1.0973368E3,2.2626176E2,9.371078E2,4.18151E3,1.065839E3,3.1497824E1,2.1760724E2,8.654516E0,5.9911847E2,3.3798935E2,3.548167E3,6.3334265E2],"tree_param":{"num_deleted":"0","num_feature":"47","num_nodes":"15","size_leaf_vector":"1"}},{"base_weights":[1.7506892E-2,-2.9836184E-1,9.832421E-2,-4.3393013E-1,-9.386638E-2,-2.9641524E-2,1.7520633E-1,-2.1936437E-2,2.3879668E-2,-9.7485725E-3,1.0822007E-3,-9.791595E-3,1.3765829E-3,5.2373474E-3,1.4732651E-2],"categories":[],"categories_nodes":[],"categories_segments":[],"categories_sizes":[],"default_left":[1,0,0,1,0,0,1,0,0,0,0,0,0,0,0],"id":62,"left_children":[1,3,5,7,9,11,13,-1,-1,-1,-1,-1,-1,-1,-1],"loss_changes":[1.6466302E2,3.639173E1,5.0535275E1,3.6649475E0,6.1375375E0,1.8329197E1,2.6972992E1,0E0,0E0,0E0,0E0,0E0,0E0,0E0,0E0],"parents":[2147483647,0,0,1,1,2,2,3,3,4,4,5,5,6,6],"right_children":[2,4,6,8,10,12,14,-1,-1,-1,-1,-1,-1,-1,-1],"split_conditions":[1.8965518E-2,1E-1,3E0,1.6E-1,1.701875E0,1.1E1,2E1,-2.1936437E-2,2.3879668E-2,-9.7485725E-3,1.0822007E-3,-9.791595E-3,1.3765829E-3,5.2373474E-3,1.4732651E-2],"split_indices":[44,24,22,11,46,38,19,0,0,0,0,0,0,0,0],"split_type":[0,0,0,0,0,0,0,0,0,0,0,0,0,0,0],"sum_hessian":[6.448226E3,1.3131562E3,5.13507E3,7.8898456E2,5.2417175E2,1.9274905E3,3.207579E3,7.853688E2,3.6157708E0,2.7914822E2,2.450235E2,4.927487E2,1.4347418E3,2.0186765E3,1.1889026E3],"tree_param":{"num_deleted":"0","num_feature":"47","num_nodes":"15","size_leaf_vector":"1"}},{"base_weights":[1.7027078E-2,-2.9539236E-1,9.539423E-2,-4.3255606E-1,-9.198446E-2,-5.27679E-3,1.8799804E-1,-2.1872362E-2,2.2974676E-2,-6.4228713E-3,1.0978366E-2,-5.520235E-3,4.1360157E-3,5.3748298E-3,1.5629051E-2],"categories":[],"categories_nodes":[],"categories_segments":[],"categories_sizes":[],"default_left":[1,0,0,1,0,0,1,0,0,0,0,0,0,0,0],"id":63,"left_children":[1,3,5,7,9,11,13,-1,-1,-1,-1,-1,-1,-1,-1],"loss_changes":[1.5807481E2,3.6084244E1,4.8119076E1,3.5738525E0,5.96809E0,2.2895971E1,2.692958E1,0E0,0E0,0E0,0E0,0E0,0E0,0E0,0E0],"parents":[2147483647,0,0,1,1,2,2,3,3,4,4,5,5,6,6],"right_children":[2,4,6,8,10,12,14,-1,-1,-1,-1,-1,-1,-1,-1],"split_conditions":[1.8965518E-2,1E-1,7E0,1.6E-1,4E0,5.9E1,2.1E1,-2.1872362E-2,2.2974676E-2,-6.4228713E-3,1.0978366E-2,-5.520235E-3,4.1360157E-3,5.3748298E-3,1.5629051E-2],"split_indices":[44,24,21,11,2,38,19,0,0,0,0,0,0,0,0],"split_type":[0,0,0,0,0,0,0,0,0,0,0,0,0,0,0],"sum_hessian":[6.4542505E3,1.2937603E3,5.16049E3,7.720313E2,5.21729E2,2.4729988E3,2.6874917E3,7.683281E2,3.7031534E0,4.6757794E2,5.4151073E1,1.1267019E3,1.3462968E3,1.6337065E3,1.0537852E3],"tree_param":{"num_deleted":"0","num_feature":"47","num_nodes":"15","size_leaf_vector":"1"}},{"base_weights":[1.6562171E-2,-2.934297E-1,9.2562675E-2,-3.6599755E-1,4.0306177E-2,-1.2004424E-1,1.389982E-1,-2.1302862E-2,-9.750611E-3,-7.5552474E-5,3.5E-2,-1.0315123E-2,1.4867185E-3,5.1419926E-3,1.6923733E-2],"categories":[],"categories_nodes":[],"categories_segments":[],"categories_sizes":[],"default_left":[0,1,0,1,0,1,1,0,0,0,0,0,0,0,0],"id":64,"left_children":[1,3,5,7,9,11,13,-1,-1,-1,-1,-1,-1,-1,-1],"loss_changes":[1.5224765E2,3.0830528E1,5.1252E1,1.0650925E1,8.064823E0,1.2032148E1,3.0690437E1,0E0,0E0,0E0,0E0,0E0,0E0,0E0,0E0],"parents":[2147483647,0,0,1,1,2,2,3,3,4,4,5,5,6,6],"right_children":[2,4,6,8,10,12,14,-1,-1,-1,-1,-1,-1,-1,-1],"split_conditions":[1E0,2E0,3E0,6.644295E-2,2.2271428E0,2E-2,1.8292593E0,-2.1302862E-2,-9.750611E-3,-7.5552474E-5,3.5E-2,-1.0315123E-2,1.4867185E-3,5.1419926E-3,1.6923733E-2],"split_indices":[38,21,2,44,46,9,46,0,0,0,0,0,0,0,0],"split_type":[0,0,0,0,0,0,0,0,0,0,0,0,0,0,0],"sum_hessian":[6.460099E3,1.2714069E3,5.1886924E3,1.0442479E3,2.2715894E2,9.2983234E2,4.25886E3,7.7169366E2,2.7255423E2,2.1815216E2,9.006783E0,5.897913E2,3.4004102E2,3.6066174E3,6.5224243E2],"tree_param":{"num_deleted":"0","num_feature":"47","num_nodes":"15","size_leaf_vector":"1"}},{"base_weights":[1.6119942E-2,-2.8996024E-1,9.0225816E-2,-4.2994756E-1,-8.903797E-2,2.6048401E-2,2.2577779E-1,-2.1751015E-2,2.2302927E-2,-1.0174801E-2,4.903971E-4,-3.9318923E-4,1.5305631E-2,6.431974E-3,1.8179415E-2],"categories":[],"categories_nodes":[],"categories_segments":[],"categories_sizes":[],"default_left":[1,0,0,1,0,0,1,0,0,0,0,0,0,0,0],"id":65,"left_children":[1,3,5,7,9,11,13,-1,-1,-1,-1,-1,-1,-1,-1],"loss_changes":[1.4670543E2,3.542147E1,4.5291336E1,3.4947357E0,5.8732433E0,3.357614E1,2.2348831E1,0E0,0E0,0E0,0E0,0E0,0E0,0E0,0E0],"parents":[2147483647,0,0,1,1,2,2,3,3,4,4,5,5,6,6],"right_children":[2,4,6,8,10,12,14,-1,-1,-1,-1,-1,-1,-1,-1],"split_conditions":[1.8965518E-2,1E-1,3.387704E-1,1.6E-1,1.5903226E0,1.9415625E0,7.9E1,-2.1751015E-2,2.2302927E-2,-1.0174801E-2,4.903971E-4,-3.9318923E-4,1.5305631E-2,6.431974E-3,1.8179415E-2],"split_indices":[44,24,43,11,46,46,41,0,0,0,0,0,0,0,0],"split_type":[0,0,0,0,0,0,0,0,0,0,0,0,0,0,0],"sum_hessian":[6.465672E3,1.2597212E3,5.2059507E3,7.417715E2,5.1794977E2,3.533974E3,1.6719767E3,7.380013E2,3.7701848E0,2.395294E2,2.7842038E2,3.153141E3,3.8083304E2,9.8184106E2,6.9013556E2],"tree_param":{"num_deleted":"0","num_feature":"47","num_nodes":"15","size_leaf_vector":"1"}},{"base_weights":[1.5680395E-2,-2.8841388E-1,8.7857574E-2,-3.6609766E-1,2.0689677E-2,3.374845E-2,2.559731E-1,-1.348596E-2,-2.2904055E-2,-6.219068E-3,2.0849574E-2,-1.5729436E-3,8.362531E-3,9.509865E-3,2.486604E-2],"categories":[],"categories_nodes":[],"categories_segments":[],"categories_sizes":[],"default_left":[0,1,0,0,0,1,0,0,0,0,0,0,0,0,0],"id":66,"left_children":[1,3,5,7,9,11,13,-1,-1,-1,-1,-1,-1,-1,-1],"loss_changes":[1.4208195E2,2.9824844E1,4.757989E1,8.674347E0,1.4444612E1,3.4468063E1,2.0124413E1,0E0,0E0,0E0,0E0,0E0,0E0,0E0,0E0],"parents":[2147483647,0,0,1,1,2,2,3,3,4,4,5,5,6,6],"right_children":[2,4,6,8,10,12,14,-1,-1,-1,-1,-1,-1,-1,-1],"split_conditions":[1E0,8E-1,4E0,2.5714294E1,7.1E1,1.41E1,1.80125E0,-1.348596E-2,-2.2904055E-2,-6.219068E-3,2.0849574E-2,-1.5729436E-3,8.362531E-3,9.509865E-3,2.486604E-2],"split_indices":[38,27,2,43,39,25,46,0,0,0,0,0,0,0,0],"split_type":[0,0,0,0,0,0,0,0,0,0,0,0,0,0,0],"sum_hessian":[6.4712207E3,1.2407484E3,5.230472E3,9.914046E2,2.4934381E2,3.9578215E3,1.2726508E3,4.8605634E2,5.0534824E2,1.8302972E2,6.631409E1,2.6595598E3,1.2982617E3,1.00149567E3,2.7115506E2],"tree_param":{"num_deleted":"0","num_feature":"47","num_nodes":"15","size_leaf_vector":"1"}},{"base_weights":[1.5251171E-2,-2.847802E-1,8.555152E-2,-4.2731926E-1,-8.694816E-2,-3.9342675E-2,1.506284E-1,-2.1628644E-2,2.1617396E-2,-9.982613E-3,4.4822856E-4,-5.9337015E-3,5.2792984E-3,5.821808E-3,2.0775678E-2],"categories":[],"categories_nodes":[],"categories_segments":[],"categories_sizes":[],"default_left":[1,0,0,1,0,1,0,0,0,0,0,0,0,0,0],"id":67,"left_children":[1,3,5,7,9,11,13,-1,-1,-1,-1,-1,-1,-1,-1],"loss_changes":[1.3665295E2,3.4644196E1,4.266641E1,3.4143524E0,5.5828924E0,2.0694244E1,3.1206848E1,0E0,0E0,0E0,0E0,0E0,0E0,0E0,0E0],"parents":[2147483647,0,0,1,1,2,2,3,3,4,4,5,5,6,6],"right_children":[2,4,6,8,10,12,14,-1,-1,-1,-1,-1,-1,-1,-1],"split_conditions":[1.8965518E-2,1E-1,5.9E1,1.6E-1,1.5903226E0,6E0,6.17849E-1,-2.1628644E-2,2.1617396E-2,-9.982613E-3,4.4822856E-4,-5.9337015E-3,5.2792984E-3,5.821808E-3,2.0775678E-2],"split_indices":[44,24,38,11,46,21,43,0,0,0,0,0,0,0,0],"split_type":[0,0,0,0,0,0,0,0,0,0,0,0,0,0,0],"sum_hessian":[6.476648E3,1.228888E3,5.2477603E3,7.1358563E2,5.153023E2,1.7978187E3,3.4499414E3,7.09745E2,3.8405905E0,2.3641577E2,2.788865E2,1.1619624E3,6.358563E2,3.0567993E3,3.9314212E2],"tree_param":{"num_deleted":"0","num_feature":"47","num_nodes":"15","size_leaf_vector":"1"}},{"base_weights":[1.4835333E-2,-2.8284633E-1,8.30885E-2,-4.3006796E-1,-1.1777948E-1,-1.1709473E-1,1.2555388E-1,-2.2693254E-2,-1.0913995E-2,-7.2711566E-3,3.5E-2,-1.0086424E-2,1.3386298E-3,4.1480055E-3,1.3514389E-2],"categories":[],"categories_nodes":[],"categories_segments":[],"categories_sizes":[],"default_left":[0,1,0,0,1,1,0,0,0,0,0,0,0,0,0],"id":68,"left_children":[1,3,5,7,9,11,13,-1,-1,-1,-1,-1,-1,-1,-1],"loss_changes":[1.3174153E2,2.9339554E1,4.4852577E1,3.120842E0,1.520108E1,1.1251154E1,2.6806091E1,0E0,0E0,0E0,0E0,0E0,0E0,0E0,0E0],"parents":[2147483647,0,0,1,1,2,2,3,3,4,4,5,5,6,6],"right_children":[2,4,6,8,10,12,14,-1,-1,-1,-1,-1,-1,-1,-1],"split_conditions":[1E0,1.5199035E-2,3E0,1E-1,5.8E1,2E-2,1.7763889E0,-2.2693254E-2,-1.0913995E-2,-7.2711566E-3,3.5E-2,-1.0086424E-2,1.3386298E-3,4.1480055E-3,1.3514389E-2],"split_indices":[38,44,2,24,22,9,46,0,0,0,0,0,0,0,0],"split_type":[0,0,0,0,0,0,0,0,0,0,0,0,0,0,0],"sum_hessian":[6.481915E3,1.2084028E3,5.273512E3,6.378789E2,5.705239E2,9.2259766E2,4.3509146E3,5.724174E2,6.546147E1,5.5571313E2,1.4810799E1,5.8062665E2,3.41971E2,3.3628376E3,9.880771E2],"tree_param":{"num_deleted":"0","num_feature":"47","num_nodes":"15","size_leaf_vector":"1"}},{"base_weights":[1.4441184E-2,-2.7933592E-1,8.102985E-2,-4.2443445E-1,-8.5154966E-2,-3.376014E-2,1.477704E-1,-2.1494389E-2,2.121873E-2,-7.5050455E-4,-1.1661702E-2,-9.287058E-3,7.844774E-4,4.194129E-3,1.2462798E-2],"categories":[],"categories_nodes":[],"categories_segments":[],"categories_sizes":[],"default_left":[1,0,0,1,0,0,1,0,0,0,0,0,0,0,0],"id":69,"left_children":[1,3,5,7,9,11,13,-1,-1,-1,-1,-1,-1,-1,-1],"loss_changes":[1.26940674E2,3.3748016E1,4.05313E1,3.3578796E0,5.3359504E0,1.4625295E1,2.166832E1,0E0,0E0,0E0,0E0,0E0,0E0,0E0,0E0],"parents":[2147483647,0,0,1,1,2,2,3,3,4,4,5,5,6,6],"right_children":[2,4,6,8,10,12,14,-1,-1,-1,-1,-1,-1,-1,-1],"split_conditions":[1.8965518E-2,1E-1,3E0,1.6E-1,1.6E1,1.1E1,1.4E-1,-2.1494389E-2,2.121873E-2,-7.5050455E-4,-1.1661702E-2,-9.287058E-3,7.844774E-4,4.194129E-3,1.2462798E-2],"split_indices":[44,24,22,11,1,38,5,0,0,0,0,0,0,0,0],"split_type":[0,0,0,0,0,0,0,0,0,0,0,0,0,0,0],"sum_hessian":[6.4869155E3,1.1980669E3,5.2888486E3,6.8501483E2,5.13052E2,1.9446519E3,3.3441968E3,6.811323E2,3.8824987E0,3.4888635E2,1.6416566E2,4.7672043E2,1.4679314E3,2.0533713E3,1.2908253E3],"tree_param":{"num_deleted":"0","num_feature":"47","num_nodes":"15","size_leaf_vector":"1"}},{"base_weights":[1.4047887E-2,-2.771719E-1,7.858763E-2,-4.2728192E-1,-1.1403523E-1,2.787381E-2,2.3307449E-1,-2.259714E-2,-1.0703104E-2,-9.213602E-3,1.2618219E-2,-1.674103E-3,7.5471587E-3,8.6296E-3,2.2501554E-2],"categories":[],"categories_nodes":[],"categories_segments":[],"categories_sizes":[],"default_left":[0,1,0,0,0,1,0,0,0,0,0,0,0,0,0],"id":70,"left_children":[1,3,5,7,9,11,13,-1,-1,-1,-1,-1,-1,-1,-1],"loss_changes":[1.22057686E2,2.8801773E1,4.1640675E1,3.127533E0,1.4610563E1,3.0233067E1,1.7159752E1,0E0,0E0,0E0,0E0,0E0,0E0,0E0,0E0],"parents":[2147483647,0,0,1,1,2,2,3,3,4,4,5,5,6,6],"right_children":[2,4,6,8,10,12,14,-1,-1,-1,-1,-1,-1,-1,-1],"split_conditions":[1E0,1.5199035E-2,4E0,1E-1,7.1E1,1.41E1,1.80125E0,-2.259714E-2,-1.0703104E-2,-9.213602E-3,1.2618219E-2,-1.674103E-3,7.5471587E-3,8.6296E-3,2.2501554E-2],"split_indices":[38,44,2,24,39,25,46,0,0,0,0,0,0,0,0],"split_type":[0,0,0,0,0,0,0,0,0,0,0,0,0,0,0],"sum_hessian":[6.4919126E3,1.1771257E3,5.3147866E3,6.121956E2,5.649301E2,4.0021655E3,1.3126212E3,5.477264E2,6.446926E1,4.7447324E2,9.045686E1,2.671183E3,1.3309825E3,1.0278702E3,2.84751E2],"tree_param":{"num_deleted":"0","num_feature":"47","num_nodes":"15","size_leaf_vector":"1"}},{"base_weights":[1.3664722E-2,-2.739499E-1,7.6815315E-2,-4.194431E-1,-8.050913E-2,1.393776E-3,1.6991691E-1,-2.2234386E-2,-1.1547401E-2,-9.408518E-3,1.7609239E-3,-5.5097737E-3,3.5529674E-3,4.436919E-3,1.3136396E-2],"categories":[],"categories_nodes":[],"categories_segments":[],"categories_sizes":[],"default_left":[1,0,0,0,0,0,0,0,0,0,0,0,0,0,0],"id":71,"left_children":[1,3,5,7,9,11,13,-1,-1,-1,-1,-1,-1,-1,-1],"loss_changes":[1.1804059E2,3.289675E1,3.741738E1,3.073822E0,6.2799892E0,2.2901243E1,1.7944656E1,0E0,0E0,0E0,0E0,0E0,0E0,0E0,0E0],"parents":[2147483647,0,0,1,1,2,2,3,3,4,4,5,5,6,6],"right_children":[2,4,6,8,10,12,14,-1,-1,-1,-1,-1,-1,-1,-1],"split_conditions":[1.8965518E-2,1E-1,1.3E1,1E-1,1.701875E0,2E0,2E1,-2.2234386E-2,-1.1547401E-2,-9.408518E-3,1.7609239E-3,-5.5097737E-3,3.5529674E-3,4.436919E-3,1.3136396E-2],"split_indices":[44,23,18,24,46,20,19,0,0,0,0,0,0,0,0],"split_type":[0,0,0,0,0,0,0,0,0,0,0,0,0,0,0],"sum_hessian":[6.496788E3,1.169059E3,5.3277295E3,6.665536E2,5.025054E2,2.943896E3,2.3838333E3,5.86629E2,7.992458E1,2.6000095E2,2.4250446E2,1.1312675E3,1.8126287E3,1.2726484E3,1.1111847E3],"tree_param":{"num_deleted":"0","num_feature":"47","num_nodes":"15","size_leaf_vector":"1"}},{"base_weights":[1.3290917E-2,-2.708976E-1,7.4608445E-2,-4.1995192E-1,-8.135463E-2,-3.4118414E-2,1.3679594E-1,-2.1285946E-2,2.1213291E-2,-5.098617E-3,2.1407632E-2,-3.2159034E-3,9.816447E-3,5.47819E-3,1.7269148E-2],"categories":[],"categories_nodes":[],"categories_segments":[],"categories_sizes":[],"default_left":[1,0,0,1,1,0,0,0,0,0,0,0,0,0,0],"id":72,"left_children":[1,3,5,7,9,11,13,-1,-1,-1,-1,-1,-1,-1,-1],"loss_changes":[1.1333197E2,3.2575516E1,3.6173824E1,3.3251648E0,5.3942885E0,1.3563744E1,1.929303E1,0E0,0E0,0E0,0E0,0E0,0E0,0E0,0E0],"parents":[2147483647,0,0,1,1,2,2,3,3,4,4,5,5,6,6],"right_children":[2,4,6,8,10,12,14,-1,-1,-1,-1,-1,-1,-1,-1],"split_conditions":[1.8965518E-2,1E-1,3E0,1.6E-1,2.2E1,5.072804E-1,1.96E0,-2.1285946E-2,2.1213291E-2,-5.098617E-3,2.1407632E-2,-3.2159034E-3,9.816447E-3,5.47819E-3,1.7269148E-2],"split_indices":[44,24,22,11,37,43,46,0,0,0,0,0,0,0,0],"split_type":[0,0,0,0,0,0,0,0,0,0,0,0,0,0,0],"sum_hessian":[6.501552E3,1.1532346E3,5.3483174E3,6.448873E2,5.0834723E2,1.946159E3,3.4021582E3,6.410043E2,3.8830752E0,4.8934525E2,1.9001976E1,1.7213064E3,2.2485275E2,3.0106296E3,3.9152856E2],"tree_param":{"num_deleted":"0","num_feature":"47","num_nodes":"15","size_leaf_vector":"1"}},{"base_weights":[1.2933988E-2,-2.6928475E-1,7.2689585E-2,-4.228694E-1,-1.1119186E-1,-1.1330954E-1,1.10832825E-1,-2.24451E-2,-1.0323741E-2,-6.932165E-3,3.5E-2,-9.805716E-3,1.2060854E-3,7.193518E-4,8.316728E-3],"categories":[],"categories_nodes":[],"categories_segments":[],"categories_sizes":[],"default_left":[0,1,0,0,1,1,0,0,0,0,0,0,0,0,0],"id":73,"left_children":[1,3,5,7,9,11,13,-1,-1,-1,-1,-1,-1,-1,-1],"loss_changes":[1.0975639E2,2.756604E1,3.811673E1,3.1548538E0,1.3989794E1,1.0411442E1,2.3857586E1,0E0,0E0,0E0,0E0,0E0,0E0,0E0,0E0],"parents":[2147483647,0,0,1,1,2,2,3,3,4,4,5,5,6,6],"right_children":[2,4,6,8,10,12,14,-1,-1,-1,-1,-1,-1,-1,-1],"split_conditions":[1E0,1.5199035E-2,3E0,1E-1,5.8E1,2E-2,6.2E1,-2.24451E-2,-1.0323741E-2,-6.932165E-3,3.5E-2,-9.805716E-3,1.2060854E-3,7.193518E-4,8.316728E-3],"split_indices":[38,44,2,24,22,9,42,0,0,0,0,0,0,0,0],"split_type":[0,0,0,0,0,0,0,0,0,0,0,0,0,0,0],"sum_hessian":[6.506107E3,1.1362455E3,5.369862E3,5.754908E2,5.6075476E2,9.134763E2,4.4563853E3,5.127337E2,6.2757042E1,5.4516833E2,1.5586402E1,5.697592E2,3.4371707E2,1.6282401E3,2.8281453E3],"tree_param":{"num_deleted":"0","num_feature":"47","num_nodes":"15","size_leaf_vector":"1"}},{"base_weights":[1.2588895E-2,-2.6619822E-1,7.061484E-2,-4.2129904E-1,-1.0897629E-1,2.2976795E-2,2.1309093E-1,-2.2391088E-2,-1.01756025E-2,-8.884882E-3,1.2364131E-2,-1.7351909E-3,6.818617E-3,5.164145E-3,1.6186344E-2],"categories":[],"categories_nodes":[],"categories_segments":[],"categories_sizes":[],"default_left":[0,1,0,0,0,1,0,0,0,0,0,0,0,0,0],"id":74,"left_children":[1,3,5,7,9,11,13,-1,-1,-1,-1,-1,-1,-1,-1],"loss_changes":[1.0535487E2,2.7314575E1,3.6582E1,3.1693878E0,1.3718537E1,2.6435123E1,1.6374744E1,0E0,0E0,0E0,0E0,0E0,0E0,0E0,0E0],"parents":[2147483647,0,0,1,1,2,2,3,3,4,4,5,5,6,6],"right_children":[2,4,6,8,10,12,14,-1,-1,-1,-1,-1,-1,-1,-1],"split_conditions":[1E0,1.5199035E-2,4E0,1E-1,7.2E1,1.41E1,1E0,-2.2391088E-2,-1.01756025E-2,-8.884882E-3,1.2364131E-2,-1.7351909E-3,6.818617E-3,5.164145E-3,1.6186344E-2],"split_indices":[38,44,2,24,39,25,45,0,0,0,0,0,0,0,0],"split_type":[0,0,0,0,0,0,0,0,0,0,0,0,0,0,0],"sum_hessian":[6.510517E3,1.1210098E3,5.3895073E3,5.63466E2,5.5754376E2,4.0398965E3,1.3496111E3,5.0135352E2,6.21125E1,4.6780643E2,8.973733E1,2.6782515E3,1.361645E3,6.783102E2,6.713009E2],"tree_param":{"num_deleted":"0","num_feature":"47","num_nodes":"15","size_leaf_vector":"1"}},{"base_weights":[1.2246039E-2,-2.62887E-1,6.9013365E-2,-4.1533467E-1,-7.9009645E-2,-2.5769297E-2,1.34589E-1,-2.1071013E-2,2.1101119E-2,-5.2201387E-4,-1.1311731E-2,-4.1062483E-3,5.9481054E-3,3.66151E-3,1.2510075E-2],"categories":[],"categories_nodes":[],"categories_segments":[],"categories_sizes":[],"default_left":[1,0,0,1,0,0,0,0,0,0,0,0,0,0,0],"id":75,"left_children":[1,3,5,7,9,11,13,-1,-1,-1,-1,-1,-1,-1,-1],"loss_changes":[1.01787254E2,3.1213257E1,3.3580692E1,3.2821274E0,5.1106863E0,1.8035374E1,2.2634087E1,0E0,0E0,0E0,0E0,0E0,0E0,0E0,0E0],"parents":[2147483647,0,0,1,1,2,2,3,3,4,4,5,5,6,6],"right_children":[2,4,6,8,10,12,14,-1,-1,-1,-1,-1,-1,-1,-1],"split_conditions":[1.8965518E-2,1E-1,6.7E1,1.6E-1,1.6E1,4E0,3.4220532E-1,-2.1071013E-2,2.1101119E-2,-5.2201387E-4,-1.1311731E-2,-4.1062483E-3,5.9481054E-3,3.66151E-3,1.2510075E-2],"split_indices":[44,24,39,11,1,2,43,0,0,0,0,0,0,0,0],"split_type":[0,0,0,0,0,0,0,0,0,0,0,0,0,0,0],"sum_hessian":[6.514905E3,1.1136703E3,5.4012344E3,6.081835E2,5.0548688E2,2.2089856E3,3.1922488E3,6.0428845E2,3.895001E0,3.4559738E2,1.5988951E2,1.5902177E3,6.18768E2,2.086512E3,1.105737E3],"tree_param":{"num_deleted":"0","num_feature":"47","num_nodes":"15","size_leaf_vector":"1"}},{"base_weights":[1.19141415E-2,-2.2634925E-1,7.512286E-2,-3.3042395E-1,3.495823E-2,-1.0310522E-1,1.114417E-1,-2.044056E-2,-9.679149E-3,-1.9857066E-3,2.1569582E-2,-9.255051E-3,1.3159066E-3,2.6192171E-3,1.0075795E-2],"categories":[],"categories_nodes":[],"categories_segments":[],"categories_sizes":[],"default_left":[0,1,0,1,0,1,0,0,0,0,0,0,0,0,0],"id":76,"left_children":[1,3,5,7,9,11,13,-1,-1,-1,-1,-1,-1,-1,-1],"loss_changes":[9.821269E1,3.7196243E1,3.3372528E1,1.0410858E1,1.157299E1,9.268987E0,2.276707E1,0E0,0E0,0E0,0E0,0E0,0E0,0E0,0E0],"parents":[2147483647,0,0,1,1,2,2,3,3,4,4,5,5,6,6],"right_children":[2,4,6,8,10,12,14,-1,-1,-1,-1,-1,-1,-1,-1],"split_conditions":[1.1E1,9E0,3E0,5.868028E-2,4.8413125E-1,2E-2,1.5903226E0,-2.044056E-2,-9.679149E-3,-1.9857066E-3,2.1569582E-2,-9.255051E-3,1.3159066E-3,2.6192171E-3,1.0075795E-2],"split_indices":[38,40,2,44,43,9,46,0,0,0,0,0,0,0,0],"split_type":[0,0,0,0,0,0,0,0,0,0,0,0,0,0,0],"sum_hessian":[6.5191577E3,1.3663104E3,5.152847E3,9.769443E2,3.8936612E2,8.7197076E2,4.2808765E3,6.198725E2,3.570718E2,3.2840707E2,6.095907E1,5.335264E2,3.384443E2,2.5865686E3,1.6943081E3],"tree_param":{"num_deleted":"0","num_feature":"47","num_nodes":"15","size_leaf_vector":"1"}},{"base_weights":[1.1589252E-2,-2.5732544E-1,6.5441616E-2,-4.0994406E-1,-7.369708E-2,-4.2571455E-2,1.193894E-1,-2.1888668E-2,-1.0838118E-2,-8.96203E-3,1.8448717E-3,-5.789513E-3,4.291631E-3,4.490729E-3,1.6939951E-2],"categories":[],"categories_nodes":[],"categories_segments":[],"categories_sizes":[],"default_left":[1,0,0,0,0,1,0,0,0,0,0,0,0,0,0],"id":77,"left_children":[1,3,5,7,9,11,13,-1,-1,-1,-1,-1,-1,-1,-1],"loss_changes":[9.450013E1,3.0482391E1,3.1684313E1,3.1004791E0,5.7891245E0,1.7041971E1,2.3498402E1,0E0,0E0,0E0,0E0,0E0,0E0,0E0,0E0],"parents":[2147483647,0,0,1,1,2,2,3,3,4,4,5,5,6,6],"right_children":[2,4,6,8,10,12,14,-1,-1,-1,-1,-1,-1,-1,-1],"split_conditions":[1.8965518E-2,1E-1,5.9E1,1E-1,1.701875E0,6E0,6.17849E-1,-2.1888668E-2,-1.0838118E-2,-8.96203E-3,1.8448717E-3,-5.789513E-3,4.291631E-3,4.490729E-3,1.6939951E-2],"split_indices":[44,23,38,24,46,21,43,0,0,0,0,0,0,0,0],"split_type":[0,0,0,0,0,0,0,0,0,0,0,0,0,0,0],"sum_hessian":[6.523326E3,1.0877599E3,5.4355664E3,5.933652E2,4.9439474E2,1.8106113E3,3.624955E3,5.17543E2,7.5822105E1,2.5265663E2,2.4173811E2,1.1531553E3,6.5745605E2,3.1956184E3,4.2933676E2],"tree_param":{"num_deleted":"0","num_feature":"47","num_nodes":"15","size_leaf_vector":"1"}},{"base_weights":[1.1273377E-2,-2.5504044E-1,6.347743E-2,-3.4931877E-1,3.557189E-3,-1.0850567E-1,9.754864E-2,-1.2505556E-2,-2.235358E-2,-5.7355273E-3,1.6339064E-2,-9.435524E-3,1.4324123E-3,2.064382E-3,9.155844E-3],"categories":[],"categories_nodes":[],"categories_segments":[],"categories_sizes":[],"default_left":[0,1,0,0,0,1,0,0,0,0,0,0,0,0,0],"id":78,"left_children":[1,3,5,7,9,11,13,-1,-1,-1,-1,-1,-1,-1,-1],"loss_changes":[9.077808E1,2.6092422E1,3.1999744E1,7.493889E0,1.1005242E1,9.940493E0,2.193076E1,0E0,0E0,0E0,0E0,0E0,0E0,0E0,0E0],"parents":[2147483647,0,0,1,1,2,2,3,3,4,4,5,5,6,6],"right_children":[2,4,6,8,10,12,14,-1,-1,-1,-1,-1,-1,-1,-1],"split_conditions":[1E0,3E-1,3E0,2.5714294E1,7.1E1,1.76E1,1.5903226E0,-1.2505556E-2,-2.235358E-2,-5.7355273E-3,1.6339064E-2,-9.435524E-3,1.4324123E-3,2.064382E-3,9.155844E-3],"split_indices":[38,27,2,43,39,14,46,0,0,0,0,0,0,0,0],"split_type":[0,0,0,0,0,0,0,0,0,0,0,0,0,0,0],"sum_hessian":[6.5273843E3,1.0691804E3,5.458204E3,7.832689E2,2.859114E2,9.021564E2,4.5560474E3,3.9050787E2,3.9276108E2,2.0979317E2,7.611825E1,5.690258E2,3.3313058E2,2.7496433E3,1.8064042E3],"tree_param":{"num_deleted":"0","num_feature":"47","num_nodes":"15","size_leaf_vector":"1"}},{"base_weights":[1.0966298E-2,-2.5192782E-1,6.214999E-2,-4.0900397E-1,-7.409087E-2,1.7692303E-2,1.8408003E-1,-2.077633E-2,2.1332765E-2,-4.739191E-3,2.1371473E-2,-2.4887328E-3,5.951111E-3,4.8779356E-3,1.498753E-2],"categories":[],"categories_nodes":[],"categories_segments":[],"categories_sizes":[],"default_left":[1,0,0,1,1,0,0,0,0,0,0,0,0,0,0],"id":79,"left_children":[1,3,5,7,9,11,13,-1,-1,-1,-1,-1,-1,-1,-1],"loss_changes":[8.7914024E1,2.9712097E1,2.9640505E1,3.2577438E0,5.235606E0,2.7409914E1,1.4593056E1,0E0,0E0,0E0,0E0,0E0,0E0,0E0,0E0],"parents":[2147483647,0,0,1,1,2,2,3,3,4,4,5,5,6,6],"right_children":[2,4,6,8,10,12,14,-1,-1,-1,-1,-1,-1,-1,-1],"split_conditions":[1.8965518E-2,1E-1,4E0,1.6E-1,2.2E1,1.38E1,2.3E-1,-2.077633E-2,2.1332765E-2,-4.739191E-3,2.1371473E-2,-2.4887328E-3,5.951111E-3,4.8779356E-3,1.498753E-2],"split_indices":[44,24,2,11,37,25,7,0,0,0,0,0,0,0,0],"split_type":[0,0,0,0,0,0,0,0,0,0,0,0,0,0,0],"sum_hessian":[6.531334E3,1.0637397E3,5.467594E3,5.641495E2,4.9959027E2,4.0075288E3,1.4600654E3,5.6027905E2,3.8704371E0,4.8057263E2,1.9017632E1,2.4060522E3,1.6014766E3,8.363333E2,6.2373206E2],"tree_param":{"num_deleted":"0","num_feature":"47","num_nodes":"15","size_leaf_vector":"1"}},{"base_weights":[1.0672133E-2,-2.1592674E-1,6.781406E-2,-3.212535E-1,3.4450263E-2,1.808685E-2,1.7791554E-1,-1.8118536E-2,-2.9568404E-3,-1.88505E-3,2.024659E-2,-1.7119788E-3,5.867678E-3,