{"learner":{"attributes":{"best_iteration":"772","best_score":"7.161308046440593","scikit_learn":"{\"_estimator_type\": \"regressor\"}"},"feature_names":["season","points_last_5","minutes_per_game_last_5","goals_last_5","assists_last_5","clean_sheets_last_5","bonus_points_last_5","goals_conceded_last_5","yellow_cards_last_5","red_cards_last_5","starts_last_5","transfers_in_last_5","transfers_out_last_5","ict_index_last_5","player_price_diff_last_5","player_price","xG_per_90","xA_per_90","xG_conceded_per_90","home_away_current","home_away_current_plus_1","home_away_current_plus_2","home_away_current_plus_3","home_away_current_plus_4","home_away_current_plus_5","home_away_current_plus_6","fdr_current","fdr_current_plus_1","fdr_current_plus_2","fdr_current_plus_3","fdr_current_plus_4","fdr_current_plus_5","fdr_current_plus_6","selected_by","selected_by_minus_1","selected_by_minus_2","selected_by_minus_3","selected_by_minus_4","position_1","position_2","position_3"],"feature_types":["int","int","float","int","int","int","int","int","int","int","int","int","int","float","float","float","float","float","float","int","int","int","int","int","int","int","int","int","int","int","int","int","int","int","int","int","int","int","int","int","int"],"gradient_booster":{"model":{"cats":{"enc":[],"feature_segments":[],"sorted_idx":[]},"gbtree_model_param":{"num_parallel_tree":"1","num_trees":"793"},"iteration_indptr":[0,1,2,3,4,5,6,7,8,9,10,11,12,13,14,15,16,17,18,19,20,21,22,23,24,25,26,27,28,29,30,31,32,33,34,35,36,37,38,39,40,41,42,43,44,45,46,47,48,49,50,51,52,53,54,55,56,57,58,59,60,61,62,63,64,65,66,67,68,69,70,71,72,73,74,75,76,77,78,79,80,81,82,83,84,85,86,87,88,89,90,91,92,93,94,95,96,97,98,99,100,101,102,103,104,105,106,107,108,109,110,111,112,113,114,115,116,117,118,119,120,121,122,123,124,125,126,127,128,129,130,131,132,133,134,135,136,137,138,139,140,141,142,143,144,145,146,147,148,149,150,151,152,153,154,155,156,157,158,159,160,161,162,163,164,165,166,167,168,169,170,171,172,173,174,175,176,177,178,179,180,181,182,183,184,185,186,187,188,189,190,191,192,193,194,195,196,197,198,199,200,201,202,203,204,205,206,207,208,209,210,211,212,213,214,215,216,217,218,219,220,221,222,223,224,225,226,227,228,229,230,231,232,233,234,235,236,237,238,239,240,241,242,243,244,245,246,247,248,249,250,251,252,253,254,255,256,257,258,259,260,261,262,263,264,265,266,267,268,269,270,271,272,273,274,275,276,277,278,279,280,281,282,283,284,285,286,287,288,289,290,291,292,293,294,295,296,297,298,299,300,301,302,303,304,305,306,307,308,309,310,311,312,313,314,315,316,317,318,319,320,321,322,323,324,325,326,327,328,329,330,331,332,333,334,335,336,337,338,339,340,341,342,343,344,345,346,347,348,349,350,351,352,353,354,355,356,357,358,359,360,361,362,363,364,365,366,367,368,369,370,371,372,373,374,375,376,377,378,379,380,381,382,383,384,385,386,387,388,389,390,391,392,393,394,395,396,397,398,399,400,401,402,403,404,405,406,407,408,409,410,411,412,413,414,415,416,417,418,419,420,421,422,423,424,425,426,427,428,429,430,431,432,433,434,435,436,437,438,439,440,441,442,443,444,445,446,447,448,449,450,451,452,453,454,455,456,457,458,459,460,461,462,463,464,465,466,467,468,469,470,471,472,473,474,475,476,477,478,479,480,481,482,483,484,485,486,487,488,489,490,491,492,493,494,495,496,497,498,499,500,501,502,503,504,505,506,507,508,509,510,511,512,513,514,515,516,517,518,519,520,521,522,523,524,525,526,527,528,529,530,531,532,533,534,535,536,537,538,539,540,541,542,543,544,545,546,547,548,549,550,551,552,553,554,555,556,557,558,559,560,561,562,563,564,565,566,567,568,569,570,571,572,573,574,575,576,577,578,579,580,581,582,583,584,585,586,587,588,589,590,591,592,593,594,595,596,597,598,599,600,601,602,603,604,605,606,607,608,609,610,611,612,613,614,615,616,617,618,619,620,621,622,623,624,625,626,627,628,629,630,631,632,633,634,635,636,637,638,639,640,641,642,643,644,645,646,647,648,649,650,651,652,653,654,655,656,657,658,659,660,661,662,663,664,665,666,667,668,669,670,671,672,673,674,675,676,677,678,679,680,681,682,683,684,685,686,687,688,689,690,691,692,693,694,695,696,697,698,699,700,701,702,703,704,705,706,707,708,709,710,711,712,713,714,715,716,717,718,719,720,721,722,723,724,725,726,727,728,729,730,731,732,733,734,735,736,737,738,739,740,741,742,743,744,745,746,747,748,749,750,751,752,753,754,755,756,757,758,759,760,761,762,763,764,765,766,767,768,769,770,771,772,773,774,775,776,777,778,779,780,781,782,783,784,785,786,787,788,789,790,791,792,793],"tree_info":[0,0,0,0,0,0,0,0,0,0,0,0,0,0,0,0,0,0,0,0,0,0,0,0,0,0,0,0,0,0,0,0,0,0,0,0,0,0,0,0,0,0,0,0,0,0,0,0,0,0,0,0,0,0,0,0,0,0,0,0,0,0,0,0,0,0,0,0,0,0,0,0,0,0,0,0,0,0,0,0,0,0,0,0,0,0,0,0,0,0,0,0,0,0,0,0,0,0,0,0,0,0,0,0,0,0,0,0,0,0,0,0,0,0,0,0,0,0,0,0,0,0,0,0,0,0,0,0,0,0,0,0,0,0,0,0,0,0,0,0,0,0,0,0,0,0,0,0,0,0,0,0,0,0,0,0,0,0,0,0,0,0,0,0,0,0,0,0,0,0,0,0,0,0,0,0,0,0,0,0,0,0,0,0,0,0,0,0,0,0,0,0,0,0,0,0,0,0,0,0,0,0,0,0,0,0,0,0,0,0,0,0,0,0,0,0,0,0,0,0,0,0,0,0,0,0,0,0,0,0,0,0,0,0,0,0,0,0,0,0,0,0,0,0,0,0,0,0,0,0,0,0,0,0,0,0,0,0,0,0,0,0,0,0,0,0,0,0,0,0,0,0,0,0,0,0,0,0,0,0,0,0,0,0,0,0,0,0,0,0,0,0,0,0,0,0,0,0,0,0,0,0,0,0,0,0,0,0,0,0,0,0,0,0,0,0,0,0,0,0,0,0,0,0,0,0,0,0,0,0,0,0,0,0,0,0,0,0,0,0,0,0,0,0,0,0,0,0,0,0,0,0,0,0,0,0,0,0,0,0,0,0,0,0,0,0,0,0,0,0,0,0,0,0,0,0,0,0,0,0,0,0,0,0,0,0,0,0,0,0,0,0,0,0,0,0,0,0,0,0,0,0,0,0,0,0,0,0,0,0,0,0,0,0,0,0,0,0,0,0,0,0,0,0,0,0,0,0,0,0,0,0,0,0,0,0,0,0,0,0,0,0,0,0,0,0,0,0,0,0,0,0,0,0,0,0,0,0,0,0,0,0,0,0,0,0,0,0,0,0,0,0,0,0,0,0,0,0,0,0,0,0,0,0,0,0,0,0,0,0,0,0,0,0,0,0,0,0,0,0,0,0,0,0,0,0,0,0,0,0,0,0,0,0,0,0,0,0,0,0,0,0,0,0,0,0,0,0,0,0,0,0,0,0,0,0,0,0,0,0,0,0,0,0,0,0,0,0,0,0,0,0,0,0,0,0,0,0,0,0,0,0,0,0,0,0,0,0,0,0,0,0,0,0,0,0,0,0,0,0,0,0,0,0,0,0,0,0,0,0,0,0,0,0,0,0,0,0,0,0,0,0,0,0,0,0,0,0,0,0,0,0,0,0,0,0,0,0,0,0,0,0,0,0,0,0,0,0,0,0,0,0,0,0,0,0,0,0,0,0,0,0,0,0,0,0,0,0,0,0,0,0,0,0,0,0,0,0,0,0,0,0,0,0,0,0,0,0,0,0,0,0,0,0,0,0,0,0,0,0,0,0,0,0,0,0,0,0,0,0,0,0,0,0,0,0,0,0,0,0,0,0,0,0,0,0,0,0,0,0,0,0,0,0,0,0,0,0,0,0,0,0,0,0,0,0,0,0,0,0,0,0,0,0,0,0,0,0,0,0,0,0,0,0,0,0,0,0,0,0,0,0,0,0,0,0,0,0,0,0,0,0,0,0,0,0,0,0,0,0,0,0,0,0,0,0,0,0,0,0,0,0,0,0,0,0,0,0,0,0,0,0,0],"trees":[{"base_weights":[2.4275695E-7,-3.8484201E0,5.2506475E0,-6.7344522E0,-1.0454205E0,3.0208864E0,1.195557E1,-7.7711016E-2,-4.4421818E-2,-2.2597529E-2,1.9793358E-2,2.3077212E-3,5.037266E-2,1.02002084E-1,2.1515983E-1],"categories":[],"categories_nodes":[],"categories_segments":[],"categories_sizes":[],"default_left":[0,0,0,0,0,0,0,0,0,0,0,0,0,0,0],"id":0,"left_children":[1,3,5,7,9,11,13,-1,-1,-1,-1,-1,-1,-1,-1],"loss_changes":[3.9978956E5,9.23513E4,1.25068625E5,1.33320625E4,2.128251E4,3.5335305E4,3.4821344E4,0E0,0E0,0E0,0E0,0E0,0E0,0E0,0E0],"parents":[2147483647,0,0,1,1,2,2,3,3,4,4,5,5,6,6],"right_children":[2,4,6,8,10,12,14,-1,-1,-1,-1,-1,-1,-1,-1],"split_conditions":[1.1E1,4E-2,2.82E1,4.4E0,1E0,1E0,8.4E0,-7.7711016E-2,-4.4421818E-2,-2.2597529E-2,1.9793358E-2,2.3077212E-3,5.037266E-2,1.02002084E-1,2.1515983E-1],"split_indices":[1,18,13,13,33,33,15,0,0,0,0,0,0,0,0],"split_type":[0,0,0,0,0,0,0,0,0,0,0,0,0,0,0],"sum_hessian":[1.9783E4,1.1416E4,8.367E3,5.624E3,5.792E3,6.28E3,2.087E3,3.871E3,1.753E3,4.133E3,1.659E3,2.635E3,3.645E3,1.765E3,3.22E2],"tree_param":{"num_deleted":"0","num_feature":"41","num_nodes":"15","size_leaf_vector":"1"}},{"base_weights":[1.25257E-5,-3.809947E0,5.198185E0,-6.667129E0,-1.034967E0,2.9906857E0,1.1836166E1,-7.693411E-2,-4.397785E-2,-2.2371609E-2,1.9595541E-2,2.284651E-3,4.9869068E-2,1.0098264E-1,2.130149E-1],"categories":[],"categories_nodes":[],"categories_segments":[],"categories_sizes":[],"default_left":[0,0,0,0,0,0,0,0,0,0,0,0,0,0,0],"id":1,"left_children":[1,3,5,7,9,11,13,-1,-1,-1,-1,-1,-1,-1,-1],"loss_changes":[3.918385E5,9.051417E4,1.22583766E5,1.3066703E4,2.0859156E4,3.463232E4,3.4132094E4,0E0,0E0,0E0,0E0,0E0,0E0,0E0,0E0],"parents":[2147483647,0,0,1,1,2,2,3,3,4,4,5,5,6,6],"right_children":[2,4,6,8,10,12,14,-1,-1,-1,-1,-1,-1,-1,-1],"split_conditions":[1.1E1,4E-2,2.82E1,4.4E0,1E0,1E0,8.4E0,-7.693411E-2,-4.397785E-2,-2.2371609E-2,1.9595541E-2,2.284651E-3,4.9869068E-2,1.0098264E-1,2.130149E-1],"split_indices":[1,18,13,13,33,33,15,0,0,0,0,0,0,0,0],"split_type":[0,0,0,0,0,0,0,0,0,0,0,0,0,0,0],"sum_hessian":[1.9783E4,1.1416E4,8.367E3,5.624E3,5.792E3,6.28E3,2.087E3,3.871E3,1.753E3,4.133E3,1.659E3,2.635E3,3.645E3,1.765E3,3.22E2],"tree_param":{"num_deleted":"0","num_feature":"41","num_nodes":"15","size_leaf_vector":"1"}},{"base_weights":[2.4445859E-5,-3.7718585E0,5.146247E0,-6.6004796E0,-1.0246179E0,2.9607868E0,1.1717956E1,-7.616496E-2,-4.3538325E-2,-2.214795E-2,1.939971E-2,2.2618098E-3,4.9370512E-2,9.997338E-2,2.1089135E-1],"categories":[],"categories_nodes":[],"categories_segments":[],"categories_sizes":[],"default_left":[0,0,0,0,0,0,0,0,0,0,0,0,0,0,0],"id":2,"left_children":[1,3,5,7,9,11,13,-1,-1,-1,-1,-1,-1,-1,-1],"loss_changes":[3.8404562E5,8.871364E4,1.2014825E5,1.2806641E4,2.0444238E4,3.3943312E4,3.345653E4,0E0,0E0,0E0,0E0,0E0,0E0,0E0,0E0],"parents":[2147483647,0,0,1,1,2,2,3,3,4,4,5,5,6,6],"right_children":[2,4,6,8,10,12,14,-1,-1,-1,-1,-1,-1,-1,-1],"split_conditions":[1.1E1,4E-2,2.82E1,4.4E0,1E0,1E0,8.4E0,-7.616496E-2,-4.3538325E-2,-2.214795E-2,1.939971E-2,2.2618098E-3,4.9370512E-2,9.997338E-2,2.1089135E-1],"split_indices":[1,18,13,13,33,33,15,0,0,0,0,0,0,0,0],"split_type":[0,0,0,0,0,0,0,0,0,0,0,0,0,0,0],"sum_hessian":[1.9783E4,1.1416E4,8.367E3,5.624E3,5.792E3,6.28E3,2.087E3,3.871E3,1.753E3,4.133E3,1.659E3,2.635E3,3.645E3,1.765E3,3.22E2],"tree_param":{"num_deleted":"0","num_feature":"41","num_nodes":"15","size_leaf_vector":"1"}},{"base_weights":[3.6261652E-5,-3.7341506E0,5.094827E0,-6.534496E0,-1.0143721E0,2.931187E0,1.16009245E1,-7.5403504E-2,-4.3103192E-2,-2.1926524E-2,1.920583E-2,2.239197E-3,4.8876937E-2,9.8974206E-2,2.0878896E-1],"categories":[],"categories_nodes":[],"categories_segments":[],"categories_sizes":[],"default_left":[0,0,0,0,0,0,0,0,0,0,0,0,0,0,0],"id":3,"left_children":[1,3,5,7,9,11,13,-1,-1,-1,-1,-1,-1,-1,-1],"loss_changes":[3.764077E5,8.694889E4,1.1776108E5,1.2551766E4,2.0037564E4,3.3268027E4,3.2794344E4,0E0,0E0,0E0,0E0,0E0,0E0,0E0,0E0],"parents":[2147483647,0,0,1,1,2,2,3,3,4,4,5,5,6,6],"right_children":[2,4,6,8,10,12,14,-1,-1,-1,-1,-1,-1,-1,-1],"split_conditions":[1.1E1,4E-2,2.82E1,4.4E0,1E0,1E0,8.4E0,-7.5403504E-2,-4.3103192E-2,-2.1926524E-2,1.920583E-2,2.239197E-3,4.8876937E-2,9.8974206E-2,2.0878896E-1],"split_indices":[1,18,13,13,33,33,15,0,0,0,0,0,0,0,0],"split_type":[0,0,0,0,0,0,0,0,0,0,0,0,0,0,0],"sum_hessian":[1.9783E4,1.1416E4,8.367E3,5.624E3,5.792E3,6.28E3,2.087E3,3.871E3,1.753E3,4.133E3,1.659E3,2.635E3,3.645E3,1.765E3,3.22E2],"tree_param":{"num_deleted":"0","num_feature":"41","num_nodes":"15","size_leaf_vector":"1"}},{"base_weights":[4.7945032E-5,-3.6968198E0,5.043922E0,-6.469172E0,-1.0042287E0,2.9018831E0,1.1485063E1,-7.464967E-2,-4.2672403E-2,-2.1707308E-2,1.9013884E-2,2.2168132E-3,4.8388302E-2,9.798504E-2,2.0670754E-1],"categories":[],"categories_nodes":[],"categories_segments":[],"categories_sizes":[],"default_left":[0,0,0,0,0,0,0,0,0,0,0,0,0,0,0],"id":4,"left_children":[1,3,5,7,9,11,13,-1,-1,-1,-1,-1,-1,-1,-1],"loss_changes":[3.689217E5,8.521925E4,1.1542144E5,1.2301922E4,1.963897E4,3.2606176E4,3.2145188E4,0E0,0E0,0E0,0E0,0E0,0E0,0E0,0E0],"parents":[2147483647,0,0,1,1,2,2,3,3,4,4,5,5,6,6],"right_children":[2,4,6,8,10,12,14,-1,-1,-1,-1,-1,-1,-1,-1],"split_conditions":[1.1E1,4E-2,2.82E1,4.4E0,1E0,1E0,8.4E0,-7.464967E-2,-4.2672403E-2,-2.1707308E-2,1.9013884E-2,2.2168132E-3,4.8388302E-2,9.798504E-2,2.0670754E-1],"split_indices":[1,18,13,13,33,33,15,0,0,0,0,0,0,0,0],"split_type":[0,0,0,0,0,0,0,0,0,0,0,0,0,0,0],"sum_hessian":[1.9783E4,1.1416E4,8.367E3,5.624E3,5.792E3,6.28E3,2.087E3,3.871E3,1.753E3,4.133E3,1.659E3,2.635E3,3.645E3,1.765E3,3.22E2],"tree_param":{"num_deleted":"0","num_feature":"41","num_nodes":"15","size_leaf_vector":"1"}},{"base_weights":[5.934969E-5,-3.659862E0,4.993525E0,-6.4045014E0,-9.941867E-1,2.8728724E0,1.13703575E1,-7.390337E-2,-4.2245924E-2,-2.1490285E-2,1.8823856E-2,2.1946584E-3,4.790455E-2,9.7005725E-2,2.0464687E-1],"categories":[],"categories_nodes":[],"categories_segments":[],"categories_sizes":[],"default_left":[0,0,0,0,0,0,0,0,0,0,0,0,0,0,0],"id":5,"left_children":[1,3,5,7,9,11,13,-1,-1,-1,-1,-1,-1,-1,-1],"loss_changes":[3.6158456E5,8.352403E4,1.1312816E5,1.20570625E4,1.9248309E4,3.1957477E4,3.1508938E4,0E0,0E0,0E0,0E0,0E0,0E0,0E0,0E0],"parents":[2147483647,0,0,1,1,2,2,3,3,4,4,5,5,6,6],"right_children":[2,4,6,8,10,12,14,-1,-1,-1,-1,-1,-1,-1,-1],"split_conditions":[1.1E1,4E-2,2.82E1,4.4E0,1E0,1E0,8.4E0,-7.390337E-2,-4.2245924E-2,-2.1490285E-2,1.8823856E-2,2.1946584E-3,4.790455E-2,9.7005725E-2,2.0464687E-1],"split_indices":[1,18,13,13,33,33,15,0,0,0,0,0,0,0,0],"split_type":[0,0,0,0,0,0,0,0,0,0,0,0,0,0,0],"sum_hessian":[1.9783E4,1.1416E4,8.367E3,5.624E3,5.792E3,6.28E3,2.087E3,3.871E3,1.753E3,4.133E3,1.659E3,2.635E3,3.645E3,1.765E3,3.22E2],"tree_param":{"num_deleted":"0","num_feature":"41","num_nodes":"15","size_leaf_vector":"1"}},{"base_weights":[7.03826E-5,-3.6232738E0,4.9436316E0,-6.340477E0,-9.842455E-1,2.8441515E0,1.1256799E1,-7.4716E-2,-4.4554837E-2,-2.1275437E-2,1.8635731E-2,2.1727232E-3,4.742563E-2,9.6036226E-2,2.0260674E-1],"categories":[],"categories_nodes":[],"categories_segments":[],"categories_sizes":[],"default_left":[0,0,0,0,0,0,0,0,0,0,0,0,0,0,0],"id":6,"left_children":[1,3,5,7,9,11,13,-1,-1,-1,-1,-1,-1,-1,-1],"loss_changes":[3.5439338E5,8.186253E4,1.1088053E5,1.1960078E4,1.886543E4,3.132168E4,3.0885281E4,0E0,0E0,0E0,0E0,0E0,0E0,0E0,0E0],"parents":[2147483647,0,0,1,1,2,2,3,3,4,4,5,5,6,6],"right_children":[2,4,6,8,10,12,14,-1,-1,-1,-1,-1,-1,-1,-1],"split_conditions":[1.1E1,4E-2,2.82E1,6.104E3,1E0,1E0,8.4E0,-7.4716E-2,-4.4554837E-2,-2.1275437E-2,1.8635731E-2,2.1727232E-3,4.742563E-2,9.6036226E-2,2.0260674E-1],"split_indices":[1,18,13,11,33,33,15,0,0,0,0,0,0,0,0],"split_type":[0,0,0,0,0,0,0,0,0,0,0,0,0,0,0],"sum_hessian":[1.9783E4,1.1416E4,8.367E3,5.624E3,5.792E3,6.28E3,2.087E3,3.513E3,2.111E3,4.133E3,1.659E3,2.635E3,3.645E3,1.765E3,3.22E2],"tree_param":{"num_deleted":"0","num_feature":"41","num_nodes":"15","size_leaf_vector":"1"}},{"base_weights":[8.120775E-5,-3.5870519E0,4.8942375E0,-6.277094E0,-9.744034E-1,2.8157182E0,1.1144374E1,-7.249702E-2,-4.1264582E-2,-2.1062732E-2,1.8449487E-2,2.1510057E-3,4.6951514E-2,9.5076405E-2,2.0058693E-1],"categories":[],"categories_nodes":[],"categories_segments":[],"categories_sizes":[],"default_left":[0,0,0,0,0,0,0,0,0,0,0,0,0,0,0],"id":7,"left_children":[1,3,5,7,9,11,13,-1,-1,-1,-1,-1,-1,-1,-1],"loss_changes":[3.4734525E5,8.023408E4,1.0867756E5,1.1736047E4,1.8490162E4,3.0698547E4,3.0273938E4,0E0,0E0,0E0,0E0,0E0,0E0,0E0,0E0],"parents":[2147483647,0,0,1,1,2,2,3,3,4,4,5,5,6,6],"right_children":[2,4,6,8,10,12,14,-1,-1,-1,-1,-1,-1,-1,-1],"split_conditions":[1.1E1,4E-2,2.82E1,4.4E0,1E0,1E0,8.4E0,-7.249702E-2,-4.1264582E-2,-2.1062732E-2,1.8449487E-2,2.1510057E-3,4.6951514E-2,9.5076405E-2,2.0058693E-1],"split_indices":[1,18,13,13,33,33,15,0,0,0,0,0,0,0,0],"split_type":[0,0,0,0,0,0,0,0,0,0,0,0,0,0,0],"sum_hessian":[1.9783E4,1.1416E4,8.367E3,5.624E3,5.792E3,6.28E3,2.087E3,3.871E3,1.753E3,4.133E3,1.659E3,2.635E3,3.645E3,1.765E3,3.22E2],"tree_param":{"num_deleted":"0","num_feature":"41","num_nodes":"15","size_leaf_vector":"1"}},{"base_weights":[9.208438E-5,-3.5511916E0,4.8453364E0,-6.214343E0,-9.646598E-1,2.7875693E0,1.10330715E1,-7.3303126E-2,-4.3546207E-2,-2.0852156E-2,1.82651E-2,2.1295089E-3,4.6482127E-2,9.577821E-2,2.088E-1],"categories":[],"categories_nodes":[],"categories_segments":[],"categories_sizes":[],"default_left":[0,0,0,0,0,0,0,0,0,0,0,0,0,0,0],"id":8,"left_children":[1,3,5,7,9,11,13,-1,-1,-1,-1,-1,-1,-1,-1],"loss_changes":[3.4043725E5,7.8638016E4,1.065183E5,1.1642172E4,1.812235E4,3.0087809E4,2.9720531E4,0E0,0E0,0E0,0E0,0E0,0E0,0E0,0E0],"parents":[2147483647,0,0,1,1,2,2,3,3,4,4,5,5,6,6],"right_children":[2,4,6,8,10,12,14,-1,-1,-1,-1,-1,-1,-1,-1],"split_conditions":[1.1E1,4E-2,2.82E1,6.104E3,1E0,1E0,8.7E0,-7.3303126E-2,-4.3546207E-2,-2.0852156E-2,1.82651E-2,2.1295089E-3,4.6482127E-2,9.577821E-2,2.088E-1],"split_indices":[1,18,13,11,33,33,15,0,0,0,0,0,0,0,0],"split_type":[0,0,0,0,0,0,0,0,0,0,0,0,0,0,0],"sum_hessian":[1.9783E4,1.1416E4,8.367E3,5.624E3,5.792E3,6.28E3,2.087E3,3.513E3,2.111E3,4.133E3,1.659E3,2.635E3,3.645E3,1.82E3,2.67E2],"tree_param":{"num_deleted":"0","num_feature":"41","num_nodes":"15","size_leaf_vector":"1"}},{"base_weights":[1.0297822E-4,-3.583767E0,4.720117E0,-6.3338885E0,-8.3740616E-1,2.6864707E0,1.0765865E1,-7.633696E-2,-5.0206684E-2,-2.4926113E-2,2.563269E-2,5.659879E-3,4.5505337E-2,9.156956E-2,1.9670336E-1],"categories":[],"categories_nodes":[],"categories_segments":[],"categories_sizes":[],"default_left":[0,0,0,0,0,0,0,0,0,0,0,0,0,0,0],"id":9,"left_children":[1,3,5,7,9,11,13,-1,-1,-1,-1,-1,-1,-1,-1],"loss_changes":[3.346814E5,8.493378E4,1.0495733E5,9.552922E3,3.1685361E4,2.5259203E4,3.0607484E4,0E0,0E0,0E0,0E0,0E0,0E0,0E0,0E0],"parents":[2147483647,0,0,1,1,2,2,3,3,4,4,5,5,6,6],"right_children":[2,4,6,8,10,12,14,-1,-1,-1,-1,-1,-1,-1,-1],"split_conditions":[1.27E1,4E-2,2.82E1,2.818E3,1E0,1E0,8.4E0,-7.633696E-2,-5.0206684E-2,-2.4926113E-2,2.563269E-2,5.659879E-3,4.5505337E-2,9.156956E-2,1.9670336E-1],"split_indices":[13,18,13,11,33,33,15,0,0,0,0,0,0,0,0],"split_type":[0,0,0,0,0,0,0,0,0,0,0,0,0,0,0],"sum_hessian":[1.9783E4,1.1245E4,8.538E3,5.618E3,5.627E3,6.39E3,2.148E3,2.821E3,2.797E3,3.785E3,1.842E3,2.99E3,3.4E3,1.821E3,3.27E2],"tree_param":{"num_deleted":"0","num_feature":"41","num_nodes":"15","size_leaf_vector":"1"}},{"base_weights":[1.12787464E-4,-3.5479403E0,4.6729555E0,-6.270572E0,-8.2903194E-1,2.6596138E0,1.0658341E1,-7.514112E-2,-4.9098816E-2,-2.4676919E-2,2.53765E-2,5.6032985E-3,4.5050416E-2,9.065437E-2,1.9474234E-1],"categories":[],"categories_nodes":[],"categories_segments":[],"categories_sizes":[],"default_left":[0,0,0,0,0,0,0,0,0,0,0,0,0,0,0],"id":10,"left_children":[1,3,5,7,9,11,13,-1,-1,-1,-1,-1,-1,-1,-1],"loss_changes":[3.2802528E5,8.324428E4,1.0287195E5,9.470859E3,3.1055078E4,2.4756703E4,3.000161E4,0E0,0E0,0E0,0E0,0E0,0E0,0E0,0E0],"parents":[2147483647,0,0,1,1,2,2,3,3,4,4,5,5,6,6],"right_children":[2,4,6,8,10,12,14,-1,-1,-1,-1,-1,-1,-1,-1],"split_conditions":[1.27E1,4E-2,2.82E1,4.7E0,1E0,1E0,8.4E0,-7.514112E-2,-4.9098816E-2,-2.4676919E-2,2.53765E-2,5.6032985E-3,4.5050416E-2,9.065437E-2,1.9474234E-1],"split_indices":[13,18,13,15,33,33,15,0,0,0,0,0,0,0,0],"split_type":[0,0,0,0,0,0,0,0,0,0,0,0,0,0,0],"sum_hessian":[1.9783E4,1.1245E4,8.538E3,5.618E3,5.627E3,6.39E3,2.148E3,2.933E3,2.685E3,3.785E3,1.842E3,2.99E3,3.4E3,1.821E3,3.27E2],"tree_param":{"num_deleted":"0","num_feature":"41","num_nodes":"15","size_leaf_vector":"1"}},{"base_weights":[1.2245735E-4,-3.455236E0,4.71449E0,-6.0346627E0,-9.5001715E-1,2.721149E0,1.0708484E1,-7.477056E-2,-4.6582635E-2,-2.0297904E-2,1.7395811E-2,2.2132138E-3,4.527738E-2,8.775347E-2,1.7867027E-1],"categories":[],"categories_nodes":[],"categories_segments":[],"categories_sizes":[],"default_left":[0,0,0,0,0,0,0,0,0,0,0,0,0,0,0],"id":11,"left_children":[1,3,5,7,9,11,13,-1,-1,-1,-1,-1,-1,-1,-1],"loss_changes":[3.2229425E5,7.3771266E4,9.995233E4,1.1132516E4,1.682731E4,2.8365012E4,2.873789E4,0E0,0E0,0E0,0E0,0E0,0E0,0E0,0E0],"parents":[2147483647,0,0,1,1,2,2,3,3,4,4,5,5,6,6],"right_children":[2,4,6,8,10,12,14,-1,-1,-1,-1,-1,-1,-1,-1],"split_conditions":[1.1E1,4E-2,2.82E1,4.6E0,1E0,1E0,2.5E1,-7.477056E-2,-4.6582635E-2,-2.0297904E-2,1.7395811E-2,2.2132138E-3,4.527738E-2,8.775347E-2,1.7867027E-1],"split_indices":[1,18,13,15,33,33,33,0,0,0,0,0,0,0,0],"split_type":[0,0,0,0,0,0,0,0,0,0,0,0,0,0,0],"sum_hessian":[1.9783E4,1.1416E4,8.367E3,5.624E3,5.792E3,6.28E3,2.087E3,2.744E3,2.88E3,4.133E3,1.659E3,2.635E3,3.645E3,1.645E3,4.42E2],"tree_param":{"num_deleted":"0","num_feature":"41","num_nodes":"15","size_leaf_vector":"1"}},{"base_weights":[1.3077201E-4,-3.4835296E0,4.588167E0,-6.151383E0,-8.193238E-1,2.6170979E0,1.0447877E1,-7.4329E-2,-4.856674E-2,-2.426522E-2,2.4827227E-2,5.629044E-3,4.422883E-2,9.035979E-2,2.011705E-1],"categories":[],"categories_nodes":[],"categories_segments":[],"categories_sizes":[],"default_left":[0,0,0,0,0,0,0,0,0,0,0,0,0,0,0],"id":12,"left_children":[1,3,5,7,9,11,13,-1,-1,-1,-1,-1,-1,-1,-1],"loss_changes":[3.1622684E5,7.9928266E4,9.859722E4,9.286906E3,2.9874066E4,2.3704496E4,2.9156125E4,0E0,0E0,0E0,0E0,0E0,0E0,0E0,0E0],"parents":[2147483647,0,0,1,1,2,2,3,3,4,4,5,5,6,6],"right_children":[2,4,6,8,10,12,14,-1,-1,-1,-1,-1,-1,-1,-1],"split_conditions":[1.27E1,4E-2,2.82E1,2.818E3,1E0,1E0,8.7E0,-7.4329E-2,-4.856674E-2,-2.426522E-2,2.4827227E-2,5.629044E-3,4.422883E-2,9.035979E-2,2.011705E-1],"split_indices":[13,18,13,11,33,33,15,0,0,0,0,0,0,0,0],"split_type":[0,0,0,0,0,0,0,0,0,0,0,0,0,0,0],"sum_hessian":[1.9783E4,1.1245E4,8.538E3,5.618E3,5.627E3,6.39E3,2.148E3,2.821E3,2.797E3,3.785E3,1.842E3,2.99E3,3.4E3,1.876E3,2.72E2],"tree_param":{"num_deleted":"0","num_feature":"41","num_nodes":"15","size_leaf_vector":"1"}},{"base_weights":[1.4080189E-4,-3.3910494E0,4.6269593E0,-5.888991E0,-9.108257E-1,2.674825E0,1.0497041E1,-6.8430685E-2,-3.800718E-2,-1.8743463E-2,2.059305E-2,2.2378466E-3,4.4461545E-2,8.591755E-2,1.755258E-1],"categories":[],"categories_nodes":[],"categories_segments":[],"categories_sizes":[],"default_left":[0,0,0,0,0,0,0,0,0,0,0,0,0,0,0],"id":13,"left_children":[1,3,5,7,9,11,13,-1,-1,-1,-1,-1,-1,-1,-1],"loss_changes":[3.10435E5,7.0728125E4,9.586242E4,1.1306625E4,1.6401871E4,2.7268594E4,2.7917812E4,0E0,0E0,0E0,0E0,0E0,0E0,0E0,0E0],"parents":[2147483647,0,0,1,1,2,2,3,3,4,4,5,5,6,6],"right_children":[2,4,6,8,10,12,14,-1,-1,-1,-1,-1,-1,-1,-1],"split_conditions":[1.1E1,5E-2,2.82E1,4.4E0,5.3E0,1E0,2.5E1,-6.8430685E-2,-3.800718E-2,-1.8743463E-2,2.059305E-2,2.2378466E-3,4.4461545E-2,8.591755E-2,1.755258E-1],"split_indices":[1,18,13,13,15,33,33,0,0,0,0,0,0,0,0],"split_type":[0,0,0,0,0,0,0,0,0,0,0,0,0,0,0],"sum_hessian":[1.9783E4,1.1416E4,8.367E3,5.687E3,5.729E3,6.28E3,2.087E3,3.902E3,1.785E3,4.326E3,1.403E3,2.635E3,3.645E3,1.645E3,4.42E2],"tree_param":{"num_deleted":"0","num_feature":"41","num_nodes":"15","size_leaf_vector":"1"}},{"base_weights":[1.4968455E-4,-3.4199448E0,4.504469E0,-6.0340395E0,-8.094227E-1,2.5746634E0,1.0241501E1,-7.249893E-2,-4.7036786E-2,-1.629313E-2,5.4721832E-2,5.6109987E-3,4.3447293E-2,7.9189755E-2,1.5969358E-1],"categories":[],"categories_nodes":[],"categories_segments":[],"categories_sizes":[],"default_left":[0,0,0,0,0,0,0,0,0,0,0,0,0,0,0],"id":14,"left_children":[1,3,5,7,9,11,13,-1,-1,-1,-1,-1,-1,-1,-1],"loss_changes":[3.047918E5,7.67395E4,9.451194E4,9.054781E3,2.8994402E4,2.2775984E4,2.846189E4,0E0,0E0,0E0,0E0,0E0,0E0,0E0,0E0],"parents":[2147483647,0,0,1,1,2,2,3,3,4,4,5,5,6,6],"right_children":[2,4,6,8,10,12,14,-1,-1,-1,-1,-1,-1,-1,-1],"split_conditions":[1.27E1,4E-2,2.82E1,4.7E0,5E0,1E0,1.4E1,-7.249893E-2,-4.7036786E-2,-1.629313E-2,5.4721832E-2,5.6109987E-3,4.3447293E-2,7.9189755E-2,1.5969358E-1],"split_indices":[13,18,13,15,33,33,37,0,0,0,0,0,0,0,0],"split_type":[0,0,0,0,0,0,0,0,0,0,0,0,0,0,0],"sum_hessian":[1.9783E4,1.1245E4,8.538E3,5.618E3,5.627E3,6.39E3,2.148E3,2.933E3,2.685E3,4.978E3,6.49E2,2.99E3,3.4E3,1.53E3,6.18E2],"tree_param":{"num_deleted":"0","num_feature":"41","num_nodes":"15","size_leaf_vector":"1"}},{"base_weights":[1.5877617E-4,-3.3282287E0,4.5412917E0,-5.801729E0,-9.258863E-1,2.6296253E0,1.028968E1,-6.8722E-2,-4.0179055E-2,-1.876558E-2,1.9867782E-2,2.2497475E-3,4.3674283E-2,8.417456E-2,1.7222841E-1],"categories":[],"categories_nodes":[],"categories_segments":[],"categories_sizes":[],"default_left":[0,0,0,0,0,0,0,0,0,0,0,0,0,0,0],"id":15,"left_children":[1,3,5,7,9,11,13,-1,-1,-1,-1,-1,-1,-1,-1],"loss_changes":[2.9904334E5,6.7836664E4,9.192889E4,1.07135E4,1.6044475E4,2.624611E4,2.6958156E4,0E0,0E0,0E0,0E0,0E0,0E0,0E0,0E0],"parents":[2147483647,0,0,1,1,2,2,3,3,4,4,5,5,6,6],"right_children":[2,4,6,8,10,12,14,-1,-1,-1,-1,-1,-1,-1,-1],"split_conditions":[1.1E1,4E-2,2.82E1,6.104E3,5.3E0,1E0,2.5E1,-6.8722E-2,-4.0179055E-2,-1.876558E-2,1.9867782E-2,2.2497475E-3,4.3674283E-2,8.417456E-2,1.7222841E-1],"split_indices":[1,18,13,11,15,33,33,0,0,0,0,0,0,0,0],"split_type":[0,0,0,0,0,0,0,0,0,0,0,0,0,0,0],"sum_hessian":[1.9783E4,1.1416E4,8.367E3,5.624E3,5.792E3,6.28E3,2.087E3,3.513E3,2.111E3,4.367E3,1.425E3,2.635E3,3.645E3,1.645E3,4.42E2],"tree_param":{"num_deleted":"0","num_feature":"41","num_nodes":"15","size_leaf_vector":"1"}},{"base_weights":[1.6699535E-4,-3.3577874E0,4.4226465E0,-5.9191813E0,-7.9989266E-1,2.5333667E0,1.0039196E1,-7.1217924E-2,-4.603328E-2,-2.3659552E-2,2.4176398E-2,-6.862922E-3,3.6033735E-2,8.504208E-2,1.853526E-1],"categories":[],"categories_nodes":[],"categories_segments":[],"categories_sizes":[],"default_left":[0,0,0,0,0,0,0,0,0,0,0,0,0,0,0],"id":16,"left_children":[1,3,5,7,9,11,13,-1,-1,-1,-1,-1,-1,-1,-1],"loss_changes":[2.9381684E5,7.367654E4,9.058391E4,8.859047E3,2.836441E4,2.2019824E4,2.7868234E4,0E0,0E0,0E0,0E0,0E0,0E0,0E0,0E0],"parents":[2147483647,0,0,1,1,2,2,3,3,4,4,5,5,6,6],"right_children":[2,4,6,8,10,12,14,-1,-1,-1,-1,-1,-1,-1,-1],"split_conditions":[1.27E1,4E-2,2.82E1,4.7E0,1E0,1.0874E4,8.4E0,-7.1217924E-2,-4.603328E-2,-2.3659552E-2,2.4176398E-2,-6.862922E-3,3.6033735E-2,8.504208E-2,1.853526E-1],"split_indices":[13,18,13,15,33,12,15,0,0,0,0,0,0,0,0],"split_type":[0,0,0,0,0,0,0,0,0,0,0,0,0,0,0],"sum_hessian":[1.9783E4,1.1245E4,8.538E3,5.618E3,5.627E3,6.39E3,2.148E3,2.933E3,2.685E3,3.785E3,1.842E3,1.594E3,4.796E3,1.821E3,3.27E2],"tree_param":{"num_deleted":"0","num_feature":"41","num_nodes":"15","size_leaf_vector":"1"}},{"base_weights":[1.7446389E-4,-3.2668693E0,4.457612E0,-5.7302155E0,-9.5274353E-1,2.5857065E0,1.0086435E1,-7.092857E-2,-4.3340784E-2,-1.89141E-2,1.9110385E-2,2.2159303E-3,4.2942137E-2,8.2412116E-2,1.6919732E-1],"categories":[],"categories_nodes":[],"categories_segments":[],"categories_sizes":[],"default_left":[0,0,0,0,0,0,0,0,0,0,0,0,0,0,0],"id":17,"left_children":[1,3,5,7,9,11,13,-1,-1,-1,-1,-1,-1,-1,-1],"loss_changes":[2.881219E5,6.507708E4,8.814442E4,1.0489734E4,1.5831363E4,2.5368664E4,2.6188062E4,0E0,0E0,0E0,0E0,0E0,0E0,0E0,0E0],"parents":[2147483647,0,0,1,1,2,2,3,3,4,4,5,5,6,6],"right_children":[2,4,6,8,10,12,14,-1,-1,-1,-1,-1,-1,-1,-1],"split_conditions":[1.1E1,2E-2,2.82E1,2.818E3,5.3E0,1E0,2.5E1,-7.092857E-2,-4.3340784E-2,-1.89141E-2,1.9110385E-2,2.2159303E-3,4.2942137E-2,8.2412116E-2,1.6919732E-1],"split_indices":[1,18,13,11,15,33,33,0,0,0,0,0,0,0,0],"split_type":[0,0,0,0,0,0,0,0,0,0,0,0,0,0,0],"sum_hessian":[1.9783E4,1.1416E4,8.367E3,5.529E3,5.887E3,6.28E3,2.087E3,2.796E3,2.733E3,4.434E3,1.453E3,2.635E3,3.645E3,1.645E3,4.42E2],"tree_param":{"num_deleted":"0","num_feature":"41","num_nodes":"15","size_leaf_vector":"1"}},{"base_weights":[1.8196042E-4,-3.2968328E0,4.3424034E0,-5.806943E0,-7.901511E-1,2.492833E0,9.840897E0,-6.996454E-2,-4.5054406E-2,-1.5905088E-2,5.3418044E-2,-6.7479066E-3,3.545546E-2,8.479481E-2,1.9165204E-1],"categories":[],"categories_nodes":[],"categories_segments":[],"categories_sizes":[],"default_left":[0,0,0,0,0,0,0,0,0,0,0,0,0,0,0],"id":18,"left_children":[1,3,5,7,9,11,13,-1,-1,-1,-1,-1,-1,-1,-1],"loss_changes":[2.8324934E5,7.075577E4,8.681583E4,8.6675625E3,2.7629355E4,2.131382E4,2.7117453E4,0E0,0E0,0E0,0E0,0E0,0E0,0E0,0E0],"parents":[2147483647,0,0,1,1,2,2,3,3,4,4,5,5,6,6],"right_children":[2,4,6,8,10,12,14,-1,-1,-1,-1,-1,-1,-1,-1],"split_conditions":[1.27E1,4E-2,2.82E1,4.7E0,5E0,1.0874E4,8.7E0,-6.996454E-2,-4.5054406E-2,-1.5905088E-2,5.3418044E-2,-6.7479066E-3,3.545546E-2,8.479481E-2,1.9165204E-1],"split_indices":[13,18,13,15,33,12,15,0,0,0,0,0,0,0,0],"split_type":[0,0,0,0,0,0,0,0,0,0,0,0,0,0,0],"sum_hessian":[1.9783E4,1.1245E4,8.538E3,5.618E3,5.627E3,6.39E3,2.148E3,2.933E3,2.685E3,4.978E3,6.49E2,1.594E3,4.796E3,1.876E3,2.72E2],"tree_param":{"num_deleted":"0","num_feature":"41","num_nodes":"15","size_leaf_vector":"1"}},{"base_weights":[1.9162617E-4,-3.2638714E0,4.299015E0,-5.794879E0,-8.272458E-1,2.4679089E0,9.742617E0,-7.023781E-2,-4.544552E-2,-2.3602515E-2,2.3417372E-2,5.3732553E-3,4.1650295E-2,7.496865E-2,1.5281391E-1],"categories":[],"categories_nodes":[],"categories_segments":[],"categories_sizes":[],"default_left":[0,0,0,0,0,0,0,0,0,0,0,0,0,0,0],"id":19,"left_children":[1,3,5,7,9,11,13,-1,-1,-1,-1,-1,-1,-1,-1],"loss_changes":[2.776158E5,6.93506E4,8.509109E4,8.4435625E3,2.7847123E4,2.0937445E4,2.6616234E4,0E0,0E0,0E0,0E0,0E0,0E0,0E0,0E0],"parents":[2147483647,0,0,1,1,2,2,3,3,4,4,5,5,6,6],"right_children":[2,4,6,8,10,12,14,-1,-1,-1,-1,-1,-1,-1,-1],"split_conditions":[1.27E1,2E-2,2.82E1,2.818E3,1E0,1E0,1.4E1,-7.023781E-2,-4.544552E-2,-2.3602515E-2,2.3417372E-2,5.3732553E-3,4.1650295E-2,7.496865E-2,1.5281391E-1],"split_indices":[13,18,13,11,33,33,37,0,0,0,0,0,0,0,0],"split_type":[0,0,0,0,0,0,0,0,0,0,0,0,0,0,0],"sum_hessian":[1.9783E4,1.1245E4,8.538E3,5.515E3,5.73E3,6.39E3,2.148E3,2.779E3,2.736E3,3.862E3,1.868E3,2.99E3,3.4E3,1.53E3,6.18E2],"tree_param":{"num_deleted":"0","num_feature":"41","num_nodes":"15","size_leaf_vector":"1"}},{"base_weights":[1.9774445E-4,-3.1787584E0,4.337452E0,-5.5005074E0,-8.7347275E-1,2.5242486E0,9.789747E0,-6.414035E-2,-3.5010688E-2,-1.794837E-2,1.9667096E-2,2.2088613E-3,4.18885E-2,8.4513806E-2,1.8847115E-1],"categories":[],"categories_nodes":[],"categories_segments":[],"categories_sizes":[],"default_left":[0,0,0,0,0,0,0,0,0,0,0,0,0,0,0],"id":20,"left_children":[1,3,5,7,9,11,13,-1,-1,-1,-1,-1,-1,-1,-1],"loss_changes":[2.727944E5,6.110235E4,8.270234E4,1.0366906E4,1.4998037E4,2.408157E4,2.5151594E4,0E0,0E0,0E0,0E0,0E0,0E0,0E0,0E0],"parents":[2147483647,0,0,1,1,2,2,3,3,4,4,5,5,6,6],"right_children":[2,4,6,8,10,12,14,-1,-1,-1,-1,-1,-1,-1,-1],"split_conditions":[1.1E1,5E-2,2.82E1,4.4E0,5.3E0,1E0,8.7E0,-6.414035E-2,-3.5010688E-2,-1.794837E-2,1.9667096E-2,2.2088613E-3,4.18885E-2,8.4513806E-2,1.8847115E-1],"split_indices":[1,18,13,13,15,33,15,0,0,0,0,0,0,0,0],"split_type":[0,0,0,0,0,0,0,0,0,0,0,0,0,0,0],"sum_hessian":[1.9783E4,1.1416E4,8.367E3,5.687E3,5.729E3,6.28E3,2.087E3,3.902E3,1.785E3,4.326E3,1.403E3,2.635E3,3.645E3,1.82E3,2.67E2],"tree_param":{"num_deleted":"0","num_feature":"41","num_nodes":"15","size_leaf_vector":"1"}},{"base_weights":[2.0679485E-4,-2.5414784E0,5.3245063E0,-5.519785E0,-2.5155964E-1,3.1840546E0,9.550143E0,-6.788846E-2,-4.1971903E-2,-1.8663108E-2,2.6262542E-2,-2.8807293E-3,4.1183453E-2,8.070712E-2,1.7739089E-1],"categories":[],"categories_nodes":[],"categories_segments":[],"categories_sizes":[],"default_left":[0,0,0,0,0,0,0,0,0,0,0,0,0,0,0],"id":21,"left_children":[1,3,5,7,9,11,13,-1,-1,-1,-1,-1,-1,-1,-1],"loss_changes":[2.6774438E5,9.1333125E4,5.7792812E4,9.741781E3,3.5191637E4,1.3771871E4,2.5891938E4,0E0,0E0,0E0,0E0,0E0,0E0,0E0,0E0],"parents":[2147483647,0,0,1,1,2,2,3,3,4,4,5,5,6,6],"right_children":[2,4,6,8,10,12,14,-1,-1,-1,-1,-1,-1,-1,-1],"split_conditions":[1.59E1,2E-2,2.82E1,4.7E0,1E0,1.0248E4,8.4E0,-6.788846E-2,-4.1971903E-2,-1.8663108E-2,2.6262542E-2,-2.8807293E-3,4.1183453E-2,8.070712E-2,1.7739089E-1],"split_indices":[13,18,13,15,33,12,15,0,0,0,0,0,0,0,0],"split_type":[0,0,0,0,0,0,0,0,0,0,0,0,0,0,0],"sum_hessian":[1.9783E4,1.3391E4,6.392E3,5.82E3,7.571E3,4.244E3,2.148E3,2.968E3,2.852E3,4.85E3,2.721E3,9E2,3.344E3,1.821E3,3.27E2],"tree_param":{"num_deleted":"0","num_feature":"41","num_nodes":"15","size_leaf_vector":"1"}},{"base_weights":[2.1461037E-4,-3.1203752E0,4.257836E0,-5.3933654E0,-8.6350113E-1,2.4824526E0,9.596401E0,-6.766113E-2,-4.094334E-2,-1.772182E-2,1.9375857E-2,2.2067777E-3,4.1169986E-2,7.807573E-2,1.6221261E-1],"categories":[],"categories_nodes":[],"categories_segments":[],"categories_sizes":[],"default_left":[0,0,0,0,0,0,0,0,0,0,0,0,0,0,0],"id":22,"left_children":[1,3,5,7,9,11,13,-1,-1,-1,-1,-1,-1,-1,-1],"loss_changes":[2.6286925E5,5.8562875E4,7.928808E4,1.0115375E4,1.4587969E4,2.3219797E4,2.4617672E4,0E0,0E0,0E0,0E0,0E0,0E0,0E0,0E0],"parents":[2147483647,0,0,1,1,2,2,3,3,4,4,5,5,6,6],"right_children":[2,4,6,8,10,12,14,-1,-1,-1,-1,-1,-1,-1,-1],"split_conditions":[1.1E1,5E-2,2.82E1,4.6E0,5.3E0,1E0,2.5E1,-6.766113E-2,-4.094334E-2,-1.772182E-2,1.9375857E-2,2.2067777E-3,4.1169986E-2,7.807573E-2,1.6221261E-1],"split_indices":[1,18,13,15,15,33,33,0,0,0,0,0,0,0,0],"split_type":[0,0,0,0,0,0,0,0,0,0,0,0,0,0,0],"sum_hessian":[1.9783E4,1.1416E4,8.367E3,5.687E3,5.729E3,6.28E3,2.087E3,2.763E3,2.924E3,4.326E3,1.403E3,2.635E3,3.645E3,1.645E3,4.42E2],"tree_param":{"num_deleted":"0","num_feature":"41","num_nodes":"15","size_leaf_vector":"1"}},{"base_weights":[2.215165E-4,-3.1488895E0,4.147651E0,-5.534405E0,-7.666295E-1,2.3938224E0,9.361506E0,-6.1737727E-2,-3.2118138E-2,-1.5439911E-2,5.1891387E-2,-6.5679126E-3,3.4076508E-2,7.173814E-2,1.4757298E-1],"categories":[],"categories_nodes":[],"categories_segments":[],"categories_sizes":[],"default_left":[0,0,0,0,0,0,0,0,0,0,0,0,0,0,0],"id":23,"left_children":[1,3,5,7,9,11,13,-1,-1,-1,-1,-1,-1,-1,-1],"loss_changes":[2.5840631E5,6.390586E4,7.806E4,8.3243125E3,2.6064443E4,1.9768312E4,2.526164E4,0E0,0E0,0E0,0E0,0E0,0E0,0E0,0E0],"parents":[2147483647,0,0,1,1,2,2,3,3,4,4,5,5,6,6],"right_children":[2,4,6,8,10,12,14,-1,-1,-1,-1,-1,-1,-1,-1],"split_conditions":[1.27E1,4E-2,2.82E1,5.3E0,5E0,1.0874E4,1.4E1,-6.1737727E-2,-3.2118138E-2,-1.5439911E-2,5.1891387E-2,-6.5679126E-3,3.4076508E-2,7.173814E-2,1.4757298E-1],"split_indices":[13,18,13,15,33,12,37,0,0,0,0,0,0,0,0],"split_type":[0,0,0,0,0,0,0,0,0,0,0,0,0,0,0],"sum_hessian":[1.9783E4,1.1245E4,8.538E3,5.618E3,5.627E3,6.39E3,2.148E3,4.404E3,1.214E3,4.978E3,6.49E2,1.594E3,4.796E3,1.53E3,6.18E2],"tree_param":{"num_deleted":"0","num_feature":"41","num_nodes":"15","size_leaf_vector":"1"}},{"base_weights":[2.2894118E-4,-2.4722776E0,5.179614E0,-5.3645964E0,-2.4847172E-1,3.1086817E0,9.267994E0,-6.4072385E-2,-3.8229637E-2,-1.8276315E-2,2.5659122E-2,-2.7669105E-3,4.019627E-2,7.961778E-2,1.8214874E-1],"categories":[],"categories_nodes":[],"categories_segments":[],"categories_sizes":[],"default_left":[0,0,0,0,0,0,0,0,0,0,0,0,0,0,0],"id":24,"left_children":[1,3,5,7,9,11,13,-1,-1,-1,-1,-1,-1,-1,-1],"loss_changes":[2.5336797E5,8.613541E4,5.409917E4,9.332031E3,3.3657402E4,1.3092227E4,2.4969375E4,0E0,0E0,0E0,0E0,0E0,0E0,0E0,0E0],"parents":[2147483647,0,0,1,1,2,2,3,3,4,4,5,5,6,6],"right_children":[2,4,6,8,10,12,14,-1,-1,-1,-1,-1,-1,-1,-1],"split_conditions":[1.59E1,2E-2,2.82E1,5.926E3,1E0,1.0248E4,8.7E0,-6.4072385E-2,-3.8229637E-2,-1.8276315E-2,2.5659122E-2,-2.7669105E-3,4.019627E-2,7.961778E-2,1.8214874E-1],"split_indices":[13,18,13,11,33,12,15,0,0,0,0,0,0,0,0],"split_type":[0,0,0,0,0,0,0,0,0,0,0,0,0,0,0],"sum_hessian":[1.9783E4,1.3391E4,6.392E3,5.82E3,7.571E3,4.244E3,2.148E3,3.47E3,2.35E3,4.85E3,2.721E3,9E2,3.344E3,1.876E3,2.72E2],"tree_param":{"num_deleted":"0","num_feature":"41","num_nodes":"15","size_leaf_vector":"1"}},{"base_weights":[2.3687117E-4,-3.0365067E0,4.143461E0,-5.2372403E0,-8.513737E-1,2.4239037E0,9.314149E0,-6.126468E-2,-3.2910522E-2,-1.744547E-2,1.9019114E-2,2.1683292E-3,4.0189162E-2,7.564358E-2,1.5794602E-1],"categories":[],"categories_nodes":[],"categories_segments":[],"categories_sizes":[],"default_left":[0,0,0,0,0,0,0,0,0,0,0,0,0,0,0],"id":25,"left_children":[1,3,5,7,9,11,13,-1,-1,-1,-1,-1,-1,-1,-1],"loss_changes":[2.4893306E5,5.4898703E4,7.4379766E4,9.823531E3,1.4094311E4,2.2110164E4,2.3557266E4,0E0,0E0,0E0,0E0,0E0,0E0,0E0,0E0],"parents":[2147483647,0,0,1,1,2,2,3,3,4,4,5,5,6,6],"right_children":[2,4,6,8,10,12,14,-1,-1,-1,-1,-1,-1,-1,-1],"split_conditions":[1.1E1,5E-2,2.82E1,4.4E0,5.3E0,1E0,2.5E1,-6.126468E-2,-3.2910522E-2,-1.744547E-2,1.9019114E-2,2.1683292E-3,4.0189162E-2,7.564358E-2,1.5794602E-1],"split_indices":[1,18,13,13,15,33,33,0,0,0,0,0,0,0,0],"split_type":[0,0,0,0,0,0,0,0,0,0,0,0,0,0,0],"sum_hessian":[1.9783E4,1.1416E4,8.367E3,5.687E3,5.729E3,6.28E3,2.087E3,3.902E3,1.785E3,4.326E3,1.403E3,2.635E3,3.645E3,1.645E3,4.42E2],"tree_param":{"num_deleted":"0","num_feature":"41","num_nodes":"15","size_leaf_vector":"1"}},{"base_weights":[2.438472E-4,-3.0630794E0,4.0346894E0,-5.375996E0,-7.533171E-1,2.3359082E0,9.084888E0,-6.007152E-2,-3.0833066E-2,-1.5156934E-2,5.0876435E-2,-6.3717687E-3,3.3239704E-2,7.652815E-2,1.7012188E-1],"categories":[],"categories_nodes":[],"categories_segments":[],"categories_sizes":[],"default_left":[0,0,0,0,0,0,0,0,0,0,0,0,0,0,0],"id":26,"left_children":[1,3,5,7,9,11,13,-1,-1,-1,-1,-1,-1,-1,-1],"loss_changes":[2.445191E5,6.0075312E4,7.323644E4,8.112422E3,2.5069252E4,1.8776277E4,2.4266281E4,0E0,0E0,0E0,0E0,0E0,0E0,0E0,0E0],"parents":[2147483647,0,0,1,1,2,2,3,3,4,4,5,5,6,6],"right_children":[2,4,6,8,10,12,14,-1,-1,-1,-1,-1,-1,-1,-1],"split_conditions":[1.27E1,4E-2,2.82E1,5.3E0,5E0,1.0874E4,8.4E0,-6.007152E-2,-3.0833066E-2,-1.5156934E-2,5.0876435E-2,-6.3717687E-3,3.3239704E-2,7.652815E-2,1.7012188E-1],"split_indices":[13,18,13,15,33,12,15,0,0,0,0,0,0,0,0],"split_type":[0,0,0,0,0,0,0,0,0,0,0,0,0,0,0],"sum_hessian":[1.9783E4,1.1245E4,8.538E3,5.618E3,5.627E3,6.39E3,2.148E3,4.404E3,1.214E3,4.978E3,6.49E2,1.594E3,4.796E3,1.821E3,3.27E2],"tree_param":{"num_deleted":"0","num_feature":"41","num_nodes":"15","size_leaf_vector":"1"}},{"base_weights":[2.5254887E-4,-2.980437E0,4.066999E0,-5.1355815E0,-8.405694E-1,2.3831878E0,9.130194E0,-6.471071E-2,-3.8718455E-2,-1.721895E-2,1.8761944E-2,2.118854E-3,3.9523512E-2,7.405625E-2,1.5517347E-1],"categories":[],"categories_nodes":[],"categories_segments":[],"categories_sizes":[],"default_left":[0,0,0,0,0,0,0,0,0,0,0,0,0,0,0],"id":27,"left_children":[1,3,5,7,9,11,13,-1,-1,-1,-1,-1,-1,-1,-1],"loss_changes":[2.3982802E5,5.2647734E4,7.131931E4,9.574625E3,1.3722877E4,2.1399332E4,2.2884578E4,0E0,0E0,0E0,0E0,0E0,0E0,0E0,0E0],"parents":[2147483647,0,0,1,1,2,2,3,3,4,4,5,5,6,6],"right_children":[2,4,6,8,10,12,14,-1,-1,-1,-1,-1,-1,-1,-1],"split_conditions":[1.1E1,5E-2,2.82E1,4.6E0,5.3E0,1E0,2.5E1,-6.471071E-2,-3.8718455E-2,-1.721895E-2,1.8761944E-2,2.118854E-3,3.9523512E-2,7.405625E-2,1.5517347E-1],"split_indices":[1,18,13,15,15,33,33,0,0,0,0,0,0,0,0],"split_type":[0,0,0,0,0,0,0,0,0,0,0,0,0,0,0],"sum_hessian":[1.9783E4,1.1416E4,8.367E3,5.687E3,5.729E3,6.28E3,2.087E3,2.763E3,2.924E3,4.326E3,1.403E3,2.635E3,3.645E3,1.645E3,4.42E2],"tree_param":{"num_deleted":"0","num_feature":"41","num_nodes":"15","size_leaf_vector":"1"}},{"base_weights":[2.5843485E-4,-3.2365015E0,3.6829252E0,-5.3296375E0,-9.4236356E-1,2.1032383E0,8.905425E0,-6.486012E-2,-4.1237123E-2,-2.275848E-2,1.9746501E-2,2.4232632E-3,3.8070865E-2,6.724575E-2,1.3969035E-1],"categories":[],"categories_nodes":[],"categories_segments":[],"categories_sizes":[],"default_left":[0,0,0,0,0,0,0,0,0,0,0,0,0,0,0],"id":28,"left_children":[1,3,5,7,9,11,13,-1,-1,-1,-1,-1,-1,-1,-1],"loss_changes":[2.358354E5,5.0559438E4,7.633421E4,7.651375E3,1.9550701E4,2.2533324E4,2.3637422E4,0E0,0E0,0E0,0E0,0E0,0E0,0E0,0E0],"parents":[2147483647,0,0,1,1,2,2,3,3,4,4,5,5,6,6],"right_children":[2,4,6,8,10,12,14,-1,-1,-1,-1,-1,-1,-1,-1],"split_conditions":[1.18E1,4E-2,2.82E1,2.818E3,1E0,1E0,1.3E1,-6.486012E-2,-4.1237123E-2,-2.275848E-2,1.9746501E-2,2.4232632E-3,3.8070865E-2,6.724575E-2,1.3969035E-1],"split_indices":[13,18,13,11,33,33,37,0,0,0,0,0,0,0,0],"split_type":[0,0,0,0,0,0,0,0,0,0,0,0,0,0,0],"sum_hessian":[1.9783E4,1.0529E4,9.254E3,5.505E3,5.024E3,7.106E3,2.148E3,2.808E3,2.697E3,3.448E3,1.576E3,3.397E3,3.709E3,1.503E3,6.45E2],"tree_param":{"num_deleted":"0","num_feature":"41","num_nodes":"15","size_leaf_vector":"1"}},{"base_weights":[2.6287985E-4,-2.3635733E0,4.952006E0,-5.118757E0,-2.4520487E-1,3.268082E0,9.488925E0,-6.326156E-2,-3.8604714E-2,-1.7645549E-2,2.462588E-2,5.5127786E-3,4.4403575E-2,7.907255E-2,1.6794492E-1],"categories":[],"categories_nodes":[],"categories_segments":[],"categories_sizes":[],"default_left":[0,0,0,0,0,0,0,0,0,0,0,0,0,0,0],"id":29,"left_children":[1,3,5,7,9,11,13,-1,-1,-1,-1,-1,-1,-1,-1],"loss_changes":[2.315856E5,7.816106E4,4.8810406E4,8.819141E3,3.1156203E4,1.485166E4,1.9857344E4,0E0,0E0,0E0,0E0,0E0,0E0,0E0,0E0],"parents":[2147483647,0,0,1,1,2,2,3,3,4,4,5,5,6,6],"right_children":[2,4,6,8,10,12,14,-1,-1,-1,-1,-1,-1,-1,-1],"split_conditions":[1.59E1,2E-2,3.07E1,4.7E0,1E0,1.9287E4,8.4E0,-6.326156E-2,-3.8604714E-2,-1.7645549E-2,2.462588E-2,5.5127786E-3,4.4403575E-2,7.907255E-2,1.6794492E-1],"split_indices":[13,18,13,15,33,12,15,0,0,0,0,0,0,0,0],"split_type":[0,0,0,0,0,0,0,0,0,0,0,0,0,0,0],"sum_hessian":[1.9783E4,1.3391E4,6.392E3,5.82E3,7.571E3,4.663E3,1.729E3,2.968E3,2.852E3,4.85E3,2.721E3,1.406E3,3.257E3,1.423E3,3.06E2],"tree_param":{"num_deleted":"0","num_feature":"41","num_nodes":"15","size_leaf_vector":"1"}},{"base_weights":[2.7051292E-4,-2.9004278E0,3.9578795E0,-5.0458474E0,-8.8496065E-1,2.32575E0,8.865661E0,-6.322323E-2,-3.7381124E-2,-1.752777E-2,1.7626667E-2,2.1680694E-3,3.8498446E-2,7.616536E-2,1.7320102E-1],"categories":[],"categories_nodes":[],"categories_segments":[],"categories_sizes":[],"default_left":[0,0,0,0,0,0,0,0,0,0,0,0,0,0,0],"id":30,"left_children":[1,3,5,7,9,11,13,-1,-1,-1,-1,-1,-1,-1,-1],"loss_changes":[2.2712844E5,4.93629E4,6.700819E4,9.207547E3,1.3531678E4,2.0187734E4,2.1918719E4,0E0,0E0,0E0,0E0,0E0,0E0,0E0,0E0],"parents":[2147483647,0,0,1,1,2,2,3,3,4,4,5,5,6,6],"right_children":[2,4,6,8,10,12,14,-1,-1,-1,-1,-1,-1,-1,-1],"split_conditions":[1.1E1,2E-2,2.82E1,2.818E3,5.3E0,1E0,8.7E0,-6.322323E-2,-3.7381124E-2,-1.752777E-2,1.7626667E-2,2.1680694E-3,3.8498446E-2,7.616536E-2,1.7320102E-1],"split_indices":[1,18,13,11,15,33,15,0,0,0,0,0,0,0,0],"split_type":[0,0,0,0,0,0,0,0,0,0,0,0,0,0,0],"sum_hessian":[1.9783E4,1.1416E4,8.367E3,5.529E3,5.887E3,6.28E3,2.087E3,2.796E3,2.733E3,4.434E3,1.453E3,2.635E3,3.645E3,1.82E3,2.67E2],"tree_param":{"num_deleted":"0","num_feature":"41","num_nodes":"15","size_leaf_vector":"1"}},{"base_weights":[2.7715956E-4,-3.149398E0,3.5838623E0,-5.1782317E0,-9.2573524E-1,2.0525422E0,8.646454E0,-5.7849076E-2,-2.9515931E-2,-2.2259673E-2,1.9185428E-2,2.4524776E-3,3.707295E-2,6.5703176E-2,1.3767484E-1],"categories":[],"categories_nodes":[],"categories_segments":[],"categories_sizes":[],"default_left":[0,0,0,0,0,0,0,0,0,0,0,0,0,0,0],"id":31,"left_children":[1,3,5,7,9,11,13,-1,-1,-1,-1,-1,-1,-1,-1],"loss_changes":[2.2331588E5,4.7500703E4,7.1731164E4,7.4206875E3,1.8587834E4,2.1253469E4,2.2757625E4,0E0,0E0,0E0,0E0,0E0,0E0,0E0,0E0],"parents":[2147483647,0,0,1,1,2,2,3,3,4,4,5,5,6,6],"right_children":[2,4,6,8,10,12,14,-1,-1,-1,-1,-1,-1,-1,-1],"split_conditions":[1.18E1,4E-2,2.82E1,5.3E0,1E0,1E0,1.4E1,-5.7849076E-2,-2.9515931E-2,-2.2259673E-2,1.9185428E-2,2.4524776E-3,3.707295E-2,6.5703176E-2,1.3767484E-1],"split_indices":[13,18,13,15,33,33,37,0,0,0,0,0,0,0,0],"split_type":[0,0,0,0,0,0,0,0,0,0,0,0,0,0,0],"sum_hessian":[1.9783E4,1.0529E4,9.254E3,5.505E3,5.024E3,7.106E3,2.148E3,4.325E3,1.18E3,3.448E3,1.576E3,3.397E3,3.709E3,1.53E3,6.18E2],"tree_param":{"num_deleted":"0","num_feature":"41","num_nodes":"15","size_leaf_vector":"1"}},{"base_weights":[2.8209315E-4,-2.2997682E0,4.818407E0,-4.9750156E0,-2.4285926E-1,3.185782E0,9.217104E0,-6.1605077E-2,-3.7395786E-2,-1.7227812E-2,2.3946662E-2,1.6958121E-2,5.2260578E-2,7.327137E-2,1.511309E-1],"categories":[],"categories_nodes":[],"categories_segments":[],"categories_sizes":[],"default_left":[0,0,0,0,0,0,0,0,0,0,0,0,0,0,0],"id":32,"left_children":[1,3,5,7,9,11,13,-1,-1,-1,-1,-1,-1,-1,-1],"loss_changes":[2.1925597E5,7.369149E4,4.588147E4,8.502406E3,2.9560152E4,1.4169465E4,1.9167031E4,0E0,0E0,0E0,0E0,0E0,0E0,0E0,0E0],"parents":[2147483647,0,0,1,1,2,2,3,3,4,4,5,5,6,6],"right_children":[2,4,6,8,10,12,14,-1,-1,-1,-1,-1,-1,-1,-1],"split_conditions":[1.59E1,2E-2,3.07E1,4.7E0,1E0,5.4E0,2.5E1,-6.1605077E-2,-3.7395786E-2,-1.7227812E-2,2.3946662E-2,1.6958121E-2,5.2260578E-2,7.327137E-2,1.511309E-1],"split_indices":[13,18,13,15,33,15,33,0,0,0,0,0,0,0,0],"split_type":[0,0,0,0,0,0,0,0,0,0,0,0,0,0,0],"sum_hessian":[1.9783E4,1.3391E4,6.392E3,5.82E3,7.571E3,4.663E3,1.729E3,2.968E3,2.852E3,4.85E3,2.721E3,2.696E3,1.967E3,1.311E3,4.18E2],"tree_param":{"num_deleted":"0","num_feature":"41","num_nodes":"15","size_leaf_vector":"1"}},{"base_weights":[2.895587E-4,-3.0786076E0,3.532634E0,-4.828632E0,-9.280554E-1,2.0375934E0,8.577605E0,-6.4171486E-2,-3.872712E-2,-1.7231042E-2,1.6460335E-2,2.6830783E-4,3.6229275E-2,7.3484875E-2,1.6943927E-1],"categories":[],"categories_nodes":[],"categories_segments":[],"categories_sizes":[],"default_left":[0,0,0,0,0,0,0,0,0,0,0,0,0,0,0],"id":33,"left_children":[1,3,5,7,9,11,13,-1,-1,-1,-1,-1,-1,-1,-1],"loss_changes":[2.1517622E5,3.9779664E4,6.947853E4,8.8249375E3,9.711557E3,2.2661482E4,2.153189E4,0E0,0E0,0E0,0E0,0E0,0E0,0E0,0E0],"parents":[2147483647,0,0,1,1,2,2,3,3,4,4,5,5,6,6],"right_children":[2,4,6,8,10,12,14,-1,-1,-1,-1,-1,-1,-1,-1],"split_conditions":[1E1,1.3E-1,2.82E1,2E-1,5.3E0,1E0,8.7E0,-6.4171486E-2,-3.872712E-2,-1.7231042E-2,1.6460335E-2,2.6830783E-4,3.6229275E-2,7.3484875E-2,1.6943927E-1],"split_indices":[1,18,13,13,15,33,15,0,0,0,0,0,0,0,0],"split_type":[0,0,0,0,0,0,0,0,0,0,0,0,0,0,0],"sum_hessian":[1.9783E4,1.057E4,9.213E3,5.827E3,4.743E3,7.108E3,2.105E3,2.187E3,3.64E3,3.624E3,1.119E3,3.134E3,3.974E3,1.837E3,2.68E2],"tree_param":{"num_deleted":"0","num_feature":"41","num_nodes":"15","size_leaf_vector":"1"}},{"base_weights":[2.9562443E-4,-2.8482058E0,3.7518177E0,-5.019922E0,-7.5746536E-1,2.1902072E0,8.39421E0,-6.159529E-2,-3.8605765E-2,-1.4851027E-2,4.864327E-2,-6.249318E-3,3.125783E-2,6.2995106E-2,1.3258038E-1],"categories":[],"categories_nodes":[],"categories_segments":[],"categories_sizes":[],"default_left":[0,0,0,0,0,0,0,0,0,0,0,0,0,0,0],"id":34,"left_children":[1,3,5,7,9,11,13,-1,-1,-1,-1,-1,-1,-1,-1],"loss_changes":[2.1142678E5,5.10586E4,6.188603E4,7.263953E3,2.3450605E4,1.6834414E4,2.1811031E4,0E0,0E0,0E0,0E0,0E0,0E0,0E0,0E0],"parents":[2147483647,0,0,1,1,2,2,3,3,4,4,5,5,6,6],"right_children":[2,4,6,8,10,12,14,-1,-1,-1,-1,-1,-1,-1,-1],"split_conditions":[1.27E1,2E-2,2.82E1,2.818E3,5E0,1.0874E4,1.3E1,-6.159529E-2,-3.8605765E-2,-1.4851027E-2,4.864327E-2,-6.249318E-3,3.125783E-2,6.2995106E-2,1.3258038E-1],"split_indices":[13,18,13,11,33,12,37,0,0,0,0,0,0,0,0],"split_type":[0,0,0,0,0,0,0,0,0,0,0,0,0,0,0],"sum_hessian":[1.9783E4,1.1245E4,8.538E3,5.515E3,5.73E3,6.39E3,2.148E3,2.779E3,2.736E3,5.074E3,6.56E2,1.594E3,4.796E3,1.503E3,6.45E2],"tree_param":{"num_deleted":"0","num_feature":"41","num_nodes":"15","size_leaf_vector":"1"}},{"base_weights":[3.0032214E-4,-2.2372327E0,4.6874647E0,-4.835822E0,-2.3926286E-1,3.1043181E0,8.952845E0,-6.0044263E-2,-3.6180086E-2,-1.685552E-2,2.3383224E-2,1.6413825E-2,5.1075872E-2,7.1043484E-2,1.4719608E-1],"categories":[],"categories_nodes":[],"categories_segments":[],"categories_sizes":[],"default_left":[0,0,0,0,0,0,0,0,0,0,0,0,0,0,0],"id":35,"left_children":[1,3,5,7,9,11,13,-1,-1,-1,-1,-1,-1,-1,-1],"loss_changes":[2.0749884E5,6.952882E4,4.314236E4,8.262375E3,2.8231852E4,1.36601875E4,1.8336938E4,0E0,0E0,0E0,0E0,0E0,0E0,0E0,0E0],"parents":[2147483647,0,0,1,1,2,2,3,3,4,4,5,5,6,6],"right_children":[2,4,6,8,10,12,14,-1,-1,-1,-1,-1,-1,-1,-1],"split_conditions":[1.59E1,2E-2,3.07E1,4.7E0,1E0,5.4E0,2.5E1,-6.0044263E-2,-3.6180086E-2,-1.685552E-2,2.3383224E-2,1.6413825E-2,5.1075872E-2,7.1043484E-2,1.4719608E-1],"split_indices":[13,18,13,15,33,15,33,0,0,0,0,0,0,0,0],"split_type":[0,0,0,0,0,0,0,0,0,0,0,0,0,0,0],"sum_hessian":[1.9783E4,1.3391E4,6.392E3,5.82E3,7.571E3,4.663E3,1.729E3,2.968E3,2.852E3,4.85E3,2.721E3,2.696E3,1.967E3,1.311E3,4.18E2],"tree_param":{"num_deleted":"0","num_feature":"41","num_nodes":"15","size_leaf_vector":"1"}},{"base_weights":[3.0729687E-4,-2.7482927E0,3.7503989E0,-4.603148E0,-6.9440395E-1,2.218022E0,8.35821E0,-6.248422E-2,-3.6575906E-2,-1.5427952E-2,1.997601E-2,2.1199437E-3,3.6677398E-2,7.1558945E-2,1.6496482E-1],"categories":[],"categories_nodes":[],"categories_segments":[],"categories_sizes":[],"default_left":[0,0,0,0,0,0,0,0,0,0,0,0,0,0,0],"id":36,"left_children":[1,3,5,7,9,11,13,-1,-1,-1,-1,-1,-1,-1,-1],"loss_changes":[2.0393394E5,4.3491766E4,5.906707E4,9.309805E3,1.2379393E4,1.8265463E4,2.0312562E4,0E0,0E0,0E0,0E0,0E0,0E0,0E0,0E0],"parents":[2147483647,0,0,1,1,2,2,3,3,4,4,5,5,6,6],"right_children":[2,4,6,8,10,12,14,-1,-1,-1,-1,-1,-1,-1,-1],"split_conditions":[1.1E1,1.3E-1,2.82E1,2E-1,5.3E0,1E0,8.7E0,-6.248422E-2,-3.6575906E-2,-1.5427952E-2,1.997601E-2,2.1199437E-3,3.6677398E-2,7.1558945E-2,1.6496482E-1],"split_indices":[1,18,13,13,15,33,15,0,0,0,0,0,0,0,0],"split_type":[0,0,0,0,0,0,0,0,0,0,0,0,0,0,0],"sum_hessian":[1.9783E4,1.1416E4,8.367E3,5.998E3,5.418E3,6.28E3,2.087E3,2.187E3,3.811E3,4.12E3,1.298E3,2.635E3,3.645E3,1.82E3,2.67E2],"tree_param":{"num_deleted":"0","num_feature":"41","num_nodes":"15","size_leaf_vector":"1"}},{"base_weights":[3.13418E-4,-2.982577E0,3.394137E0,-4.8896837E0,-8.923259E-1,1.8333477E0,7.789336E0,-5.4819424E-2,-2.7161023E-2,-2.1331718E-2,1.8220492E-2,1.3999497E-3,3.424252E-2,5.8069814E-2,1.2899156E-1],"categories":[],"categories_nodes":[],"categories_segments":[],"categories_sizes":[],"default_left":[0,0,0,0,0,0,0,0,0,0,0,0,0,0,0],"id":37,"left_children":[1,3,5,7,9,11,13,-1,-1,-1,-1,-1,-1,-1,-1],"loss_changes":[2.0029156E5,4.1971727E4,6.347483E4,7.0731094E3,1.6928695E4,1.840197E4,2.4489078E4,0E0,0E0,0E0,0E0,0E0,0E0,0E0,0E0],"parents":[2147483647,0,0,1,1,2,2,3,3,4,4,5,5,6,6],"right_children":[2,4,6,8,10,12,14,-1,-1,-1,-1,-1,-1,-1,-1],"split_conditions":[1.18E1,4E-2,2.69E1,5.3E0,1E0,1E0,1.3E1,-5.4819424E-2,-2.7161023E-2,-2.1331718E-2,1.8220492E-2,1.3999497E-3,3.424252E-2,5.8069814E-2,1.2899156E-1],"split_indices":[13,18,13,15,33,33,37,0,0,0,0,0,0,0,0],"split_type":[0,0,0,0,0,0,0,0,0,0,0,0,0,0,0],"sum_hessian":[1.9783E4,1.0529E4,9.254E3,5.505E3,5.024E3,6.83E3,2.424E3,4.325E3,1.18E3,3.448E3,1.576E3,3.309E3,3.521E3,1.748E3,6.76E2],"tree_param":{"num_deleted":"0","num_feature":"41","num_nodes":"15","size_leaf_vector":"1"}},{"base_weights":[3.1710268E-4,-2.9417741E0,3.3757074E0,-4.6015368E0,-9.021367E-1,2.0344822E0,8.486709E0,-5.8432274E-2,-3.4490407E-2,-1.6720517E-2,1.5905814E-2,7.488349E-3,4.713548E-2,7.1566395E-2,1.760901E-1],"categories":[],"categories_nodes":[],"categories_segments":[],"categories_sizes":[],"default_left":[0,0,0,0,0,0,0,0,0,0,0,0,0,0,0],"id":38,"left_children":[1,3,5,7,9,11,13,-1,-1,-1,-1,-1,-1,-1,-1],"loss_changes":[1.9647903E5,3.5782008E4,6.314475E4,8.319969E3,9.107256E3,2.5140105E4,2.3109219E4,0E0,0E0,0E0,0E0,0E0,0E0,0E0,0E0],"parents":[2147483647,0,0,1,1,2,2,3,3,4,4,5,5,6,6],"right_children":[2,4,6,8,10,12,14,-1,-1,-1,-1,-1,-1,-1,-1],"split_conditions":[1E1,1.3E-1,9E0,4.6E0,5.3E0,2.22E1,8.9E0,-5.8432274E-2,-3.4490407E-2,-1.6720517E-2,1.5905814E-2,7.488349E-3,4.713548E-2,7.1566395E-2,1.760901E-1],"split_indices":[1,18,33,15,15,13,15,0,0,0,0,0,0,0,0],"split_type":[0,0,0,0,0,0,0,0,0,0,0,0,0,0,0],"sum_hessian":[1.9783E4,1.057E4,9.213E3,5.827E3,4.743E3,7.299E3,1.914E3,2.803E3,3.024E3,3.624E3,1.119E3,4.933E3,2.366E3,1.672E3,2.42E2],"tree_param":{"num_deleted":"0","num_feature":"41","num_nodes":"15","size_leaf_vector":"1"}},{"base_weights":[3.2463003E-4,-2.1581576E0,4.521894E0,-4.6597476E0,-2.3476721E-1,3.9280982E0,1.5214434E1,-5.7950478E-2,-3.4766536E-2,-9.01268E-3,5.0935596E-2,1.9012904E-2,5.910598E-2,6.863615E-2,1.857496E-1],"categories":[],"categories_nodes":[],"categories_segments":[],"categories_sizes":[],"default_left":[0,0,0,0,0,0,0,0,0,0,0,0,0,0,0],"id":39,"left_children":[1,3,5,7,9,11,13,-1,-1,-1,-1,-1,-1,-1,-1],"loss_changes":[1.9309622E5,6.4434977E4,4.0530586E4,7.7984062E3,2.6895291E4,2.4330703E4,9.301727E3,0E0,0E0,0E0,0E0,0E0,0E0,0E0,0E0],"parents":[2147483647,0,0,1,1,2,2,3,3,4,4,5,5,6,6],"right_children":[2,4,6,8,10,12,14,-1,-1,-1,-1,-1,-1,-1,-1],"split_conditions":[1.59E1,2E-2,8.7E0,4.7E0,6E0,5.4E0,1.3E1,-5.7950478E-2,-3.4766536E-2,-9.01268E-3,5.0935596E-2,1.9012904E-2,5.910598E-2,6.863615E-2,1.857496E-1],"split_indices":[13,18,15,15,33,15,34,0,0,0,0,0,0,0,0],"split_type":[0,0,0,0,0,0,0,0,0,0,0,0,0,0,0],"sum_hessian":[1.9783E4,1.3391E4,6.392E3,5.82E3,7.571E3,6.057E3,3.35E2,2.968E3,2.852E3,6.73E3,8.41E2,2.996E3,3.061E3,9.7E1,2.38E2],"tree_param":{"num_deleted":"0","num_feature":"41","num_nodes":"15","size_leaf_vector":"1"}},{"base_weights":[3.353673E-4,-2.902146E0,3.3026724E0,-4.751417E0,-8.752825E-1,1.7822474E0,7.5842066E0,-5.8458395E-2,-3.610207E-2,-2.0928651E-2,1.788204E-2,1.251887E-3,3.3390563E-2,5.6483857E-2,1.2574111E-1],"categories":[],"categories_nodes":[],"categories_segments":[],"categories_sizes":[],"default_left":[0,0,0,0,0,0,0,0,0,0,0,0,0,0,0],"id":40,"left_children":[1,3,5,7,9,11,13,-1,-1,-1,-1,-1,-1,-1,-1],"loss_changes":[1.8963866E5,3.94646E4,6.0234234E4,6.8556875E3,1.6299895E4,1.7621674E4,2.3353422E4,0E0,0E0,0E0,0E0,0E0,0E0,0E0,0E0],"parents":[2147483647,0,0,1,1,2,2,3,3,4,4,5,5,6,6],"right_children":[2,4,6,8,10,12,14,-1,-1,-1,-1,-1,-1,-1,-1],"split_conditions":[1.18E1,4E-2,2.69E1,2.818E3,1E0,1E0,1.3E1,-5.8458395E-2,-3.610207E-2,-2.0928651E-2,1.788204E-2,1.251887E-3,3.3390563E-2,5.6483857E-2,1.2574111E-1],"split_indices":[13,18,13,11,33,33,37,0,0,0,0,0,0,0,0],"split_type":[0,0,0,0,0,0,0,0,0,0,0,0,0,0,0],"sum_hessian":[1.9783E4,1.0529E4,9.254E3,5.505E3,5.024E3,6.83E3,2.424E3,2.808E3,2.697E3,3.448E3,1.576E3,3.309E3,3.521E3,1.748E3,6.76E2],"tree_param":{"num_deleted":"0","num_feature":"41","num_nodes":"15","size_leaf_vector":"1"}},{"base_weights":[3.3782818E-4,-2.6263635E0,3.5841153E0,-4.3868117E0,-6.7700833E-1,2.2198882E0,8.339798E0,-5.9894532E-2,-3.4657817E-2,-1.49951205E-2,1.9328566E-2,8.981782E-3,4.6288658E-2,7.027656E-2,1.7110786E-1],"categories":[],"categories_nodes":[],"categories_segments":[],"categories_sizes":[],"default_left":[0,0,0,0,0,0,0,0,0,0,0,0,0,0,0],"id":41,"left_children":[1,3,5,7,9,11,13,-1,-1,-1,-1,-1,-1,-1,-1],"loss_changes":[1.8624638E5,3.9177195E4,5.4271656E4,8.83425E3,1.1635451E4,2.070438E4,2.1343633E4,0E0,0E0,0E0,0E0,0E0,0E0,0E0,0E0],"parents":[2147483647,0,0,1,1,2,2,3,3,4,4,5,5,6,6],"right_children":[2,4,6,8,10,12,14,-1,-1,-1,-1,-1,-1,-1,-1],"split_conditions":[1.1E1,1.3E-1,9E0,2E-1,5.3E0,2.22E1,8.9E0,-5.9894532E-2,-3.4657817E-2,-1.49951205E-2,1.9328566E-2,8.981782E-3,4.6288658E-2,7.027656E-2,1.7110786E-1],"split_indices":[1,18,33,13,15,13,15,0,0,0,0,0,0,0,0],"split_type":[0,0,0,0,0,0,0,0,0,0,0,0,0,0,0],"sum_hessian":[1.9783E4,1.1416E4,8.367E3,5.998E3,5.418E3,6.503E3,1.864E3,2.187E3,3.811E3,4.12E3,1.298E3,4.2E3,2.303E3,1.623E3,2.41E2],"tree_param":{"num_deleted":"0","num_feature":"41","num_nodes":"15","size_leaf_vector":"1"}},{"base_weights":[3.449347E-4,-2.8492985E0,3.2425647E0,-4.661645E0,-8.629047E-1,1.7504022E0,7.444511E0,-5.2401155E-2,-2.5387596E-2,-2.0631462E-2,1.7626477E-2,1.1949345E-3,3.2826446E-2,5.540875E-2,1.2351474E-1],"categories":[],"categories_nodes":[],"categories_segments":[],"categories_sizes":[],"default_left":[0,0,0,0,0,0,0,0,0,0,0,0,0,0,0],"id":42,"left_children":[1,3,5,7,9,11,13,-1,-1,-1,-1,-1,-1,-1,-1],"loss_changes":[1.8279698E5,3.790433E4,5.801568E4,6.7482188E3,1.5838909E4,1.7069922E4,2.2583672E4,0E0,0E0,0E0,0E0,0E0,0E0,0E0,0E0],"parents":[2147483647,0,0,1,1,2,2,3,3,4,4,5,5,6,6],"right_children":[2,4,6,8,10,12,14,-1,-1,-1,-1,-1,-1,-1,-1],"split_conditions":[1.18E1,4E-2,2.69E1,5.3E0,1E0,1E0,1.3E1,-5.2401155E-2,-2.5387596E-2,-2.0631462E-2,1.7626477E-2,1.1949345E-3,3.2826446E-2,5.540875E-2,1.2351474E-1],"split_indices":[13,18,13,15,33,33,37,0,0,0,0,0,0,0,0],"split_type":[0,0,0,0,0,0,0,0,0,0,0,0,0,0,0],"sum_hessian":[1.9783E4,1.0529E4,9.254E3,5.505E3,5.024E3,6.83E3,2.424E3,4.325E3,1.18E3,3.448E3,1.576E3,3.309E3,3.521E3,1.748E3,6.76E2],"tree_param":{"num_deleted":"0","num_feature":"41","num_nodes":"15","size_leaf_vector":"1"}},{"base_weights":[3.483011E-4,-2.811287E0,3.2260695E0,-4.3849187E0,-8.7748903E-1,1.940234E0,8.126003E0,-5.8832444E-2,-3.4833193E-2,-1.6229777E-2,1.5361481E-2,7.1367635E-3,4.4961672E-2,6.850563E-2,1.6873682E-1],"categories":[],"categories_nodes":[],"categories_segments":[],"categories_sizes":[],"default_left":[0,0,0,0,0,0,0,0,0,0,0,0,0,0,0],"id":43,"left_children":[1,3,5,7,9,11,13,-1,-1,-1,-1,-1,-1,-1,-1],"loss_changes":[1.7944106E5,3.216461E4,5.8037117E4,7.852492E3,8.538558E3,2.2882291E4,2.1250336E4,0E0,0E0,0E0,0E0,0E0,0E0,0E0,0E0],"parents":[2147483647,0,0,1,1,2,2,3,3,4,4,5,5,6,6],"right_children":[2,4,6,8,10,12,14,-1,-1,-1,-1,-1,-1,-1,-1],"split_conditions":[1E1,1.3E-1,9E0,2E-1,5.3E0,2.22E1,8.9E0,-5.8832444E-2,-3.4833193E-2,-1.6229777E-2,1.5361481E-2,7.1367635E-3,4.4961672E-2,6.850563E-2,1.6873682E-1],"split_indices":[1,18,33,13,15,13,15,0,0,0,0,0,0,0,0],"split_type":[0,0,0,0,0,0,0,0,0,0,0,0,0,0,0],"sum_hessian":[1.9783E4,1.057E4,9.213E3,5.827E3,4.743E3,7.299E3,1.914E3,2.187E3,3.64E3,3.624E3,1.119E3,4.933E3,2.366E3,1.672E3,2.42E2],"tree_param":{"num_deleted":"0","num_feature":"41","num_nodes":"15","size_leaf_vector":"1"}},{"base_weights":[3.5460744E-4,-2.0625625E0,4.3217354E0,-4.447821E0,-2.2861482E-1,3.750349E0,1.4610827E1,-5.557207E-2,-3.2917697E-2,-8.728161E-3,4.921442E-2,1.7894259E-2,5.668421E-2,6.734781E-2,1.7919599E-1],"categories":[],"categories_nodes":[],"categories_segments":[],"categories_sizes":[],"default_left":[0,0,0,0,0,0,0,0,0,0,0,0,0,0,0],"id":44,"left_children":[1,3,5,7,9,11,13,-1,-1,-1,-1,-1,-1,-1,-1],"loss_changes":[1.7637636E5,5.8581473E4,3.7529945E4,7.4471953E3,2.512572E4,2.2775156E4,8.635477E3,0E0,0E0,0E0,0E0,0E0,0E0,0E0,0E0],"parents":[2147483647,0,0,1,1,2,2,3,3,4,4,5,5,6,6],"right_children":[2,4,6,8,10,12,14,-1,-1,-1,-1,-1,-1,-1,-1],"split_conditions":[1.59E1,2E-2,8.7E0,4.7E0,6E0,5.4E0,1.3E1,-5.557207E-2,-3.2917697E-2,-8.728161E-3,4.921442E-2,1.7894259E-2,5.668421E-2,6.734781E-2,1.7919599E-1],"split_indices":[13,18,15,15,33,15,37,0,0,0,0,0,0,0,0],"split_type":[0,0,0,0,0,0,0,0,0,0,0,0,0,0,0],"sum_hessian":[1.9783E4,1.3391E4,6.392E3,5.82E3,7.571E3,6.057E3,3.35E2,2.968E3,2.852E3,6.73E3,8.41E2,2.996E3,3.061E3,1E2,2.35E2],"tree_param":{"num_deleted":"0","num_feature":"41","num_nodes":"15","size_leaf_vector":"1"}},{"base_weights":[3.64898E-4,-2.531836E0,3.4552093E0,-4.502453E0,-9.036946E-1,2.1376863E0,8.048085E0,-4.9809933E-2,-1.6341787E-2,-1.7422918E-2,1.09157665E-2,-2.9642846E-2,2.7338924E-2,6.783294E-2,1.6502516E-1],"categories":[],"categories_nodes":[],"categories_segments":[],"categories_sizes":[],"default_left":[0,0,0,0,0,0,0,0,0,0,0,0,0,0,0],"id":45,"left_children":[1,3,5,7,9,11,13,-1,-1,-1,-1,-1,-1,-1,-1],"loss_changes":[1.7308631E5,3.6626727E4,5.061939E4,7.0812656E3,1.0464603E4,1.9792145E4,1.983068E4,0E0,0E0,0E0,0E0,0E0,0E0,0E0,0E0],"parents":[2147483647,0,0,1,1,2,2,3,3,4,4,5,5,6,6],"right_children":[2,4,6,8,10,12,14,-1,-1,-1,-1,-1,-1,-1,-1],"split_conditions":[1.1E1,4.4E0,9E0,5.5E0,5.7207E4,3E-2,8.9E0,-4.9809933E-2,-1.6341787E-2,-1.7422918E-2,1.09157665E-2,-2.9642846E-2,2.7338924E-2,6.783294E-2,1.6502516E-1],"split_indices":[1,13,33,15,12,18,15,0,0,0,0,0,0,0,0],"split_type":[0,0,0,0,0,0,0,0,0,0,0,0,0,0,0],"sum_hessian":[1.9783E4,1.1416E4,8.367E3,5.164E3,6.252E3,6.503E3,1.864E3,4.425E3,7.39E2,4.402E3,1.85E3,6.8E2,5.823E3,1.623E3,2.41E2],"tree_param":{"num_deleted":"0","num_feature":"41","num_nodes":"15","size_leaf_vector":"1"}},{"base_weights":[3.692586E-4,-2.556063E0,3.3672314E0,-4.4855E0,-6.9856346E-1,1.9633167E0,7.5408244E0,-5.5618204E-2,-3.3906303E-2,-1.3729892E-2,4.5121048E-2,-6.747069E-3,2.8400486E-2,6.3094735E-2,1.4357838E-1],"categories":[],"categories_nodes":[],"categories_segments":[],"categories_sizes":[],"default_left":[0,0,0,0,0,0,0,0,0,0,0,0,0,0,0],"id":46,"left_children":[1,3,5,7,9,11,13,-1,-1,-1,-1,-1,-1,-1,-1],"loss_changes":[1.7029256E5,4.0301727E4,5.0018344E4,6.481367E3,2.0146127E4,1.4783273E4,1.7948406E4,0E0,0E0,0E0,0E0,0E0,0E0,0E0,0E0],"parents":[2147483647,0,0,1,1,2,2,3,3,4,4,5,5,6,6],"right_children":[2,4,6,8,10,12,14,-1,-1,-1,-1,-1,-1,-1,-1],"split_conditions":[1.27E1,2E-2,2.82E1,2.818E3,5E0,1.0874E4,8.4E0,-5.5618204E-2,-3.3906303E-2,-1.3729892E-2,4.5121048E-2,-6.747069E-3,2.8400486E-2,6.3094735E-2,1.4357838E-1],"split_indices":[13,18,13,11,33,12,15,0,0,0,0,0,0,0,0],"split_type":[0,0,0,0,0,0,0,0,0,0,0,0,0,0,0],"sum_hessian":[1.9783E4,1.1245E4,8.538E3,5.515E3,5.73E3,6.39E3,2.148E3,2.779E3,2.736E3,5.074E3,6.56E2,1.594E3,4.796E3,1.821E3,3.27E2],"tree_param":{"num_deleted":"0","num_feature":"41","num_nodes":"15","size_leaf_vector":"1"}},{"base_weights":[3.7418935E-4,-2.0078547E0,4.207194E0,-4.3286176E0,-2.2349513E-1,3.4922187E0,1.2045298E1,-5.4176472E-2,-3.193792E-2,-8.5103605E-3,4.7933716E-2,1.712202E-2,5.3010482E-2,8.293092E-2,1.7006561E-1],"categories":[],"categories_nodes":[],"categories_segments":[],"categories_sizes":[],"default_left":[0,0,0,0,0,0,0,0,0,0,0,0,0,0,0],"id":47,"left_children":[1,3,5,7,9,11,13,-1,-1,-1,-1,-1,-1,-1,-1],"loss_changes":[1.6714877E5,5.5456316E4,3.5784633E4,7.176633E3,2.3842926E4,1.885864E4,9.799742E3,0E0,0E0,0E0,0E0,0E0,0E0,0E0,0E0],"parents":[2147483647,0,0,1,1,2,2,3,3,4,4,5,5,6,6],"right_children":[2,4,6,8,10,12,14,-1,-1,-1,-1,-1,-1,-1,-1],"split_conditions":[1.59E1,2E-2,2.5E1,4.7E0,6E0,5.4E0,8.2E0,-5.4176472E-2,-3.193792E-2,-8.5103605E-3,4.7933716E-2,1.712202E-2,5.3010482E-2,8.293092E-2,1.7006561E-1],"split_indices":[13,18,33,15,33,15,15,0,0,0,0,0,0,0,0],"split_type":[0,0,0,0,0,0,0,0,0,0,0,0,0,0,0],"sum_hessian":[1.9783E4,1.3391E4,6.392E3,5.82E3,7.571E3,5.859E3,5.33E2,2.968E3,2.852E3,6.73E3,8.41E2,2.954E3,2.905E3,3.05E2,2.28E2],"tree_param":{"num_deleted":"0","num_feature":"41","num_nodes":"15","size_leaf_vector":"1"}},{"base_weights":[3.8433162E-4,-2.69884E0,3.0714626E0,-4.407404E0,-8.2619244E-1,1.7606881E0,7.404922E0,-4.9677055E-2,-2.3512887E-2,-1.983201E-2,1.7047834E-2,1.7090829E-3,3.2162976E-2,5.5875957E-2,1.1887831E-1],"categories":[],"categories_nodes":[],"categories_segments":[],"categories_sizes":[],"default_left":[0,0,0,0,0,0,0,0,0,0,0,0,0,0,0],"id":48,"left_children":[1,3,5,7,9,11,13,-1,-1,-1,-1,-1,-1,-1,-1],"loss_changes":[1.6400834E5,3.3687508E4,5.255711E4,6.3314688E3,1.4718392E4,1.6445748E4,1.744129E4,0E0,0E0,0E0,0E0,0E0,0E0,0E0,0E0],"parents":[2147483647,0,0,1,1,2,2,3,3,4,4,5,5,6,6],"right_children":[2,4,6,8,10,12,14,-1,-1,-1,-1,-1,-1,-1,-1],"split_conditions":[1.18E1,4E-2,2.82E1,5.3E0,1E0,1E0,1.4E1,-4.9677055E-2,-2.3512887E-2,-1.983201E-2,1.7047834E-2,1.7090829E-3,3.2162976E-2,5.5875957E-2,1.1887831E-1],"split_indices":[13,18,13,15,33,33,37,0,0,0,0,0,0,0,0],"split_type":[0,0,0,0,0,0,0,0,0,0,0,0,0,0,0],"sum_hessian":[1.9783E4,1.0529E4,9.254E3,5.505E3,5.024E3,7.106E3,2.148E3,4.325E3,1.18E3,3.448E3,1.576E3,3.397E3,3.709E3,1.53E3,6.18E2],"tree_param":{"num_deleted":"0","num_feature":"41","num_nodes":"15","size_leaf_vector":"1"}},{"base_weights":[3.871084E-4,-2.443176E0,3.3342972E0,-4.3477573E0,-8.6959434E-1,2.0582201E0,7.7826996E0,-4.816323E-2,-1.5393519E-2,-1.682943E-2,1.06559945E-2,-2.9385304E-2,2.6421364E-2,6.558988E-2,1.596255E-1],"categories":[],"categories_nodes":[],"categories_segments":[],"categories_sizes":[],"default_left":[0,0,0,0,0,0,0,0,0,0,0,0,0,0,0],"id":49,"left_children":[1,3,5,7,9,11,13,-1,-1,-1,-1,-1,-1,-1,-1],"loss_changes":[1.6118088E5,3.4213133E4,4.7484977E4,6.789328E3,9.843936E3,1.8984387E4,1.8563531E4,0E0,0E0,0E0,0E0,0E0,0E0,0E0,0E0],"parents":[2147483647,0,0,1,1,2,2,3,3,4,4,5,5,6,6],"right_children":[2,4,6,8,10,12,14,-1,-1,-1,-1,-1,-1,-1,-1],"split_conditions":[1.1E1,4.4E0,9E0,5.5E0,5.7207E4,3E-2,8.9E0,-4.816323E-2,-1.5393519E-2,-1.682943E-2,1.06559945E-2,-2.9385304E-2,2.6421364E-2,6.558988E-2,1.596255E-1],"split_indices":[1,13,33,15,12,18,15,0,0,0,0,0,0,0,0],"split_type":[0,0,0,0,0,0,0,0,0,0,0,0,0,0,0],"sum_hessian":[1.9783E4,1.1416E4,8.367E3,5.164E3,6.252E3,6.503E3,1.864E3,4.425E3,7.39E2,4.402E3,1.85E3,6.8E2,5.823E3,1.623E3,2.41E2],"tree_param":{"num_deleted":"0","num_feature":"41","num_nodes":"15","size_leaf_vector":"1"}},{"base_weights":[3.910136E-4,-1.9549686E0,4.096461E0,-4.2131987E0,-2.186886E-1,2.6557348E0,7.794076E0,-5.277116E-2,-3.1045472E-2,-8.31833E-3,4.683086E-2,-2.9465996E-3,3.448933E-2,5.9524428E-2,1.2991445E-1],"categories":[],"categories_nodes":[],"categories_segments":[],"categories_sizes":[],"default_left":[0,0,0,0,0,0,0,0,0,0,0,0,0,0,0],"id":50,"left_children":[1,3,5,7,9,11,13,-1,-1,-1,-1,-1,-1,-1,-1],"loss_changes":[1.5846381E5,5.250803E4,3.403642E4,6.8495625E3,2.276151E4,1.0770834E4,1.7075062E4,0E0,0E0,0E0,0E0,0E0,0E0,0E0,0E0],"parents":[2147483647,0,0,1,1,2,2,3,3,4,4,5,5,6,6],"right_children":[2,4,6,8,10,12,14,-1,-1,-1,-1,-1,-1,-1,-1],"split_conditions":[1.59E1,2E-2,6.4E0,4.7E0,6E0,1.0024E4,2.3E1,-5.277116E-2,-3.1045472E-2,-8.31833E-3,4.683086E-2,-2.9465996E-3,3.448933E-2,5.9524428E-2,1.2991445E-1],"split_indices":[13,18,15,15,33,12,33,0,0,0,0,0,0,0,0],"split_type":[0,0,0,0,0,0,0,0,0,0,0,0,0,0,0],"sum_hessian":[1.9783E4,1.3391E4,6.392E3,5.82E3,7.571E3,4.601E3,1.791E3,2.968E3,2.852E3,6.73E3,8.41E2,9.75E2,3.626E3,1.324E3,4.67E2],"tree_param":{"num_deleted":"0","num_feature":"41","num_nodes":"15","size_leaf_vector":"1"}},{"base_weights":[3.960081E-4,-2.6166677E0,3.00289E0,-3.744505E0,-2.3579371E-1,1.8011879E0,7.582224E0,-5.114341E-2,-2.6797323E-2,-1.1045055E-2,1.9982845E-2,6.444999E-3,4.211537E-2,6.3938715E-2,1.5732561E-1],"categories":[],"categories_nodes":[],"categories_segments":[],"categories_sizes":[],"default_left":[0,0,0,0,0,0,0,0,0,0,0,0,0,0,0],"id":51,"left_children":[1,3,5,7,9,11,13,-1,-1,-1,-1,-1,-1,-1,-1],"loss_changes":[1.5546497E5,2.8384758E4,5.0690953E4,1.0448578E4,6.5988853E3,2.0349846E4,1.8447086E4,0E0,0E0,0E0,0E0,0E0,0E0,0E0,0E0],"parents":[2147483647,0,0,1,1,2,2,3,3,4,4,5,5,6,6],"right_children":[2,4,6,8,10,12,14,-1,-1,-1,-1,-1,-1,-1,-1],"split_conditions":[1E1,1E-2,9E0,2.17E3,5.3E0,2.22E1,8.9E0,-5.114341E-2,-2.6797323E-2,-1.1045055E-2,1.9982845E-2,6.444999E-3,4.211537E-2,6.3938715E-2,1.5732561E-1],"split_indices":[1,17,33,11,15,13,15,0,0,0,0,0,0,0,0],"split_type":[0,0,0,0,0,0,0,0,0,0,0,0,0,0,0],"sum_hessian":[1.9783E4,1.057E4,9.213E3,7.172E3,3.398E3,7.299E3,1.914E3,3.135E3,4.037E3,2.447E3,9.51E2,4.933E3,2.366E3,1.672E3,2.42E2],"tree_param":{"num_deleted":"0","num_feature":"41","num_nodes":"15","size_leaf_vector":"1"}},{"base_weights":[4.0226526E-4,-2.6042523E0,2.963883E0,-4.253062E0,-7.9709834E-1,1.5881258E0,6.8380404E0,-5.2802205E-2,-3.1820673E-2,-1.9223403E-2,1.6643833E-2,6.8882824E-4,3.01547E-2,5.081828E-2,1.1365037E-1],"categories":[],"categories_nodes":[],"categories_segments":[],"categories_sizes":[],"default_left":[0,0,0,0,0,0,0,0,0,0,0,0,0,0,0],"id":52,"left_children":[1,3,5,7,9,11,13,-1,-1,-1,-1,-1,-1,-1,-1],"loss_changes":[1.5271731E5,3.1372352E4,4.931736E4,6.04025E3,1.3921258E4,1.4812697E4,1.922189E4,0E0,0E0,0E0,0E0,0E0,0E0,0E0,0E0],"parents":[2147483647,0,0,1,1,2,2,3,3,4,4,5,5,6,6],"right_children":[2,4,6,8,10,12,14,-1,-1,-1,-1,-1,-1,-1,-1],"split_conditions":[1.18E1,4E-2,2.69E1,2.818E3,1E0,1E0,1.3E1,-5.2802205E-2,-3.1820673E-2,-1.9223403E-2,1.6643833E-2,6.8882824E-4,3.01547E-2,5.081828E-2,1.1365037E-1],"split_indices":[13,18,13,11,33,33,37,0,0,0,0,0,0,0,0],"split_type":[0,0,0,0,0,0,0,0,0,0,0,0,0,0,0],"sum_hessian":[1.9783E4,1.0529E4,9.254E3,5.505E3,5.024E3,6.83E3,2.424E3,2.808E3,2.697E3,3.448E3,1.576E3,3.309E3,3.521E3,1.748E3,6.76E2],"tree_param":{"num_deleted":"0","num_feature":"41","num_nodes":"15","size_leaf_vector":"1"}},{"base_weights":[4.0368098E-4,-1.8373337E0,4.123262E0,-4.0927763E0,-1.527858E-1,3.4132848E0,1.1656043E1,-5.153746E-2,-2.9949946E-2,-7.5749545E-3,4.6090476E-2,1.6253484E-2,5.140125E-2,8.105262E-2,1.6210304E-1],"categories":[],"categories_nodes":[],"categories_segments":[],"categories_sizes":[],"default_left":[0,0,0,0,0,0,0,0,0,0,0,0,0,0,0],"id":53,"left_children":[1,3,5,7,9,11,13,-1,-1,-1,-1,-1,-1,-1,-1],"loss_changes":[1.4990562E5,5.1994188E4,3.2583633E4,6.799297E3,2.2564584E4,1.7207445E4,8.358477E3,0E0,0E0,0E0,0E0,0E0,0E0,0E0,0E0],"parents":[2147483647,0,0,1,1,2,2,3,3,4,4,5,5,6,6],"right_children":[2,4,6,8,10,12,14,-1,-1,-1,-1,-1,-1,-1,-1],"split_conditions":[1.64E1,2E-2,2.5E1,4.7E0,6E0,5.4E0,8.2E0,-5.153746E-2,-2.9949946E-2,-7.5749545E-3,4.6090476E-2,1.6253484E-2,5.140125E-2,8.105262E-2,1.6210304E-1],"split_indices":[13,18,33,15,33,15,15,0,0,0,0,0,0,0,0],"split_type":[0,0,0,0,0,0,0,0,0,0,0,0,0,0,0],"sum_hessian":[1.9783E4,1.3684E4,6.099E3,5.85E3,7.834E3,5.575E3,5.24E2,2.973E3,2.877E3,6.952E3,8.82E2,2.74E3,2.835E3,2.96E2,2.28E2],"tree_param":{"num_deleted":"0","num_feature":"41","num_nodes":"15","size_leaf_vector":"1"}},{"base_weights":[4.1318138E-4,-2.33533E0,3.1872177E0,-4.1647873E0,-8.238184E-1,1.8708571E0,7.1454906E0,-4.6233695E-2,-1.4163406E-2,-1.6105074E-2,1.0479352E-2,-2.5382351E-2,2.3995519E-2,5.751084E-2,1.2310382E-1],"categories":[],"categories_nodes":[],"categories_segments":[],"categories_sizes":[],"default_left":[0,0,0,0,0,0,0,0,0,0,0,0,0,0,0],"id":54,"left_children":[1,3,5,7,9,11,13,-1,-1,-1,-1,-1,-1,-1,-1],"loss_changes":[1.4727078E5,3.1567383E4,4.358821E4,6.5033594E3,9.209156E3,1.46475E4,1.4966891E4,0E0,0E0,0E0,0E0,0E0,0E0,0E0,0E0],"parents":[2147483647,0,0,1,1,2,2,3,3,4,4,5,5,6,6],"right_children":[2,4,6,8,10,12,14,-1,-1,-1,-1,-1,-1,-1,-1],"split_conditions":[1.1E1,4.4E0,2.82E1,5.5E0,5.7207E4,2E-2,2.5E1,-4.6233695E-2,-1.4163406E-2,-1.6105074E-2,1.0479352E-2,-2.5382351E-2,2.3995519E-2,5.751084E-2,1.2310382E-1],"split_indices":[1,13,13,15,12,18,33,0,0,0,0,0,0,0,0],"split_type":[0,0,0,0,0,0,0,0,0,0,0,0,0,0,0],"sum_hessian":[1.9783E4,1.1416E4,8.367E3,5.164E3,6.252E3,6.28E3,2.087E3,4.425E3,7.39E2,4.402E3,1.85E3,6.72E2,5.608E3,1.645E3,4.42E2],"tree_param":{"num_deleted":"0","num_feature":"41","num_nodes":"15","size_leaf_vector":"1"}},{"base_weights":[4.1475217E-4,-2.3549848E0,3.1025136E0,-4.0971375E0,-6.151993E-1,1.8042104E0,6.962147E0,-4.6418846E-2,-2.1187764E-2,-1.2505071E-2,4.2522047E-2,-7.6452517E-3,2.6170513E-2,5.8149416E-2,1.3313508E-1],"categories":[],"categories_nodes":[],"categories_segments":[],"categories_sizes":[],"default_left":[0,0,0,0,0,0,0,0,0,0,0,0,0,0,0],"id":55,"left_children":[1,3,5,7,9,11,13,-1,-1,-1,-1,-1,-1,-1,-1],"loss_changes":[1.445627E5,3.40838E4,4.2776164E4,6.045789E3,1.7408781E4,1.334624E4,1.5580875E4,0E0,0E0,0E0,0E0,0E0,0E0,0E0,0E0],"parents":[2147483647,0,0,1,1,2,2,3,3,4,4,5,5,6,6],"right_children":[2,4,6,8,10,12,14,-1,-1,-1,-1,-1,-1,-1,-1],"split_conditions":[1.27E1,4E-2,2.82E1,5.3E0,5E0,1.0248E4,8.4E0,-4.6418846E-2,-2.1187764E-2,-1.2505071E-2,4.2522047E-2,-7.6452517E-3,2.6170513E-2,5.8149416E-2,1.3313508E-1],"split_indices":[13,18,13,15,33,12,15,0,0,0,0,0,0,0,0],"split_type":[0,0,0,0,0,0,0,0,0,0,0,0,0,0,0],"sum_hessian":[1.9783E4,1.1245E4,8.538E3,5.618E3,5.627E3,6.39E3,2.148E3,4.404E3,1.214E3,4.978E3,6.49E2,1.536E3,4.854E3,1.821E3,3.27E2],"tree_param":{"num_deleted":"0","num_feature":"41","num_nodes":"15","size_leaf_vector":"1"}},{"base_weights":[4.194599E-4,-2.5002096E0,2.869331E0,-3.5846946E0,-2.1085642E-1,1.712408E0,7.2780347E0,-4.9080312E-2,-2.5560744E-2,-1.0586588E-2,1.9694285E-2,2.8521974E-2,-5.74445E-3,6.1345577E-2,1.5120663E-1],"categories":[],"categories_nodes":[],"categories_segments":[],"categories_sizes":[],"default_left":[0,0,0,0,0,0,0,0,0,0,0,0,0,0,0],"id":56,"left_children":[1,3,5,7,9,11,13,-1,-1,-1,-1,-1,-1,-1,-1],"loss_changes":[1.4193925E5,2.6244594E4,4.698382E4,9.751422E3,6.284969E3,1.9029314E4,1.7080703E4,0E0,0E0,0E0,0E0,0E0,0E0,0E0,0E0],"parents":[2147483647,0,0,1,1,2,2,3,3,4,4,5,5,6,6],"right_children":[2,4,6,8,10,12,14,-1,-1,-1,-1,-1,-1,-1,-1],"split_conditions":[1E1,1E-2,9E0,2.17E3,5.3E0,1E0,8.9E0,-4.9080312E-2,-2.5560744E-2,-1.0586588E-2,1.9694285E-2,2.8521974E-2,-5.74445E-3,6.1345577E-2,1.5120663E-1],"split_indices":[1,17,33,11,15,38,15,0,0,0,0,0,0,0,0],"split_type":[0,0,0,0,0,0,0,0,0,0,0,0,0,0,0],"sum_hessian":[1.9783E4,1.057E4,9.213E3,7.172E3,3.398E3,7.299E3,1.914E3,3.135E3,4.037E3,2.447E3,9.51E2,4.871E3,2.428E3,1.672E3,2.42E2],"tree_param":{"num_deleted":"0","num_feature":"41","num_nodes":"15","size_leaf_vector":"1"}},{"base_weights":[4.2365064E-4,-1.8349435E0,3.8451345E0,-3.9573016E0,-2.031314E-1,2.4764109E0,7.357981E0,-4.9798746E-2,-2.8917648E-2,-1.44620305E-2,2.0122778E-2,-3.6375937E-3,3.2399975E-2,5.1374E-2,1.1186325E-1],"categories":[],"categories_nodes":[],"categories_segments":[],"categories_sizes":[],"default_left":[0,0,0,0,0,0,0,0,0,0,0,0,0,0,0],"id":57,"left_children":[1,3,5,7,9,11,13,-1,-1,-1,-1,-1,-1,-1,-1],"loss_changes":[1.3961198E5,4.637957E4,3.072007E4,6.3280938E3,2.0855537E4,9.981613E3,1.5176586E4,0E0,0E0,0E0,0E0,0E0,0E0,0E0,0E0],"parents":[2147483647,0,0,1,1,2,2,3,3,4,4,5,5,6,6],"right_children":[2,4,6,8,10,12,14,-1,-1,-1,-1,-1,-1,-1,-1],"split_conditions":[1.59E1,2E-2,6.4E0,4.7E0,1E0,1.0024E4,1.5E1,-4.9798746E-2,-2.8917648E-2,-1.44620305E-2,2.0122778E-2,-3.6375937E-3,3.2399975E-2,5.1374E-2,1.1186325E-1],"split_indices":[13,18,15,15,33,12,33,0,0,0,0,0,0,0,0],"split_type":[0,0,0,0,0,0,0,0,0,0,0,0,0,0,0],"sum_hessian":[1.9783E4,1.3391E4,6.392E3,5.82E3,7.571E3,4.601E3,1.791E3,2.968E3,2.852E3,4.85E3,2.721E3,9.75E2,3.626E3,1.135E3,6.56E2],"tree_param":{"num_deleted":"0","num_feature":"41","num_nodes":"15","size_leaf_vector":"1"}},{"base_weights":[4.254475E-4,-2.4659665E0,2.8065958E0,-4.023714E0,-7.586185E-1,1.5009664E0,6.483275E0,-5.0190113E-2,-2.9859768E-2,-1.8377531E-2,1.601999E-2,4.1788328E-4,2.8718859E-2,4.8102267E-2,1.0795945E-1],"categories":[],"categories_nodes":[],"categories_segments":[],"categories_sizes":[],"default_left":[0,0,0,0,0,0,0,0,0,0,0,0,0,0,0],"id":58,"left_children":[1,3,5,7,9,11,13,-1,-1,-1,-1,-1,-1,-1,-1],"loss_changes":[1.3693428E5,2.8002715E4,4.441779E4,5.671914E3,1.2803751E4,1.366472E4,1.7445188E4,0E0,0E0,0E0,0E0,0E0,0E0,0E0,0E0],"parents":[2147483647,0,0,1,1,2,2,3,3,4,4,5,5,6,6],"right_children":[2,4,6,8,10,12,14,-1,-1,-1,-1,-1,-1,-1,-1],"split_conditions":[1.18E1,4E-2,2.69E1,2.818E3,1E0,1E0,1.3E1,-5.0190113E-2,-2.9859768E-2,-1.8377531E-2,1.601999E-2,4.1788328E-4,2.8718859E-2,4.8102267E-2,1.0795945E-1],"split_indices":[13,18,13,11,33,33,37,0,0,0,0,0,0,0,0],"split_type":[0,0,0,0,0,0,0,0,0,0,0,0,0,0,0],"sum_hessian":[1.9783E4,1.0529E4,9.254E3,5.505E3,5.024E3,6.83E3,2.424E3,2.808E3,2.697E3,3.448E3,1.576E3,3.309E3,3.521E3,1.748E3,6.76E2],"tree_param":{"num_deleted":"0","num_feature":"41","num_nodes":"15","size_leaf_vector":"1"}},{"base_weights":[4.2639422E-4,-2.2318206E0,3.0460243E0,-3.987851E0,-7.809764E-1,1.8702279E0,7.144863E0,-4.435373E-2,-1.3057948E-2,-1.5384479E-2,1.0212539E-2,-2.9214583E-2,2.4301983E-2,6.010168E-2,1.4729986E-1],"categories":[],"categories_nodes":[],"categories_segments":[],"categories_sizes":[],"default_left":[0,0,0,0,0,0,0,0,0,0,0,0,0,0,0],"id":59,"left_children":[1,3,5,7,9,11,13,-1,-1,-1,-1,-1,-1,-1,-1],"loss_changes":[1.3450886E5,2.9084285E4,4.0315367E4,6.1936562E3,8.537781E3,1.7458652E4,1.5963156E4,0E0,0E0,0E0,0E0,0E0,0E0,0E0,0E0],"parents":[2147483647,0,0,1,1,2,2,3,3,4,4,5,5,6,6],"right_children":[2,4,6,8,10,12,14,-1,-1,-1,-1,-1,-1,-1,-1],"split_conditions":[1.1E1,4.4E0,9E0,5.5E0,5.7207E4,3E-2,8.9E0,-4.435373E-2,-1.3057948E-2,-1.5384479E-2,1.0212539E-2,-2.9214583E-2,2.4301983E-2,6.010168E-2,1.4729986E-1],"split_indices":[1,13,33,15,12,18,15,0,0,0,0,0,0,0,0],"split_type":[0,0,0,0,0,0,0,0,0,0,0,0,0,0,0],"sum_hessian":[1.9783E4,1.1416E4,8.367E3,5.164E3,6.252E3,6.503E3,1.864E3,4.425E3,7.39E2,4.402E3,1.85E3,6.8E2,5.823E3,1.623E3,2.41E2],"tree_param":{"num_deleted":"0","num_feature":"41","num_nodes":"15","size_leaf_vector":"1"}},{"base_weights":[4.2922338E-4,-1.7266456E0,3.8750224E0,-3.68981E0,-1.2066302E-2,1.4881262E0,5.8679633E0,-4.822517E-2,-2.6715675E-2,-7.5227353E-3,3.493179E-2,-2.107879E-3,2.6076678E-2,4.4576444E-2,1.0148339E-1],"categories":[],"categories_nodes":[],"categories_segments":[],"categories_sizes":[],"default_left":[0,0,0,0,0,0,0,0,0,0,0,0,0,0,0],"id":60,"left_children":[1,3,5,7,9,11,13,-1,-1,-1,-1,-1,-1,-1,-1],"loss_changes":[1.3239553E5,4.606368E4,2.9008617E4,7.345617E3,1.8958834E4,5.282418E3,2.0020734E4,0E0,0E0,0E0,0E0,0E0,0E0,0E0,0E0],"parents":[2147483647,0,0,1,1,2,2,3,3,4,4,5,5,6,6],"right_children":[2,4,6,8,10,12,14,-1,-1,-1,-1,-1,-1,-1,-1],"split_conditions":[1.64E1,1.3E-1,5.4E0,4.6E0,4E0,1.9287E4,1.4E1,-4.822517E-2,-2.6715675E-2,-7.5227353E-3,3.493179E-2,-2.107879E-3,2.6076678E-2,4.4576444E-2,1.0148339E-1],"split_indices":[13,18,15,15,33,12,33,0,0,0,0,0,0,0,0],"split_type":[0,0,0,0,0,0,0,0,0,0,0,0,0,0,0],"sum_hessian":[1.9783E4,1.3684E4,6.099E3,6.379E3,7.305E3,2.776E3,3.323E3,3.018E3,3.361E3,6.032E3,1.273E3,1.103E3,1.673E3,2.501E3,8.22E2],"tree_param":{"num_deleted":"0","num_feature":"41","num_nodes":"15","size_leaf_vector":"1"}},{"base_weights":[4.309531E-4,-1.7093827E0,3.8362997E0,-3.6529238E0,-1.1941972E-2,3.1723268E0,1.0881017E1,-4.774307E-2,-2.6448602E-2,-1.2436924E-2,2.0640666E-2,1.4705745E-2,4.8159555E-2,7.488903E-2,1.5232879E-1],"categories":[],"categories_nodes":[],"categories_segments":[],"categories_sizes":[],"default_left":[0,0,0,0,0,0,0,0,0,0,0,0,0,0,0],"id":61,"left_children":[1,3,5,7,9,11,13,-1,-1,-1,-1,-1,-1,-1,-1],"loss_changes":[1.2976231E5,4.5147395E4,2.8498234E4,7.199492E3,1.8684922E4,1.5589254E4,7.6359766E3,0E0,0E0,0E0,0E0,0E0,0E0,0E0,0E0],"parents":[2147483647,0,0,1,1,2,2,3,3,4,4,5,5,6,6],"right_children":[2,4,6,8,10,12,14,-1,-1,-1,-1,-1,-1,-1,-1],"split_conditions":[1.64E1,1.3E-1,2.5E1,4.6E0,1E0,5.4E0,8.2E0,-4.774307E-2,-2.6448602E-2,-1.2436924E-2,2.0640666E-2,1.4705745E-2,4.8159555E-2,7.488903E-2,1.5232879E-1],"split_indices":[13,18,33,15,33,15,15,0,0,0,0,0,0,0,0],"split_type":[0,0,0,0,0,0,0,0,0,0,0,0,0,0,0],"sum_hessian":[1.9783E4,1.3684E4,6.099E3,6.379E3,7.305E3,5.575E3,5.24E2,3.018E3,3.361E3,4.585E3,2.72E3,2.74E3,2.835E3,2.96E2,2.28E2],"tree_param":{"num_deleted":"0","num_feature":"41","num_nodes":"15","size_leaf_vector":"1"}},{"base_weights":[4.37988E-4,-2.3693607E0,2.7192507E0,-3.4036162E0,-1.8604632E-1,1.6548473E0,7.048554E0,-4.677655E-2,-2.4133267E-2,-1.0083254E-2,1.9285813E-2,-3.3427678E-2,2.1662027E-2,5.3569067E-2,1.2016468E-1],"categories":[],"categories_nodes":[],"categories_segments":[],"categories_sizes":[],"default_left":[0,0,0,0,0,0,0,0,0,0,0,0,0,0,0],"id":62,"left_children":[1,3,5,7,9,11,13,-1,-1,-1,-1,-1,-1,-1,-1],"loss_changes":[1.27475516E5,2.3869793E4,4.244761E4,9.038648E3,5.9121743E3,1.8910705E4,1.5214023E4,0E0,0E0,0E0,0E0,0E0,0E0,0E0,0E0],"parents":[2147483647,0,0,1,1,2,2,3,3,4,4,5,5,6,6],"right_children":[2,4,6,8,10,12,14,-1,-1,-1,-1,-1,-1,-1,-1],"split_conditions":[1E1,1E-2,6.4E0,2.17E3,5.3E0,2E-2,2.3E1,-4.677655E-2,-2.4133267E-2,-1.0083254E-2,1.9285813E-2,-3.3427678E-2,2.1662027E-2,5.3569067E-2,1.2016468E-1],"split_indices":[1,17,15,11,15,18,33,0,0,0,0,0,0,0,0],"split_type":[0,0,0,0,0,0,0,0,0,0,0,0,0,0,0],"sum_hessian":[1.9783E4,1.057E4,9.213E3,7.172E3,3.398E3,7.396E3,1.817E3,3.135E3,4.037E3,2.447E3,9.51E2,6.86E2,6.71E3,1.357E3,4.6E2],"tree_param":{"num_deleted":"0","num_feature":"41","num_nodes":"15","size_leaf_vector":"1"}},{"base_weights":[4.3881394E-4,-2.3583167E0,2.6841443E0,-3.8439214E0,-7.3003817E-1,1.4287708E0,6.219308E0,-7.582476E-2,-3.5801314E-2,-1.7689474E-2,1.5425859E-2,-9.250861E-3,2.2192473E-2,4.6220973E-2,1.03364445E-1],"categories":[],"categories_nodes":[],"categories_segments":[],"categories_sizes":[],"default_left":[0,0,0,0,0,0,0,0,0,0,0,0,0,0,0],"id":63,"left_children":[1,3,5,7,9,11,13,-1,-1,-1,-1,-1,-1,-1,-1],"loss_changes":[1.252431E5,2.5469031E4,4.106435E4,5.402836E3,1.1867007E4,1.2712281E4,1.5898867E4,0E0,0E0,0E0,0E0,0E0,0E0,0E0,0E0],"parents":[2147483647,0,0,1,1,2,2,3,3,4,4,5,5,6,6],"right_children":[2,4,6,8,10,12,14,-1,-1,-1,-1,-1,-1,-1,-1],"split_conditions":[1.18E1,4E-2,2.69E1,1.43E2,1E0,1.0248E4,1.3E1,-7.582476E-2,-3.5801314E-2,-1.7689474E-2,1.5425859E-2,-9.250861E-3,2.2192473E-2,4.6220973E-2,1.03364445E-1],"split_indices":[13,18,13,11,33,12,37,0,0,0,0,0,0,0,0],"split_type":[0,0,0,0,0,0,0,0,0,0,0,0,0,0,0],"sum_hessian":[1.9783E4,1.0529E4,9.254E3,5.505E3,5.024E3,6.83E3,2.424E3,3.61E2,5.144E3,3.448E3,1.576E3,1.717E3,5.113E3,1.748E3,6.76E2],"tree_param":{"num_deleted":"0","num_feature":"41","num_nodes":"15","size_leaf_vector":"1"}},{"base_weights":[4.3692137E-4,-2.1335676E0,2.9119961E0,-3.820556E0,-7.397681E-1,1.7809368E0,6.854891E0,-4.2585753E-2,-1.1955619E-2,-1.470489E-2,9.98808E-3,-2.8712275E-2,2.3246083E-2,5.7895143E-2,1.4365867E-1],"categories":[],"categories_nodes":[],"categories_segments":[],"categories_sizes":[],"default_left":[0,0,0,0,0,0,0,0,0,0,0,0,0,0,0],"id":64,"left_children":[1,3,5,7,9,11,13,-1,-1,-1,-1,-1,-1,-1,-1],"loss_changes":[1.22929766E5,2.6842238E4,3.7306125E4,5.933625E3,7.945367E3,1.6456908E4,1.4840586E4,0E0,0E0,0E0,0E0,0E0,0E0,0E0,0E0],"parents":[2147483647,0,0,1,1,2,2,3,3,4,4,5,5,6,6],"right_children":[2,4,6,8,10,12,14,-1,-1,-1,-1,-1,-1,-1,-1],"split_conditions":[1.1E1,4.4E0,9E0,5.5E0,5.7207E4,3E-2,9E0,-4.2585753E-2,-1.1955619E-2,-1.470489E-2,9.98808E-3,-2.8712275E-2,2.3246083E-2,5.7895143E-2,1.4365867E-1],"split_indices":[1,13,33,15,12,18,15,0,0,0,0,0,0,0,0],"split_type":[0,0,0,0,0,0,0,0,0,0,0,0,0,0,0],"sum_hessian":[1.9783E4,1.1416E4,8.367E3,5.164E3,6.252E3,6.503E3,1.864E3,4.425E3,7.39E2,4.402E3,1.85E3,6.8E2,5.823E3,1.634E3,2.3E2],"tree_param":{"num_deleted":"0","num_feature":"41","num_nodes":"15","size_leaf_vector":"1"}},{"base_weights":[4.3923932E-4,-1.6508952E0,3.7051134E0,-3.5251925E0,-1.393024E-2,1.4036245E0,5.626753E0,-4.6226542E-2,-2.5386479E-2,-5.833784E-3,4.266239E-2,-2.551822E-3,2.4967661E-2,4.279305E-2,9.716287E-2],"categories":[],"categories_nodes":[],"categories_segments":[],"categories_sizes":[],"default_left":[0,0,0,0,0,0,0,0,0,0,0,0,0,0,0],"id":65,"left_children":[1,3,5,7,9,11,13,-1,-1,-1,-1,-1,-1,-1,-1],"loss_changes":[1.2103783E5,4.19877E4,2.6970164E4,6.895867E3,1.7809656E4,5.0362007E3,1.8275094E4,0E0,0E0,0E0,0E0,0E0,0E0,0E0,0E0],"parents":[2147483647,0,0,1,1,2,2,3,3,4,4,5,5,6,6],"right_children":[2,4,6,8,10,12,14,-1,-1,-1,-1,-1,-1,-1,-1],"split_conditions":[1.64E1,1.3E-1,5.4E0,4.6E0,6E0,1.9287E4,1.4E1,-4.6226542E-2,-2.5386479E-2,-5.833784E-3,4.266239E-2,-2.551822E-3,2.4967661E-2,4.279305E-2,9.716287E-2],"split_indices":[13,18,15,15,33,12,33,0,0,0,0,0,0,0,0],"split_type":[0,0,0,0,0,0,0,0,0,0,0,0,0,0,0],"sum_hessian":[1.9783E4,1.3684E4,6.099E3,6.379E3,7.305E3,2.776E3,3.323E3,3.018E3,3.361E3,6.448E3,8.57E2,1.103E3,1.673E3,2.501E3,8.22E2],"tree_param":{"num_deleted":"0","num_feature":"41","num_nodes":"15","size_leaf_vector":"1"}},{"base_weights":[4.4138185E-4,-1.6343888E0,3.6680892E0,-3.4899516E0,-1.3785926E-2,3.1633556E0,1.2317255E1,-4.851241E-2,-2.7092943E-2,-5.7754563E-3,4.223627E-2,1.3895967E-2,4.810249E-2,5.5109024E-2,1.5177952E-1],"categories":[],"categories_nodes":[],"categories_segments":[],"categories_sizes":[],"default_left":[0,0,0,0,0,0,0,0,0,0,0,0,0,0,0],"id":66,"left_children":[1,3,5,7,9,11,13,-1,-1,-1,-1,-1,-1,-1,-1],"loss_changes":[1.18630484E5,4.1152535E4,2.6590719E4,6.766883E3,1.7455617E4,1.6833992E4,6.458582E3,0E0,0E0,0E0,0E0,0E0,0E0,0E0,0E0],"parents":[2147483647,0,0,1,1,2,2,3,3,4,4,5,5,6,6],"right_children":[2,4,6,8,10,12,14,-1,-1,-1,-1,-1,-1,-1,-1],"split_conditions":[1.64E1,1.3E-1,8.7E0,4.5E0,6E0,5.4E0,1.3E1,-4.851241E-2,-2.7092943E-2,-5.7754563E-3,4.223627E-2,1.3895967E-2,4.810249E-2,5.5109024E-2,1.5177952E-1],"split_indices":[13,18,15,15,33,15,37,0,0,0,0,0,0,0,0],"split_type":[0,0,0,0,0,0,0,0,0,0,0,0,0,0,0],"sum_hessian":[1.9783E4,1.3684E4,6.099E3,6.379E3,7.305E3,5.764E3,3.35E2,2.323E3,4.056E3,6.448E3,8.57E2,2.776E3,2.988E3,1E2,2.35E2],"tree_param":{"num_deleted":"0","num_feature":"41","num_nodes":"15","size_leaf_vector":"1"}},{"base_weights":[4.4854687E-4,-2.7186873E0,2.168051E0,-3.8619866E0,-1.1513585E0,9.3994725E-1,5.571415E0,-7.452875E-2,-3.5869956E-2,-1.6189793E-2,2.768916E-2,-3.7801927E-3,2.3292782E-2,4.4934075E-2,1.1178961E-1],"categories":[],"categories_nodes":[],"categories_segments":[],"categories_sizes":[],"default_left":[0,0,0,0,0,0,0,0,0,0,0,0,0,0,0],"id":67,"left_children":[1,3,5,7,9,11,13,-1,-1,-1,-1,-1,-1,-1,-1],"loss_changes":[1.1661291E5,1.5721496E4,4.600891E4,4.9836484E3,6.7928306E3,1.4816245E4,1.7595055E4,0E0,0E0,0E0,0E0,0E0,0E0,0E0,0E0],"parents":[2147483647,0,0,1,1,2,2,3,3,4,4,5,5,6,6],"right_children":[2,4,6,8,10,12,14,-1,-1,-1,-1,-1,-1,-1,-1],"split_conditions":[9.5E0,2E-2,2.48E1,1.43E2,5E0,1E0,2.5E1,-7.452875E-2,-3.5869956E-2,-1.6189793E-2,2.768916E-2,-3.7801927E-3,2.3292782E-2,4.4934075E-2,1.1178961E-1],"split_indices":[13,18,13,11,10,33,33,0,0,0,0,0,0,0,0],"split_type":[0,0,0,0,0,0,0,0,0,0,0,0,0,0,0],"sum_hessian":[1.9783E4,8.775E3,1.1008E4,5.073E3,3.702E3,8.09E3,2.918E3,3.59E2,4.714E3,3.308E3,3.94E2,4.152E3,3.938E3,2.449E3,4.69E2],"tree_param":{"num_deleted":"0","num_feature":"41","num_nodes":"15","size_leaf_vector":"1"}},{"base_weights":[4.4801255E-4,-2.0587623E0,2.8099608E0,-3.68974E0,-7.1124E-1,1.7805362E0,6.870634E0,-4.1205466E-2,-1.1080633E-2,-1.422092E-2,9.800582E-3,-1.0184128E-2,2.5320431E-2,5.4675277E-2,1.1134006E-1],"categories":[],"categories_nodes":[],"categories_segments":[],"categories_sizes":[],"default_left":[0,0,0,0,0,0,0,0,0,0,0,0,0,0,0],"id":68,"left_children":[1,3,5,7,9,11,13,-1,-1,-1,-1,-1,-1,-1,-1],"loss_changes":[1.144637E5,2.5089414E4,3.496733E4,5.7399688E3,7.5191436E3,1.404718E4,1.0060602E4,0E0,0E0,0E0,0E0,0E0,0E0,0E0,0E0],"parents":[2147483647,0,0,1,1,2,2,3,3,4,4,5,5,6,6],"right_children":[2,4,6,8,10,12,14,-1,-1,-1,-1,-1,-1,-1,-1],"split_conditions":[1.1E1,4.4E0,3.07E1,5.5E0,5.7207E4,1.0248E4,2.5E1,-4.1205466E-2,-1.1080633E-2,-1.422092E-2,9.800582E-3,-1.0184128E-2,2.5320431E-2,5.4675277E-2,1.1134006E-1],"split_indices":[1,13,13,15,12,12,33,0,0,0,0,0,0,0,0],"split_type":[0,0,0,0,0,0,0,0,0,0,0,0,0,0,0],"sum_hessian":[1.9783E4,1.1416E4,8.367E3,5.164E3,6.252E3,6.676E3,1.691E3,4.425E3,7.39E2,4.402E3,1.85E3,1.413E3,5.263E3,1.274E3,4.17E2],"tree_param":{"num_deleted":"0","num_feature":"41","num_nodes":"15","size_leaf_vector":"1"}},{"base_weights":[4.4992607E-4,-2.0769262E0,2.7363877E0,-3.6359406E0,-5.7603645E-1,1.726741E0,6.709195E0,-7.340625E-2,-3.3766188E-2,-1.1563639E-2,3.9075833E-2,-7.0760194E-3,2.4966082E-2,5.558984E-2,1.2022521E-1],"categories":[],"categories_nodes":[],"categories_segments":[],"categories_sizes":[],"default_left":[0,0,0,0,0,0,0,0,0,0,0,0,0,0,0],"id":69,"left_children":[1,3,5,7,9,11,13,-1,-1,-1,-1,-1,-1,-1,-1],"loss_changes":[1.1244946E5,2.6312516E4,3.4239465E4,5.274461E3,1.4916396E4,1.2764531E4,1.0505977E4,0E0,0E0,0E0,0E0,0E0,0E0,0E0,0E0],"parents":[2147483647,0,0,1,1,2,2,3,3,4,4,5,5,6,6],"right_children":[2,4,6,8,10,12,14,-1,-1,-1,-1,-1,-1,-1,-1],"split_conditions":[1.27E1,2E-2,3.07E1,1.43E2,5E0,1.0874E4,8.4E0,-7.340625E-2,-3.3766188E-2,-1.1563639E-2,3.9075833E-2,-7.0760194E-3,2.4966082E-2,5.558984E-2,1.2022521E-1],"split_indices":[13,18,13,11,33,12,15,0,0,0,0,0,0,0,0],"split_type":[0,0,0,0,0,0,0,0,0,0,0,0,0,0,0],"sum_hessian":[1.9783E4,1.1245E4,8.538E3,5.515E3,5.73E3,6.809E3,1.729E3,3.59E2,5.156E3,5.074E3,6.56E2,1.636E3,5.173E3,1.423E3,3.06E2],"tree_param":{"num_deleted":"0","num_feature":"41","num_nodes":"15","size_leaf_vector":"1"}},{"base_weights":[4.5113516E-4,-1.6310549E0,3.4181156E0,-3.519078E0,-1.7941557E-1,2.9448109E0,1.1941511E1,-5.2955616E-2,-2.9705713E-2,-7.1435138E-3,4.0971078E-2,1.3002835E-2,4.5534667E-2,5.302431E-2,1.4732212E-1],"categories":[],"categories_nodes":[],"categories_segments":[],"categories_sizes":[],"default_left":[0,0,0,0,0,0,0,0,0,0,0,0,0,0,0],"id":70,"left_children":[1,3,5,7,9,11,13,-1,-1,-1,-1,-1,-1,-1,-1],"loss_changes":[1.1031997E5,3.6703203E4,2.5755227E4,5.656328E3,1.7325133E4,1.6020391E4,6.1471875E3,0E0,0E0,0E0,0E0,0E0,0E0,0E0,0E0],"parents":[2147483647,0,0,1,1,2,2,3,3,4,4,5,5,6,6],"right_children":[2,4,6,8,10,12,14,-1,-1,-1,-1,-1,-1,-1,-1],"split_conditions":[1.59E1,2E-2,8.7E0,6.2E2,6E0,5.4E0,1.3E1,-5.2955616E-2,-2.9705713E-2,-7.1435138E-3,4.0971078E-2,1.3002835E-2,4.5534667E-2,5.302431E-2,1.4732212E-1],"split_indices":[13,18,15,11,33,15,37,0,0,0,0,0,0,0,0],"split_type":[0,0,0,0,0,0,0,0,0,0,0,0,0,0,0],"sum_hessian":[1.9783E4,1.3391E4,6.392E3,5.82E3,7.571E3,6.057E3,3.35E2,1.371E3,4.449E3,6.73E3,8.41E2,2.996E3,3.061E3,1E2,2.35E2],"tree_param":{"num_deleted":"0","num_feature":"41","num_nodes":"15","size_leaf_vector":"1"}},{"base_weights":[4.5755028E-4,-2.0038977E0,2.7351282E0,-3.6461904E0,-7.3276776E-1,1.6631469E0,6.4720883E0,-4.0760897E-2,-1.0713212E-2,-1.4331896E-2,9.594093E-3,-2.8650748E-2,2.192346E-2,5.4647397E-2,1.3574006E-1],"categories":[],"categories_nodes":[],"categories_segments":[],"categories_sizes":[],"default_left":[0,0,0,0,0,0,0,0,0,0,0,0,0,0,0],"id":71,"left_children":[1,3,5,7,9,11,13,-1,-1,-1,-1,-1,-1,-1,-1],"loss_changes":[1.08446555E5,2.3831086E4,3.351104E4,5.5092734E3,7.630752E3,1.559202E4,1.3268227E4,0E0,0E0,0E0,0E0,0E0,0E0,0E0,0E0],"parents":[2147483647,0,0,1,1,2,2,3,3,4,4,5,5,6,6],"right_children":[2,4,6,8,10,12,14,-1,-1,-1,-1,-1,-1,-1,-1],"split_conditions":[1.1E1,4.1E0,9E0,5.5E0,5.7207E4,3E-2,9E0,-4.0760897E-2,-1.0713212E-2,-1.4331896E-2,9.594093E-3,-2.8650748E-2,2.192346E-2,5.4647397E-2,1.3574006E-1],"split_indices":[1,13,33,15,12,18,15,0,0,0,0,0,0,0,0],"split_type":[0,0,0,0,0,0,0,0,0,0,0,0,0,0,0],"sum_hessian":[1.9783E4,1.1416E4,8.367E3,4.98E3,6.436E3,6.503E3,1.864E3,4.267E3,7.13E2,4.552E3,1.884E3,6.8E2,5.823E3,1.634E3,2.3E2],"tree_param":{"num_deleted":"0","num_feature":"41","num_nodes":"15","size_leaf_vector":"1"}},{"base_weights":[4.5954043E-4,-2.5992577E0,2.0728657E0,-3.6925914E0,-1.1004261E0,8.9463115E-1,5.3380327E0,-7.1771175E-2,-3.4257572E-2,-1.5537353E-2,2.699829E-2,-3.7506872E-3,2.2330849E-2,4.303738E-2,1.0718211E-1],"categories":[],"categories_nodes":[],"categories_segments":[],"categories_sizes":[],"default_left":[0,0,0,0,0,0,0,0,0,0,0,0,0,0,0],"id":72,"left_children":[1,3,5,7,9,11,13,-1,-1,-1,-1,-1,-1,-1,-1],"loss_changes":[1.06595055E5,1.4377371E4,4.2348305E4,4.693164E3,6.38332E3,1.3750963E4,1.6197203E4,0E0,0E0,0E0,0E0,0E0,0E0,0E0,0E0],"parents":[2147483647,0,0,1,1,2,2,3,3,4,4,5,5,6,6],"right_children":[2,4,6,8,10,12,14,-1,-1,-1,-1,-1,-1,-1,-1],"split_conditions":[9.5E0,2E-2,2.48E1,1.43E2,5E0,1E0,2.5E1,-7.1771175E-2,-3.4257572E-2,-1.5537353E-2,2.699829E-2,-3.7506872E-3,2.2330849E-2,4.303738E-2,1.0718211E-1],"split_indices":[13,18,13,11,10,33,33,0,0,0,0,0,0,0,0],"split_type":[0,0,0,0,0,0,0,0,0,0,0,0,0,0,0],"sum_hessian":[1.9783E4,8.775E3,1.1008E4,5.073E3,3.702E3,8.09E3,2.918E3,3.59E2,4.714E3,3.308E3,3.94E2,4.152E3,3.938E3,2.449E3,4.69E2],"tree_param":{"num_deleted":"0","num_feature":"41","num_nodes":"15","size_leaf_vector":"1"}},{"base_weights":[4.5871743E-4,-1.5348861E0,3.4449167E0,-3.282397E0,-8.6537255E-3,1.2721367E0,5.259106E0,-4.3364007E-2,-2.334949E-2,-1.1428243E-2,1.9028915E-2,-3.1080167E-3,2.315322E-2,3.99413E-2,9.098366E-2],"categories":[],"categories_nodes":[],"categories_segments":[],"categories_sizes":[],"default_left":[0,0,0,0,0,0,0,0,0,0,0,0,0,0,0],"id":73,"left_children":[1,3,5,7,9,11,13,-1,-1,-1,-1,-1,-1,-1,-1],"loss_changes":[1.046316E5,3.6499344E4,2.40385E4,6.3610312E3,1.5841719E4,4.5863735E3,1.6106914E4,0E0,0E0,0E0,0E0,0E0,0E0,0E0,0E0],"parents":[2147483647,0,0,1,1,2,2,3,3,4,4,5,5,6,6],"right_children":[2,4,6,8,10,12,14,-1,-1,-1,-1,-1,-1,-1,-1],"split_conditions":[1.64E1,1.3E-1,5.4E0,4.6E0,1E0,1.9287E4,1.4E1,-4.3364007E-2,-2.334949E-2,-1.1428243E-2,1.9028915E-2,-3.1080167E-3,2.315322E-2,3.99413E-2,9.098366E-2],"split_indices":[13,18,15,15,33,12,33,0,0,0,0,0,0,0,0],"split_type":[0,0,0,0,0,0,0,0,0,0,0,0,0,0,0],"sum_hessian":[1.9783E4,1.3684E4,6.099E3,6.379E3,7.305E3,2.776E3,3.323E3,3.018E3,3.361E3,4.585E3,2.72E3,1.103E3,1.673E3,2.501E3,8.22E2],"tree_param":{"num_deleted":"0","num_feature":"41","num_nodes":"15","size_leaf_vector":"1"}},{"base_weights":[4.5856435E-4,-2.1356263E0,2.4308176E0,-3.4763975E0,-6.660896E-1,1.2855529E0,5.65592E0,-4.4023875E-2,-2.511022E-2,-1.6328879E-2,1.4487826E-2,-9.007058E-3,2.0197544E-2,4.1948613E-2,9.4221465E-2],"categories":[],"categories_nodes":[],"categories_segments":[],"categories_sizes":[],"default_left":[0,0,0,0,0,0,0,0,0,0,0,0,0,0,0],"id":74,"left_children":[1,3,5,7,9,11,13,-1,-1,-1,-1,-1,-1,-1,-1],"loss_changes":[1.027129E5,2.0745074E4,3.417697E4,4.910914E3,1.0276758E4,1.0966631E4,1.3304469E4,0E0,0E0,0E0,0E0,0E0,0E0,0E0,0E0],"parents":[2147483647,0,0,1,1,2,2,3,3,4,4,5,5,6,6],"right_children":[2,4,6,8,10,12,14,-1,-1,-1,-1,-1,-1,-1,-1],"split_conditions":[1.18E1,4E-2,2.69E1,2.818E3,1E0,1.0248E4,1.3E1,-4.4023875E-2,-2.511022E-2,-1.6328879E-2,1.4487826E-2,-9.007058E-3,2.0197544E-2,4.1948613E-2,9.4221465E-2],"split_indices":[13,18,13,11,33,12,37,0,0,0,0,0,0,0,0],"split_type":[0,0,0,0,0,0,0,0,0,0,0,0,0,0,0],"sum_hessian":[1.9783E4,1.0529E4,9.254E3,5.505E3,5.024E3,6.83E3,2.424E3,2.808E3,2.697E3,3.448E3,1.576E3,1.717E3,5.113E3,1.748E3,6.76E2],"tree_param":{"num_deleted":"0","num_feature":"41","num_nodes":"15","size_leaf_vector":"1"}},{"base_weights":[4.5787104E-4,-2.1078985E0,2.4193242E0,-3.0490205E0,-1.21203154E-1,1.4517704E0,6.3547344E0,-4.22362E-2,-2.1360451E-2,-9.02647E-3,1.888351E-2,-3.224289E-2,1.9302389E-2,4.844331E-2,1.0790249E-1],"categories":[],"categories_nodes":[],"categories_segments":[],"categories_sizes":[],"default_left":[0,0,0,0,0,0,0,0,0,0,0,0,0,0,0],"id":75,"left_children":[1,3,5,7,9,11,13,-1,-1,-1,-1,-1,-1,-1,-1],"loss_changes":[1.0090017E5,1.9764469E4,3.5075117E4,7.683172E3,5.339337E3,1.6555875E4,1.2127258E4,0E0,0E0,0E0,0E0,0E0,0E0,0E0,0E0],"parents":[2147483647,0,0,1,1,2,2,3,3,4,4,5,5,6,6],"right_children":[2,4,6,8,10,12,14,-1,-1,-1,-1,-1,-1,-1,-1],"split_conditions":[1E1,1E-2,6.4E0,2.17E3,5.3E0,2E-2,2.3E1,-4.22362E-2,-2.1360451E-2,-9.02647E-3,1.888351E-2,-3.224289E-2,1.9302389E-2,4.844331E-2,1.0790249E-1],"split_indices":[1,17,15,11,15,18,33,0,0,0,0,0,0,0,0],"split_type":[0,0,0,0,0,0,0,0,0,0,0,0,0,0,0],"sum_hessian":[1.9783E4,1.057E4,9.213E3,7.172E3,3.398E3,7.396E3,1.817E3,3.135E3,4.037E3,2.447E3,9.51E2,6.86E2,6.71E3,1.357E3,4.6E2],"tree_param":{"num_deleted":"0","num_feature":"41","num_nodes":"15","size_leaf_vector":"1"}},{"base_weights":[4.5787677E-4,-1.4934938E0,3.3520527E0,-3.191778E0,-1.0254487E-2,2.881337E0,1.1418491E1,-4.4929996E-2,-2.4456032E-2,-5.396207E-3,3.9686415E-2,1.2281972E-2,4.4162612E-2,5.04193E-2,1.409906E-1],"categories":[],"categories_nodes":[],"categories_segments":[],"categories_sizes":[],"default_left":[0,0,0,0,0,0,0,0,0,0,0,0,0,0,0],"id":76,"left_children":[1,3,5,7,9,11,13,-1,-1,-1,-1,-1,-1,-1,-1],"loss_changes":[9.9065875E4,3.447196E4,2.312879E4,6.1836016E3,1.539072E4,1.46229375E4,5.6720977E3,0E0,0E0,0E0,0E0,0E0,0E0,0E0,0E0],"parents":[2147483647,0,0,1,1,2,2,3,3,4,4,5,5,6,6],"right_children":[2,4,6,8,10,12,14,-1,-1,-1,-1,-1,-1,-1,-1],"split_conditions":[1.64E1,1.3E-1,8.7E0,4.5E0,6E0,5.4E0,1.3E1,-4.4929996E-2,-2.4456032E-2,-5.396207E-3,3.9686415E-2,1.2281972E-2,4.4162612E-2,5.04193E-2,1.409906E-1],"split_indices":[13,18,15,15,33,15,37,0,0,0,0,0,0,0,0],"split_type":[0,0,0,0,0,0,0,0,0,0,0,0,0,0,0],"sum_hessian":[1.9783E4,1.3684E4,6.099E3,6.379E3,7.305E3,5.764E3,3.35E2,2.323E3,4.056E3,6.448E3,8.57E2,2.776E3,2.988E3,1E2,2.35E2],"tree_param":{"num_deleted":"0","num_feature":"41","num_nodes":"15","size_leaf_vector":"1"}},{"base_weights":[4.6399413E-4,-2.484516E0,1.9814054E0,-3.5224617E0,-1.0616102E0,6.9172025E-1,4.7170825E0,-6.955928E-2,-3.2595623E-2,-1.5044286E-2,2.6506621E-2,-4.792635E-3,1.9891733E-2,3.576109E-2,8.824982E-2],"categories":[],"categories_nodes":[],"categories_segments":[],"categories_sizes":[],"default_left":[0,0,0,0,0,0,0,0,0,0,0,0,0,0,0],"id":77,"left_children":[1,3,5,7,9,11,13,-1,-1,-1,-1,-1,-1,-1,-1],"loss_changes":[9.739363E4,1.295752E4,3.8838273E4,4.55741E3,6.0912104E3,1.1369848E4,1.64995E4,0E0,0E0,0E0,0E0,0E0,0E0,0E0,0E0],"parents":[2147483647,0,0,1,1,2,2,3,3,4,4,5,5,6,6],"right_children":[2,4,6,8,10,12,14,-1,-1,-1,-1,-1,-1,-1,-1],"split_conditions":[9.5E0,2E-2,2.27E1,1.43E2,5E0,1E0,1.5E1,-6.955928E-2,-3.2595623E-2,-1.5044286E-2,2.6506621E-2,-4.792635E-3,1.9891733E-2,3.576109E-2,8.824982E-2],"split_indices":[13,18,13,11,10,33,33,0,0,0,0,0,0,0,0],"split_type":[0,0,0,0,0,0,0,0,0,0,0,0,0,0,0],"sum_hessian":[1.9783E4,8.775E3,1.1008E4,5.073E3,3.702E3,7.482E3,3.526E3,3.59E2,4.714E3,3.308E3,3.94E2,3.933E3,3.549E3,2.761E3,7.65E2],"tree_param":{"num_deleted":"0","num_feature":"41","num_nodes":"15","size_leaf_vector":"1"}},{"base_weights":[4.6176428E-4,-1.8813691E0,2.5679646E0,-3.4307613E0,-6.8214524E-1,1.5513089E0,6.112072E0,-3.8516037E-2,-9.103327E-3,-1.3496158E-2,9.304149E-3,-2.8322902E-2,2.0636166E-2,5.1516786E-2,1.28832E-1],"categories":[],"categories_nodes":[],"categories_segments":[],"categories_sizes":[],"default_left":[0,0,0,0,0,0,0,0,0,0,0,0,0,0,0],"id":78,"left_children":[1,3,5,7,9,11,13,-1,-1,-1,-1,-1,-1,-1,-1],"loss_changes":[9.559332E4,2.1211219E4,3.0141566E4,5.2798555E3,6.929634E3,1.461221E4,1.2061625E4,0E0,0E0,0E0,0E0,0E0,0E0,0E0,0E0],"parents":[2147483647,0,0,1,1,2,2,3,3,4,4,5,5,6,6],"right_children":[2,4,6,8,10,12,14,-1,-1,-1,-1,-1,-1,-1,-1],"split_conditions":[1.1E1,4.1E0,9E0,5.5E0,5.7207E4,3E-2,9E0,-3.8516037E-2,-9.103327E-3,-1.3496158E-2,9.304149E-3,-2.8322902E-2,2.0636166E-2,5.1516786E-2,1.28832E-1],"split_indices":[1,13,33,15,12,18,15,0,0,0,0,0,0,0,0],"split_type":[0,0,0,0,0,0,0,0,0,0,0,0,0,0,0],"sum_hessian":[1.9783E4,1.1416E4,8.367E3,4.98E3,6.436E3,6.503E3,1.864E3,4.267E3,7.13E2,4.552E3,1.884E3,6.8E2,5.823E3,1.634E3,2.3E2],"tree_param":{"num_deleted":"0","num_feature":"41","num_nodes":"15","size_leaf_vector":"1"}},{"base_weights":[4.633161E-4,-1.4537662E0,3.2629437E0,-3.1075544E0,-9.388616E-3,1.1799644E0,5.002165E0,-4.3848768E-2,-2.3750909E-2,-5.2711205E-3,3.881996E-2,-3.575038E-3,2.193217E-2,3.804754E-2,8.6363316E-2],"categories":[],"categories_nodes":[],"categories_segments":[],"categories_sizes":[],"default_left":[0,0,0,0,0,0,0,0,0,0,0,0,0,0,0],"id":79,"left_children":[1,3,5,7,9,11,13,-1,-1,-1,-1,-1,-1,-1,-1],"loss_changes":[9.386785E4,3.268926E4,2.2092941E4,5.95866E3,1.4721161E4,4.326917E3,1.4431828E4,0E0,0E0,0E0,0E0,0E0,0E0,0E0,0E0],"parents":[2147483647,0,0,1,1,2,2,3,3,4,4,5,5,6,6],"right_children":[2,4,6,8,10,12,14,-1,-1,-1,-1,-1,-1,-1,-1],"split_conditions":[1.64E1,1.3E-1,5.4E0,4.5E0,6E0,1.9287E4,1.4E1,-4.3848768E-2,-2.3750909E-2,-5.2711205E-3,3.881996E-2,-3.575038E-3,2.193217E-2,3.804754E-2,8.6363316E-2],"split_indices":[13,18,15,15,33,12,33,0,0,0,0,0,0,0,0],"split_type":[0,0,0,0,0,0,0,0,0,0,0,0,0,0,0],"sum_hessian":[1.9783E4,1.3684E4,6.099E3,6.379E3,7.305E3,2.776E3,3.323E3,2.323E3,4.056E3,6.448E3,8.57E2,1.103E3,1.673E3,2.501E3,8.22E2],"tree_param":{"num_deleted":"0","num_feature":"41","num_nodes":"15","size_leaf_vector":"1"}},{"base_weights":[4.6419524E-4,-2.4181783E0,1.9285235E0,-3.4277616E0,-1.0341532E0,9.544579E-1,5.3761215E0,-6.820068E-2,-3.168025E-2,-1.4674935E-2,2.5986494E-2,-3.2395518E-3,2.2470215E-2,3.9921273E-2,8.943669E-2],"categories":[],"categories_nodes":[],"categories_segments":[],"categories_sizes":[],"default_left":[0,0,0,0,0,0,0,0,0,0,0,0,0,0,0],"id":80,"left_children":[1,3,5,7,9,11,13,-1,-1,-1,-1,-1,-1,-1,-1],"loss_changes":[9.226311E4,1.22590625E4,3.6965156E4,4.449125E3,5.8332236E3,1.4186844E4,1.1937641E4,0E0,0E0,0E0,0E0,0E0,0E0,0E0,0E0],"parents":[2147483647,0,0,1,1,2,2,3,3,4,4,5,5,6,6],"right_children":[2,4,6,8,10,12,14,-1,-1,-1,-1,-1,-1,-1,-1],"split_conditions":[9.5E0,2E-2,2.69E1,1.43E2,5E0,1E0,1.3E1,-6.820068E-2,-3.168025E-2,-1.4674935E-2,2.5986494E-2,-3.2395518E-3,2.2470215E-2,3.9921273E-2,8.943669E-2],"split_indices":[13,18,13,11,10,33,37,0,0,0,0,0,0,0,0],"split_type":[0,0,0,0,0,0,0,0,0,0,0,0,0,0,0],"sum_hessian":[1.9783E4,8.775E3,1.1008E4,5.073E3,3.702E3,8.584E3,2.424E3,3.59E2,4.714E3,3.308E3,3.94E2,4.316E3,4.268E3,1.748E3,6.76E2],"tree_param":{"num_deleted":"0","num_feature":"41","num_nodes":"15","size_leaf_vector":"1"}},{"base_weights":[4.6257398E-4,-2.1872165E0,2.0931664E0,-2.973731E0,-3.0790687E-1,1.1862879E0,5.8692136E0,-4.0637407E-2,-2.0704841E-2,-1.0421886E-2,1.6296798E-2,2.2040585E-2,-8.203949E-3,4.946502E-2,1.264617E-1],"categories":[],"categories_nodes":[],"categories_segments":[],"categories_sizes":[],"default_left":[0,0,0,0,0,0,0,0,0,0,0,0,0,0,0],"id":81,"left_children":[1,3,5,7,9,11,13,-1,-1,-1,-1,-1,-1,-1,-1],"loss_changes":[9.057898E4,1.4296785E4,3.4620727E4,6.7052188E3,4.0636055E3,1.6657117E4,1.2181172E4,0E0,0E0,0E0,0E0,0E0,0E0,0E0,0E0],"parents":[2147483647,0,0,1,1,2,2,3,3,4,4,5,5,6,6],"right_children":[2,4,6,8,10,12,14,-1,-1,-1,-1,-1,-1,-1,-1],"split_conditions":[9E0,1E-2,9E0,2.17E3,5.3E0,1E0,9E0,-4.0637407E-2,-2.0704841E-2,-1.0421886E-2,1.6296798E-2,2.2040585E-2,-8.203949E-3,4.946502E-2,1.264617E-1],"split_indices":[1,17,33,11,15,38,15,0,0,0,0,0,0,0,0],"split_type":[0,0,0,0,0,0,0,0,0,0,0,0,0,0,0],"sum_hessian":[1.9783E4,9.672E3,1.0111E4,6.818E3,2.854E3,8.154E3,1.957E3,3.088E3,3.73E3,2.07E3,7.84E2,5.41E3,2.744E3,1.724E3,2.33E2],"tree_param":{"num_deleted":"0","num_feature":"41","num_nodes":"15","size_leaf_vector":"1"}},{"base_weights":[4.6461253E-4,-1.0247364E0,4.3899994E0,-2.9557006E0,3.499228E-1,3.8135657E0,1.1978367E1,-4.3006912E-2,-2.2302443E-2,-7.6095895E-3,1.9741232E-2,1.6009025E-2,5.0012134E-2,5.7986278E-2,1.3886452E-1],"categories":[],"categories_nodes":[],