{"learner":{"attributes":{"best_iteration":"352","best_score":"1.5177881701212181","scikit_learn":"{\"_estimator_type\": \"regressor\"}"},"feature_names":["team","opponent_team","is_home","lagged_GC_1","lagged_GC_2","lagged_GC_3","lagged_GC_4","lagged_GC_5","lagged_GS_1","lagged_GS_2","lagged_GS_3","lagged_GS_4","lagged_GS_5","days_rest","days_till_next","opponent_lagged_GC_1","opponent_lagged_GC_2","opponent_lagged_GC_3","opponent_lagged_GC_4","opponent_lagged_GC_5","opponent_lagged_GS_1","opponent_lagged_GS_2","opponent_lagged_GS_3","opponent_lagged_GS_4","opponent_lagged_GS_5","opponent_days_rest","opponent_days_till_next"],"feature_types":["int","int","int","float","float","float","float","float","float","float","float","float","float","float","float","float","float","float","float","float","float","float","float","float","float","float","float"],"gradient_booster":{"model":{"cats":{"enc":[],"feature_segments":[],"sorted_idx":[]},"gbtree_model_param":{"num_parallel_tree":"1","num_trees":"373"},"iteration_indptr":[0,1,2,3,4,5,6,7,8,9,10,11,12,13,14,15,16,17,18,19,20,21,22,23,24,25,26,27,28,29,30,31,32,33,34,35,36,37,38,39,40,41,42,43,44,45,46,47,48,49,50,51,52,53,54,55,56,57,58,59,60,61,62,63,64,65,66,67,68,69,70,71,72,73,74,75,76,77,78,79,80,81,82,83,84,85,86,87,88,89,90,91,92,93,94,95,96,97,98,99,100,101,102,103,104,105,106,107,108,109,110,111,112,113,114,115,116,117,118,119,120,121,122,123,124,125,126,127,128,129,130,131,132,133,134,135,136,137,138,139,140,141,142,143,144,145,146,147,148,149,150,151,152,153,154,155,156,157,158,159,160,161,162,163,164,165,166,167,168,169,170,171,172,173,174,175,176,177,178,179,180,181,182,183,184,185,186,187,188,189,190,191,192,193,194,195,196,197,198,199,200,201,202,203,204,205,206,207,208,209,210,211,212,213,214,215,216,217,218,219,220,221,222,223,224,225,226,227,228,229,230,231,232,233,234,235,236,237,238,239,240,241,242,243,244,245,246,247,248,249,250,251,252,253,254,255,256,257,258,259,260,261,262,263,264,265,266,267,268,269,270,271,272,273,274,275,276,277,278,279,280,281,282,283,284,285,286,287,288,289,290,291,292,293,294,295,296,297,298,299,300,301,302,303,304,305,306,307,308,309,310,311,312,313,314,315,316,317,318,319,320,321,322,323,324,325,326,327,328,329,330,331,332,333,334,335,336,337,338,339,340,341,342,343,344,345,346,347,348,349,350,351,352,353,354,355,356,357,358,359,360,361,362,363,364,365,366,367,368,369,370,371,372,373],"tree_info":[0,0,0,0,0,0,0,0,0,0,0,0,0,0,0,0,0,0,0,0,0,0,0,0,0,0,0,0,0,0,0,0,0,0,0,0,0,0,0,0,0,0,0,0,0,0,0,0,0,0,0,0,0,0,0,0,0,0,0,0,0,0,0,0,0,0,0,0,0,0,0,0,0,0,0,0,0,0,0,0,0,0,0,0,0,0,0,0,0,0,0,0,0,0,0,0,0,0,0,0,0,0,0,0,0,0,0,0,0,0,0,0,0,0,0,0,0,0,0,0,0,0,0,0,0,0,0,0,0,0,0,0,0,0,0,0,0,0,0,0,0,0,0,0,0,0,0,0,0,0,0,0,0,0,0,0,0,0,0,0,0,0,0,0,0,0,0,0,0,0,0,0,0,0,0,0,0,0,0,0,0,0,0,0,0,0,0,0,0,0,0,0,0,0,0,0,0,0,0,0,0,0,0,0,0,0,0,0,0,0,0,0,0,0,0,0,0,0,0,0,0,0,0,0,0,0,0,0,0,0,0,0,0,0,0,0,0,0,0,0,0,0,0,0,0,0,0,0,0,0,0,0,0,0,0,0,0,0,0,0,0,0,0,0,0,0,0,0,0,0,0,0,0,0,0,0,0,0,0,0,0,0,0,0,0,0,0,0,0,0,0,0,0,0,0,0,0,0,0,0,0,0,0,0,0,0,0,0,0,0,0,0,0,0,0,0,0,0,0,0,0,0,0,0,0,0,0,0,0,0,0,0,0,0,0,0,0,0,0,0,0,0,0,0,0,0,0,0,0,0,0,0,0,0,0,0,0,0,0,0,0,0,0,0,0,0,0,0,0,0,0,0,0],"trees":[{"base_weights":[-1.5547046E-8,2.4973832E-1,-1.3302088E-2,3.1194183E-1,-9.9383324E-2,4.0323753E-2,-6.7031026E-2,2.8002685E-1,7E-1,-2.4711359E-1,2.2076298E-1,-2.2407869E-1,5.5506017E-2,-8.071447E-2,1.08325824E-1,4.2198533E-3,1.9795743E-3,1.2673498E-3,6.9999998E-3,-3.719197E-3,2.8745371E-3,5.7273596E-3,-4.7640715E-4,2.2854077E-4,-3.2734622E-3,4.6089978E-4,4.6263044E-3,-1.1437421E-3,-2.2474685E-4,2.697609E-3,-1.1816325E-3],"categories":[],"categories_nodes":[],"categories_segments":[],"categories_sizes":[],"default_left":[0,1,0,1,1,0,1,1,0,1,0,0,1,1,0,0,0,0,0,0,0,0,0,0,0,0,0,0,0,0,0],"id":0,"left_children":[1,3,5,7,9,11,13,15,17,19,21,23,25,27,29,-1,-1,-1,-1,-1,-1,-1,-1,-1,-1,-1,-1,-1,-1,-1,-1],"loss_changes":[2.0992428E1,6.9707985E0,1.7289051E1,4.390665E0,2.3760347E0,1.2068348E1,7.2006845E0,2.9392452E0,8.26272E-1,2.3791857E0,1.5413232E0,4.1713037E0,1.0869685E1,5.4489384E0,7.9800644E0,0E0,0E0,0E0,0E0,0E0,0E0,0E0,0E0,0E0,0E0,0E0,0E0,0E0,0E0,0E0,0E0],"parents":[2147483647,0,0,1,1,2,2,3,3,4,4,5,5,6,6,7,7,8,8,9,9,10,10,11,11,12,12,13,13,14,14],"right_children":[2,4,6,8,10,12,14,16,18,20,22,24,26,28,30,-1,-1,-1,-1,-1,-1,-1,-1,-1,-1,-1,-1,-1,-1,-1,-1],"split_conditions":[2E0,3E0,1E0,5E0,4E0,2E0,4E0,2E0,4E0,2E0,1E0,6E0,5E0,2E0,2E0,4.2198533E-3,1.9795743E-3,1.2673498E-3,6.9999998E-3,-3.719197E-3,2.8745371E-3,5.7273596E-3,-4.7640715E-4,2.2854077E-4,-3.2734622E-3,4.6089978E-4,4.6263044E-3,-1.1437421E-3,-2.2474685E-4,2.697609E-3,-1.1816325E-3],"split_indices":[1,9,2,6,10,0,20,21,0,17,2,13,22,7,8,0,0,0,0,0,0,0,0,0,0,0,0,0,0,0,0],"split_type":[0,0,0,0,0,0,0,0,0,0,0,0,0,0,0,0,0,0,0,0,0,0,0,0,0,0,0,0,0,0,0],"sum_hessian":[6.317142E3,3.185619E2,5.99858E3,2.7047708E2,4.8084812E1,3.0022954E3,2.996285E3,2.5845587E2,1.2021203E1,3.3058308E1,1.5026504E1,1.6228624E2,2.8400093E3,2.7799033E3,2.1638165E2,9.316432E1,1.6529153E2,3.0053008E0,9.0159025E0,2.7047707E1,6.0106015E0,6.0106015E0,9.0159025E0,4.8084812E1,1.1420143E2,2.776898E3,6.3111317E1,1.7611062E3,1.01879694E3,1.2622263E2,9.015902E1],"tree_param":{"num_deleted":"0","num_feature":"27","num_nodes":"31","size_leaf_vector":"1"}},{"base_weights":[4.8048387E-6,2.480239E-1,-1.323787E-2,3.0959985E-1,-9.895498E-2,4.010743E-2,-6.674311E-2,2.7787322E-1,7E-1,-2.4650337E-1,2.1941245E-1,-2.234728E-1,5.5200554E-2,-8.0378905E-2,1.0767401E-1,4.1815815E-3,1.9659211E-3,1.2614244E-3,6.9999998E-3,-3.714718E-3,2.8552343E-3,5.674958E-3,-4.7448144E-4,2.2737772E-4,-3.2679613E-3,4.584002E-4,4.582718E-3,-1.0525144E-3,-1.5798678E-5,2.6771259E-3,-1.1772075E-3],"categories":[],"categories_nodes":[],"categories_segments":[],"categories_sizes":[],"default_left":[0,1,0,1,1,0,1,1,0,1,0,0,1,0,0,0,0,0,0,0,0,0,0,0,0,0,0,0,0,0,0],"id":1,"left_children":[1,3,5,7,9,11,13,15,17,19,21,23,25,27,29,-1,-1,-1,-1,-1,-1,-1,-1,-1,-1,-1,-1,-1,-1,-1,-1],"loss_changes":[2.0754618E1,6.873974E0,1.7124723E1,4.3746357E0,2.3573418E0,1.1965007E1,7.132372E0,2.88447E0,8.3025074E-1,2.3649576E0,1.5184324E0,4.1521015E0,1.0703948E1,5.445822E0,7.8813343E0,0E0,0E0,0E0,0E0,0E0,0E0,0E0,0E0,0E0,0E0,0E0,0E0,0E0,0E0,0E0,0E0],"parents":[2147483647,0,0,1,1,2,2,3,3,4,4,5,5,6,6,7,7,8,8,9,9,10,10,11,11,12,12,13,13,14,14],"right_children":[2,4,6,8,10,12,14,16,18,20,22,24,26,28,30,-1,-1,-1,-1,-1,-1,-1,-1,-1,-1,-1,-1,-1,-1,-1,-1],"split_conditions":[2E0,3E0,1E0,5E0,4E0,2E0,4E0,2E0,4E0,2E0,1E0,6E0,5E0,1.6E1,2E0,4.1815815E-3,1.9659211E-3,1.2614244E-3,6.9999998E-3,-3.714718E-3,2.8552343E-3,5.674958E-3,-4.7448144E-4,2.2737772E-4,-3.2679613E-3,4.584002E-4,4.582718E-3,-1.0525144E-3,-1.5798678E-5,2.6771259E-3,-1.1772075E-3],"split_indices":[1,9,2,6,10,0,20,21,0,17,2,13,22,0,8,0,0,0,0,0,0,0,0,0,0,0,0,0,0,0,0],"split_type":[0,0,0,0,0,0,0,0,0,0,0,0,0,0,0,0,0,0,0,0,0,0,0,0,0,0,0,0,0,0,0],"sum_hessian":[6.317081E3,3.1929767E2,5.997783E3,2.7126572E2,4.8031937E1,3.003506E3,2.9942773E3,2.5917737E2,1.2088347E1,3.29752E1,1.5056733E1,1.6192401E2,2.841582E3,2.7776611E3,2.1661615E2,9.35583E1,1.6561908E2,3.009112E0,9.079235E0,2.6947298E1,6.027904E0,6.0451255E0,9.011608E0,4.8095802E1,1.1382821E2,2.778178E3,6.340396E1,2.1109985E3,6.6666254E2,1.2656359E2,9.005256E1],"tree_param":{"num_deleted":"0","num_feature":"27","num_nodes":"31","size_leaf_vector":"1"}},{"base_weights":[9.538372E-6,2.4632381E-1,-1.3173951E-2,3.0728057E-1,-9.8528326E-2,3.989233E-2,-6.645622E-2,2.75742E-1,7E-1,-2.4589325E-1,2.180715E-1,-2.2286724E-1,5.4896917E-2,-8.004443E-2,1.070268E-1,4.1438127E-3,1.952389E-3,1.2555304E-3,6.9999998E-3,-3.710228E-3,2.8361E-3,5.6232493E-3,-4.725628E-4,2.2622128E-4,-3.262452E-3,4.5591508E-4,4.539734E-3,-1.1362376E-3,-2.199989E-4,2.6568514E-3,-1.1727938E-3],"categories":[],"categories_nodes":[],"categories_segments":[],"categories_sizes":[],"default_left":[0,1,0,1,1,0,1,1,0,1,0,0,1,1,0,0,0,0,0,0,0,0,0,0,0,0,0,0,0,0,0],"id":2,"left_children":[1,3,5,7,9,11,13,15,17,19,21,23,25,27,29,-1,-1,-1,-1,-1,-1,-1,-1,-1,-1,-1,-1,-1,-1,-1,-1],"loss_changes":[2.051964E1,6.7786827E0,1.6961918E1,4.357521E0,2.3387907E0,1.1862545E1,7.0646973E0,2.8309174E0,8.34219E-1,2.3508258E0,1.495947E0,4.132951E0,1.054124E1,5.409031E0,7.7839966E0,0E0,0E0,0E0,0E0,0E0,0E0,0E0,0E0,0E0,0E0,0E0,0E0,0E0,0E0,0E0,0E0],"parents":[2147483647,0,0,1,1,2,2,3,3,4,4,5,5,6,6,7,7,8,8,9,9,10,10,11,11,12,12,13,13,14,14],"right_children":[2,4,6,8,10,12,14,16,18,20,22,24,26,28,30,-1,-1,-1,-1,-1,-1,-1,-1,-1,-1,-1,-1,-1,-1,-1,-1],"split_conditions":[2E0,3E0,1E0,5E0,4E0,2E0,4E0,2E0,4E0,2E0,1E0,6E0,5E0,2E0,2E0,4.1438127E-3,1.952389E-3,1.2555304E-3,6.9999998E-3,-3.710228E-3,2.8361E-3,5.6232493E-3,-4.725628E-4,2.2622128E-4,-3.262452E-3,4.5591508E-4,4.539734E-3,-1.1362376E-3,-2.199989E-4,2.6568514E-3,-1.1727938E-3],"split_indices":[1,9,2,6,10,0,20,21,0,17,2,13,22,7,8,0,0,0,0,0,0,0,0,0,0,0,0,0,0,0,0],"split_type":[0,0,0,0,0,0,0,0,0,0,0,0,0,0,0,0,0,0,0,0,0,0,0,0,0,0,0,0,0,0,0],"sum_hessian":[6.3170205E3,3.2003064E2,5.99699E3,2.7205127E2,4.7979385E1,3.0047107E3,2.9922793E3,2.5989532E2,1.2155924E1,3.2892525E1,1.5086861E1,1.6156358E2,2.843147E3,2.77543E3,2.1684949E2,9.395035E1,1.6594499E2,3.0129101E0,9.143013E0,2.6847385E1,6.0451403E0,6.0795283E0,9.007333E0,4.8106743E1,1.1345684E2,2.779452E3,6.3695198E1,1.7576532E3,1.0177767E3,1.26902885E2,8.994661E1],"tree_param":{"num_deleted":"0","num_feature":"27","num_nodes":"31","size_leaf_vector":"1"}},{"base_weights":[1.41697265E-5,2.4463783E-1,-1.31103415E-2,3.0498365E-1,-9.810341E-2,3.967848E-2,-6.6170394E-2,2.7363285E-1,7E-1,-2.4528337E-1,2.1674001E-1,-2.2226201E-1,5.4595124E-2,-7.971112E-2,1.0638416E-1,4.1065374E-3,1.9389758E-3,1.2496675E-3,6.9999998E-3,-3.7057295E-3,2.817133E-3,5.5722175E-3,-4.7065123E-4,2.250706E-4,-3.2569345E-3,4.5344475E-4,4.4973423E-3,-1.0452168E-3,-1.1940653E-5,2.6367838E-3,-1.1683916E-3],"categories":[],"categories_nodes":[],"categories_segments":[],"categories_sizes":[],"default_left":[0,1,0,1,1,0,1,1,0,1,0,0,1,0,0,0,0,0,0,0,0,0,0,0,0,0,0,0,0,0,0],"id":3,"left_children":[1,3,5,7,9,11,13,15,17,19,21,23,25,27,29,-1,-1,-1,-1,-1,-1,-1,-1,-1,-1,-1,-1,-1,-1,-1,-1],"loss_changes":[2.0287445E1,6.6848984E0,1.6800653E1,4.3393173E0,2.3203804E0,1.176095E1,6.997673E0,2.7785683E0,8.381729E-1,2.3367925E0,1.4738586E0,4.113841E0,1.0381493E1,5.4041824E0,7.688034E0,0E0,0E0,0E0,0E0,0E0,0E0,0E0,0E0,0E0,0E0,0E0,0E0,0E0,0E0,0E0,0E0],"parents":[2147483647,0,0,1,1,2,2,3,3,4,4,5,5,6,6,7,7,8,8,9,9,10,10,11,11,12,12,13,13,14,14],"right_children":[2,4,6,8,10,12,14,16,18,20,22,24,26,28,30,-1,-1,-1,-1,-1,-1,-1,-1,-1,-1,-1,-1,-1,-1,-1,-1],"split_conditions":[2E0,3E0,1E0,5E0,4E0,2E0,4E0,2E0,4E0,2E0,1E0,6E0,5E0,1.6E1,2E0,4.1065374E-3,1.9389758E-3,1.2496675E-3,6.9999998E-3,-3.7057295E-3,2.817133E-3,5.5722175E-3,-4.7065123E-4,2.250706E-4,-3.2569345E-3,4.5344475E-4,4.4973423E-3,-1.0452168E-3,-1.1940653E-5,2.6367838E-3,-1.1683916E-3],"split_indices":[1,9,2,6,10,0,20,21,0,17,2,13,22,0,8,0,0,0,0,0,0,0,0,0,0,0,0,0,0,0,0],"split_type":[0,0,0,0,0,0,0,0,0,0,0,0,0,0,0,0,0,0,0,0,0,0,0,0,0,0,0,0,0,0,0],"sum_hessian":[6.316962E3,3.2076083E2,5.996201E3,2.7283368E2,4.7927155E1,3.0059094E3,2.9902917E3,2.6060977E2,1.2223934E1,3.2810265E1,1.511689E1,1.6120491E2,2.8447043E3,2.7732102E3,2.1708168E2,9.4340454E1,1.662693E2,3.0166953E0,9.207239E0,2.6747955E1,6.0623093E0,6.113812E0,9.0030775E0,4.811763E1,1.1308729E2,2.7807195E3,6.3985012E1,2.1070676E3,6.661425E2,1.2724049E2,8.984119E1],"tree_param":{"num_deleted":"0","num_feature":"27","num_nodes":"31","size_leaf_vector":"1"}},{"base_weights":[1.8723124E-5,2.4296583E-1,-1.3047018E-2,3.0270877E-1,-9.768022E-2,3.9465845E-2,-6.5885566E-2,2.715455E-1,7E-1,-2.4467365E-1,2.1541794E-1,-2.2165711E-1,5.429514E-2,-7.937888E-2,1.05746046E-1,4.069746E-3,1.9256803E-3,1.243836E-3,6.9999998E-3,-3.7012203E-3,2.798331E-3,5.521853E-3,-4.6874685E-4,2.2392615E-4,-3.251409E-3,4.5098874E-4,4.4555287E-3,-1.1287726E-3,-2.1530002E-4,2.6169196E-3,-1.1640013E-3],"categories":[],"categories_nodes":[],"categories_segments":[],"categories_sizes":[],"default_left":[0,1,0,1,1,0,1,1,0,1,0,0,1,1,0,0,0,0,0,0,0,0,0,0,0,0,0,0,0,0,0],"id":4,"left_children":[1,3,5,7,9,11,13,15,17,19,21,23,25,27,29,-1,-1,-1,-1,-1,-1,-1,-1,-1,-1,-1,-1,-1,-1,-1,-1],"loss_changes":[2.0057995E1,6.5925884E0,1.6640877E1,4.320051E0,2.3021107E0,1.1660217E1,6.931283E0,2.7273731E0,8.421173E-1,2.3228538E0,1.4521573E0,4.0947814E0,1.022464E1,5.369272E0,7.59342E0,0E0,0E0,0E0,0E0,0E0,0E0,0E0,0E0,0E0,0E0,0E0,0E0,0E0,0E0,0E0,0E0],"parents":[2147483647,0,0,1,1,2,2,3,3,4,4,5,5,6,6,7,7,8,8,9,9,10,10,11,11,12,12,13,13,14,14],"right_children":[2,4,6,8,10,12,14,16,18,20,22,24,26,28,30,-1,-1,-1,-1,-1,-1,-1,-1,-1,-1,-1,-1,-1,-1,-1,-1],"split_conditions":[2E0,3E0,1E0,5E0,4E0,2E0,4E0,2E0,4E0,2E0,1E0,6E0,5E0,2E0,2E0,4.069746E-3,1.9256803E-3,1.243836E-3,6.9999998E-3,-3.7012203E-3,2.798331E-3,5.521853E-3,-4.6874685E-4,2.2392615E-4,-3.251409E-3,4.5098874E-4,4.4555287E-3,-1.1287726E-3,-2.1530002E-4,2.6169196E-3,-1.1640013E-3],"split_indices":[1,9,2,6,10,0,20,21,0,17,2,13,22,7,8,0,0,0,0,0,0,0,0,0,0,0,0,0,0,0,0],"split_type":[0,0,0,0,0,0,0,0,0,0,0,0,0,0,0,0,0,0,0,0,0,0,0,0,0,0,0,0,0,0,0],"sum_hessian":[6.3169043E3,3.2148828E2,5.9954155E3,2.7361304E2,4.7875244E1,3.007102E3,2.9883137E3,2.6132065E2,1.2292383E1,3.272843E1,1.5146816E1,1.6084802E2,2.8462542E3,2.771001E3,2.173127E2,9.472866E1,1.66592E2,3.0204675E0,9.271915E0,2.664902E1,6.079411E0,6.1479745E0,8.998841E0,4.812846E1,1.1271957E2,2.7819807E3,6.427342E1,1.7542319E3,1.0167691E3,1.2757644E2,8.973627E1],"tree_param":{"num_deleted":"0","num_feature":"27","num_nodes":"31","size_leaf_vector":"1"}},{"base_weights":[2.314854E-5,2.4130759E-1,-1.2984031E-2,3.004556E-1,-9.725869E-2,3.925442E-2,-6.560185E-2,2.694796E-1,7E-1,-2.4406408E-1,2.141052E-1,-2.2105256E-1,5.3996958E-2,-7.904783E-2,1.05112396E-1,4.0334295E-3,1.9125011E-3,1.238035E-3,6.9999998E-3,-3.6967008E-3,2.779692E-3,5.4721413E-3,-4.6684925E-4,2.2278793E-4,-3.2458748E-3,4.4854707E-4,4.4142837E-3,-1.0379606E-3,-8.130951E-6,2.5972556E-3,-1.1596222E-3],"categories":[],"categories_nodes":[],"categories_segments":[],"categories_sizes":[],"default_left":[0,1,0,1,1,0,1,1,0,1,0,0,1,0,0,0,0,0,0,0,0,0,0,0,0,0,0,0,0,0,0],"id":5,"left_children":[1,3,5,7,9,11,13,15,17,19,21,23,25,27,29,-1,-1,-1,-1,-1,-1,-1,-1,-1,-1,-1,-1,-1,-1,-1,-1],"loss_changes":[1.9831255E1,6.501734E0,1.6482615E1,4.299698E0,2.28398E0,1.1560336E1,6.8655252E0,2.677309E0,8.4605217E-1,2.3090096E0,1.4308362E0,4.0757685E0,1.0070618E1,5.362728E0,7.5001326E0,0E0,0E0,0E0,0E0,0E0,0E0,0E0,0E0,0E0,0E0,0E0,0E0,0E0,0E0,0E0,0E0],"parents":[2147483647,0,0,1,1,2,2,3,3,4,4,5,5,6,6,7,7,8,8,9,9,10,10,11,11,12,12,13,13,14,14],"right_children":[2,4,6,8,10,12,14,16,18,20,22,24,26,28,30,-1,-1,-1,-1,-1,-1,-1,-1,-1,-1,-1,-1,-1,-1,-1,-1],"split_conditions":[2E0,3E0,1E0,5E0,4E0,2E0,4E0,2E0,4E0,2E0,1E0,6E0,5E0,1.6E1,2E0,4.0334295E-3,1.9125011E-3,1.238035E-3,6.9999998E-3,-3.6967008E-3,2.779692E-3,5.4721413E-3,-4.6684925E-4,2.2278793E-4,-3.2458748E-3,4.4854707E-4,4.4142837E-3,-1.0379606E-3,-8.130951E-6,2.5972556E-3,-1.1596222E-3],"split_indices":[1,9,2,6,10,0,20,21,0,17,2,13,22,0,8,0,0,0,0,0,0,0,0,0,0,0,0,0,0,0,0],"split_type":[0,0,0,0,0,0,0,0,0,0,0,0,0,0,0,0,0,0,0,0,0,0,0,0,0,0,0,0,0,0,0],"sum_hessian":[6.3168477E3,3.22213E2,5.994635E3,2.7438937E2,4.7823658E1,3.0082888E3,2.9863457E3,2.6202808E2,1.2361273E1,3.2647015E1,1.5176641E1,1.604929E2,2.847796E3,2.7688032E3,2.1754262E2,9.511498E1,1.6691312E2,3.024227E0,9.337047E0,2.655057E1,6.096447E0,6.182017E0,8.994624E0,4.8139236E1,1.1235366E2,2.7832354E3,6.456043E1,2.103173E3,6.6562994E2,1.2791073E2,8.963188E1],"tree_param":{"num_deleted":"0","num_feature":"27","num_nodes":"31","size_leaf_vector":"1"}},{"base_weights":[2.7524195E-5,2.3966293E-1,-1.2921296E-2,2.9822382E-1,-9.6838884E-2,3.9044242E-2,-6.531911E-2,2.6743484E-1,7E-1,-2.4345474E-1,2.1280175E-1,-2.2044833E-1,5.37006E-2,-7.871785E-2,1.04483195E-1,3.99758E-3,1.8994369E-3,1.2322647E-3,6.9999998E-3,-3.692172E-3,2.7612143E-3,5.4230737E-3,-4.649588E-4,2.2165541E-4,-3.2403322E-3,3.9337424E-4,2.9844476E-3,-1.1213478E-3,-2.1065002E-4,2.5777896E-3,-1.1552548E-3],"categories":[],"categories_nodes":[],"categories_segments":[],"categories_sizes":[],"default_left":[0,1,0,1,1,0,1,1,0,1,0,0,1,1,0,0,0,0,0,0,0,0,0,0,0,0,0,0,0,0,0],"id":6,"left_children":[1,3,5,7,9,11,13,15,17,19,21,23,25,27,29,-1,-1,-1,-1,-1,-1,-1,-1,-1,-1,-1,-1,-1,-1,-1,-1],"loss_changes":[1.9607176E1,6.4122963E0,1.632583E1,4.278284E0,2.2659874E0,1.1461308E1,6.8003902E0,2.6283455E0,8.499775E-1,2.295259E0,1.4098872E0,4.056802E0,1.0008033E1,5.3296757E0,7.408149E0,0E0,0E0,0E0,0E0,0E0,0E0,0E0,0E0,0E0,0E0,0E0,0E0,0E0,0E0,0E0,0E0],"parents":[2147483647,0,0,1,1,2,2,3,3,4,4,5,5,6,6,7,7,8,8,9,9,10,10,11,11,12,12,13,13,14,14],"right_children":[2,4,6,8,10,12,14,16,18,20,22,24,26,28,30,-1,-1,-1,-1,-1,-1,-1,-1,-1,-1,-1,-1,-1,-1,-1,-1],"split_conditions":[2E0,3E0,1E0,5E0,4E0,2E0,4E0,2E0,4E0,2E0,1E0,6E0,4E0,2E0,2E0,3.99758E-3,1.8994369E-3,1.2322647E-3,6.9999998E-3,-3.692172E-3,2.7612143E-3,5.4230737E-3,-4.649588E-4,2.2165541E-4,-3.2403322E-3,3.9337424E-4,2.9844476E-3,-1.1213478E-3,-2.1065002E-4,2.5777896E-3,-1.1552548E-3],"split_indices":[1,9,2,6,10,0,20,21,0,17,2,13,23,7,8,0,0,0,0,0,0,0,0,0,0,0,0,0,0,0,0],"split_type":[0,0,0,0,0,0,0,0,0,0,0,0,0,0,0,0,0,0,0,0,0,0,0,0,0,0,0,0,0,0,0],"sum_hessian":[6.316792E3,3.2293503E2,5.993857E3,2.7516263E2,4.777238E1,3.00947E3,2.9843872E3,2.6273203E2,1.2430608E1,3.2566017E1,1.5206365E1,1.6013953E2,2.8493303E3,2.7666157E3,2.1777136E2,9.549939E1,1.6723264E2,3.0279732E0,9.402635E0,2.64526E1,6.1134167E0,6.2159386E0,8.990426E0,4.8149963E1,1.1198957E2,2.692479E3,1.5685138E2,1.750842E3,1.01577374E3,1.2824338E2,8.952799E1],"tree_param":{"num_deleted":"0","num_feature":"27","num_nodes":"31","size_leaf_vector":"1"}},{"base_weights":[3.1666696E-5,2.380317E-1,-1.2859004E-2,2.9601315E-1,-9.642075E-2,3.8834993E-2,-6.503744E-2,2.6541096E-1,7E-1,-2.4284555E-1,2.115075E-1,-2.1984445E-1,5.3405736E-2,-1.0734385E-1,-1.1338179E-2,3.962189E-3,1.8864864E-3,1.2265247E-3,6.9999998E-3,-3.687633E-3,2.7428954E-3,5.374636E-3,-4.630752E-4,2.2052911E-4,-3.2347816E-3,4.4323324E-4,4.3677073E-3,-1.4097824E-3,-3.213713E-5,-8.149976E-4,6.372987E-4],"categories":[],"categories_nodes":[],"categories_segments":[],"categories_sizes":[],"default_left":[0,1,0,1,1,0,1,1,0,1,0,0,1,0,0,0,0,0,0,0,0,0,0,0,0,0,0,0,0,0,0],"id":7,"left_children":[1,3,5,7,9,11,13,15,17,19,21,23,25,27,29,-1,-1,-1,-1,-1,-1,-1,-1,-1,-1,-1,-1,-1,-1,-1,-1],"loss_changes":[1.938576E1,6.3242493E0,1.6170443E1,4.255802E0,2.2481313E0,1.13630905E1,6.7766256E0,2.5804482E0,8.538904E-1,2.2816014E0,1.3893018E0,4.037883E0,9.91046E0,5.8436527E0,6.935464E0,0E0,0E0,0E0,0E0,0E0,0E0,0E0,0E0,0E0,0E0,0E0,0E0,0E0,0E0,0E0,0E0],"parents":[2147483647,0,0,1,1,2,2,3,3,4,4,5,5,6,6,7,7,8,8,9,9,10,10,11,11,12,12,13,13,14,14],"right_children":[2,4,6,8,10,12,14,16,18,20,22,24,26,28,30,-1,-1,-1,-1,-1,-1,-1,-1,-1,-1,-1,-1,-1,-1,-1,-1],"split_conditions":[2E0,3E0,1E0,5E0,4E0,2E0,2E0,2E0,4E0,2E0,1E0,6E0,5E0,1.6E1,2E0,3.962189E-3,1.8864864E-3,1.2265247E-3,6.9999998E-3,-3.687633E-3,2.7428954E-3,5.374636E-3,-4.630752E-4,2.2052911E-4,-3.2347816E-3,4.4323324E-4,4.3677073E-3,-1.4097824E-3,-3.213713E-5,-8.149976E-4,6.372987E-4],"split_indices":[1,9,2,6,10,0,20,21,0,17,2,13,22,0,5,0,0,0,0,0,0,0,0,0,0,0,0,0,0,0,0],"split_type":[0,0,0,0,0,0,0,0,0,0,0,0,0,0,0,0,0,0,0,0,0,0,0,0,0,0,0,0,0,0,0],"sum_hessian":[6.3167393E3,3.2365433E2,5.993085E3,2.759329E2,4.7721416E1,3.0106462E3,2.9824387E3,2.634325E2,1.2500392E1,3.248543E1,1.5235986E1,1.5978792E2,2.8508584E3,1.6676213E3,1.3148174E3,9.588192E1,1.6755058E2,3.031707E0,9.468685E0,2.635511E1,6.130321E0,6.2497396E0,8.986246E0,4.8160637E1,1.1162727E2,2.7859707E3,6.4887596E1,1.260214E3,4.0740735E2,6.795744E2,6.35243E2],"tree_param":{"num_deleted":"0","num_feature":"27","num_nodes":"31","size_leaf_vector":"1"}},{"base_weights":[3.570204E-5,2.3641373E-1,-1.2797021E-2,2.9382324E-1,-9.6004315E-2,3.8627215E-2,-6.475706E-2,2.6340765E-1,7E-1,-2.4223663E-1,2.1022238E-1,-2.1924093E-1,5.3112935E-2,-1.069262E-1,-1.1283347E-2,3.9272467E-3,1.8736484E-3,1.2208153E-3,6.9999998E-3,-3.6830842E-3,2.7247348E-3,5.326819E-3,-4.6119845E-4,2.1940851E-4,-3.2292227E-3,3.8843582E-4,2.9561962E-3,-1.4047695E-3,-3.1978838E-5,-8.116182E-4,6.337346E-4],"categories":[],"categories_nodes":[],"categories_segments":[],"categories_sizes":[],"default_left":[0,1,0,1,1,0,1,1,0,1,0,0,1,0,0,0,0,0,0,0,0,0,0,0,0,0,0,0,0,0,0],"id":8,"left_children":[1,3,5,7,9,11,13,15,17,19,21,23,25,27,29,-1,-1,-1,-1,-1,-1,-1,-1,-1,-1,-1,-1,-1,-1,-1,-1],"loss_changes":[1.9166933E1,6.2375755E0,1.6016674E1,4.23225E0,2.230412E0,1.1265732E1,6.721904E0,2.5336056E0,8.577919E-1,2.2680364E0,1.3690741E0,4.0190086E0,9.862382E0,5.8004036E0,6.8688617E0,0E0,0E0,0E0,0E0,0E0,0E0,0E0,0E0,0E0,0E0,0E0,0E0,0E0,0E0,0E0,0E0],"parents":[2147483647,0,0,1,1,2,2,3,3,4,4,5,5,6,6,7,7,8,8,9,9,10,10,11,11,12,12,13,13,14,14],"right_children":[2,4,6,8,10,12,14,16,18,20,22,24,26,28,30,-1,-1,-1,-1,-1,-1,-1,-1,-1,-1,-1,-1,-1,-1,-1,-1],"split_conditions":[2E0,3E0,1E0,5E0,4E0,2E0,2E0,2E0,4E0,2E0,1E0,6E0,4E0,1.6E1,2E0,3.9272467E-3,1.8736484E-3,1.2208153E-3,6.9999998E-3,-3.6830842E-3,2.7247348E-3,5.326819E-3,-4.6119845E-4,2.1940851E-4,-3.2292227E-3,3.8843582E-4,2.9561962E-3,-1.4047695E-3,-3.1978838E-5,-8.116182E-4,6.337346E-4],"split_indices":[1,9,2,6,10,0,20,21,0,17,2,13,23,0,5,0,0,0,0,0,0,0,0,0,0,0,0,0,0,0,0],"split_type":[0,0,0,0,0,0,0,0,0,0,0,0,0,0,0,0,0,0,0,0,0,0,0,0,0,0,0,0,0,0,0],"sum_hessian":[6.316688E3,3.2437094E2,5.992317E3,2.7670016E2,4.7670765E1,3.0118154E3,2.9805017E3,2.6412955E2,1.2570625E1,3.240526E1,1.5265507E1,1.5943802E2,2.8523772E3,1.665833E3,1.3146687E3,9.626257E1,1.6786696E2,3.0354276E0,9.535197E0,2.62581E1,6.1471586E0,6.2834196E0,8.982087E0,4.8171257E1,1.1126676E2,2.6949631E3,1.5741429E2,1.2584387E3,4.0739426E2,6.7902075E2,6.3564795E2],"tree_param":{"num_deleted":"0","num_feature":"27","num_nodes":"31","size_leaf_vector":"1"}},{"base_weights":[3.9512983E-5,2.3480885E-1,-1.2735468E-2,2.916538E-1,-9.5589526E-2,3.8420327E-2,-6.4477704E-2,2.614246E-1,7E-1,-2.4162784E-1,2.0894636E-1,-2.1863778E-1,5.2821573E-2,-7.780301E-2,1.03844374E-1,3.8927475E-3,1.860921E-3,1.215136E-3,6.9999998E-3,-3.6785246E-3,2.7067293E-3,5.2796113E-3,-4.5932864E-4,2.1829405E-4,-3.223656E-3,4.3798465E-4,4.3218452E-3,-1.1115391E-3,-2.0321301E-4,2.558808E-3,-1.1513248E-3],"categories":[],"categories_nodes":[],"categories_segments":[],"categories_sizes":[],"default_left":[0,1,0,1,1,0,1,1,0,1,0,0,1,1,0,0,0,0,0,0,0,0,0,0,0,0,0,0,0,0,0],"id":9,"left_children":[1,3,5,7,9,11,13,15,17,19,21,23,25,27,29,-1,-1,-1,-1,-1,-1,-1,-1,-1,-1,-1,-1,-1,-1,-1,-1],"loss_changes":[1.895069E1,6.152235E0,1.5864264E1,4.207649E0,2.2128272E0,1.1169174E1,6.6910915E0,2.487772E0,8.61681E-1,2.254561E0,1.3491949E0,4.0001826E0,9.753454E0,5.291853E0,7.3206472E0,0E0,0E0,0E0,0E0,0E0,0E0,0E0,0E0,0E0,0E0,0E0,0E0,0E0,0E0,0E0,0E0],"parents":[2147483647,0,0,1,1,2,2,3,3,4,4,5,5,6,6,7,7,8,8,9,9,10,10,11,11,12,12,13,13,14,14],"right_children":[2,4,6,8,10,12,14,16,18,20,22,24,26,28,30,-1,-1,-1,-1,-1,-1,-1,-1,-1,-1,-1,-1,-1,-1,-1,-1],"split_conditions":[2E0,3E0,1E0,5E0,4E0,2E0,4E0,2E0,4E0,2E0,1E0,6E0,5E0,2E0,2E0,3.8927475E-3,1.860921E-3,1.215136E-3,6.9999998E-3,-3.6785246E-3,2.7067293E-3,5.2796113E-3,-4.5932864E-4,2.1829405E-4,-3.223656E-3,4.3798465E-4,4.3218452E-3,-1.1115391E-3,-2.0321301E-4,2.558808E-3,-1.1513248E-3],"split_indices":[1,9,2,6,10,0,20,21,0,17,2,13,22,7,8,0,0,0,0,0,0,0,0,0,0,0,0,0,0,0,0],"split_type":[0,0,0,0,0,0,0,0,0,0,0,0,0,0,0,0,0,0,0,0,0,0,0,0,0,0,0,0,0,0,0],"sum_hessian":[6.3166396E3,3.250849E2,5.9915547E3,2.7746445E2,4.7620426E1,3.0129805E3,2.978574E3,2.6482315E2,1.2641314E1,3.23255E1,1.5294925E1,1.5908987E2,2.8538906E3,2.7605698E3,2.1800414E2,9.6641365E1,1.6818178E2,3.0391355E0,9.602179E0,2.616157E1,6.163931E0,6.31698E0,8.977945E0,4.818183E1,1.1090804E2,2.7886777E3,6.5212944E1,1.7463839E3,1.01418604E3,1.285694E2,8.943474E1],"tree_param":{"num_deleted":"0","num_feature":"27","num_nodes":"31","size_leaf_vector":"1"}},{"base_weights":[4.349792E-5,2.332169E-1,-1.2673936E-2,2.895046E-1,-9.517643E-2,3.8214907E-2,-6.419913E-2,2.5946158E-1,7E-1,-2.410193E-1,2.0767932E-1,-2.1803497E-1,5.2532263E-2,-1.0620484E-1,-1.1000241E-2,3.8586813E-3,1.8483038E-3,1.2094865E-3,6.9999998E-3,-3.6739558E-3,2.6888784E-3,5.2330014E-3,-4.574657E-4,2.1718541E-4,-3.2180806E-3,3.835589E-4,2.9283157E-3,-1.3969749E-3,-2.7996964E-5,-8.060962E-4,6.325416E-4],"categories":[],"categories_nodes":[],"categories_segments":[],"categories_sizes":[],"default_left":[0,1,0,1,1,0,1,1,0,1,0,0,1,0,0,0,0,0,0,0,0,0,0,0,0,0,0,0,0,0,0],"id":10,"left_children":[1,3,5,7,9,11,13,15,17,19,21,23,25,27,29,-1,-1,-1,-1,-1,-1,-1,-1,-1,-1,-1,-1,-1,-1,-1,-1],"loss_changes":[1.8736929E1,6.068218E0,1.5713276E1,4.18198E0,2.195377E0,1.1073458E1,6.6528683E0,2.4429302E0,8.655615E-1,2.2411757E0,1.3296582E0,3.9814005E0,9.719282E0,5.7617035E0,6.801567E0,0E0,0E0,0E0,0E0,0E0,0E0,0E0,0E0,0E0,0E0,0E0,0E0,0E0,0E0,0E0,0E0],"parents":[2147483647,0,0,1,1,2,2,3,3,4,4,5,5,6,6,7,7,8,8,9,9,10,10,11,11,12,12,13,13,14,14],"right_children":[2,4,6,8,10,12,14,16,18,20,22,24,26,28,30,-1,-1,-1,-1,-1,-1,-1,-1,-1,-1,-1,-1,-1,-1,-1,-1],"split_conditions":[2E0,3E0,1E0,5E0,4E0,2E0,2E0,2E0,4E0,2E0,1E0,6E0,4E0,1.6E1,2E0,3.8586813E-3,1.8483038E-3,1.2094865E-3,6.9999998E-3,-3.6739558E-3,2.6888784E-3,5.2330014E-3,-4.574657E-4,2.1718541E-4,-3.2180806E-3,3.835589E-4,2.9283157E-3,-1.3969749E-3,-2.7996964E-5,-8.060962E-4,6.325416E-4],"split_indices":[1,9,2,6,10,0,20,21,0,17,2,13,23,0,5,0,0,0,0,0,0,0,0,0,0,0,0,0,0,0,0],"split_type":[0,0,0,0,0,0,0,0,0,0,0,0,0,0,0,0,0,0,0,0,0,0,0,0,0,0,0,0,0,0,0],"sum_hessian":[6.316589E3,3.2579617E2,5.9907925E3,2.782258E2,4.757039E1,3.0141382E3,2.9766543E3,2.6551334E2,1.27124605E1,3.224615E1,1.5324241E1,1.5874344E2,2.8553948E3,1.6627527E3,1.3139016E3,9.7018295E1,1.6849504E2,3.0428307E0,9.66963E0,2.6065512E1,6.1806374E0,6.3504186E0,8.973823E0,4.819235E1,1.10551094E2,2.697421E3,1.5797379E2,1.2556877E3,4.070649E2,6.78118E2,6.3578357E2],"tree_param":{"num_deleted":"0","num_feature":"27","num_nodes":"31","size_leaf_vector":"1"}},{"base_weights":[4.716041E-5,2.316377E-1,-1.26129305E-2,2.8737524E-1,-9.4765E-2,3.801044E-2,-6.3921824E-2,2.5751826E-1,7E-1,-2.4041098E-1,2.0642117E-1,-2.174326E-1,5.2244455E-2,-7.718678E-2,1.03215784E-1,3.825041E-3,1.835795E-3,1.2038667E-3,6.9999998E-3,-3.669377E-3,2.6711794E-3,5.186979E-3,-4.5560978E-4,2.1608283E-4,-3.2124987E-3,4.328012E-4,4.2766808E-3,-1.1045281E-3,-1.990577E-4,2.5398533E-3,-1.1471995E-3],"categories":[],"categories_nodes":[],"categories_segments":[],"categories_sizes":[],"default_left":[0,1,0,1,1,0,1,1,0,1,0,0,1,1,0,0,0,0,0,0,0,0,0,0,0,0,0,0,0,0,0],"id":11,"left_children":[1,3,5,7,9,11,13,15,17,19,21,23,25,27,29,-1,-1,-1,-1,-1,-1,-1,-1,-1,-1,-1,-1,-1,-1,-1,-1],"loss_changes":[1.8525686E1,5.985491E0,1.55637245E1,4.15526E0,2.17806E0,1.0978534E1,6.6054115E0,2.3990593E0,8.6943245E-1,2.22788E0,1.3104557E0,3.9626713E0,9.599508E0,5.2522736E0,7.232733E0,0E0,0E0,0E0,0E0,0E0,0E0,0E0,0E0,0E0,0E0,0E0,0E0,0E0,0E0,0E0,0E0],"parents":[2147483647,0,0,1,1,2,2,3,3,4,4,5,5,6,6,7,7,8,8,9,9,10,10,11,11,12,12,13,13,14,14],"right_children":[2,4,6,8,10,12,14,16,18,20,22,24,26,28,30,-1,-1,-1,-1,-1,-1,-1,-1,-1,-1,-1,-1,-1,-1,-1,-1],"split_conditions":[2E0,3E0,1E0,5E0,4E0,2E0,4E0,2E0,4E0,2E0,1E0,6E0,5E0,2E0,2E0,3.825041E-3,1.835795E-3,1.2038667E-3,6.9999998E-3,-3.669377E-3,2.6711794E-3,5.186979E-3,-4.5560978E-4,2.1608283E-4,-3.2124987E-3,4.328012E-4,4.2766808E-3,-1.1045281E-3,-1.990577E-4,2.5398533E-3,-1.1471995E-3],"split_indices":[1,9,2,6,10,0,20,21,0,17,2,13,22,7,8,0,0,0,0,0,0,0,0,0,0,0,0,0,0,0,0],"split_type":[0,0,0,0,0,0,0,0,0,0,0,0,0,0,0,0,0,0,0,0,0,0,0,0,0,0,0,0,0,0,0],"sum_hessian":[6.316542E3,3.2650488E2,5.990037E3,2.7898422E2,4.752066E1,3.0152913E3,2.9747458E3,2.6620016E2,1.2784067E1,3.2167202E1,1.5353456E1,1.5839871E2,2.8568926E3,2.7565122E3,2.1823364E2,9.739339E1,1.6880676E2,3.046513E0,9.737555E0,2.5969925E1,6.1972785E0,6.383738E0,8.969717E0,4.8202816E1,1.1019589E2,2.7913562E3,6.55365E1,1.743211E3,1.01330115E3,1.288966E2,8.9337036E1],"tree_param":{"num_deleted":"0","num_feature":"27","num_nodes":"31","size_leaf_vector":"1"}},{"base_weights":[5.0957242E-5,2.300711E-1,-1.2551983E-2,2.8526554E-1,-9.435525E-2,3.7807345E-2,-6.364529E-2,2.5559437E-1,7E-1,-2.3980294E-1,2.0517191E-1,-2.1683057E-1,5.1958587E-2,-1.0548733E-1,-1.0720564E-2,3.7918198E-3,1.8233932E-3,1.1982765E-3,6.9999998E-3,-3.664789E-3,2.653631E-3,5.1415353E-3,-4.5376073E-4,2.14986E-4,-3.2069078E-3,3.787436E-4,2.9007986E-3,-1.3892126E-3,-2.4061803E-5,-8.006097E-4,6.313317E-4],"categories":[],"categories_nodes":[],"categories_segments":[],"categories_sizes":[],"default_left":[0,1,0,1,1,0,1,1,0,1,0,0,1,0,0,0,0,0,0,0,0,0,0,0,0,0,0,0,0,0,0],"id":12,"left_children":[1,3,5,7,9,11,13,15,17,19,21,23,25,27,29,-1,-1,-1,-1,-1,-1,-1,-1,-1,-1,-1,-1,-1,-1,-1,-1],"loss_changes":[1.8316858E1,5.9040375E0,1.541555E1,4.1274853E0,2.1608758E0,1.0884429E1,6.584385E0,2.356121E0,8.732929E-1,2.2146726E0,1.2915823E0,3.9439855E0,9.578678E0,5.723116E0,6.734853E0,0E0,0E0,0E0,0E0,0E0,0E0,0E0,0E0,0E0,0E0,0E0,0E0,0E0,0E0,0E0,0E0],"parents":[2147483647,0,0,1,1,2,2,3,3,4,4,5,5,6,6,7,7,8,8,9,9,10,10,11,11,12,12,13,13,14,14],"right_children":[2,4,6,8,10,12,14,16,18,20,22,24,26,28,30,-1,-1,-1,-1,-1,-1,-1,-1,-1,-1,-1,-1,-1,-1,-1,-1],"split_conditions":[2E0,3E0,1E0,5E0,4E0,2E0,2E0,2E0,4E0,2E0,1E0,6E0,4E0,1.6E1,2E0,3.7918198E-3,1.8233932E-3,1.1982765E-3,6.9999998E-3,-3.664789E-3,2.653631E-3,5.1415353E-3,-4.5376073E-4,2.14986E-4,-3.2069078E-3,3.787436E-4,2.9007986E-3,-1.3892126E-3,-2.4061803E-5,-8.006097E-4,6.313317E-4],"split_indices":[1,9,2,6,10,0,20,21,0,17,2,13,23,0,5,0,0,0,0,0,0,0,0,0,0,0,0,0,0,0,0],"split_type":[0,0,0,0,0,0,0,0,0,0,0,0,0,0,0,0,0,0,0,0,0,0,0,0,0,0,0,0,0,0,0],"sum_hessian":[6.3164937E3,3.2721094E2,5.9892827E3,2.7973972E2,4.7471226E1,3.0164375E3,2.9728452E3,2.6688358E2,1.2856139E1,3.2088657E1,1.5382568E1,1.580557E2,2.8583818E3,1.6597004E3,1.3131448E3,9.776663E1,1.6911696E2,3.050183E0,9.805956E0,2.5874802E1,6.2138553E0,6.416936E0,8.9656315E0,4.8213238E1,1.0984245E2,2.699852E3,1.5852986E2,1.2529606E3,4.0673996E2,6.772235E2,6.359212E2],"tree_param":{"num_deleted":"0","num_feature":"27","num_nodes":"31","size_leaf_vector":"1"}},{"base_weights":[5.442599E-5,2.2851692E-1,-1.2491567E-2,2.8317514E-1,-9.394713E-2,3.7605185E-2,-6.337003E-2,2.5368965E-1,7E-1,-2.3919508E-1,2.0393142E-1,-2.1622896E-1,5.1674183E-2,-1.0507496E-1,-1.06686605E-2,3.759009E-3,1.8110974E-3,1.1927157E-3,6.9999998E-3,-3.66019E-3,2.636231E-3,5.096658E-3,-4.519183E-4,2.1389493E-4,-3.2013091E-3,4.2768093E-4,4.232201E-3,-1.3842444E-3,-2.3943205E-5,-7.9727854E-4,6.278048E-4],"categories":[],"categories_nodes":[],"categories_segments":[],"categories_sizes":[],"default_left":[0,1,0,1,1,0,1,1,0,1,0,0,1,0,0,0,0,0,0,0,0,0,0,0,0,0,0,0,0,0,0],"id":13,"left_children":[1,3,5,7,9,11,13,15,17,19,21,23,25,27,29,-1,-1,-1,-1,-1,-1,-1,-1,-1,-1,-1,-1,-1,-1,-1,-1],"loss_changes":[1.811049E1,5.82382E0,1.5268782E1,4.098665E0,2.1438217E0,1.0791106E1,6.530965E0,2.314106E0,8.771391E-1,2.2015517E0,1.27303E0,3.9253492E0,9.448563E0,5.6804886E0,6.6700797E0,0E0,0E0,0E0,0E0,0E0,0E0,0E0,0E0,0E0,0E0,0E0,0E0,0E0,0E0,0E0,0E0],"parents":[2147483647,0,0,1,1,2,2,3,3,4,4,5,5,6,6,7,7,8,8,9,9,10,10,11,11,12,12,13,13,14,14],"right_children":[2,4,6,8,10,12,14,16,18,20,22,24,26,28,30,-1,-1,-1,-1,-1,-1,-1,-1,-1,-1,-1,-1,-1,-1,-1,-1],"split_conditions":[2E0,3E0,1E0,5E0,4E0,2E0,2E0,2E0,4E0,2E0,1E0,6E0,5E0,1.6E1,2E0,3.759009E-3,1.8110974E-3,1.1927157E-3,6.9999998E-3,-3.66019E-3,2.636231E-3,5.096658E-3,-4.519183E-4,2.1389493E-4,-3.2013091E-3,4.2768093E-4,4.232201E-3,-1.3842444E-3,-2.3943205E-5,-7.9727854E-4,6.278048E-4],"split_indices":[1,9,2,6,10,0,20,21,0,17,2,13,22,0,5,0,0,0,0,0,0,0,0,0,0,0,0,0,0,0,0],"split_type":[0,0,0,0,0,0,0,0,0,0,0,0,0,0,0,0,0,0,0,0,0,0,0,0,0,0,0,0,0,0,0],"sum_hessian":[6.3164497E3,3.2791443E2,5.988535E3,2.8049234E2,4.7422096E1,3.0175796E3,2.9709558E3,2.6756366E2,1.29286785E1,3.201052E1,1.5411579E1,1.5771436E2,2.8598652E3,1.6579514E3,1.3130044E3,9.8138054E1,1.694256E2,3.0538402E0,9.874838E0,2.5780153E1,6.230366E0,6.450014E0,8.961565E0,4.82236E1,1.0949076E2,2.7940068E3,6.585825E1,1.2512212E3,4.0673022E2,6.766815E2,6.363228E2],"tree_param":{"num_deleted":"0","num_feature":"27","num_nodes":"31","size_leaf_vector":"1"}},{"base_weights":[5.7921014E-5,2.2697507E-1,-1.2431317E-2,2.8110385E-1,-9.354066E-2,3.7404437E-2,-6.309579E-2,2.518039E-1,7E-1,-2.3858748E-1,2.0269966E-1,-2.1562771E-1,5.1391765E-2,-7.628708E-2,1.0258085E-1,3.7266023E-3,1.7989068E-3,1.1871838E-3,6.9999998E-3,-3.6555817E-3,2.6189785E-3,5.0523407E-3,-4.500829E-4,2.1280954E-4,-3.1957023E-3,3.7398862E-4,2.873639E-3,-1.0948539E-3,-1.9179222E-4,2.5211775E-3,-1.1433195E-3],"categories":[],"categories_nodes":[],"categories_segments":[],"categories_sizes":[],"default_left":[0,1,0,1,1,0,1,1,0,1,0,0,1,1,0,0,0,0,0,0,0,0,0,0,0,0,0,0,0,0,0],"id":14,"left_children":[1,3,5,7,9,11,13,15,17,19,21,23,25,27,29,-1,-1,-1,-1,-1,-1,-1,-1,-1,-1,-1,-1,-1,-1,-1,-1],"loss_changes":[1.790649E1,5.744829E0,1.512347E1,4.0688E0,2.1268988E0,1.0698589E1,6.498893E0,2.272974E0,8.809757E-1,2.1885173E0,1.2547929E0,3.9067607E0,9.4405155E0,5.214634E0,7.147525E0,0E0,0E0,0E0,0E0,0E0,0E0,0E0,0E0,0E0,0E0,0E0,0E0,0E0,0E0,0E0,0E0],"parents":[2147483647,0,0,1,1,2,2,3,3,4,4,5,5,6,6,7,7,8,8,9,9,10,10,11,11,12,12,13,13,14,14],"right_children":[2,4,6,8,10,12,14,16,18,20,22,24,26,28,30,-1,-1,-1,-1,-1,-1,-1,-1,-1,-1,-1,-1,-1,-1,-1,-1],"split_conditions":[2E0,3E0,1E0,5E0,4E0,2E0,4E0,2E0,4E0,2E0,1E0,6E0,4E0,2E0,2E0,3.7266023E-3,1.7989068E-3,1.1871838E-3,6.9999998E-3,-3.6555817E-3,2.6189785E-3,5.0523407E-3,-4.500829E-4,2.1280954E-4,-3.1957023E-3,3.7398862E-4,2.873639E-3,-1.0948539E-3,-1.9179222E-4,2.5211775E-3,-1.1433195E-3],"split_indices":[1,9,2,6,10,0,20,21,0,17,2,13,23,7,8,0,0,0,0,0,0,0,0,0,0,0,0,0,0,0,0],"split_type":[0,0,0,0,0,0,0,0,0,0,0,0,0,0,0,0,0,0,0,0,0,0,0,0,0,0,0,0,0,0,0],"sum_hessian":[6.3164053E3,3.2861533E2,5.98779E3,2.8124207E2,4.7373264E1,3.0187146E3,2.9690754E3,2.6824036E2,1.3001689E1,3.1932777E1,1.5440487E1,1.5737473E2,2.8613398E3,2.7506096E3,2.1846597E2,9.850765E1,1.6973271E2,3.0574846E0,9.944204E0,2.5685965E1,6.2468123E0,6.482971E0,8.957516E0,4.823392E1,1.0914081E2,2.7022573E3,1.5908255E2,1.738852E3,1.0117575E3,1.2922064E2,8.9245346E1],"tree_param":{"num_deleted":"0","num_feature":"27","num_nodes":"31","size_leaf_vector":"1"}},{"base_weights":[6.133572E-5,2.2544535E-1,-1.2371344E-2,2.7905133E-1,-9.313584E-2,3.7204545E-2,-6.282231E-2,2.499368E-1,7E-1,-2.3798013E-1,2.0147654E-1,-2.1502687E-1,5.1110726E-2,-1.0436336E-1,-1.0393782E-2,2.9665094E-3,7.117501E-4,1.1816808E-3,6.9999998E-3,-3.6509635E-3,2.6018715E-3,5.00857E-3,-4.482542E-4,2.1172987E-4,-3.1900879E-3,3.7199236E-4,2.851284E-3,-1.3765326E-3,-2.006927E-5,-7.918474E-4,6.2658597E-4],"categories":[],"categories_nodes":[],"categories_segments":[],"categories_sizes":[],"default_left":[0,1,0,1,1,0,1,1,0,1,0,0,1,0,0,0,0,0,0,0,0,0,0,0,0,0,0,0,0,0,0],"id":15,"left_children":[1,3,5,7,9,11,13,15,17,19,21,23,25,27,29,-1,-1,-1,-1,-1,-1,-1,-1,-1,-1,-1,-1,-1,-1,-1,-1],"loss_changes":[1.7704842E1,5.66704E0,1.4979353E1,4.03788E0,2.1101048E0,1.0606832E1,6.4634733E0,2.2328548E0,8.848047E-1,2.1755688E0,1.2368636E0,3.8882194E0,9.312622E0,5.642235E0,6.604551E0,0E0,0E0,0E0,0E0,0E0,0E0,0E0,0E0,0E0,0E0,0E0,0E0,0E0,0E0,0E0,0E0],"parents":[2147483647,0,0,1,1,2,2,3,3,4,4,5,5,6,6,7,7,8,8,9,9,10,10,11,11,12,12,13,13,14,14],"right_children":[2,4,6,8,10,12,14,16,18,20,22,24,26,28,30,-1,-1,-1,-1,-1,-1,-1,-1,-1,-1,-1,-1,-1,-1,-1,-1],"split_conditions":[2E0,3E0,1E0,5E0,4E0,2E0,2E0,3E0,4E0,2E0,1E0,6E0,4E0,1.6E1,2E0,2.9665094E-3,7.117501E-4,1.1816808E-3,6.9999998E-3,-3.6509635E-3,2.6018715E-3,5.00857E-3,-4.482542E-4,2.1172987E-4,-3.1900879E-3,3.7199236E-4,2.851284E-3,-1.3765326E-3,-2.006927E-5,-7.918474E-4,6.2658597E-4],"split_indices":[1,9,2,6,10,0,20,11,0,17,2,13,23,0,5,0,0,0,0,0,0,0,0,0,0,0,0,0,0,0,0],"split_type":[0,0,0,0,0,0,0,0,0,0,0,0,0,0,0,0,0,0,0,0,0,0,0,0,0,0,0,0,0,0,0],"sum_hessian":[6.316362E3,3.2931366E2,5.987048E3,2.8198895E2,4.7324726E1,3.0198452E3,2.967203E3,2.6891376E2,1.3075175E1,3.1855434E1,1.5469293E1,1.5703677E2,2.8628083E3,1.6549414E3,1.3122615E3,2.1267732E2,5.6236454E1,3.0611167E0,1.0014059E1,2.559224E1,6.263194E0,6.515808E0,8.953485E0,4.8244186E1,1.0879259E2,2.703268E3,1.5954033E2,1.2485306E3,4.0641083E2,6.7579974E2,6.3646173E2],"tree_param":{"num_deleted":"0","num_feature":"27","num_nodes":"31","size_leaf_vector":"1"}},{"base_weights":[6.440652E-5,2.2392367E-1,-1.2311766E-2,2.7701244E-1,-9.2732646E-2,3.700584E-2,-6.25501E-2,2.4808311E-1,7E-1,4.8065513E-2,-3.988717E-1,-2.1442649E-1,5.083141E-2,-7.5680986E-2,1.0195863E-1,3.6729246E-3,1.7702249E-3,1.1762069E-3,6.9999998E-3,-7.923228E-4,5.1455125E-3,-1.2085693E-3,-4.563201E-3,2.1065626E-4,-3.184466E-3,4.198885E-4,4.1828807E-3,-1.0879327E-3,-1.8774824E-4,2.5025606E-3,-1.1392294E-3],"categories":[],"categories_nodes":[],"categories_segments":[],"categories_sizes":[],"default_left":[0,1,0,1,0,0,1,1,0,0,0,0,1,1,0,0,0,0,0,0,0,0,0,0,0,0,0,0,0,0,0],"id":16,"left_children":[1,3,5,7,9,11,13,15,17,19,21,23,25,27,29,-1,-1,-1,-1,-1,-1,-1,-1,-1,-1,-1,-1,-1,-1,-1,-1],"loss_changes":[1.750503E1,5.5902843E0,1.4836683E1,4.0060024E0,2.100072E0,1.051586E1,6.4154444E0,2.2271347E0,8.886175E-1,2.0574293E0,1.8947148E-1,3.8697271E0,9.292439E0,5.175331E0,7.061948E0,0E0,0E0,0E0,0E0,0E0,0E0,0E0,0E0,0E0,0E0,0E0,0E0,0E0,0E0,0E0,0E0],"parents":[2147483647,0,0,1,1,2,2,3,3,4,4,5,5,6,6,7,7,8,8,9,9,10,10,11,11,12,12,13,13,14,14],"right_children":[2,4,6,8,10,12,14,16,18,20,22,24,26,28,30,-1,-1,-1,-1,-1,-1,-1,-1,-1,-1,-1,-1,-1,-1,-1,-1],"split_conditions":[2E0,3E0,1E0,5E0,7E0,2E0,4E0,2E0,4E0,3E0,1.1E1,6E0,5E0,2E0,2E0,3.6729246E-3,1.7702249E-3,1.1762069E-3,6.9999998E-3,-7.923228E-4,5.1455125E-3,-1.2085693E-3,-4.563201E-3,2.1065626E-4,-3.184466E-3,4.198885E-4,4.1828807E-3,-1.0879327E-3,-1.8774824E-4,2.5025606E-3,-1.1392294E-3],"split_indices":[1,9,2,6,14,0,20,21,0,7,0,13,22,7,8,0,0,0,0,0,0,0,0,0,0,0,0,0,0,0,0],"split_type":[0,0,0,0,0,0,0,0,0,0,0,0,0,0,0,0,0,0,0,0,0,0,0,0,0,0,0,0,0,0,0],"sum_hessian":[6.3163228E3,3.3001126E2,5.9863115E3,2.8273477E2,4.727648E1,3.0209705E3,2.9653413E3,2.6958563E2,1.314914E1,3.2960445E1,1.4316033E1,1.5670047E2,2.86427E3,2.7466472E3,2.1869412E2,9.912595E1,1.7045969E2,3.0647361E0,1.0084404E1,2.6546429E1,6.414018E0,2.9831574E0,1.1332876E1,4.82544E1,1.08446075E2,2.7980513E3,6.621868E1,1.735747E3,1.01090027E3,1.2954524E2,8.914888E1],"tree_param":{"num_deleted":"0","num_feature":"27","num_nodes":"31","size_leaf_vector":"1"}},{"base_weights":[6.738025E-5,3.0288767E-2,-9.085756E-2,1.0751646E-3,1.4715102E-1,-1.5244967E-1,-4.9891546E-2,2.2240736E-1,-2.0119462E-2,2.8846842E-1,7.580504E-2,-2.3191445E-1,-8.785666E-2,8.357448E-2,-1.16523534E-1,2.7499679E-3,-9.237148E-4,-2.2107835E-3,-9.1241935E-5,4.1204793E-3,1.5842725E-3,-7.5867894E-4,1.7061648E-3,-3.1449576E-3,-1.6094991E-3,-1.7368144E-3,-1.2794316E-4,3.412795E-4,5.902757E-3,-4.391293E-4,-1.9405044E-3],"categories":[],"categories_nodes":[],"categories_segments":[],"categories_sizes":[],"default_left":[0,0,0,0,0,0,0,1,0,0,1,0,0,0,0,0,0,0,0,0,0,0,0,0,0,0,0,0,0,0,0],"id":17,"left_children":[1,3,5,7,9,11,13,15,17,19,21,23,25,27,29,-1,-1,-1,-1,-1,-1,-1,-1,-1,-1,-1,-1,-1,-1,-1,-1],"loss_changes":[1.736188E1,1.6189262E1,3.9693623E0,1.7805845E1,9.5399475E0,3.208726E0,8.441019E0,5.516527E0,7.6521153E0,5.042034E0,9.094928E0,1.5988855E0,2.243749E0,7.9042873E0,3.553588E0,0E0,0E0,0E0,0E0,0E0,0E0,0E0,0E0,0E0,0E0,0E0,0E0,0E0,0E0,0E0,0E0],"parents":[2147483647,0,0,1,1,2,2,3,3,4,4,5,5,6,6,7,7,8,8,9,9,10,10,11,11,12,12,13,13,14,14],"right_children":[2,4,6,8,10,12,14,16,18,20,22,24,26,28,30,-1,-1,-1,-1,-1,-1,-1,-1,-1,-1,-1,-1,-1,-1,-1,-1],"split_conditions":[1.6E1,1.3E1,1.8E1,2E0,1.4E1,2E0,1.9E1,3E0,2E0,1E0,1E0,2E0,7E0,1.5E1,2E0,2.7499679E-3,-9.237148E-4,-2.2107835E-3,-9.1241935E-5,4.1204793E-3,1.5842725E-3,-7.5867894E-4,1.7061648E-3,-3.1449576E-3,-1.6094991E-3,-1.7368144E-3,-1.2794316E-4,3.412795E-4,5.902757E-3,-4.391293E-4,-1.9405044E-3],"split_indices":[1,1,1,1,1,15,1,9,0,2,18,5,13,14,9,0,0,0,0,0,0,0,0,0,0,0,0,0,0,0,0],"split_type":[0,0,0,0,0,0,0,0,0,0,0,0,0,0,0,0,0,0,0,0,0,0,0,0,0,0,0,0,0,0,0],"sum_hessian":[6.316285E3,4.7411133E3,1.5751716E3,3.793749E3,9.473643E2,6.281025E2,9.4706915E2,3.3070932E2,3.4630396E3,3.168083E2,6.30556E2,2.8046878E2,3.476337E2,3.152863E2,6.317829E2,2.8347598E2,4.7233345E1,1.7865642E2,3.2843833E3,1.6132796E2,1.5548033E2,2.4262335E2,3.8793268E2,1.2803864E2,1.5243015E2,1.615765E2,1.8605719E2,2.8822696E2,2.7059324E1,3.2704428E2,3.047386E2],"tree_param":{"num_deleted":"0","num_feature":"27","num_nodes":"31","size_leaf_vector":"1"}},{"base_weights":[6.685883E-5,3.012951E-2,-9.048985E-2,1.0695589E-3,1.4620817E-1,-1.5192845E-1,-4.9667258E-2,2.2081338E-1,-2.002395E-2,2.8622046E-1,7.537176E-2,-2.3130447E-1,-8.749972E-2,8.310057E-2,-1.1608195E-1,2.728853E-3,-9.200568E-4,-2.2047204E-3,-9.079716E-5,4.0833456E-3,1.5739698E-3,-7.55499E-4,1.6948202E-3,-3.1392665E-3,-1.604128E-3,-1.731236E-3,-1.273273E-4,3.3947505E-4,5.8410577E-3,-4.371471E-4,-1.9346472E-3],"categories":[],"categories_nodes":[],"categories_segments":[],"categories_sizes":[],"default_left":[0,0,0,0,0,0,0,1,0,0,1,0,0,0,0,0,0,0,0,0,0,0,0,0,0,0,0,0,0,0,0],"id":18,"left_children":[1,3,5,7,9,11,13,15,17,19,21,23,25,27,29,-1,-1,-1,-1,-1,-1,-1,-1,-1,-1,-1,-1,-1,-1,-1,-1],"loss_changes":[1.720076E1,1.6000965E1,3.9420443E0,1.7593922E1,9.398073E0,3.1921883E0,8.365273E0,5.4403496E0,7.595714E0,4.9495792E0,8.989766E0,1.5944748E0,2.2277443E0,7.7753887E0,3.5310001E0,0E0,0E0,0E0,0E0,0E0,0E0,0E0,0E0,0E0,0E0,0E0,0E0,0E0,0E0,0E0,0E0],"parents":[2147483647,0,0,1,1,2,2,3,3,4,4,5,5,6,6,7,7,8,8,9,9,10,10,11,11,12,12,13,13,14,14],"right_children":[2,4,6,8,10,12,14,16,18,20,22,24,26,28,30,-1,-1,-1,-1,-1,-1,-1,-1,-1,-1,-1,-1,-1,-1,-1,-1],"split_conditions":[1.6E1,1.3E1,1.8E1,2E0,1.4E1,2E0,1.9E1,3E0,2E0,1E0,1E0,2E0,7E0,1.5E1,2E0,2.728853E-3,-9.200568E-4,-2.2047204E-3,-9.079716E-5,4.0833456E-3,1.5739698E-3,-7.55499E-4,1.6948202E-3,-3.1392665E-3,-1.604128E-3,-1.731236E-3,-1.273273E-4,3.3947505E-4,5.8410577E-3,-4.371471E-4,-1.9346472E-3],"split_indices":[1,1,1,1,1,15,1,9,0,2,18,5,13,14,9,0,0,0,0,0,0,0,0,0,0,0,0,0,0,0,0],"split_type":[0,0,0,0,0,0,0,0,0,0,0,0,0,0,0,0,0,0,0,0,0,0,0,0,0,0,0,0,0,0,0],"sum_hessian":[6.3162915E3,4.742547E3,1.5737445E3,3.7937917E3,9.4875543E2,6.2715106E2,9.465934E2,3.3144635E2,3.4623452E3,3.1772092E2,6.310345E2,2.798216E2,3.473295E2,3.1554486E2,6.310485E2,2.8425662E2,4.718973E1,1.7826187E2,3.2840835E3,1.6199408E2,1.5572685E2,2.4243936E2,3.8859512E2,1.2763659E2,1.52185E2,1.6129613E2,1.8603339E2,2.8832535E2,2.721952E1,3.269007E2,3.0414783E2],"tree_param":{"num_deleted":"0","num_feature":"27","num_nodes":"31","size_leaf_vector":"1"}},{"base_weights":[6.6335E-5,2.997114E-2,-9.012332E-2,1.0639831E-3,1.4527272E-1,-1.5140824E-1,-4.944389E-2,2.1923433E-1,-1.992887E-2,2.8399634E-1,7.494127E-2,-2.3069473E-1,-8.714392E-2,8.2629666E-2,-1.15641534E-1,2.707957E-3,-9.1641E-4,-2.1986598E-3,-9.035451E-5,4.046696E-3,1.5637499E-3,-7.5232994E-4,1.68357E-3,-3.133568E-3,-1.5987663E-3,-1.7256654E-3,-1.2671454E-4,3.376805E-4,5.780336E-3,-4.35173E-4,-1.9287964E-3],"categories":[],"categories_nodes":[],"categories_segments":[],"categories_sizes":[],"default_left":[0,0,0,0,0,0,0,1,0,0,1,0,0,0,0,0,0,0,0,0,0,0,0,0,0,0,0,0,0,0,0],"id":19,"left_children":[1,3,5,7,9,11,13,15,17,19,21,23,25,27,29,-1,-1,-1,-1,-1,-1,-1,-1,-1,-1,-1,-1,-1,-1,-1,-1],"loss_changes":[1.704111E1,1.5815038E1,3.9148703E0,1.7384779E1,9.258633E0,3.175685E0,8.290184E0,5.365406E0,7.5396705E0,4.8591614E0,8.885926E0,1.5900526E0,2.211832E0,7.6490707E0,3.5085163E0,0E0,0E0,0E0,0E0,0E0,0E0,0E0,0E0,0E0,0E0,0E0,0E0,0E0,0E0,0E0,0E0],"parents":[2147483647,0,0,1,1,2,2,3,3,4,4,5,5,6,6,7,7,8,8,9,9,10,10,11,11,12,12,13,13,14,14],"right_children":[2,4,6,8,10,12,14,16,18,20,22,24,26,28,30,-1,-1,-1,-1,-1,-1,-1,-1,-1,-1,-1,-1,-1,-1,-1,-1],"split_conditions":[1.6E1,1.3E1,1.8E1,2E0,1.4E1,2E0,1.9E1,3E0,2E0,1E0,1E0,2E0,7E0,1.5E1,2E0,2.707957E-3,-9.1641E-4,-2.1986598E-3,-9.035451E-5,4.046696E-3,1.5637499E-3,-7.5232994E-4,1.68357E-3,-3.133568E-3,-1.5987663E-3,-1.7256654E-3,-1.2671454E-4,3.376805E-4,5.780336E-3,-4.35173E-4,-1.9287964E-3],"split_indices":[1,1,1,1,1,15,1,9,0,2,18,5,13,14,9,0,0,0,0,0,0,0,0,0,0,0,0,0,0,0,0],"split_type":[0,0,0,0,0,0,0,0,0,0,0,0,0,0,0,0,0,0,0,0,0,0,0,0,0,0,0,0,0,0,0],"sum_hessian":[6.3162983E3,4.743974E3,1.5723245E3,3.7938342E3,9.501396E2,6.262044E2,9.4612E2,3.3217972E2,3.4616545E3,3.1862906E2,6.3151056E2,2.791776E2,3.4702682E2,3.1580222E2,6.303178E2,2.850334E2,4.7146336E1,1.778693E2,3.2837852E3,1.626569E2,1.5597215E2,2.4225626E2,3.892543E2,1.27236534E2,1.5194107E2,1.6101712E2,1.860097E2,2.8842322E2,2.7378977E1,3.267578E2,3.0355997E2],"tree_param":{"num_deleted":"0","num_feature":"27","num_nodes":"31","size_leaf_vector":"1"}},{"base_weights":[6.5801876E-5,5.1349916E-2,-5.2144192E-2,3.1519437E-1,3.6871165E-2,-9.884519E-2,3.2190173E-3,5.352595E-1,1.8976969E-1,-2.1258263E-1,5.049026E-2,-1.2635742E-1,1.0605431E-2,3.7722953E-2,-1.6417992E-1,6.5544224E-3,-7.593642E-4,4.774912E-3,9.55056E-4,2.2483042E-4,-3.169872E-3,3.674183E-4,2.8063254E-3,-8.298643E-4,-1.7098619E-3,-2.2514473E-4,6.9999998E-3,1.3830252E-5,1.965528E-3,-3.0329493E-3,-8.222288E-4],"categories":[],"categories_nodes":[],"categories_segments":[],"categories_sizes":[],"default_left":[0,0,1,1,0,0,1,1,0,0,1,0,1,1,0,0,0,0,0,0,0,0,0,0,0,0,0,0,0,0,0],"id":20,"left_children":[1,3,5,7,9,11,13,15,17,19,21,23,25,27,29,-1,-1,-1,-1,-1,-1,-1,-1,-1,-1,-1,-1,-1,-1,-1,-1],"loss_changes":[1.6917536E1,1.2164741E1,8.09529E0,4.471487E0,1.027997E1,5.115423E0,8.28629E0,4.4276047E0,2.8586655E0,3.8522754E0,9.061329E0,2.6129208E0,9.2619705E0,6.8646803E0,2.770382E0,0E0,0E0,0E0,0E0,0E0,0E0,0E0,0E0,0E0,0E0,0E0,0E0,0E0,0E0,0E0,0E0],"parents":[2147483647,0,0,1,1,2,2,3,3,4,4,5,5,6,6,7,7,8,8,9,9,10,10,11,11,12,12,13,13,14,14],"right_children":[2,4,6,8,10,12,14,16,18,20,22,24,26,28,30,-1,-1,-1,-1,-1,-1,-1,-1,-1,-1,-1,-1,-1,-1,-1,-1],"split_conditions":[1E0,2E0,2E0,2E0,2E0,1.7E1,3E0,3E0,1E0,6E0,4E0,2E0,4E0,3E0,1E0,6.5544224E-3,-7.593642E-4,4.774912E-3,9.55056E-4,2.2483042E-4,-3.169872E-3,3.674183E-4,2.8063254E-3,-8.298643E-4,-1.7098619E-3,-2.2514473E-4,6.9999998E-3,1.3830252E-5,1.965528E-3,-3.0329493E-3,-8.222288E-4],"split_indices":[2,1,20,21,0,0,12,11,6,13,23,10,24,7,15,0,0,0,0,0,0,0,0,0,0,0,0,0,0,0,0],"split_type":[0,0,0,0,0,0,0,0,0,0,0,0,0,0,0,0,0,0,0,0,0,0,0,0,0,0,0,0,0,0,0],"sum_hessian":[6.316305E3,3.1864143E3,3.1298906E3,1.6468115E2,3.0217332E3,1.6973365E3,1.4325542E3,5.859868E1,1.0608247E2,1.5567665E2,2.8660566E3,1.356263E3,3.4107364E2,1.188382E3,2.4417227E2,4.890904E1,9.689641E0,2.5175138E1,8.090733E1,4.81199E1,1.0755674E2,2.7055874E3,1.60469E2,6.8927405E2,6.6698883E2,3.2911224E2,1.1961406E1,9.6793024E2,2.2045166E2,8.9519684E1,1.5465259E2],"tree_param":{"num_deleted":"0","num_feature":"27","num_nodes":"31","size_leaf_vector":"1"}},{"base_weights":[6.7733665E-5,2.9778682E-2,-8.967E-2,1.041113E-3,1.4422135E-1,-1.5078548E-1,-4.914949E-2,2.1661907E-1,-1.9784655E-2,2.8157824E-1,7.442913E-2,-2.299573E-1,-8.672626E-2,8.2176924E-2,-1.1511524E-1,2.6750325E-3,-9.1550365E-4,-2.1884823E-3,-8.977281E-5,4.0052948E-3,1.5538654E-3,-7.4922596E-4,1.6708771E-3,-3.1268059E-3,-1.5920738E-3,-1.7191762E-3,-1.2591721E-4,3.363117E-4,5.7151853E-3,-4.3270996E-4,-1.9218711E-3],"categories":[],"categories_nodes":[],"categories_segments":[],"categories_sizes":[],"default_left":[0,0,0,0,0,0,0,1,0,0,1,0,0,0,0,0,0,0,0,0,0,0,0,0,0,0,0,0,0,0,0],"id":21,"left_children":[1,3,5,7,9,11,13,15,17,19,21,23,25,27,29,-1,-1,-1,-1,-1,-1,-1,-1,-1,-1,-1,-1,-1,-1,-1,-1],"loss_changes":[1.684576E1,1.5610844E1,3.8844757E0,1.7042267E1,9.112047E0,3.1553106E0,8.209005E0,5.268218E0,7.4451804E0,4.750517E0,8.773505E0,1.5854712E0,2.193601E0,7.512449E0,3.4825745E0,0E0,0E0,0E0,0E0,0E0,0E0,0E0,0E0,0E0,0E0,0E0,0E0,0E0,0E0,0E0,0E0],"parents":[2147483647,0,0,1,1,2,2,3,3,4,4,5,5,6,6,7,7,8,8,9,9,10,10,11,11,12,12,13,13,14,14],"right_children":[2,4,6,8,10,12,14,16,18,20,22,24,26,28,30,-1,-1,-1,-1,-1,-1,-1,-1,-1,-1,-1,-1,-1,-1,-1,-1],"split_conditions":[1.6E1,1.3E1,1.8E1,2E0,1.4E1,2E0,1.9E1,3E0,2E0,1E0,1E0,2E0,7E0,1.5E1,2E0,2.6750325E-3,-9.1550365E-4,-2.1884823E-3,-8.977281E-5,4.0052948E-3,1.5538654E-3,-7.4922596E-4,1.6708771E-3,-3.1268059E-3,-1.5920738E-3,-1.7191762E-3,-1.2591721E-4,3.363117E-4,5.7151853E-3,-4.3270996E-4,-1.9218711E-3],"split_indices":[1,1,1,1,1,15,1,9,0,2,18,5,13,14,9,0,0,0,0,0,0,0,0,0,0,0,0,0,0,0,0],"split_type":[0,0,0,0,0,0,0,0,0,0,0,0,0,0,0,0,0,0,0,0,0,0,0,0,0,0,0,0,0,0,0],"sum_hessian":[6.3162803E3,4.7457085E3,1.5705717E3,3.7940085E3,9.5170013E2,6.250749E2,9.454968E2,3.3340146E2,3.460607E3,3.1962228E2,6.320778E2,2.7840268E2,3.4667218E2,3.1605005E2,6.294468E2,2.862659E2,4.7135563E1,1.7721382E2,3.2833933E3,1.6341216E2,1.5621014E2,2.420772E2,3.9000064E2,1.26765E2,1.5163768E2,1.6069328E2,1.859789E2,2.8849796E2,2.7552078E1,3.2657974E2,3.0286707E2],"tree_param":{"num_deleted":"0","num_feature":"27","num_nodes":"31","size_leaf_vector":"1"}},{"base_weights":[6.719007E-5,5.1023692E-2,-5.1871974E-2,3.1081137E-1,3.6694847E-2,-9.834609E-2,3.1451194E-3,5.2715063E-1,1.8704155E-1,-2.1157098E-1,5.0193604E-2,-1.2577018E-1,1.0574393E-2,3.7430484E-2,-1.6358308E-1,6.450687E-3,-7.666629E-4,4.713829E-3,9.361656E-4,2.2872453E-4,-3.1612392E-3,4.1463147E-4,4.1009397E-3,-8.253996E-4,-1.7029985E-3,-2.2410658E-4,6.9999998E-3,1.3150639E-5,1.9493168E-3,-3.0269956E-3,-8.179259E-4],"categories":[],"categories_nodes":[],"categories_segments":[],"categories_sizes":[],"default_left":[0,0,1,1,0,0,1,1,0,0,1,0,1,1,0,0,0,0,0,0,0,0,0,0,0,0,0,0,0,0,0],"id":22,"left_children":[1,3,5,7,9,11,13,15,17,19,21,23,25,27,29,-1,-1,-1,-1,-1,-1,-1,-1,-1,-1,-1,-1,-1,-1,-1,-1],"loss_changes":[1.672222E1,1.1860679E1,8.000696E0,4.361809E0,1.0143993E1,5.06798E0,8.202015E0,4.326544E0,2.811824E0,3.8340187E0,8.996443E0,2.594572E0,9.150142E0,6.768917E0,2.7599125E0,0E0,0E0,0E0,0E0,0E0,0E0,0E0,0E0,0E0,0E0,0E0,0E0,0E0,0E0,0E0,0E0],"parents":[2147483647,0,0,1,1,2,2,3,3,4,4,5,5,6,6,7,7,8,8,9,9,10,10,11,11,12,12,13,13,14,14],"right_children":[2,4,6,8,10,12,14,16,18,20,22,24,26,28,30,-1,-1,-1,-1,-1,-1,-1,-1,-1,-1,-1,-1,-1,-1,-1,-1],"split_conditions":[1E0,2E0,2E0,2E0,2E0,1.7E1,3E0,3E0,1E0,6E0,5E0,2E0,4E0,3E0,1E0,6.450687E-3,-7.666629E-4,4.713829E-3,9.361656E-4,2.2872453E-4,-3.1612392E-3,4.1463147E-4,4.1009397E-3,-8.253996E-4,-1.7029985E-3,-2.2410658E-4,6.9999998E-3,1.3150639E-5,1.9493168E-3,-3.0269956E-3,-8.179259E-4],"split_indices":[2,1,20,21,0,0,12,11,6,13,22,10,24,7,15,0,0,0,0,0,0,0,0,0,0,0,0,0,0,0,0],"split_type":[0,0,0,0,0,0,0,0,0,0,0,0,0,0,0,0,0,0,0,0,0,0,0,0,0,0,0,0,0,0,0],"sum_hessian":[6.3162876E3,3.188313E3,3.1279744E3,1.6558055E2,3.0227327E3,1.6952081E3,1.4327662E3,5.9070747E1,1.06509796E2,1.5512051E2,2.867612E3,1.3541135E3,3.4109457E2,1.1890333E3,2.4373286E2,4.936253E1,9.708221E0,2.5340311E1,8.116949E1,4.8083076E1,1.0703744E2,2.800786E3,6.682617E1,6.885298E2,6.6558374E2,3.2903995E2,1.2054615E1,9.680625E2,2.2097081E2,8.924174E1,1.5449112E2],"tree_param":{"num_deleted":"0","num_feature":"27","num_nodes":"31","size_leaf_vector":"1"}},{"base_weights":[6.914002E-5,2.959019E-2,-8.922461E-2,1.0183457E-3,1.4319605E-1,-1.5017244E-1,-4.8860762E-2,2.1404481E-1,-1.9641673E-2,2.7910635E-1,7.397395E-2,-2.2922559E-1,-8.63212E-2,8.1711605E-2,-1.1459083E-1,2.6426532E-3,-9.1456604E-4,-2.178316E-3,-8.919703E-5,3.9626816E-3,1.54405E-3,-7.4623735E-4,1.6594022E-3,-3.1200778E-3,-1.5854537E-3,-1.7127778E-3,-1.2526374E-4,3.3466678E-4,5.6537143E-3,-4.3026972E-4,-1.9149509E-3],"categories":[],"categories_nodes":[],"categories_segments":[],"categories_sizes":[],"default_left":[0,0,0,0,0,0,0,1,0,0,1,0,0,0,0,0,0,0,0,0,0,0,0,0,0,0,0,0,0,0,0],"id":23,"left_children":[1,3,5,7,9,11,13,15,17,19,21,23,25,27,29,-1,-1,-1,-1,-1,-1,-1,-1,-1,-1,-1,-1,-1,-1,-1,-1],"loss_changes":[1.665523E1,1.5412852E1,3.85464E0,1.6707296E1,8.956711E0,3.1348257E0,8.127464E0,5.1732893E0,7.351722E0,4.638113E0,8.670912E0,1.5808611E0,2.1753833E0,7.385119E0,3.4567022E0,0E0,0E0,0E0,0E0,0E0,0E0,0E0,0E0,0E0,0E0,0E0,0E0,0E0,0E0,0E0,0E0],"parents":[2147483647,0,0,1,1,2,2,3,3,4,4,5,5,6,6,7,7,8,8,9,9,10,10,11,11,12,12,13,13,14,14],"right_children":[2,4,6,8,10,12,14,16,18,20,22,24,26,28,30,-1,-1,-1,-1,-1,-1,-1,-1,-1,-1,-1,-1,-1,-1,-1,-1],"split_conditions":[1.6E1,1.3E1,1.8E1,2E0,1.4E1,2E0,1.9E1,3E0,2E0,1E0,1E0,2E0,7E0,1.5E1,2E0,2.6426532E-3,-9.1456604E-4,-2.178316E-3,-8.919703E-5,3.9626816E-3,1.54405E-3,-7.4623735E-4,1.6594022E-3,-3.1200778E-3,-1.5854537E-3,-1.7127778E-3,-1.2526374E-4,3.3466678E-4,5.6537143E-3,-4.3026972E-4,-1.9149509E-3],"split_indices":[1,1,1,1,1,15,1,9,0,2,18,5,13,14,9,0,0,0,0,0,0,0,0,0,0,0,0,0,0,0,0],"split_type":[0,0,0,0,0,0,0,0,0,0,0,0,0,0,0,0,0,0,0,0,0,0,0,0,0,0,0,0,0,0,0],"sum_hessian":[6.3162627E3,4.747409E3,1.5688534E3,3.7941824E3,9.532269E2,6.23967E2,9.448865E2,3.3461282E2,3.4595696E3,3.2064404E2,6.325829E2,2.7763803E2,3.4632892E2,3.1630515E2,6.285813E2,2.874884E2,4.7124424E1,1.7656387E2,3.2830056E3,1.6419685E2,1.5644717E2,2.4190503E2,3.9067786E2,1.2629927E2,1.5133876E2,1.6037526E2,1.8595366E2,2.885878E2,2.7717352E1,3.264035E2,3.0217783E2],"tree_param":{"num_deleted":"0","num_feature":"27","num_nodes":"31","size_leaf_vector":"1"}},{"base_weights":[6.85877E-5,5.0699934E-2,-5.160113E-2,3.0650845E-1,3.6519565E-2,-9.784914E-2,3.0720972E-3,5.1921725E-1,1.8435992E-1,-2.1056084E-1,4.9899172E-2,-1.251848E-1,1.05420295E-2,3.714053E-2,-1.6298746E-1,6.3493764E-3,-7.7379955E-4,4.6538794E-3,9.1760437E-4,2.3256992E-4,-3.152595E-3,3.6287567E-4,2.7683042E-3,-8.2095317E-4,-1.6961502E-3,-2.2307118E-4,6.9999998E-3,1.2480705E-5,1.9332758E-3,-3.0210353E-3,-8.136424E-4],"categories":[],"categories_nodes":[],"categories_segments":[],"categories_sizes":[],"default_left":[0,0,1,1,0,0,1,1,0,0,1,0,1,1,0,0,0,0,0,0,0,0,0,0,0,0,0,0,0,0,0],"id":24,"left_children":[1,3,5,7,9,11,13,15,17,19,21,23,25,27,29,-1,-1,-1,-1,-1,-1,-1,-1,-1,-1,-1,-1,-1,-1,-1,-1],"loss_changes":[1.6529272E1,1.1564751E1,7.907181E0,4.255575E0,1.0009764E1,5.020832E0,8.118612E0,4.228714E0,2.766046E0,3.8157272E0,8.855579E0,2.576313E0,9.037537E0,6.674635E0,2.749423E0,0E0,0E0,0E0,0E0,0E0,0E0,0E0,0E0,0E0,0E0,0E0,0E0,0E0,0E0,0E0,0E0],"parents":[2147483647,0,0,1,1,2,2,3,3,4,4,5,5,6,6,7,7,8,8,9,9,10,10,11,11,12,12,13,13,14,14],"right_children":[2,4,6,8,10,12,14,16,18,20,22,24,26,28,30,-1,-1,-1,-1,-1,-1,-1,-1,-1,-1,-1,-1,-1,-1,-1,-1],"split_conditions":[1E0,2E0,2E0,2E0,2E0,1.7E1,3E0,3E0,1E0,6E0,4E0,2E0,4E0,3E0,1E0,6.3493764E-3,-7.7379955E-4,4.6538794E-3,9.1760437E-4,2.3256992E-4,-3.152595E-3,3.6287567E-4,2.7683042E-3,-8.2095317E-4,-1.6961502E-3,-2.2307118E-4,6.9999998E-3,1.2480705E-5,1.9332758E-3,-3.0210353E-3,-8.136424E-4],"split_indices":[2,1,20,21,0,0,12,11,6,13,23,10,24,7,15,0,0,0,0,0,0,0,0,0,0,0,0,0,0,0,0],"split_type":[0,0,0,0,0,0,0,0,0,0,0,0,0,0,0,0,0,0,0,0,0,0,0,0,0,0,0,0,0,0,0],"sum_hessian":[6.3162695E3,3.1901997E3,3.1260698E3,1.6647308E2,3.0237268E3,1.6930941E3,1.4329757E3,5.95399E1,1.0693318E2,1.5456917E2,2.8691575E3,1.3519777E3,3.411164E2,1.1896798E3,2.432959E2,4.981345E1,9.72645E0,2.5504465E1,8.142872E1,4.8046772E1,1.0652239E2,2.7078948E3,1.6126279E2,6.877901E2,6.641876E2,3.289679E2,1.2148498E1,9.6819293E2,2.2148691E2,8.896518E1,1.5433072E2],"tree_param":{"num_deleted":"0","num_feature":"27","num_nodes":"31","size_leaf_vector":"1"}},{"base_weights":[7.031438E-5,2.9400166E-2,-8.877509E-2,9.960281E-4,1.4216168E-1,-1.4955296E-1,-4.8569586E-2,2.1151066E-1,-1.9499553E-2,2.7674153E-1,7.346861E-2,-2.2848938E-1,-8.590681E-2,8.126418E-2,-1.14068046E-1,2.6108061E-3,-9.1359776E-4,-2.1681613E-3,-8.8623194E-5,3.9224643E-3,1.5343026E-3,-7.4315286E-4,1.646924E-3,-3.1133022E-3,-1.5787932E-3,-1.7063145E-3,-1.2447442E-4,3.333098E-4,5.59066E-3,-4.278307E-4,-1.9080474E-3],"categories":[],"categories_nodes":[],"categories_segments":[],"categories_sizes":[],"default_left":[0,0,0,0,0,0,0,1,0,0,1,0,0,0,0,0,0,0,0,0,0,0,0,0,0,0,0,0,0,0,0],"id":25,"left_children":[1,3,5,7,9,11,13,15,17,19,21,23,25,27,29,-1,-1,-1,-1,-1,-1,-1,-1,-1,-1,-1,-1,-1,-1,-1,-1],"loss_changes":[1.646424E1,1.5214001E1,3.824607E0,1.637963E1,8.815504E0,3.1146011E0,8.047778E0,5.080532E0,7.259313E0,4.535015E0,8.561399E0,1.5762367E0,2.1574073E0,7.254097E0,3.4310493E0,0E0,0E0,0E0,0E0,0E0,0E0,0E0,0E0,0E0,0E0,0E0,0E0,0E0,0E0,0E0,0E0],"parents":[2147483647,0,0,1,1,2,2,3,3,4,4,5,5,6,6,7,7,8,8,9,9,10,10,11,11,12,12,13,13,14,14],"right_children":[2,4,6,8,10,12,14,16,18,20,22,24,26,28,30,-1,-1,-1,-1,-1,-1,-1,-1,-1,-1,-1,-1,-1,-1,-1,-1],"split_conditions":[1.6E1,1.3E1,1.8E1,2E0,1.4E1,2E0,1.9E1,3E0,2E0,1E0,1E0,2E0,7E0,1.5E1,2E0,2.6108061E-3,-9.1359776E-4,-2.1681613E-3,-8.8623194E-5,3.9224643E-3,1.5343026E-3,-7.4315286E-4,1.646924E-3,-3.1133022E-3,-1.5787932E-3,-1.7063145E-3,-1.2447442E-4,3.333098E-4,5.59066E-3,-4.278307E-4,-1.9080474E-3],"split_indices":[1,1,1,1,1,15,1,9,0,2,18,5,13,14,9,0,0,0,0,0,0,0,0,0,0,0,0,0,0,0,0],"split_type":[0,0,0,0,0,0,0,0,0,0,0,0,0,0,0,0,0,0,0,0,0,0,0,0,0,0,0,0,0,0,0],"sum_hessian":[6.3162476E3,4.7491245E3,1.567123E3,3.7943525E3,9.5477216E2,6.228513E2,9.442717E2,3.3581393E2,3.4585386E3,3.216276E2,6.3314453E2,2.7687286E2,3.4597842E2,3.165508E2,6.277209E2,2.8870102E2,4.7112923E1,1.7591937E2,3.2826191E3,1.6494434E2,1.5668327E2,2.417276E2,3.9141696E2,1.2583367E2,1.510392E2,1.6005527E2,1.8592316E2,2.8866196E2,2.788888E1,3.2622754E2,3.0149335E2],"tree_param":{"num_deleted":"0","num_feature":"27","num_nodes":"31","size_leaf_vector":"1"}},{"base_weights":[6.9755646E-5,5.0378095E-2,-5.1331647E-2,3.0228356E-1,3.6344778E-2,-9.735433E-2,2.9999574E-3,5.114542E-1,1.8172377E-1,-2.095523E-1,4.960636E-2,-1.2460129E-1,1.0508366E-2,3.6853082E-2,-1.62393E-1,6.2504117E-3,-7.8077725E-4,4.595033E-3,8.9936494E-4,2.3636658E-4,-3.143939E-3,7.527119E-5,1.2231236E-3,-8.165249E-4,-1.6893167E-3,-2.2203827E-4,6.9999998E-3,1.1820397E-5,1.9174035E-3,-3.0150684E-3,-8.093782E-4],"categories":[],"categories_nodes":[],"categories_segments":[],"categories_sizes":[],"default_left":[0,0,1,1,0,0,1,1,0,0,1,0,1,1,0,0,0,0,0,0,0,0,0,0,0,0,0,0,0,0,0],"id":26,"left_children":[1,3,5,7,9,11,13,15,17,19,21,23,25,27,29,-1,-1,-1,-1,-1,-1,-1,-1,-1,-1,-1,-1,-1,-1,-1,-1],"loss_changes":[1.6338497E1,1.1276763E1,7.8147526E0,4.1526575E0,9.877219E0,4.9739666E0,8.036073E0,4.1339607E0,2.7213013E0,3.797409E0,8.784785E0,2.5581455E0,8.924154E0,6.5818133E0,2.7389226E0,0E0,0E0,0E0,0E0,0E0,0E0,0E0,0E0,0E0,0E0,0E0,0E0,0E0,0E0,0E0,0E0],"parents":[2147483647,0,0,1,1,2,2,3,3,4,4,5,5,6,6,7,7,8,8,9,9,10,10,11,11,12,12,13,13,14,14],"right_children":[2,4,6,8,10,12,14,16,18,20,22,24,26,28,30,-1,-1,-1,-1,-1,-1,-1,-1,-1,-1,-1,-1,-1,-1,-1,-1],"split_conditions":[1E0,2E0,2E0,2E0,2E0,1.7E1,3E0,3E0,1E0,6E0,2E0,2E0,4E0,3E0,1E0,6.2504117E-3,-7.8077725E-4,4.595033E-3,8.9936494E-4,2.3636658E-4,-3.143939E-3,7.527119E-5,1.2231236E-3,-8.165249E-4,-1.6893167E-3,-2.2203827E-4,6.9999998E-3,1.1820397E-5,1.9174035E-3,-3.0150684E-3,-8.093782E-4],"split_indices":[2,1,20,21,0,0,12,11,6,13,24,10,24,7,15,0,0,0,0,0,0,0,0,0,0,0,0,0,0,0,0],"split_type":[0,0,0,0,0,0,0,0,0,0,0,0,0,0,0,0,0,0,0,0,0,0,0,0,0,0,0,0,0,0,0],"sum_hessian":[6.316255E3,3.1920774E3,3.1241772E3,1.6735878E2,3.0247188E3,1.6909944E3,1.4331827E3,6.0006123E1,1.07352646E2,1.5402254E2,2.870696E3,1.3498552E3,3.4113913E2,1.1903214E3,2.4286136E2,5.026179E1,9.744333E0,2.5667597E1,8.168505E1,4.8010975E1,1.06011566E2,1.8190237E3,1.0516725E3,6.87055E2,6.628003E2,3.2889606E2,1.2243057E1,9.683215E2,2.2199994E2,8.868999E1,1.5417136E2],"tree_param":{"num_deleted":"0","num_feature":"27","num_nodes":"31","size_leaf_vector":"1"}},{"base_weights":[7.124113E-5,2.9214447E-2,-8.8335216E-2,9.756737E-4,1.4114578E-1,-1.4893831E-1,-4.829139E-2,2.0901583E-1,-1.9356692E-2,2.743381E-1,7.300451E-2,-2.277607E-1,-8.5492395E-2,8.078643E-2,-1.1355059E-1,2.5794806E-3,-9.125994E-4,-2.1580188E-3,-8.803411E-5,3.8813767E-3,1.524623E-3,-7.396697E-4,1.6348676E-3,-3.1064332E-3,-1.5724398E-3,-1.6998324E-3,-1.236939E-4,3.3155284E-4,5.530098E-3,-4.255591E-4,-1.9011007E-3],"categories":[],"categories_nodes":[],"categories_segments":[],"categories_sizes":[],"default_left":[0,0,0,0,0,0,0,1,0,0,1,0,0,0,0,0,0,0,0,0,0,0,0,0,0,0,0,0,0,0,0],"id":27,"left_children":[1,3,5,7,9,11,13,15,17,19,21,23,25,27,29,-1,-1,-1,-1,-1,-1,-1,-1,-1,-1,-1,-1,-1,-1,-1,-1],"loss_changes":[1.627861E1,1.5019375E1,3.794197E0,1.6058847E1,8.668278E0,3.0948648E0,7.9667425E0,4.9899025E0,7.168065E0,4.429428E0,8.452017E0,1.5708113E0,2.1394467E0,7.1301003E0,3.4045897E0,0E0,0E0,0E0,0E0,0E0,0E0,0E0,0E0,0E0,0E0,0E0,0E0,0E0,0E0,0E0,0E0],"parents":[2147483647,0,0,1,1,2,2,3,3,4,4,5,5,6,6,7,7,8,8,9,9,10,10,11,11,12,12,13,13,14,14],"right_children":[2,4,6,8,10,12,14,16,18,20,22,24,26,28,30,-1,-1,-1,-1,-1,-1,-1,-1,-1,-1,-1,-1,-1,-1,-1,-1],"split_conditions":[1.6E1,1.3E1,1.8E1,2E0,1.4E1,2E0,1.9E1,3E0,2E0,1E0,1E0,2E0,7E0,1.5E1,2E0,2.5794806E-3,-9.125994E-4,-2.1580188E-3,-8.803411E-5,3.8813767E-3,1.524623E-3,-7.396697E-4,1.6348676E-3,-3.1064332E-3,-1.5724398E-3,-1.6998324E-3,-1.236939E-4,3.3155284E-4,5.530098E-3,-4.255591E-4,-1.9011007E-3],"split_indices":[1,1,1,1,1,15,1,9,0,2,18,5,13,14,9,0,0,0,0,0,0,0,0,0,0,0,0,0,0,0,0],"split_type":[0,0,0,0,0,0,0,0,0,0,0,0,0,0,0,0,0,0,0,0,0,0,0,0,0,0,0,0,0,0,0],"sum_hessian":[6.316236E3,4.7508027E3,1.5654335E3,3.7945078E3,9.562947E2,6.217483E2,9.436851E2,3.3700482E2,3.457503E3,3.2263342E2,6.3366125E2,2.7611966E2,3.4562863E2,3.168136E2,6.268715E2,2.8990375E2,4.7101074E1,1.7528029E2,3.2822227E3,1.65715E2,1.5691844E2,2.4152754E2,3.9213373E2,1.2536513E2,1.5075453E2,1.5973561E2,1.8589304E2,2.8875803E2,2.805557E1,3.260638E2,3.008077E2],"tree_param":{"num_deleted":"0","num_feature":"27","num_nodes":"31","size_leaf_vector":"1"}},{"base_weights":[7.066892E-5,5.005811E-2,-5.1063538E-2,2.981348E-1,3.6170427E-2,-9.686168E-2,2.9286884E-3,5.0385624E-1,1.7913206E-1,-2.0854536E-1,4.9315106E-2,-1.2401964E-1,1.0473355E-2,3.6568105E-2,-1.6179973E-1,6.153716E-3,-7.8759925E-4,2.1858288E-3,-4.2564436E-3,2.4011565E-4,-3.1352723E-3,4.068876E-4,4.024321E-3,-8.1211486E-4,-1.6824986E-3,-2.210082E-4,6.9999998E-3,1.1169548E-5,1.901697E-3,-3.0090946E-3,-8.0513296E-4],"categories":[],"categories_nodes":[],"categories_segments":[],"categories_sizes":[],"default_left":[0,0,1,1,0,0,1,1,1,0,1,0,1,1,0,0,0,0,0,0,0,0,0,0,0,0,0,0,0,0,0],"id":28,"left_children":[1,3,5,7,9,11,13,15,17,19,21,23,25,27,29,-1,-1,-1,-1,-1,-1,-1,-1,-1,-1,-1,-1,-1,-1,-1,-1],"loss_changes":[1.6149858E1,1.0996482E1,7.7233973E0,4.0529222E0,9.746332E0,4.9273834E0,7.9543858E0,4.0421743E0,2.6881294E0,3.779059E0,8.735795E0,2.5400734E0,8.80998E0,6.4904203E0,2.7284055E0,0E0,0E0,0E0,0E0,0E0,0E0,0E0,0E0,0E0,0E0,0E0,0E0,0E0,0E0,0E0,0E0],"parents":[2147483647,0,0,1,1,2,2,3,3,4,4,5,5,6,6,7,7,8,8,9,9,10,10,11,11,12,12,13,13,14,14],"right_children":[2,4,6,8,10,12,14,16,18,20,22,24,26,28,30,-1,-1,-1,-1,-1,-1,-1,-1,-1,-1,-1,-1,-1,-1,-1,-1],"split_conditions":[1E0,2E0,2E0,2E0,2E0,1.7E1,3E0,3E0,3E0,6E0,5E0,2E0,4E0,3E0,1E0,6.153716E-3,-7.8759925E-4,2.1858288E-3,-4.2564436E-3,2.4011565E-4,-3.1352723E-3,4.068876E-4,4.024321E-3,-8.1211486E-4,-1.6824986E-3,-2.210082E-4,6.9999998E-3,1.1169548E-5,1.901697E-3,-3.0090946E-3,-8.0513296E-4],"split_indices":[2,1,20,21,0,0,12,11,18,13,22,10,24,7,15,0,0,0,0,0,0,0,0,0,0,0,0,0,0,0,0],"split_type":[0,0,0,0,0,0,0,0,0,0,0,0,0,0,0,0,0,0,0,0,0,0,0,0,0,0,0,0,0,0,0],"sum_hessian":[6.316243E3,3.1939465E3,3.1222964E3,1.6823769E2,3.025709E3,1.688909E3,1.4333875E3,6.0469444E1,1.07768234E2,1.534806E2,2.8722283E3,1.3477463E3,3.4116275E2,1.1909583E3,2.424292E2,5.070757E1,9.761877E0,1.0176826E2,5.9999785E0,4.7975677E1,1.0550493E2,2.8048242E3,6.740422E1,6.8632446E2,6.614219E2,3.2882446E2,1.2338296E1,9.6844824E2,2.2250995E2,8.841617E1,1.5401303E2],"tree_param":{"num_deleted":"0","num_feature":"27","num_nodes":"31","size_leaf_vector":"1"}},{"base_weights":[7.17146E-5,2.9028641E-2,-8.7895386E-2,9.5271517E-4,1.4014499E-1,-1.483301E-1,-4.800733E-2,2.0654397E-1,-1.9216854E-2,2.7194613E-1,7.255847E-2,-2.2703081E-1,-8.509206E-2,8.032962E-2,-1.1303143E-1,2.5479102E-3,-9.097303E-4,-2.1478883E-3,-8.747039E-5,3.2257033E-3,5.2160325E-5,-7.3671114E-4,1.623687E-3,-3.0996841E-3,-1.5658668E-3,-1.6934727E-3,-1.230499E-4,3.2993112E-4,5.471573E-3,-4.231538E-4,-1.8942136E-3],"categories":[],"categories_nodes":[],"categories_segments":[],"categories_sizes":[],"default_left":[0,0,0,0,0,0,0,1,0,1,1,0,0,0,0,0,0,0,0,0,0,0,0,0,0,0,0,0,0,0,0],"id":29,"left_children":[1,3,5,7,9,11,13,15,17,19,21,23,25,27,29,-1,-1,-1,-1,-1,-1,-1,-1,-1,-1,-1,-1,-1,-1,-1,-1],"loss_changes":[1.6094156E1,1.4829282E1,3.7648964E0,1.5743479E1,8.521231E0,3.0746126E0,7.8874793E0,4.892064E0,7.0776873E0,4.381937E0,8.353446E0,1.566143E0,2.1216142E0,7.0105505E0,3.3791523E0,0E0,0E0,0E0,0E0,0E0,0E0,0E0,0E0,0E0,0E0,0E0,0E0,0E0,0E0,0E0,0E0],"parents":[2147483647,0,0,1,1,2,2,3,3,4,4,5,5,6,6,7,7,8,8,9,9,10,10,11,11,12,12,13,13,14,14],"right_children":[2,4,6,8,10,12,14,16,18,20,22,24,26,28,30,-1,-1,-1,-1,-1,-1,-1,-1,-1,-1,-1,-1,-1,-1,-1,-1],"split_conditions":[1.6E1,1.3E1,1.8E1,2E0,1.4E1,2E0,1.9E1,3E0,2E0,3E0,1E0,2E0,7E0,1.5E1,2E0,2.5479102E-3,-9.097303E-4,-2.1478883E-3,-8.747039E-5,3.2257033E-3,5.2160325E-5,-7.3671114E-4,1.623687E-3,-3.0996841E-3,-1.5658668E-3,-1.6934727E-3,-1.230499E-4,3.2993112E-4,5.471573E-3,-4.231538E-4,-1.8942136E-3],"split_indices":[1,1,1,1,1,15,1,9,0,10,18,5,13,14,9,0,0,0,0,0,0,0,0,0,0,0,0,0,0,0,0],"split_type":[0,0,0,0,0,0,0,0,0,0,0,0,0,0,0,0,0,0,0,0,0,0,0,0,0,0,0,0,0,0,0],"sum_hessian":[6.31623E3,4.7524824E3,1.5637476E3,3.794683E3,9.577993E2,6.206607E2,9.4308685E2,3.3819308E2,3.45649E3,3.236407E2,6.341586E2,2.753693E2,3.4529144E2,3.1706525E2,6.260216E2,2.9112604E2,4.706705E1,1.7464656E2,3.2818433E3,2.7183777E2,5.1802937E1,2.4135788E2,3.9280075E2,1.2490814E2,1.5046115E2,1.5942325E2,1.8586818E2,2.8884674E2,2.821849E1,3.2589062E2,3.00131E2],"tree_param":{"num_deleted":"0","num_feature":"27","num_nodes":"31","size_leaf_vector":"1"}},{"base_weights":[7.097871E-5,4.9768962E-2,-5.0821647E-2,2.9402548E-1,3.602767E-2,-9.638614E-2,2.8196273E-3,4.9641934E-1,1.7653733E-1,-2.0751593E-1,4.9056575E-2,-1.2345155E-1,1.0406165E-2,3.6240943E-2,-1.61223E-1,6.0592243E-3,-7.9426606E-4,4.501952E-3,8.590212E-4,2.4402078E-4,-3.1264052E-3,3.5615146E-4,2.720482E-3,-8.079086E-4,-1.6757532E-3,-2.2020351E-4,6.9999998E-3,1.0126814E-5,1.8854898E-3,-3.003225E-3,-8.0107E-4],"categories":[],"categories_nodes":[],"categories_segments":[],"categories_sizes":[],"default_left":[0,0,1,1,0,0,1,1,0,0,1,0,1,1,0,0,0,0,0,0,0,0,0,0,0,0,0,0,0,0,0],"id":30,"left_children":[1,3,5,7,9,11,13,15,17,19,21,23,25,27,29,-1,-1,-1,-1,-1,-1,-1,-1,-1,-1,-1,-1,-1,-1,-1,-1],"loss_changes":[1.5980476E1,1.0718596E1,7.629895E0,3.9575644E0,9.616823E0,4.87996E0,7.8716183E0,3.95323E0,2.669509E0,3.7604966E0,8.606392E0,2.5214062E0,8.689228E0,6.3992434E0,2.7178779E0,0E0,0E0,0E0,0E0,0E0,0E0,0E0,0E0,0E0,0E0,0E0,0E0,0E0,0E0,0E0,0E0],"parents":[2147483647,0,0,1,1,2,2,3,3,4,4,5,5,6,6,7,7,8,8,9,9,10,10,11,11,12,12,13,13,14,14],"right_children":[2,4,6,8,10,12,14,16,18,20,22,24,26,28,30,-1,-1,-1,-1,-1,-1,-1,-1,-1,-1,-1,-1,-1,-1,-1,-1],"split_conditions":[1E0,2E0,2E0,2E0,2E0,1.7E1,3E0,3E0,1E0,6E0,4E0,2E0,4E0,3E0,1E0,6.0592243E-3,-7.9426606E-4,4.501952E-3,8.590212E-4,2.4402078E-4,-3.1264052E-3,3.5615146E-4,2.720482E-3,-8.079086E-4,-1.6757532E-3,-2.2020351E-4,6.9999998E-3,1.0126814E-5,1.8854898E-3,-3.003225E-3,-8.0107E-4],"split_indices":[2,1,20,21,0,0,12,11,6,13,23,10,24,7,15,0,0,0,0,0,0,0,0,0,0,0,0,0,0,0,0],"split_type":[0,0,0,0,0,0,0,0,0,0,0,0,0,0,0,0,0,0,0,0,0,0,0,0,0,0,0,0,0,0,0],"sum_hessian":[6.3162393E3,3.1956377E3,3.1206016E3,1.6911732E2,3.0265203E3,1.686901E3,1.4337007E3,6.0929806E1,1.08187515E2,1.5293045E2,2.8735898E3,1.345693E3,3.412081E2,1.1916901E3,2.4201056E2,5.115073E1,9.779077E0,2.5929775E1,8.2257744E1,4.7938965E1,1.0499149E2,2.7113176E3,1.6227232E2,6.8562915E2,6.600638E2,3.2876852E2,1.2439569E1,9.686514E2,2.2303868E2,8.814875E1,1.5386182E2],"tree_param":{"num_deleted":"0","num_feature":"27","num_nodes":"31","size_leaf_vector":"1"}},{"base_weights":[7.2394716E-5,2.8841944E-2,-8.7451495E-2,9.311879E-4,1.39134E-1,-1.477155E-1,-4.772088E-2,2.0412576E-1,-1.9077871E-2,2.6965383E-1,7.2062865E-2,-2.2629647E-1,-8.468251E-2,7.9890214E-2,-1.1251388E-1,2.517605E-3,-9.086825E-4,-2.1377702E-3,-8.690871E-5,3.1971445E-3,5.0575592E-5,-7.3365774E-4,1.6115204E-3,-3.0928883E-3,-1.5592538E-3,-1.6870493E-3,-1.2227174E-4,3.2859336E-4,5.41148E-3,-4.2074962E-4,-1.8873435E-3],"categories":[],"categories_nodes":[],"categories_segments":[],"categories_sizes":[],"default_left":[0,0,0,0,0,0,0,1,0,1,1,0,0,0,0,0,0,0,0,0,0,0,0,0,0,0,0,0,0,0,0],"id":31,"left_children":[1,3,5,7,9,11,13,15,17,19,21,23,25,27,29,-1,-1,-1,-1,-1,-1,-1,-1,-1,-1,-1,-1,-1,-1,-1,-1],"loss_changes":[1.5909431E1,1.4637879E1,3.7353992E0,1.543679E1,8.387348E0,3.0546207E0,7.8100066E0,4.8056574E0,6.988326E0,4.3113956E0,8.248186E0,1.5614567E0,2.1040187E0,6.8873806E0,3.353931E0,0E0,0E0,0E0,0E0,0E0,0E0,0E0,0E0,0E0,0E0,0E0,0E0,0E0,0E0,0E0,0E0],"parents":[2147483647,0,0,1,1,2,2,3,3,4,4,5,5,6,6,7,7,8,8,9,9,10,10,11,11,12,12,13,13,14,14],"right_children":[2,4,6,8,10,12,14,16,18,20,22,24,26,28,30,-1,-1,-1,-1,-1,-1,-1,-1,-1,-1,-1,-1,-1,-1,-1,-1],"split_conditions":[1.6E1,1.3E1,1.8E1,2E0,1.4E1,2E0,1.9E1,3E0,2E0,3E0,1E0,2E0,7E0,1.5E1,2E0,2.517605E-3,-9.086825E-4,-2.1377702E-3,-8.690871E-5,3.1971445E-3,5.0575592E-5,-7.3365774E-4,1.6115204E-3,-3.0928883E-3,-1.5592538E-3,-1.6870493E-3,-1.2227174E-4,3.2859336E-4,5.41148E-3,-4.2074962E-4,-1.8873435E-3],"split_indices":[1,1,1,1,1,15,1,9,0,10,18,5,13,14,9,0,0,0,0,0,0,0,0,0,0,0,0,0,0,0,0],"split_type":[0,0,0,0,0,0,0,0,0,0,0,0,0,0,0,0,0,0,0,0,0,0,0,0,0,0,0,0,0,0,0],"sum_hessian":[6.316221E3,4.7541714E3,1.5620499E3,3.7948472E3,9.593241E2,6.1956555E2,9.424844E2,3.3936368E2,3.4554834E3,3.246119E2,6.347122E2,2.7461844E2,3.449471E2,3.1730768E2,6.251767E2,2.9230902E2,4.7054634E1,1.7401816E2,3.2814653E3,2.727923E2,5.181962E1,2.4118301E2,3.935292E2,1.24451294E2,1.5016713E2,1.5910895E2,1.8583817E2,2.8891998E2,2.838769E1,3.2571774E2,2.9945898E2],"tree_param":{"num_deleted":"0","num_feature":"27","num_nodes":"31","size_leaf_vector":"1"}},{"base_weights":[7.165483E-5,4.948257E-2,-5.0580885E-2,-2.0648816E-1,6.235635E-2,-9.5912665E-2,2.7119168E-3,2.47876E-2,-3.1175262E-1,9.5248036E-2,-3.8188618E-2,-1.2288527E-1,1.0337851E-2,3.5916843E-2,-1.6064735E-1,3.446873E-3,-1.2751599E-3,-1.2991969E-3,-4.1448064E-3,5.724238E-4,2.4415837E-3,-1.3432798E-3,5.8142326E-5,-8.0371916E-4,-1.6690227E-3,-2.1939908E-4,6.9999998E-3,9.098638E-6,1.8694566E-3,-2.9973483E-3,-7.970246E-4],"categories":[],"categories_nodes":[],"categories_segments":[],"categories_sizes":[],"default_left":[0,0,1,0,0,0,1,0,0,0,0,0,1,1,0,0,0,0,0,0,0,0,0,0,0,0,0,0,0,0,0],"id":32,"left_children":[1,3,5,7,9,11,13,15,17,19,21,23,25,27,29,-1,-1,-1,-1,-1,-1,-1,-1,-1,-1,-1,-1,-1,-1,-1,-1],"loss_changes":[1.5813195E1,1.0552313E1,7.5375323E0,3.7419062E0,1.0076811E1,4.8328314E0,7.789742E0,2.4265883E0,1.9164896E0,1.2976711E1,3.1800375E0,2.5028477E0,8.5676155E0,6.309496E0,2.7073379E0,0E0,0E0,0E0,0E0,0E0,0E0,0E0,0E0,0E0,0E0,0E0,0E0,0E0,0E0,0E0,0E0],"parents":[2147483647,0,0,1,1,2,2,3,3,4,4,5,5,6,6,7,7,8,8,9,9,10,10,11,11,12,12,13,13,14,14],"right_children":[2,4,6,8,10,12,14,16,18,20,22,24,26,28,30,-1,-1,-1,-1,-1,-1,-1,-1,-1,-1,-1,-1,-1,-1,-1,-1],"split_conditions":[1E0,2E0,2E0,6E0,1.6E1,1.7E1,3E0,5E0,2E0,1.3E1,6E0,2E0,4E0,3E0,1E0,3.446873E-3,-1.2751599E-3,-1.2991969E-3,-4.1448064E-3,5.724238E-4,2.4415837E-3,-1.3432798E-3,5.8142326E-5,-8.0371916E-4,-1.6690227E-3,-2.1939908E-4,6.9999998E-3,9.098638E-6,1.8694566E-3,-2.9973483E-3,-7.970246E-4],"split_indices":[2,0,20,13,1,0,12,26,15,1,13,10,24,7,15,0,0,0,0,0,0,0,0,0,0,0,0,0,0,0,0],"split_type":[0,0,0,0,0,0,0,0,0,0,0,0,0,0,0,0,0,0,0,0,0,0,0,0,0,0,0,0,0,0,0],"sum_hessian":[6.3162305E3,3.1973142E3,3.1189165E3,1.5238512E2,3.044929E3,1.6849064E3,1.4340101E3,4.790278E1,1.0448233E2,2.294404E3,7.50525E2,1.3436522E3,3.412542E2,1.192416E3,2.4159415E2,1.5043057E1,3.2859722E1,3.8536255E1,6.5946075E1,1.8289855E3,4.6541855E2,2.3501065E2,5.155144E2,6.84938E2,6.587142E2,3.2871265E2,1.25415745E1,9.688518E2,2.235642E2,8.7882614E1,1.5371153E2],"tree_param":{"num_deleted":"0","num_feature":"27","num_nodes":"31","size_leaf_vector":"1"}},{"base_weights":[7.1996925E-5,2.8592987E-2,-8.686193E-2,9.4384124E-4,1.3758168E-1,-1.4699772E-1,-4.7256563E-2,2.0254156E-1,-1.8957958E-2,2.6666915E-1,7.110074E-2,-2.2550985E-1,-8.411696E-2,7.968192E-2,-1.1184415E-1,2.4969517E-3,-9.05262E-4,-2.1272157E-3,-8.6586064E-5,3.1605049E-3,4.689061E-5,-7.3389895E-4,1.5938362E-3,-3.0859467E-3,-1.5516522E-3,-1.678645E-3,-1.2058602E-4,3.2927483E-4,5.357954E-3,-4.1644828E-4,-1.8793195E-3],"categories":[],"categories_nodes":[],"categories_segments":[],"categories_sizes":[],"default_left":[0,0,0,0,0,0,0,1,0,1,1,0,0,0,0,0,0,0,0,0,0,0,0,0,0,0,0,0,0,0,0],"id":33,"left_children":[1,3,5,7,9,11,13,15,17,19,21,23,25,27,29,-1,-1,-1,-1,-1,-1,-1,-1,-1,-1,-1,-1,-1,-1,-1,-1],"loss_changes":[1.5665678E1,1.4336105E1,3.710412E0,1.5232988E1,8.242577E0,3.038413E0,7.7362185E0,4.7368183E0,6.8943214E0,4.2274113E0,8.134618E0,1.5583124E0,2.0828042E0,6.772827E0,3.3309565E0,0E0,0E0,0E0,0E0,0E0,0E0,0E0,0E0,0E0,0E0,0E0,0E0,0E0,0E0,0E0,0E0],"parents":[2147483647,0,0,1,1,2,2,3,3,4,4,5,5,6,6,7,7,8,8,9,9,10,10,11,11,12,12,13,13,14,14],"right_children":[2,4,6,8,10,12,14,16,18,20,22,24,26,28,30,-1,-1,-1,-1,-1,-1,-1,-1,-1,-1,-1,-1,-1,-1,-1,-1],"split_conditions":[1.6E1,1.3E1,1.8E1,2E0,1.4E1,2E0,1.9E1,3E0,2E0,3E0,1E0,2E0,7E0,1.5E1,2E0,2.4969517E-3,-9.05262E-4,-2.1272157E-3,-8.6586064E-5,3.1605049E-3,4.689061E-5,-7.3389895E-4,1.5938362E-3,-3.0859467E-3,-1.5516522E-3,-1.678645E-3,-1.2058602E-4,3.2927483E-4,5.357954E-3,-4.1644828E-4,-1.8793195E-3],"split_indices":[1,1,1,1,1,15,1,9,0,10,18,5,13,14,9,0,0,0,0,0,0,0,0,0,0,0,0,0,0,0,0],"split_type":[0,0,0,0,0,0,0,0,0,0,0,0,0,0,0,0,0,0,0,0,0,0,0,0,0,0,0,0,0,0,0],"sum_hessian":[6.316226E3,4.7564253E3,1.5598008E3,3.7947505E3,9.6167487E2,6.182914E2,9.4150946E2,3.4013492E2,3.4546157E3,3.258852E2,6.357897E2,2.738186E2,3.4447278E2,3.1742273E2,6.240867E2,2.9312076E2,4.7014156E1,1.7336743E2,3.2812483E3,2.7402673E2,5.1858448E1,2.4119684E2,3.945928E2,1.2398805E2,1.4983057E2,1.586996E2,1.8577316E2,2.888827E2,2.8540056E1,3.254088E2,2.986779E2],"tree_param":{"num_deleted":"0","num_feature":"27","num_nodes":"31","size_leaf_vector":"1"}},{"base_weights":[7.126026E-5,4.919573E-2,-5.0341185E-2,-2.0546322E-1,6.19491E-2,-9.544123E-2,2.6056604E-3,2.5187446E-2,-3.108678E-1,9.4446555E-2,-3.7644E-2,-1.2232074E-1,1.026838E-2,3.5595924E-2,-1.6007279E-1,3.4239027E-3,-1.266266E-3,-1.2882943E-3,-4.140053E-3,4.168866E-4,1.9919646E-3,-1.3349556E-3,6.155608E-5,-7.9954637E-4,-1.6623063E-3,-2.1859592E-4,6.9999998E-3,8.086025E-6,1.8535983E-3,-2.9914652E-3,-7.9299574E-4],"categories":[],"categories_nodes":[],"categories_segments":[],"categories_sizes":[],"default_left":[0,0,1,0,0,0,1,0,0,0,0,0,1,1,0,0,0,0,0,0,0,0,0,0,0,0,0,0,0,0,0],"id":34,"left_children":[1,3,5,7,9,11,13,15,17,19,21,23,25,27,29,-1,-1,-1,-1,-1,-1,-1,-1,-1,-1,-1,-1,-1,-1,-1,-1],"loss_changes":[1.5647015E1,1.0405542E1,7.446311E0,3.7237449E0,9.868957E0,4.7860003E0,7.708757E0,2.3965056E0,1.9176569E0,1.2694185E1,3.1521761E0,2.4843788E0,8.445201E0,6.221159E0,2.6967902E0,0E0,0E0,0E0,0E0,0E0,0E0,0E0,0E0,0E0,0E0,0E0,0E0,0E0,0E0,0E0,0E0],"parents":[2147483647,0,0,1,1,2,2,3,3,4,4,5,5,6,6,7,7,8,8,9,9,10,10,11,11,12,12,13,13,14,14],"right_children":[2,4,6,8,10,12,14,16,18,20,22,24,26,28,30,-1,-1,-1,-1,-1,-1,-1,-1,-1,-1,-1,-1,-1,-1,-1,-1],"split_conditions":[1E0,2E0,2E0,6E0,1.6E1,1.7E1,3E0,5E0,2E0,1.1E1,6E0,2E0,4E0,3E0,1E0,3.4239027E-3,-1.266266E-3,-1.2882943E-3,-4.140053E-3,4.168866E-4,1.9919646E-3,-1.3349556E-3,6.155608E-5,-7.9954637E-4,-1.6623063E-3,-2.1859592E-4,6.9999998E-3,8.086025E-6,1.8535983E-3,-2.9914652E-3,-7.9299574E-4],"split_indices":[2,0,20,13,1,0,12,26,15,1,13,10,24,7,15,0,0,0,0,0,0,0,0,0,0,0,0,0,0,0,0],"split_type":[0,0,0,0,0,0,0,0,0,0,0,0,0,0,0,0,0,0,0,0,0,0,0,0,0,0,0,0,0,0,0],"sum_hessian":[6.316236E3,3.198995E3,3.1172407E3,1.5184511E2,3.04715E3,1.682925E3,1.4343156E3,4.7865303E1,1.03979805E2,2.2975168E3,7.4963324E2,1.3416239E3,3.4130112E2,1.1931356E3,2.4117995E2,1.5086982E1,3.277832E1,3.8419044E1,6.556076E1,1.5288838E3,7.68633E2,2.3446956E2,5.1516364E2,6.8425104E2,6.573729E2,3.2865686E2,1.2644267E1,9.6904926E2,2.2408641E2,8.761778E1,1.5356216E2],"tree_param":{"num_deleted":"0","num_feature":"27","num_nodes":"31","size_leaf_vector":"1"}},{"base_weights":[7.14628E-5,4.892655E-2,-5.011473E-2,2.875428E-1,3.5407383E-2,-9.505452E-2,2.591702E-3,4.8576227E-1,1.7203906E-1,-2.0487146E-1,4.812325E-2,-1.2186337E-1,1.024323E-2,3.540722E-2,-1.5953915E-1,5.9295325E-3,-8.139406E-4,2.106557E-3,-4.2566424E-3,2.5077854E-4,-3.1029938E-3,6.79591E-5,1.1928461E-3,-7.962187E-4,-1.6568186E-3,-2.1756125E-4,6.9999998E-3,8.045904E-6,1.8410254E-3,-2.9856174E-3,-7.897068E-4],"categories":[],"categories_nodes":[],"categories_segments":[],"categories_sizes":[],"default_left":[0,0,1,1,0,0,1,1,1,0,1,0,1,1,0,0,0,0,0,0,0,0,0,0,0,0,0,0,0,0,0],"id":35,"left_children":[1,3,5,7,9,11,13,15,17,19,21,23,25,27,29,-1,-1,-1,-1,-1,-1,-1,-1,-1,-1,-1,-1,-1,-1,-1,-1],"loss_changes":[1.54913645E1,1.0317753E1,7.3824153E0,3.843482E0,9.270791E0,4.7502403E0,7.642327E0,3.8540697E0,2.626812E0,3.7057023E0,8.467584E0,2.4689178E0,8.338581E0,6.1461563E0,2.6847453E0,0E0,0E0,0E0,0E0,0E0,0E0,0E0,0E0,0E0,0E0,0E0,0E0,0E0,0E0,0E0,0E0],"parents":[2147483647,0,0,1,1,2,2,3,3,4,4,5,5,6,6,7,7,8,8,9,9,10,10,11,11,12,12,13,13,14,14],"right_children":[2,4,6,8,10,12,14,16,18,20,22,24,26,28,30,-1,-1,-1,-1,-1,-1,-1,-1,-1,-1,-1,-1,-1,-1,-1,-1],"split_conditions":[1E0,2E0,2E0,2E0,2E0,1.7E1,3E0,3E0,3E0,6E0,2E0,2E0,4E0,3E0,1E0,5.9295325E-3,-8.139406E-4,2.106557E-3,-4.2566424E-3,2.5077854E-4,-3.1029938E-3,6.79591E-5,1.1928461E-3,-7.962187E-4,-1.6568186E-3,-2.1756125E-4,6.9999998E-3,8.045904E-6,1.8410254E-3,-2.9856174E-3,-7.897068E-4],"split_indices":[2,1,20,21,0,0,12,11,18,13,24,10,24,7,15,0,0,0,0,0,0,0,0,0,0,0,0,0,0,0,0],"split_type":[0,0,0,0,0,0,0,0,0,0,0,0,0,0,0,0,0,0,0,0,0,0,0,0,0,0,0,0,0,0,0],"sum_hessian":[6.316233E3,3.200574E3,3.1156592E3,1.7052374E2,3.0300503E3,1.6813033E3,1.4343557E3,6.1601654E1,1.0892209E2,1.5153503E2,2.8785151E3,1.3399852E3,3.413181E2,1.1935592E3,2.4079651E2,5.17715E1,9.830154E0,1.0292014E2,6.0019426E0,4.787557E1,1.0365947E2,1.8216675E3,1.0568477E3,6.8370416E2,6.5628107E2,3.2858502E2,1.2733088E1,9.6905707E2,2.2450217E2,8.735607E1,1.5344043E2],"tree_param":{"num_deleted":"0","num_feature":"27","num_nodes":"31","size_leaf_vector":"1"}},{"base_weights":[7.1878065E-5,2.8314387E-2,-8.6198404E-2,9.147219E-4,1.3606825E-1,-1.4618497E-1,-4.67377E-2,2.0006566E-1,-1.882105E-2,2.6361462E-1,7.022004E-2,-2.2460556E-1,-8.349191E-2,7.94547E-2,-1.1109627E-1,2.4654472E-3,-9.0234115E-4,-2.112599E-3,-8.64419E-5,3.1227767E-3,4.3988184E-5,-7.32987E-4,1.5766094E-3,-3.07787E-3,-1.5430509E-3,-1.6693247E-3,-1.1873785E-4,3.2993846E-4,5.301671E-3,-4.1184563E-4,-1.8702002E-3],"categories":[],"categories_nodes":[],"categories_segments":[],"categories_sizes":[],"default_left":[0,0,0,0,0,0,0,1,0,1,1,0,0,0,0,0,0,0,0,0,0,0,0,0,0,0,0,0,0,0,0],"id":36,"left_children":[1,3,5,7,9,11,13,15,17,19,21,23,25,27,29,-1,-1,-1,-1,-1,-1,-1,-1,-1,-1,-1,-1,-1,-1,-1,-1],"loss_changes":[1.5394299E1,1.4053246E1,3.6817837E0,1.4923447E1,8.08605E0,3.0188866E0,7.654647E0,4.641494E0,6.7637935E0,4.1385994E0,8.0153055E0,1.5542183E0,2.0593894E0,6.653063E0,3.3037949E0,0E0,0E0,0E0,0E0,0E0,0E0,0E0,0E0,0E0,0E0,0E0,0E0,0E0,0E0,0E0,0E0],"parents":[2147483647,0,0,1,1,2,2,3,3,4,4,5,5,6,6,7,7,8,8,9,9,10,10,11,11,12,12,13,13,14,14],"right_children":[2,4,6,8,10,12,14,16,18,20,22,24,26,28,30,-1,-1,-1,-1,-1,-1,-1,-1,-1,-1,-1,-1,-1,-1,-1,-1],"split_conditions":[1.6E1,1.3E1,1.8E1,2E0,1.4E1,2E0,1.9E1,3E0,2E0,3E0,1E0,2E0,7E0,1.5E1,2E0,2.4654472E-3,-9.0234115E-4,-2.112599E-3,-8.64419E-5,3.1227767E-3,4.3988184E-5,-7.32987E-4,1.5766094E-3,-3.07787E-3,-1.5430509E-3,-1.6693247E-3,-1.1873785E-4,3.2993846E-4,5.301671E-3,-4.1184563E-4,-1.8702002E-3],"split_indices":[1,1,1,1,1,15,1,9,0,10,18,5,13,14,9,0,0,0,0,0,0,0,0,0,0,0,0,0,0,0,0],"split_type":[0,0,0,0,0,0,0,0,0,0,0,0,0,0,0,0,0,0,0,0,0,0,0,0,0,0,0,0,0,0,0],"sum_hessian":[6.316228E3,4.7589507E3,1.5572772E3,3.794973E3,9.639777E2,6.168549E2,9.404223E2,3.4134732E2,3.4536255E3,3.2719864E2,6.3677905E2,2.729049E2,3.4395004E2,3.1754834E2,6.22874E2,2.9436768E2,4.6979645E1,1.7247417E2,3.2811514E3,2.7530957E2,5.1889072E1,2.4114465E2,3.9563443E2,1.2345338E2,1.4945154E2,1.582481E2,1.8570193E2,2.8884634E2,2.8701986E1,3.2507892E2,2.9779507E2],"tree_param":{"num_deleted":"0","num_feature":"27","num_nodes":"31","size_leaf_vector":"1"}},{"base_weights":[7.114151E-5,4.864348E-2,-4.9877074E-2,-2.0384769E-1,6.120163E-2,-9.458648E-2,2.4871896E-3,2.54525E-2,-3.094081E-1,9.325565E-2,-3.730378E-2,-1.2130163E-1,1.0171309E-2,3.509091E-2,-1.5896653E-1,3.3991605E-3,-1.2583201E-3,-1.2662623E-3,-4.1327444E-3,4.0987568E-4,1.96813E-3,-1.3284324E-3,6.285935E-5,-7.920724E-4,-1.650124E-3,-2.1676117E-4,6.9999998E-3,7.0521887E-6,1.82546E-3,-2.9797214E-3,-7.8570604E-4],"categories":[],"categories_nodes":[],"categories_segments":[],"categories_sizes":[],"default_left":[0,0,1,0,0,0,1,0,0,0,0,0,1,1,0,0,0,0,0,0,0,0,0,0,0,0,0,0,0,0,0],"id":37,"left_children":[1,3,5,7,9,11,13,15,17,19,21,23,25,27,29,-1,-1,-1,-1,-1,-1,-1,-1,-1,-1,-1,-1,-1,-1,-1,-1],"loss_changes":[1.5328686E1,1.0169367E1,7.2929997E0,3.6870756E0,9.640893E0,4.7038784E0,7.562861E0,2.366284E0,1.9251556E0,1.2458334E1,3.12456E0,2.4506207E0,8.21452E0,6.0603023E0,2.6741982E0,0E0,0E0,0E0,0E0,0E0,0E0,0E0,0E0,0E0,0E0,0E0,0E0,0E0,0E0,0E0,0E0],"parents":[2147483647,0,0,1,1,2,2,3,3,4,4,5,5,6,6,7,7,8,8,9,9,10,10,11,11,12,12,13,13,14,14],"right_children":[2,4,6,8,10,12,14,16,18,20,22,24,26,28,30,-1,-1,-1,-1,-1,-1,-1,-1,-1,-1,-1,-1,-1,-1,-1,-1],"split_conditions":[1E0,2E0,2E0,6E0,1.6E1,1.7E1,3E0,5E0,2E0,1.1E1,6E0,2E0,4E0,3E0,1E0,3.3991605E-3,-1.2583201E-3,-1.2662623E-3,-4.1327444E-3,4.0987568E-4,1.96813E-3,-1.3284324E-3,6.285935E-5,-7.920724E-4,-1.650124E-3,-2.1676117E-4,6.9999998E-3,7.0521887E-6,1.82546E-3,-2.9797214E-3,-7.8570604E-4],"split_indices":[2,0,20,13,1,0,12,26,15,1,13,10,24,7,15,0,0,0,0,0,0,0,0,0,0,0,0,0,0,0,0],"split_type":[0,0,0,0,0,0,0,0,0,0,0,0,0,0,0,0,0,0,0,0,0,0,0,0,0,0,0,0,0,0,0],"sum_hessian":[6.3162373E3,3.202236E3,3.114001E3,1.5100159E2,3.0512346E3,1.6793447E3,1.4346562E3,4.7840496E1,1.031611E2,2.3021575E3,7.4907715E2,1.337978E3,3.413667E2,1.1942699E3,2.403864E2,1.5134564E1,3.2705933E1,3.818429E1,6.497681E1,1.530879E3,7.712785E2,2.3404727E2,5.1502985E2,6.830239E2,6.5495404E2,3.285295E2,1.2837194E1,9.692509E2,2.25019E2,8.709378E1,1.5329262E2],"tree_param":{"num_deleted":"0","num_feature":"27","num_nodes":"31","size_leaf_vector":"1"}},{"base_weights":[7.117303E-5,4.83776E-2,-4.9652785E-2,-2.0325738E-1,6.0860336E-2,-6.42476E-2,1.0986355E-1,2.5341319E-2,-3.0883795E-1,9.270629E-2,-3.7133276E-2,-8.6604424E-2,2.6451737E-2,2.5665283E-1,-1.1103467E-1,3.3725286E-3,-1.2537903E-3,-1.2616944E-3,-4.1293465E-3,4.076742E-4,1.9545143E-3,-1.3236175E-3,6.254393E-5,-8.869101E-4,6.9999998E-3,7.647998E-4,-1.4960086E-3,4.9115E-3,1.3225005E-3,-4.3450724E-3,-1.4493965E-4],"categories":[],"categories_nodes":[],"categories_segments":[],"categories_sizes":[],"default_left":[0,0,1,0,0,0,0,0,0,0,0,1,0,1,1,0,0,0,0,0,0,0,0,0,0,0,0,0,0,0,0],"id":38,"left_children":[1,3,5,7,9,11,13,15,17,19,21,23,25,27,29,-1,-1,-1,-1,-1,-1,-1,-1,-1,-1,-1,-1,-1,-1,-1,-1],"loss_changes":[1.5176321E1,1.0078941E1,7.2554846E0,3.6690907E0,9.534383E0,5.787636E0,8.502962E0,2.3388345E0,1.9225283E0,1.2294216E1,3.0988028E0,5.1684036E0,4.987412E0,4.524289E0,3.273786E0,0E0,0E0,0E0,0E0,0E0,0E0,0E0,0E0,0E0,0E0,0E0,0E0,0E0,0E0,0E0,0E0],"parents":[2147483647,0,0,1,1,2,2,3,3,4,4,5,5,6,6,7,7,8,8,9,9,10,10,11,11,12,12,13,13,14,14],"right_children":[2,4,6,8,10,12,14,16,18,20,22,24,26,28,30,-1,-1,-1,-1,-1,-1,-1,-1,-1,-1,-1,-1,-1,-1,-1,-1],"split_conditions":[1E0,2E0,4E0,6E0,1.6E1,1.7E1,2E0,5E0,2E0,1.1E1,6E0,7E0,1.6E1,1E0,1E0,3.3725286E-3,-1.2537903E-3,-1.2616944E-3,-4.1293465E-3,4.076742E-4,1.9545143E-3,-1.3236175E-3,6.254393E-5,-8.869101E-4,6.9999998E-3,7.647998E-4,-1.4960086E-3,4.9115E-3,1.3225005E-3,-4.3450724E-3,-1.4493965E-4],"split_indices":[2,0,20,13,1,0,8,26,15,1,13,24,1,18,5,0,0,0,0,0,0,0,0,0,0,0,0,0,0,0,0],"split_type":[0,0,0,0,0,0,0,0,0,0,0,0,0,0,0,0,0,0,0,0,0,0,0,0,0,0,0,0,0,0,0],"sum_hessian":[6.316237E3,3.203799E3,3.1124377E3,1.5069571E2,3.0531033E3,2.852086E3,2.6035193E2,4.7850903E1,1.028448E2,2.3043044E3,7.487988E2,2.2881228E3,5.63963E2,1.5631624E2,1.04035706E2,1.5186096E1,3.2664806E1,3.813597E1,6.470883E1,1.5315065E3,7.727979E2,2.3373657E2,5.1506226E2,2.285123E3,2.999688E0,4.39607E2,1.24356E2,5.3160854E1,1.0315538E2,2.310811E1,8.09276E1],"tree_param":{"num_deleted":"0","num_feature":"27","num_nodes":"31","size_leaf_vector":"1"}},{"base_weights":[7.218742E-5,2.7955381E-2,-8.5337594E-2,8.650681E-4,1.341864E-1,-1.4522788E-1,-4.598205E-2,1.9848193E-1,-1.8765567E-2,2.601459E-1,6.900111E-2,-2.2362232E-1,-8.265629E-2,7.955131E-2,-1.1015147E-1,2.4444624E-3,-8.975604E-4,-2.0975575E-3,-8.7197855E-5,3.0803115E-3,3.9622984E-5,-7.3471724E-4,1.5556377E-3,-3.0697652E-3,-1.5326756E-3,-1.6578007E-3,-1.1505864E-4,3.3327832E-4,5.2571795E-3,-4.0458815E-4,-1.859737E-3],"categories":[],"categories_nodes":[],"categories_segments":[],"categories_sizes":[],"default_left":[0,0,0,0,0,0,0,1,0,1,1,0,0,0,0,0,0,0,0,0,0,0,0,0,0,0,0,0,0,0,0],"id":39,"left_children":[1,3,5,7,9,11,13,15,17,19,21,23,25,27,29,-1,-1,-1,-1,-1,-1,-1,-1,-1,-1,-1,-1,-1,-1,-1,-1],"loss_changes":[1.5046838E1,1.3707595E1,3.658515E0,1.4731082E1,7.928837E0,3.0040026E0,7.579581E0,4.567916E0,6.6256022E0,4.0433846E0,7.894001E0,1.5534439E0,2.0341096E0,6.5509176E0,3.2811246E0,0E0,0E0,0E0,0E0,0E0,0E0,0E0,0E0,0E0,0E0,0E0,0E0,0E0,0E0,0E0,0E0],"parents":[2147483647,0,0,1,1,2,2,3,3,4,4,5,5,6,6,7,7,8,8,9,9,10,10,11,11,12,12,13,13,14,14],"right_children":[2,4,6,8,10,12,14,16,18,20,22,24,26,28,30,-1,-1,-1,-1,-1,-1,-1,-1,-1,-1,-1,-1,-1,-1,-1,-1],"split_conditions":[1.6E1,1.3E1,1.8E1,2E0,1.4E1,2E0,1.9E1,3E0,2E0,3E0,1E0,2E0,7E0,1.5E1,2E0,2.4444624E-3,-8.975604E-4,-2.0975575E-3,-8.7197855E-5,3.0803115E-3,3.9622984E-5,-7.3471724E-4,1.5556377E-3,-3.0697652E-3,-1.5326756E-3,-1.6578007E-3,-1.1505864E-4,3.3327832E-4,5.2571795E-3,-4.0458815E-4,-1.859737E-3],"split_indices":[1,1,1,1,1,15,1,9,0,10,18,5,13,14,9,0,0,0,0,0,0,0,0,0,0,0,0,0,0,0,0],"split_type":[0,0,0,0,0,0,0,0,0,0,0,0,0,0,0,0,0,0,0,0,0,0,0,0,0,0,0,0,0,0,0],"sum_hessian":[6.3162236E3,4.7622085E3,1.5540155E3,3.7953518E3,9.668566E2,6.1517194E2,9.3884357E2,3.4212735E2,3.4532244E3,3.2870306E2,6.3815356E2,2.7191827E2,3.4325366E2,3.174949E2,6.213487E2,2.952041E2,4.692326E1,1.7156445E2,3.28166E3,2.7676785E2,5.1935196E1,2.4124367E2,3.969099E2,1.22921394E2,1.4899687E2,1.5769333E2,1.8556033E2,2.8866367E2,2.8831251E1,3.245601E2,2.9678857E2],"tree_param":{"num_deleted":"0","num_feature":"27","num_nodes":"31","size_leaf_vector":"1"}},{"base_weights":[7.145119E-5,4.809709E-2,-4.941523E-2,2.1137522E-1,2.909807E-2,-9.385723E-2,2.5478583E-3,-8.072816E-3,2.6917738E-1,1.4603596E-2,2.514392E-1,-1.2040836E-1,9.968931E-3,3.492527E-2,-1.5819973E-1,-7.927514E-4,5.495577E-3,2.9205268E-3,-1.6937887E-3,-2.53212E-3,2.7634262E-4,3.8491335E-4,3.951672E-3,-7.842402E-4,-1.6405005E-3,-2.1707983E-4,6.9999998E-3,7.534064E-6,1.8114719E-3,-2.972522E-3,-7.7949744E-4],"categories":[],"categories_nodes":[],"categories_segments":[],"categories_sizes":[],"default_left":[0,0,1,0,1,0,1,0,0,0,1,0,1,1,0,0,0,0,0,0,0,0,0,0,0,0,0,0,0,0,0],"id":40,"left_children":[1,3,5,7,9,11,13,15,17,19,21,23,25,27,29,-1,-1,-1,-1,-1,-1,-1,-1,-1,-1,-1,-1,-1,-1,-1,-1],"loss_changes":[1.5016098E1,9.940651E0,7.186417E0,4.239498E0,9.256474E0,4.625025E0,7.4766207E0,2.8473287E0,2.7023392E0,9.424628E0,5.365177E0,2.4346752E0,8.080457E0,5.9741E0,2.6643462E0,0E0,0E0,0E0,0E0,0E0,0E0,0E0,0E0,0E0,0E0,0E0,0E0,0E0,0E0,0E0,0E0],"parents":[2147483647,0,0,1,1,2,2,3,3,4,4,5,5,6,6,7,7,8,8,9,9,10,10,11,11,12,12,13,13,14,14],"right_children":[2,4,6,8,10,12,14,16,18,20,22,24,26,28,30,-1,-1,-1,-1,-1,-1,-1,-1,-1,-1,-1,-1,-1,-1,-1,-1],"split_conditions":[1E0,3E0,2E0,1E0,4E0,1.7E1,3E0,1.6E1,5E0,2E0,5E0,2E0,4E0,3E0,1E0,-7.927514E-4,5.495577E-3,2.9205268E-3,-1.6937887E-3,-2.53212E-3,2.7634262E-4,3.8491335E-4,3.951672E-3,-7.842402E-4,-1.6405005E-3,-2.1707983E-4,6.9999998E-3,7.534064E-6,1.8114719E-3,-2.972522E-3,-7.7949744E-4],"split_indices":[2,1,20,7,23,0,12,0,3,0,26,10,24,7,15,0,0,0,0,0,0,0,0,0,0,0,0,0,0,0,0],"split_type":[0,0,0,0,0,0,0,0,0,0,0,0,0,0,0,0,0,0,0,0,0,0,0,0,0,0,0,0,0,0,0],"sum_hessian":[6.3162334E3,3.2054495E3,3.1107837E3,3.3305334E2,2.872396E3,1.6763019E3,1.4344818E3,6.961556E1,2.6343777E2,2.6976042E3,1.7479181E2,1.3347985E3,3.4150348E2,1.1946425E3,2.3983942E2,6.2493744E1,7.1218195E0,2.5069543E2,1.274235E1,1.2430785E2,2.5732964E3,7.094592E1,1.0384589E2,6.8174274E2,6.5305566E2,3.285516E2,1.2951864E1,9.691569E2,2.254855E2,8.677562E1,1.530638E2],"tree_param":{"num_deleted":"0","num_feature":"27","num_nodes":"31","size_leaf_vector":"1"}},{"base_weights":[7.216883E-5,2.7771568E-2,-8.4895596E-2,8.344586E-4,1.3325185E-1,-1.4461513E-1,-4.569575E-2,1.9637708E-1,-1.8653685E-2,2.5798535E-1,6.8566E-2,-2.2288977E-1,-8.224435E-2,7.912444E-2,-1.0963359E-1,2.4181358E-3,-8.9638424E-4,-4.500033E-4,5.3706963E-4,3.0535753E-3,3.792341E-5,-7.3144503E-4,1.5445235E-3,-3.0629747E-3,-1.5260652E-3,-1.6513687E-3,-1.14166774E-4,3.3206563E-4,5.1993034E-3,-4.0216843E-4,-1.8528344E-3],"categories":[],"categories_nodes":[],"categories_segments":[],"categories_sizes":[],"default_left":[0,0,0,0,0,0,0,1,0,1,1,0,0,0,0,0,0,0,0,0,0,0,0,0,0,0,0,0,0,0,0],"id":41,"left_children":[1,3,5,7,9,11,13,15,17,19,21,23,25,27,29,-1,-1,-1,-1,-1,-1,-1,-1,-1,-1,-1,-1,-1,-1,-1,-1],"loss_changes":[1.4870298E1,1.3538501E1,3.6297693E0,1.4471549E1,7.8030396E0,2.9846125E0,7.5045533E0,4.4943457E0,6.586218E0,3.9803886E0,7.796424E0,1.5488672E0,2.0172482E0,6.4341307E0,3.2563558E0,0E0,0E0,0E0,0E0,0E0,0E0,0E0,0E0,0E0,0E0,0E0,0E0,0E0,0E0,0E0,0E0],"parents":[2147483647,0,0,1,1,2,2,3,3,4,4,5,5,6,6,7,7,8,8,9,9,10,10,11,11,12,12,13,13,14,14],"right_children":[2,4,6,8,10,12,14,16,18,20,22,24,26,28,30,-1,-1,-1,-1,-1,-1,-1,-1,-1,-1,-1,-1,-1,-1,-1,-1],"split_conditions":[1.6E1,1.3E1,1.8E1,2E0,1.4E1,2E0,1.9E1,3E0,1.6E1,3E0,1E0,2E0,7E0,1.5E1,2E0,2.4181358E-3,-8.9638424E-4,-4.500033E-4,5.3706963E-4,3.0535753E-3,3.792341E-5,-7.3144503E-4,1.5445235E-3,-3.0629747E-3,-1.5260652E-3,-1.6513687E-3,-1.14166774E-4,3.3206563E-4,5.1993034E-3,-4.0216843E-4,-1.8528344E-3],"split_indices":[1,1,1,1,1,15,1,9,0,10,18,5,13,14,9,0,0,0,0,0,0,0,0,0,0,0,0,0,0,0,0],"split_type":[0,0,0,0,0,0,0,0,0,0,0,0,0,0,0,0,0,0,0,0,0,0,0,0,0,0,0,0,0,0,0],"sum_hessian":[6.316224E3,4.763878E3,1.5523461E3,3.7955852E3,9.682927E2,6.140992E2,9.382468E2,3.431696E2,3.4524158E3,3.2964706E2,6.386456E2,2.711878E2,3.429114E2,3.1773108E2,6.2051575E2,2.962602E2,4.690941E1,2.5311848E3,9.2123096E2,2.776939E2,5.1953175E1,2.4105646E2,3.975892E2,1.22479195E2,1.487086E2,1.5738538E2,1.8552605E2,2.8872998E2,2.9001097E1,3.2438748E2,2.9612827E2],"tree_param":{"num_deleted":"0","num_feature":"27","num_nodes":"31","size_leaf_vector":"1"}},{"base_weights":[7.161018E-5,4.7820352E-2,-4.918059E-2,-2.0153731E-1,6.0101204E-2,-6.365388E-2,1.0841267E-1,2.6282422E-2,-3.073869E-1,9.133594E-2,-3.6391508E-2,-8.580081E-2,2.5928743E-2,2.5350487E-1,-1.1091182E-1,3.357614E-3,-1.2408524E-3,-1.2407763E-3,-4.12194E-3,4.0019242E-4,1.9256886E-3,-1.3135109E-3,6.799685E-5,-8.7886944E-4,6.9999998E-3,7.529808E-4,-1.4864296E-3,4.849075E-3,1.3034948E-3,-4.3418426E-3,-1.5030775E-4],"categories":[],"categories_nodes":[],"categories_segments":[],"categories_sizes":[],"default_left":[0,0,1,0,0,0,0,0,0,0,0,1,0,1,1,0,0,0,0,0,0,0,0,0,0,0,0,0,0,0,0],"id":42,"left_children":[1,3,5,7,9,11,13,15,17,19,21,23,25,27,29,-1,-1,-1,-1,-1,-1,-1,-1,-1,-1,-1,-1,-1,-1,-1,-1],"loss_changes":[1.4858778E1,9.836294E0,7.1008224E0,3.6448383E0,9.220714E0,5.6549273E0,8.364873E0,2.3108788E0,1.9286327E0,1.1996122E1,3.071175E0,5.13612E0,4.8851953E0,4.438884E0,3.2480917E0,0E0,0E0,0E0,0E0,0E0,0E0,0E0,0E0,0E0,0E0,0E0,0E0,0E0,0E0,0E0,0E0],"parents":[2147483647,0,0,1,1,2,2,3,3,4,4,5,5,6,6,7,7,8,8,9,9,10,10,11,11,12,12,13,13,14,14],"right_children":[2,4,6,8,10,12,14,16,18,20,22,24,26,28,30,-1,-1,-1,-1,-1,-1,-1,-1,-1,-1,-1,-1,-1,-1,-1,-1],"split_conditions":[1E0,2E0,4E0,6E0,1.6E1,1.7E1,2E0,5E0,2E0,1.1E1,6E0,7E0,1.6E1,1E0,1E0,3.357614E-3,-1.2408524E-3,-1.2407763E-3,-4.12194E-3,4.0019242E-4,1.9256886E-3,-1.3135109E-3,6.799685E-5,-8.7886944E-4,6.9999998E-3,7.529808E-4,-1.4864296E-3,4.849075E-3,1.3034948E-3,-4.3418426E-3,-1.5030775E-4],"split_indices":[2,0,20,13,1,0,8,26,15,1,13,24,1,18,5,0,0,0,0,0,0,0,0,0,0,0,0,0,0,0,0],"split_type":[0,0,0,0,0,0,0,0,0,0,0,0,0,0,0,0,0,0,0,0,0,0,0,0,0,0,0,0,0,0,0],"sum_hessian":[6.3162314E3,3.2070793E3,3.1091519E3,1.4981136E2,3.057268E3,2.848173E3,2.609787E2,4.7762974E1,1.0204838E2,2.3096777E3,7.475903E2,2.2836445E3,5.645285E2,1.5697646E2,1.0400225E2,1.52151E1,3.254787E1,3.7916206E1,6.413217E1,1.5336433E3,7.7603455E2,2.3308702E2,5.1450323E2,2.2806255E3,3.0191598E0,4.405176E2,1.24010895E2,5.3505325E1,1.0347112E2,2.2983326E1,8.101892E1],"tree_param":{"num_deleted":"0","num_feature":"27","num_nodes":"31","size_leaf_vector":"1"}},{"base_weights":[7.260572E-5,4.755936E-2,-4.895731E-2,-2.0094919E-1,5.976671E-2,-9.312941E-2,2.6026387E-3,2.6166545E-2,-3.0681452E-1,9.0799645E-2,-3.6224872E-2,-1.19478E-1,9.570301E-3,3.4755964E-2,-1.5744142E-1,3.331429E-3,-1.2363652E-3,-1.2362703E-3,-4.118508E-3,3.980469E-4,1.9124475E-3,-1.3087309E-3,6.765519E-5,-7.759624E-4,-1.6305736E-3,-2.1924422E-4,6.9999998E-3,8.015041E-6,1.797294E-3,-2.9653714E-3,-7.7338156E-4],"categories":[],"categories_nodes":[],"categories_segments":[],"categories_sizes":[],"default_left":[0,0,1,0,0,0,1,0,0,0,0,0,1,1,0,0,0,0,0,0,0,0,0,0,0,0,0,0,0,0,0],"id":43,"left_children":[1,3,5,7,9,11,13,15,17,19,21,23,25,27,29,-1,-1,-1,-1,-1,-1,-1,-1,-1,-1,-1,-1,-1,-1,-1,-1],"loss_changes":[1.4710529E1,9.748808E0,7.0801125E0,3.626875E0,9.119044E0,4.531725E0,7.3915777E0,2.2840998E0,1.9258938E0,1.1838932E1,3.0457697E0,2.419403E0,7.944684E0,5.887274E0,2.6545038E0,0E0,0E0,0E0,0E0,0E0,0E0,0E0,0E0,0E0,0E0,0E0,0E0,0E0,0E0,0E0,0E0],"parents":[2147483647,0,0,1,1,2,2,3,3,4,4,5,5,6,6,7,7,8,8,9,9,10,10,11,11,12,12,13,13,14,14],"right_children":[2,4,6,8,10,12,14,16,18,20,22,24,26,28,30,-1,-1,-1,-1,-1,-1,-1,-1,-1,-1,-1,-1,-1,-1,-1,-1],"split_conditions":[1E0,2E0,2E0,6E0,1.6E1,1.7E1,3E0,5E0,2E0,1.1E1,6E0,2E0,4E0,3E0,1E0,3.331429E-3,-1.2363652E-3,-1.2362703E-3,-4.118508E-3,3.980469E-4,1.9124475E-3,-1.3087309E-3,6.765519E-5,-7.759624E-4,-1.6305736E-3,-2.1924422E-4,6.9999998E-3,8.015041E-6,1.797294E-3,-2.9653714E-3,-7.7338156E-4],"split_indices":[2,0,20,13,1,0,12,26,15,1,13,10,24,7,15,0,0,0,0,0,0,0,0,0,0,0,0,0,0,0,0],"split_type":[0,0,0,0,0,0,0,0,0,0,0,0,0,0,0,0,0,0,0,0,0,0,0,0,0,0,0,0,0,0,0],"sum_hessian":[6.3162188E3,3.2086182E3,3.1076003E3,1.4951134E2,3.0591067E3,1.6732761E3,1.4343242E3,4.7773785E1,1.0173756E2,2.3117876E3,7.473193E2,1.3315029E3,3.4177322E2,1.1950233E3,2.393009E2,1.5266273E1,3.250751E1,3.786919E1,6.3868366E1,1.5342572E3,7.7753033E2,2.3278105E2,5.145382E2,6.8039386E2,6.511091E2,3.2870187E2,1.3071337E1,9.690631E2,2.259603E2,8.646185E1,1.5283905E2],"tree_param":{"num_deleted":"0","num_feature":"27","num_nodes":"31","size_leaf_vector":"1"}},{"base_weights":[7.242271E-5,4.7299914E-2,-4.873707E-2,2.0869623E-1,2.8471159E-2,-9.275102E-2,2.5886996E-3,-8.694428E-3,2.657786E-1,1.4123443E-2,2.476558E-1,-1.190279E-1,9.541131E-3,3.4571994E-2,-1.5691252E-1,-7.945681E-4,5.415921E-3,2.8838217E-3,-1.6942606E-3,-2.5131514E-3,2.6921232E-4,3.6910456E-4,3.89417E-3,-7.7271473E-4,-1.6251393E-3,-2.1820649E-4,6.9999998E-3,7.975216E-6,1.7852029E-3,-2.9594984E-3,-7.7015895E-4],"categories":[],"categories_nodes":[],"categories_segments":[],"categories_sizes":[],"default_left":[0,0,1,0,1,0,1,0,0,0,1,0,1,1,0,0,0,0,0,0,0,0,0,0,0,0,0,0,0,0,0],"id":44,"left_children":[1,3,5,7,9,11,13,15,17,19,21,23,25,27,29,-1,-1,-1,-1,-1,-1,-1,-1,-1,-1,-1,-1,-1,-1,-1,-1],"loss_changes":[1.4564447E1,9.752396E0,7.0192676E0,4.1633797E0,9.043545E0,4.49724E0,7.327757E0,2.7962775E0,2.6617794E0,9.182617E0,5.2641973E0,2.4041443E0,7.834515E0,5.8166723E0,2.6424599E0,0E0,0E0,0E0,0E0,0E0,0E0,0E0,0E0,0E0,0E0,0E0,0E0,0E0,0E0,0E0,0E0],"parents":[2147483647,0,0,1,1,2,2,3,3,4,4,5,5,6,6,7,7,8,8,9,9,10,10,11,11,12,12,13,13,14,14],"right_children":[2,4,6,8,10,12,14,16,18,20,22,24,26,28,30,-1,-1,-1,-1,-1,-1,-1,-1,-1,-1,-1,-1,-1,-1,-1,-1],"split_conditions":[1E0,3E0,2E0,1E0,4E0,1.7E1,3E0,1.6E1,5E0,2E0,5E0,2E0,4E0,3E0,1E0,-7.945681E-4,5.415921E-3,2.8838217E-3,-1.6942606E-3,-2.5131514E-3,2.6921232E-4,3.6910456E-4,3.89417E-3,-7.7271473E-4,-1.6251393E-3,-2.1820649E-4,6.9999998E-3,7.975216E-6,1.7852029E-3,-2.9594984E-3,-7.7015895E-4],"split_indices":[2,1,20,7,23,0,12,0,3,0,26,10,24,7,15,0,0,0,0,0,0,0,0,0,0,0,0,0,0,0,0],"split_type":[0,0,0,0,0,0,0,0,0,0,0,0,0,0,0,0,0,0,0,0,0,0,0,0,0,0,0,0,0,0,0],"sum_hessian":[6.3162207E3,3.2101492E3,3.1060718E3,3.3432224E2,2.875827E3,1.6717073E3,1.4343644E3,6.9705536E1,2.646167E2,2.7001414E3,1.7568547E2,1.3299143E3,3.4179297E2,1.1954376E3,2.3892674E2,6.2521397E1,7.1841364E0,2.5187238E2,1.2744332E1,1.2333875E2,2.5768027E3,7.115912E1,1.04526344E2,6.7986615E2,6.500482E2,3.2862982E2,1.31631565E1,9.6907086E2,2.2636678E2,8.620585E1,1.527209E2],"tree_param":{"num_deleted":"0","num_feature":"27","num_nodes":"31","size_leaf_vector":"1"}},{"base_weights":[7.2937626E-5,2.7382836E-2,-8.395394E-2,7.6126604E-4,1.3132377E-1,-1.4356112E-1,-4.4874124E-2,1.9411206E-1,-1.8574798E-2,2.5441048E-1,6.732963E-2,-2.217853E-1,-8.13479E-2,7.923544E-2,-1.08605474E-1,1.6922142E-3,6.9999998E-3,-2.0741334E-3,-8.722655E-5,3.0102732E-3,3.2174154E-5,4.935457E-4,6.9999998E-3,-3.053875E-3,-1.5143934E-3,-1.6389443E-3,-1.1023646E-4,3.358549E-4,5.1501966E-3,-3.944402E-4,-1.8412996E-3],"categories":[],"categories_nodes":[],"categories_segments":[],"categories_sizes":[],"default_left":[0,0,0,0,0,0,0,1,0,1,1,0,0,0,0,0,0,0,0,0,0,0,0,0,0,0,0,0,0,0,0],"id":45,"left_children":[1,3,5,7,9,11,13,15,17,19,21,23,25,27,29,-1,-1,-1,-1,-1,-1,-1,-1,-1,-1,-1,-1,-1,-1,-1,-1],"loss_changes":[1.4498824E1,1.3194435E1,3.6037245E0,1.4199773E1,7.641268E0,2.9664516E0,7.424225E0,4.4401293E0,6.4220877E0,3.8892784E0,7.7240505E0,1.5480738E0,1.9902971E0,6.322166E0,3.2305493E0,0E0,0E0,0E0,0E0,0E0,0E0,0E0,0E0,0E0,0E0,0E0,0E0,0E0,0E0,0E0,0E0],"parents":[2147483647,0,0,1,1,2,2,3,3,4,4,5,5,6,6,7,7,8,8,9,9,10,10,11,11,12,12,13,13,14,14],"right_children":[2,4,6,8,10,12,14,16,18,20,22,24,26,28,30,-1,-1,-1,-1,-1,-1,-1,-1,-1,-1,-1,-1,-1,-1,-1,-1],"split_conditions":[1.6E1,1.3E1,1.8E1,2E0,1.4E1,2E0,1.9E1,5E0,2E0,3E0,5E0,2E0,7E0,1.5E1,2E0,1.6922142E-3,6.9999998E-3,-2.0741334E-3,-8.722655E-5,3.0102732E-3,3.2174154E-5,4.935457E-4,6.9999998E-3,-3.053875E-3,-1.5143934E-3,-1.6389443E-3,-1.1023646E-4,3.358549E-4,5.1501966E-3,-3.944402E-4,-1.8412996E-3],"split_indices":[1,1,1,1,1,15,1,6,0,10,24,5,13,14,9,0,0,0,0,0,0,0,0,0,0,0,0,0,0,0,0],"split_type":[0,0,0,0,0,0,0,0,0,0,0,0,0,0,0,0,0,0,0,0,0,0,0,0,0,0,0,0,0,0,0],"sum_hessian":[6.3162144E3,4.767413E3,1.5488011E3,3.796144E3,9.712691E2,6.1226276E2,9.365384E2,3.4429825E2,3.4518457E3,3.31221E2,6.400481E2,2.700938E2,3.4216895E2,3.1766962E2,6.188688E2,3.3017206E2,1.4126176E1,1.7016661E2,3.2816792E3,2.7920694E2,5.2014088E1,6.245205E2,1.552758E1,1.2189149E2,1.4820233E2,1.5679388E2,1.8537506E2,2.885229E2,2.9146734E1,3.238374E2,2.9503137E2],"tree_param":{"num_deleted":"0","num_feature":"27","num_nodes":"31","size_leaf_vector":"1"}},{"base_weights":[7.417942E-5,4.703773E-2,-4.8510507E-2,2.0660682E-1,2.8370367E-2,-6.286924E-2,1.072526E-1,-9.0836845E-3,2.6309043E-1,1.4110471E-2,2.4562371E-1,-8.481614E-2,2.564357E-2,2.5081462E-1,-1.1067172E-1,-7.936122E-4,5.3266184E-3,2.85442E-3,-1.6916839E-3,-2.5039E-3,2.6812436E-4,3.668E-4,3.8563353E-3,-8.69022E-4,6.9999998E-3,7.453354E-4,-1.4785562E-3,4.7848653E-3,1.2909356E-3,-4.3385816E-3,-1.537895E-4],"categories":[],"categories_nodes":[],"categories_segments":[],"categories_sizes":[],"default_left":[0,0,1,0,1,0,0,0,0,0,1,1,0,1,1,0,0,0,0,0,0,0,0,0,0,0,0,0,0,0,0],"id":46,"left_children":[1,3,5,7,9,11,13,15,17,19,21,23,25,27,29,-1,-1,-1,-1,-1,-1,-1,-1,-1,-1,-1,-1,-1,-1,-1,-1],"loss_changes":[1.4416293E1,9.563913E0,6.9523826E0,4.0997562E0,8.910686E0,5.5269146E0,8.23968E0,2.7363613E0,2.623663E0,9.081905E0,5.168792E0,5.100231E0,4.8106623E0,4.3319054E0,3.2251048E0,0E0,