{"learner":{"attributes":{"best_iteration":"160","best_score":"0.27714174760998034","scikit_learn":"{\"_estimator_type\": \"classifier\"}"},"feature_names":["season","gameweek","player_position","started_last_match","minutes_last_match","minutes_last_match_plus_1","minutes_last_match_plus_2","minutes_last_match_plus_3","minutes_last_match_plus_4","games_played_last_5","starts_last_5","days_since_last_match","days_since_last_team_match","days_till_next_match"],"feature_types":["int","int","int","int","float","float","float","float","float","int","int","float","float","float"],"gradient_booster":{"model":{"cats":{"enc":[],"feature_segments":[],"sorted_idx":[]},"gbtree_model_param":{"num_parallel_tree":"1","num_trees":"181"},"iteration_indptr":[0,1,2,3,4,5,6,7,8,9,10,11,12,13,14,15,16,17,18,19,20,21,22,23,24,25,26,27,28,29,30,31,32,33,34,35,36,37,38,39,40,41,42,43,44,45,46,47,48,49,50,51,52,53,54,55,56,57,58,59,60,61,62,63,64,65,66,67,68,69,70,71,72,73,74,75,76,77,78,79,80,81,82,83,84,85,86,87,88,89,90,91,92,93,94,95,96,97,98,99,100,101,102,103,104,105,106,107,108,109,110,111,112,113,114,115,116,117,118,119,120,121,122,123,124,125,126,127,128,129,130,131,132,133,134,135,136,137,138,139,140,141,142,143,144,145,146,147,148,149,150,151,152,153,154,155,156,157,158,159,160,161,162,163,164,165,166,167,168,169,170,171,172,173,174,175,176,177,178,179,180,181],"tree_info":[0,0,0,0,0,0,0,0,0,0,0,0,0,0,0,0,0,0,0,0,0,0,0,0,0,0,0,0,0,0,0,0,0,0,0,0,0,0,0,0,0,0,0,0,0,0,0,0,0,0,0,0,0,0,0,0,0,0,0,0,0,0,0,0,0,0,0,0,0,0,0,0,0,0,0,0,0,0,0,0,0,0,0,0,0,0,0,0,0,0,0,0,0,0,0,0,0,0,0,0,0,0,0,0,0,0,0,0,0,0,0,0,0,0,0,0,0,0,0,0,0,0,0,0,0,0,0,0,0,0,0,0,0,0,0,0,0,0,0,0,0,0,0,0,0,0,0,0,0,0,0,0,0,0,0,0,0,0,0,0,0,0,0,0,0,0,0,0,0,0,0,0,0,0,0,0,0,0,0,0,0],"trees":[{"base_weights":[1.1471319E-7,-1.0171901E0,2.3622298E0,-1.1728929E0,1.1156247E-1,1.0813136E0,2.6929398E0,-1.2327931E0,2.0655489E-1,-9.202242E-2,8.09256E-1,6.8388367E-1,1.4832261E0,2.0030987E0,2.8769653E0,-1.3348585E0,-9.257696E-1,-3.4209123E-1,5.178407E-1,2.9926997E-1,-2.879568E-1,9.3388194E-1,-5.29574E-1,1.0877442E0,5.0356305E-1,1.0970796E0,1.690289E0,1.6594214E0,2.3141067E0,2.4371498E0,2.9797754E0,-5.951131E-2,-6.772584E-2,-5.0721813E-2,-3.3480957E-2,2.6538566E-2,-2.3667833E-2,3.2914528E-3,3.5226513E-2,1.7902665E-2,-6.587016E-3,-3.1979024E-2,5.149578E-3,2.7119016E-2,7.339901E-2,-5.7459127E-2,-1.1978141E-2,3.6519613E-2,8.599646E-2,-6.6378536E-3,3.89162E-2,1.03127085E-1,3.3796005E-2,5.728788E-2,9.93485E-2,7.7655405E-2,1.0440917E-1,7.812422E-2,1.1864003E-1,1.0416694E-1,1.2748808E-1,1.2723081E-1,1.5208608E-1],"categories":[],"categories_nodes":[],"categories_segments":[],"categories_sizes":[],"default_left":[1,0,0,1,0,0,0,0,0,0,0,0,0,0,0,0,0,0,0,0,1,0,1,1,0,0,0,0,0,0,0,0,0,0,0,0,0,0,0,0,0,0,0,0,0,0,0,0,0,0,0,0,0,0,0,0,0,0,0,0,0,0,0],"id":0,"left_children":[1,3,5,7,9,11,13,15,17,19,21,23,25,27,29,31,33,35,37,39,41,43,45,47,49,51,53,55,57,59,61,-1,-1,-1,-1,-1,-1,-1,-1,-1,-1,-1,-1,-1,-1,-1,-1,-1,-1,-1,-1,-1,-1,-1,-1,-1,-1,-1,-1,-1,-1,-1,-1],"loss_changes":[2.7189895E4,1.3902705E3,1.4399062E3,5.746113E2,1.3639594E2,1.1089215E2,3.3781055E2,2.0752441E2,4.9727448E1,5.711526E1,3.668376E1,2.5240433E1,2.5928589E1,5.742993E1,8.923828E1,1.259668E1,3.714453E1,1.2353577E1,1.5607601E1,6.3478584E0,6.827205E1,4.076967E1,3.1583586E0,2.3242493E1,4.323028E1,4.9081802E1,3.3965576E1,9.3307495E0,9.455811E0,1.1017822E1,3.876758E1,0E0,0E0,0E0,0E0,0E0,0E0,0E0,0E0,0E0,0E0,0E0,0E0,0E0,0E0,0E0,0E0,0E0,0E0,0E0,0E0,0E0,0E0,0E0,0E0,0E0,0E0,0E0,0E0,0E0,0E0,0E0,0E0],"parents":[2147483647,0,0,1,1,2,2,3,3,4,4,5,5,6,6,7,7,8,8,9,9,10,10,11,11,12,12,13,13,14,14,15,15,16,16,17,17,18,18,19,19,20,20,21,21,22,22,23,23,24,24,25,25,26,26,27,27,28,28,29,29,30,30],"right_children":[2,4,6,8,10,12,14,16,18,20,22,24,26,28,30,32,34,36,38,40,42,44,46,48,50,52,54,56,58,60,62,-1,-1,-1,-1,-1,-1,-1,-1,-1,-1,-1,-1,-1,-1,-1,-1,-1,-1,-1,-1,-1,-1,-1,-1,-1,-1,-1,-1,-1,-1,-1,-1],"split_conditions":[3.3E1,1.1E1,7.3E1,6.6E1,2E0,6.7E1,6.9E1,1E0,2.8E1,2E0,1E0,1E0,5.8E1,3E0,7.5E1,9E1,2E0,7E0,8.5E1,4E0,1.9E1,6.8E1,6.9E1,2E1,5.9E1,1E0,6.3E1,8.5E1,7.7E1,8.9E1,8.8E1,-5.951131E-2,-6.772584E-2,-5.0721813E-2,-3.3480957E-2,2.6538566E-2,-2.3667833E-2,3.2914528E-3,3.5226513E-2,1.7902665E-2,-6.587016E-3,-3.1979024E-2,5.149578E-3,2.7119016E-2,7.339901E-2,-5.7459127E-2,-1.1978141E-2,3.6519613E-2,8.599646E-2,-6.6378536E-3,3.89162E-2,1.03127085E-1,3.3796005E-2,5.728788E-2,9.93485E-2,7.7655405E-2,1.0440917E-1,7.812422E-2,1.1864003E-1,1.0416694E-1,1.2748808E-1,1.2723081E-1,1.5208608E-1],"split_indices":[4,4,4,5,10,5,5,9,8,1,3,3,4,10,6,11,10,11,5,2,4,5,6,8,4,3,8,8,4,4,4,0,0,0,0,0,0,0,0,0,0,0,0,0,0,0,0,0,0,0,0,0,0,0,0,0,0,0,0,0,0,0,0],"split_type":[0,0,0,0,0,0,0,0,0,0,0,0,0,0,0,0,0,0,0,0,0,0,0,0,0,0,0,0,0,0,0,0,0,0,0,0,0,0,0,0,0,0,0,0,0,0,0,0,0,0,0,0,0,0,0,0,0,0,0,0,0,0,0],"sum_hessian":[1.1313747E4,7.908758E3,3.4049893E3,6.950017E3,9.5874097E2,6.995892E2,2.7054001E3,6.6608857E3,2.8913132E2,7.428482E2,2.1589278E2,3.5311447E2,3.464747E2,5.722265E2,2.1331736E3,4.9965195E3,1.6643663E3,1.0462651E2,1.8450482E2,2.4768314E2,4.9516507E2,1.9778433E2,1.8108435E1,1.07443375E2,2.4567108E2,1.2313735E2,2.2333736E2,2.748458E2,2.9738074E2,4.088482E2,1.7243253E3,6.052241E2,4.3912954E3,1.2341904E3,4.301759E2,1.3279518E1,9.134699E1,5.4325302E1,1.3017952E2,2.1810603E2,2.9577108E1,2.6035904E2,2.3480603E2,1.1529036E2,8.249398E1,4.8289156E0,1.3279518E1,7.001928E1,3.7424095E1,7.4244576E1,1.7142651E2,3.621687E1,8.692049E1,8.0481926E1,1.4285542E2,2.2394096E2,5.090482E1,2.3540964E1,2.7383975E2,1.0341928E2,3.0542892E2,2.2011807E2,1.5042073E3],"tree_param":{"num_deleted":"0","num_feature":"14","num_nodes":"63","size_leaf_vector":"1"}},{"base_weights":[-1.4419857E-3,-1.007883E0,2.0966747E0,-1.1992825E0,-2.362452E-1,9.5761985E-1,2.4165394E0,-1.3125771E0,-8.3642614E-1,-4.6090868E-1,3.806833E-1,5.998821E-1,1.3546625E0,1.823379E0,2.5720594E0,-1.1625156E0,-1.3339877E0,-9.3206066E-1,-9.011356E-2,-8.846288E-1,-3.0630876E-4,1.8561356E-1,1.1150104E0,3.6739963E-1,8.085925E-1,9.7916186E-1,1.5283512E0,1.5349275E0,2.1142397E0,2.2370398E0,2.6688526E0,-5.098567E-2,-6.362829E-2,-6.67446E-2,-4.6990495E-2,-5.0756555E-2,-3.2144602E-2,-1.0922574E-2,5.343285E-2,-3.4581244E-2,-5.9058677E-2,1.4121801E-2,-1.2399837E-2,-8.482933E-3,2.903423E-2,6.765324E-2,-3.0800236E-2,3.4673817E-2,1.0241339E-2,3.312586E-2,6.5663315E-2,3.5025004E-2,6.347403E-2,5.3328544E-2,8.9033015E-2,6.766282E-2,8.5440226E-2,8.837482E-2,1.1602898E-1,9.21839E-2,1.1483884E-1,1.1437001E-1,1.3591047E-1],"categories":[],"categories_nodes":[],"categories_segments":[],"categories_sizes":[],"default_left":[1,0,0,0,1,0,0,0,0,0,0,0,0,0,0,0,0,0,1,0,0,1,0,0,0,0,0,0,1,0,0,0,0,0,0,0,0,0,0,0,0,0,0,0,0,0,0,0,0,0,0,0,0,0,0,0,0,0,0,0,0,0,0],"id":1,"left_children":[1,3,5,7,9,11,13,15,17,19,21,23,25,27,29,31,33,35,37,39,41,43,45,47,49,51,53,55,57,59,61,-1,-1,-1,-1,-1,-1,-1,-1,-1,-1,-1,-1,-1,-1,-1,-1,-1,-1,-1,-1,-1,-1,-1,-1,-1,-1,-1,-1,-1,-1,-1,-1],"loss_changes":[2.3874754E4,1.1282266E3,1.3331152E3,2.5058105E2,2.1083057E2,1.1356488E2,2.5923633E2,1.3433594E1,1.04081726E2,2.1752986E2,5.7990067E1,2.0343704E1,2.3343994E1,4.6905273E1,6.745508E1,7.975952E0,1.977539E-1,3.0420776E1,2.5051197E1,3.24097E1,3.754105E1,4.5322247E1,3.5890022E1,1.0622915E1,1.5593536E1,9.080818E0,2.8234375E1,7.282959E0,1.7003296E1,7.837158E0,2.675879E1,0E0,0E0,0E0,0E0,0E0,0E0,0E0,0E0,0E0,0E0,0E0,0E0,0E0,0E0,0E0,0E0,0E0,0E0,0E0,0E0,0E0,0E0,0E0,0E0,0E0,0E0,0E0,0E0,0E0,0E0,0E0,0E0],"parents":[2147483647,0,0,1,1,2,2,3,3,4,4,5,5,6,6,7,7,8,8,9,9,10,10,11,11,12,12,13,13,14,14,15,15,16,16,17,17,18,18,19,19,20,20,21,21,22,22,23,23,24,24,25,25,26,26,27,27,28,28,29,29,30,30],"right_children":[2,4,6,8,10,12,14,16,18,20,22,24,26,28,30,32,34,36,38,40,42,44,46,48,50,52,54,56,58,60,62,-1,-1,-1,-1,-1,-1,-1,-1,-1,-1,-1,-1,-1,-1,-1,-1,-1,-1,-1,-1,-1,-1,-1,-1,-1,-1,-1,-1,-1,-1,-1,-1],"split_conditions":[2.9E1,1E1,7.3E1,1E0,6.5E1,6.7E1,6.9E1,9E1,1.5E1,1.1E1,1.6E1,2.3E1,5.9E1,6.6E1,8.1E1,3E0,4.5E1,2E0,8.5E1,1.8E2,2E0,7E1,1E0,6E0,6.7E1,9E1,5.6E1,1.7E1,6E1,8.1E1,8.8E1,-5.098567E-2,-6.362829E-2,-6.67446E-2,-4.6990495E-2,-5.0756555E-2,-3.2144602E-2,-1.0922574E-2,5.343285E-2,-3.4581244E-2,-5.9058677E-2,1.4121801E-2,-1.2399837E-2,-8.482933E-3,2.903423E-2,6.765324E-2,-3.0800236E-2,3.4673817E-2,1.0241339E-2,3.312586E-2,6.5663315E-2,3.5025004E-2,6.347403E-2,5.3328544E-2,8.9033015E-2,6.766282E-2,8.5440226E-2,8.837482E-2,1.1602898E-1,9.21839E-2,1.1483884E-1,1.1437001E-1,1.3591047E-1],"split_indices":[4,5,4,9,5,5,5,11,4,4,4,8,8,8,6,2,12,10,8,7,1,8,3,11,4,5,4,5,6,4,4,0,0,0,0,0,0,0,0,0,0,0,0,0,0,0,0,0,0,0,0,0,0,0,0,0,0,0,0,0,0,0,0],"split_type":[0,0,0,0,0,0,0,0,0,0,0,0,0,0,0,0,0,0,0,0,0,0,0,0,0,0,0,0,0,0,0,0,0,0,0,0,0,0,0,0,0,0,0,0,0,0,0,0,0,0,0,0,0,0,0,0,0,0,0,0,0,0,0],"sum_hessian":[1.1304312E4,7.640011E3,3.6643005E3,6.1211475E3,1.5188638E3,8.0426495E2,2.8600354E3,4.6626963E3,1.4584514E3,1.1135875E3,4.052762E2,4.2439426E2,3.7987073E2,5.9674524E2,2.2632903E3,5.8910284E2,4.0735933E3,1.2925692E3,1.6588216E2,5.795364E2,5.340512E2,3.212032E2,8.4073006E1,2.0206941E2,2.2232484E2,1.222385E2,2.5763223E2,3.02765E2,2.939802E2,5.1273364E2,1.7505566E3,2.6086603E2,3.2823685E2,4.0618875E3,1.1705728E1,1.0021636E3,2.9040564E2,1.5007257E2,1.5809588E1,3.530735E2,2.2646289E2,2.4931459E2,2.8473657E2,1.6942046E2,1.5178273E2,7.4100784E1,9.972221E0,6.614167E1,1.3592773E2,1.742126E2,4.811224E1,6.411282E1,5.812568E1,9.287607E1,1.6475615E2,1.5235916E2,1.5040587E2,1.1324457E2,1.8073563E2,7.180013E1,4.4093353E2,2.0598164E2,1.544575E3],"tree_param":{"num_deleted":"0","num_feature":"14","num_nodes":"63","size_leaf_vector":"1"}},{"base_weights":[-2.5597294E-3,-1.0143756E0,1.8577108E0,-1.1870444E0,-2.9485458E-1,8.263305E-1,2.1964283E0,-1.2880067E0,-8.523299E-1,-4.7021392E-1,3.4132788E-1,4.8372564E-1,1.2624501E0,1.6726058E0,2.332271E0,-1.1363343E0,-1.309745E0,-9.2349267E-1,-3.1883973E-1,2.6669887E-1,-6.860448E-1,-1.6542247E-1,6.6339195E-1,2.2571936E-1,7.137957E-1,1.0548761E0,1.4754311E0,1.4382149E0,1.9671593E0,2.0097497E0,2.411699E0,-4.9660962E-2,-6.2365513E-2,-6.553292E-2,-4.578627E-2,-5.05484E-2,-3.1439085E-2,-1.9459179E-2,2.7659982E-2,1.607293E-2,-6.9297687E-3,-4.33057E-2,-2.572625E-3,-2.3609608E-2,-1.8828263E-5,4.7734514E-2,1.9550234E-2,2.6196018E-2,3.798301E-3,2.9879114E-2,6.193907E-2,3.7874058E-2,5.8239598E-2,1.0055118E-1,6.675044E-2,6.654266E-2,8.901181E-2,8.134055E-2,1.0573248E-1,9.152627E-2,1.0627339E-1,1.0343387E-1,1.23524666E-1],"categories":[],"categories_nodes":[],"categories_segments":[],"categories_sizes":[],"default_left":[1,0,0,0,1,0,0,0,0,0,0,0,1,0,0,0,0,0,1,0,1,0,0,0,0,0,0,0,1,0,0,0,0,0,0,0,0,0,0,0,0,0,0,0,0,0,0,0,0,0,0,0,0,0,0,0,0,0,0,0,0,0,0],"id":2,"left_children":[1,3,5,7,9,11,13,15,17,19,21,23,25,27,29,31,33,35,37,39,41,43,45,47,49,51,53,55,57,59,61,-1,-1,-1,-1,-1,-1,-1,-1,-1,-1,-1,-1,-1,-1,-1,-1,-1,-1,-1,-1,-1,-1,-1,-1,-1,-1,-1,-1,-1,-1,-1,-1],"loss_changes":[2.1205438E4,9.062295E2,1.3847178E3,1.9775977E2,1.578578E2,1.4623718E2,2.086543E2,1.3410645E1,5.158844E1,1.7649379E2,5.005463E1,3.26075E1,1.7531982E1,3.988379E1,5.5851562E1,7.8780518E0,2.2021484E-1,3.0435547E1,1.0175283E1,5.633915E0,9.7964264E1,6.061186E0,1.4488785E1,1.1646034E1,1.703537E1,6.380066E0,1.3154419E1,1.0417969E1,1.0185303E1,5.944458E0,3.3132812E1,0E0,0E0,0E0,0E0,0E0,0E0,0E0,0E0,0E0,0E0,0E0,0E0,0E0,0E0,0E0,0E0,0E0,0E0,0E0,0E0,0E0,0E0,0E0,0E0,0E0,0E0,0E0,0E0,0E0,0E0,0E0,0E0],"parents":[2147483647,0,0,1,1,2,2,3,3,4,4,5,5,6,6,7,7,8,8,9,9,10,10,11,11,12,12,13,13,14,14,15,15,16,16,17,17,18,18,19,19,20,20,21,21,22,22,23,23,24,24,25,25,26,26,27,27,28,28,29,29,30,30],"right_children":[2,4,6,8,10,12,14,16,18,20,22,24,26,28,30,32,34,36,38,40,42,44,46,48,50,52,54,56,58,60,62,-1,-1,-1,-1,-1,-1,-1,-1,-1,-1,-1,-1,-1,-1,-1,-1,-1,-1,-1,-1,-1,-1,-1,-1,-1,-1,-1,-1,-1,-1,-1,-1],"split_conditions":[2.3E1,1E1,7.3E1,1E0,7.3E1,6.7E1,6.9E1,9E1,1.1E1,2E0,3E0,2.1E1,6.5E1,7.1E1,6.1E1,3E0,4.5E1,2E0,8.5E1,4E0,9E0,6E0,2.2E1,6E0,6.7E1,1.9E1,1E0,7.6E1,6E1,7.4E1,9E1,-4.9660962E-2,-6.2365513E-2,-6.553292E-2,-4.578627E-2,-5.05484E-2,-3.1439085E-2,-1.9459179E-2,2.7659982E-2,1.607293E-2,-6.9297687E-3,-4.33057E-2,-2.572625E-3,-2.3609608E-2,-1.8828263E-5,4.7734514E-2,1.9550234E-2,2.6196018E-2,3.798301E-3,2.9879114E-2,6.193907E-2,3.7874058E-2,5.8239598E-2,1.0055118E-1,6.675044E-2,6.654266E-2,8.901181E-2,8.134055E-2,1.0573248E-1,9.152627E-2,1.0627339E-1,1.0343387E-1,1.23524666E-1],"split_indices":[4,5,4,9,5,5,5,11,4,1,10,8,8,7,8,2,12,10,7,2,4,13,1,11,4,7,3,8,6,6,4,0,0,0,0,0,0,0,0,0,0,0,0,0,0,0,0,0,0,0,0,0,0,0,0,0,0,0,0,0,0,0,0],"split_type":[0,0,0,0,0,0,0,0,0,0,0,0,0,0,0,0,0,0,0,0,0,0,0,0,0,0,0,0,0,0,0,0,0,0,0,0,0,0,0,0,0,0,0,0,0,0,0,0,0,0,0,0,0,0,0,0,0,0,0,0,0,0,0],"sum_hessian":[1.1263996E4,7.296064E3,3.9679321E3,5.8835054E3,1.4125582E3,9.8180804E2,2.986124E3,4.5178936E3,1.365612E3,1.1075348E3,3.050235E2,5.510365E2,4.3077155E2,6.176645E2,2.3684597E3,5.7302875E2,3.9448647E3,1.2042456E3,1.6136652E2,2.5084326E2,8.566915E2,1.18716255E2,1.8630724E2,2.6068216E2,2.9035434E2,2.211697E2,2.0960185E2,3.4723492E2,2.7042957E2,4.7322202E2,1.8952377E3,2.5461993E2,3.184088E2,3.9334187E3,1.1445873E1,9.267421E2,2.7750342E2,1.4983374E2,1.1532767E1,2.2116788E2,2.9675386E1,6.6704803E2,1.8964351E2,4.087717E1,7.783909E1,8.8817986E1,9.748925E1,8.631206E1,1.7437012E2,2.3948009E2,5.087424E1,6.1813866E1,1.5935583E2,4.0771564E1,1.6883029E2,2.6799997E2,7.923494E1,8.539718E1,1.8503236E2,1.9226332E2,2.8095868E2,2.82608E2,1.6126296E3],"tree_param":{"num_deleted":"0","num_feature":"14","num_nodes":"63","size_leaf_vector":"1"}},{"base_weights":[-3.4334296E-3,-9.953252E-1,1.7034386E0,-1.1651782E0,-2.9437032E-1,7.622581E-1,2.0163338E0,-1.2651898E0,-8.34964E-1,-4.3908122E-1,4.1245815E-1,4.5157412E-1,1.1609524E0,1.598147E0,2.1553416E0,-1.1114635E0,-1.2873318E0,-9.0236634E-1,-3.666428E-1,2.5192237E-1,-6.338744E-1,-1.4950104E-1,6.241816E-1,2.1841727E-1,6.446048E-1,9.45559E-1,1.3514202E0,1.3051856E0,1.8045503E0,1.8569849E0,2.2225938E0,-4.8386924E-2,-6.118358E-2,-6.441291E-2,-4.4624917E-2,-4.9647044E-2,-3.0093107E-2,3.8946439E-3,-2.5761006E-2,1.5166524E-2,-6.614572E-3,-4.5799572E-2,-1.3538553E-2,2.6942996E-2,-1.4204988E-2,4.2712945E-2,2.0024657E-2,-4.2006457E-3,1.6539281E-2,2.3243716E-2,4.570652E-2,3.1142762E-2,5.19073E-2,5.29357E-2,7.7860646E-2,5.207321E-2,7.124696E-2,7.447945E-2,9.402379E-2,7.818668E-2,9.5649175E-2,9.538928E-2,1.1344828E-1],"categories":[],"categories_nodes":[],"categories_segments":[],"categories_sizes":[],"default_left":[1,0,0,0,1,0,0,0,0,0,0,0,1,0,0,0,0,0,0,0,1,0,0,0,1,0,0,0,0,0,0,0,0,0,0,0,0,0,0,0,0,0,0,0,0,0,0,0,0,0,0,0,0,0,0,0,0,0,0,0,0,0,0],"id":3,"left_children":[1,3,5,7,9,11,13,15,17,19,21,23,25,27,29,31,33,35,37,39,41,43,45,47,49,51,53,55,57,59,61,-1,-1,-1,-1,-1,-1,-1,-1,-1,-1,-1,-1,-1,-1,-1,-1,-1,-1,-1,-1,-1,-1,-1,-1,-1,-1,-1,-1,-1,-1,-1,-1],"loss_changes":[1.8961918E4,8.4302344E2,1.2107041E3,1.8723975E2,1.4164297E2,1.2689349E2,1.7610547E2,1.3458008E1,4.159955E1,1.5474586E2,2.8118355E1,2.5952888E1,1.7178772E1,4.4473633E1,4.233008E1,7.8154297E0,2.4609375E-1,3.098993E1,1.1189743E1,5.042658E0,9.1555664E1,6.200057E0,8.47287E0,9.003101E0,1.4915115E1,5.76091E0,1.2592865E1,8.73938E0,8.001343E0,4.102173E0,2.3177734E1,0E0,0E0,0E0,0E0,0E0,0E0,0E0,0E0,0E0,0E0,0E0,0E0,0E0,0E0,0E0,0E0,0E0,0E0,0E0,0E0,0E0,0E0,0E0,0E0,0E0,0E0,0E0,0E0,0E0,0E0,0E0,0E0],"parents":[2147483647,0,0,1,1,2,2,3,3,4,4,5,5,6,6,7,7,8,8,9,9,10,10,11,11,12,12,13,13,14,14,15,15,16,16,17,17,18,18,19,19,20,20,21,21,22,22,23,23,24,24,25,25,26,26,27,27,28,28,29,29,30,30],"right_children":[2,4,6,8,10,12,14,16,18,20,22,24,26,28,30,32,34,36,38,40,42,44,46,48,50,52,54,56,58,60,62,-1,-1,-1,-1,-1,-1,-1,-1,-1,-1,-1,-1,-1,-1,-1,-1,-1,-1,-1,-1,-1,-1,-1,-1,-1,-1,-1,-1,-1,-1,-1,-1],"split_conditions":[2.2E1,1E1,7.3E1,1E0,8.5E1,6.7E1,7.7E1,9E1,1E1,2E0,1.3E1,1.9E1,5.9E1,3E0,5.8E1,3E0,4.5E1,2E0,3E0,4E0,7E0,7E0,2.1E1,2.9E1,5.6E1,7.7E1,5.6E1,8.7E1,6E1,8.8E1,8.9E1,-4.8386924E-2,-6.118358E-2,-6.441291E-2,-4.4624917E-2,-4.9647044E-2,-3.0093107E-2,3.8946439E-3,-2.5761006E-2,1.5166524E-2,-6.614572E-3,-4.5799572E-2,-1.3538553E-2,2.6942996E-2,-1.4204988E-2,4.2712945E-2,2.0024657E-2,-4.2006457E-3,1.6539281E-2,2.3243716E-2,4.570652E-2,3.1142762E-2,5.19073E-2,5.29357E-2,7.7860646E-2,5.207321E-2,7.124696E-2,7.447945E-2,9.402379E-2,7.818668E-2,9.5649175E-2,9.538928E-2,1.1344828E-1],"split_indices":[4,5,4,9,5,5,5,11,4,1,8,8,8,10,8,2,12,10,2,2,6,11,1,4,6,5,4,4,6,4,4,0,0,0,0,0,0,0,0,0,0,0,0,0,0,0,0,0,0,0,0,0,0,0,0,0,0,0,0,0,0,0,0],"split_type":[0,0,0,0,0,0,0,0,0,0,0,0,0,0,0,0,0,0,0,0,0,0,0,0,0,0,0,0,0,0,0,0,0,0,0,0,0,0,0,0,0,0,0,0,0,0,0,0,0,0,0,0,0,0,0,0,0,0,0,0,0,0,0],"sum_hessian":[1.1197973E4,7.082583E3,4.11539E3,5.7005767E3,1.3820062E3,1.0276577E3,3.0877322E3,4.3732305E3,1.327346E3,1.147462E3,2.3454419E2,5.787766E2,4.4888107E2,7.734392E2,2.3142932E3,5.5704285E2,3.8161877E3,1.159535E3,1.6781094E2,2.5227078E2,8.951912E2,6.426502E1,1.7027917E2,2.6310742E2,3.156692E2,2.1345567E2,2.354254E2,3.2271402E2,4.5072516E2,4.309682E2,1.8833248E3,2.4844241E2,3.0860046E2,3.8049988E3,1.1189155E1,8.8921405E2,2.7032095E2,4.2156525E1,1.2565442E2,2.2268576E2,2.9585012E1,5.0291974E2,3.9227148E2,1.0019601E1,5.424542E1,8.2551216E1,8.772795E1,7.134379E1,1.9176366E2,1.9101651E2,1.24652695E2,4.9311634E1,1.6414404E2,9.972609E1,1.3569931E2,1.0380706E2,2.1890697E2,9.155344E1,3.5917172E2,7.373903E1,3.572292E2,2.4720877E2,1.6361161E3],"tree_param":{"num_deleted":"0","num_feature":"14","num_nodes":"63","size_leaf_vector":"1"}},{"base_weights":[-4.1350285E-3,-9.713442E-1,1.5810331E0,-1.1422353E0,-2.820321E-1,7.142442E-1,1.8657503E0,-1.2439319E0,-8.106114E-1,-4.466185E-1,2.977018E-1,4.2515987E-1,1.0812678E0,1.5043353E0,2.0019221E0,-1.0877488E0,-1.2665493E0,-8.7762445E-1,-3.515661E-1,2.3806298E-1,-6.597715E-1,-1.5392458E-1,5.8146554E-1,2.0656857E-1,6.0466236E-1,8.7471604E-1,1.2508094E0,1.3012183E0,1.7094816E0,1.6493782E0,2.0454106E0,-4.7157988E-2,-6.0073245E-2,-6.337459E-2,-4.350241E-2,-4.840758E-2,-2.902451E-2,3.6977406E-3,-2.4788512E-2,1.4318286E-2,-6.312994E-3,-4.10379E-2,-2.9835424E-3,-2.240598E-2,1.8047505E-4,4.1541986E-2,1.7225958E-2,2.320641E-2,3.8150593E-3,2.532736E-2,5.3562302E-2,6.837188E-2,1.7815063E-2,4.290797E-2,7.28546E-2,5.2367073E-2,7.024471E-2,7.199206E-2,8.922015E-2,5.788953E-2,8.818837E-2,8.9014456E-2,1.0412315E-1],"categories":[],"categories_nodes":[],"categories_segments":[],"categories_sizes":[],"default_left":[1,0,0,0,1,0,0,0,0,0,0,0,0,0,0,0,0,0,0,0,1,0,0,0,0,0,0,0,0,0,0,0,0,0,0,0,0,0,0,0,0,0,0,0,0,0,0,0,0,0,0,0,0,0,0,0,0,0,0,0,0,0,0],"id":4,"left_children":[1,3,5,7,9,11,13,15,17,19,21,23,25,27,29,31,33,35,37,39,41,43,45,47,49,51,53,55,57,59,61,-1,-1,-1,-1,-1,-1,-1,-1,-1,-1,-1,-1,-1,-1,-1,-1,-1,-1,-1,-1,-1,-1,-1,-1,-1,-1,-1,-1,-1,-1,-1,-1],"loss_changes":[1.7037686E4,8.126587E2,1.0379121E3,1.8549512E2,1.3108327E2,1.1018524E2,1.5295898E2,1.3565918E1,3.9704834E1,1.5621835E2,3.9057846E1,2.2829185E1,1.4973633E1,3.408264E1,3.1871094E1,7.7817993E0,2.758789E-1,2.9951233E1,1.0306559E1,4.516631E0,7.875751E1,5.476081E0,1.0760277E1,8.865801E0,1.4138786E1,5.319574E1,1.8971588E1,1.0162842E1,6.1239014E0,1.244397E1,1.6355469E1,0E0,0E0,0E0,0E0,0E0,0E0,0E0,0E0,0E0,0E0,0E0,0E0,0E0,0E0,0E0,0E0,0E0,0E0,0E0,0E0,0E0,0E0,0E0,0E0,0E0,0E0,0E0,0E0,0E0,0E0,0E0,0E0],"parents":[2147483647,0,0,1,1,2,2,3,3,4,4,5,5,6,6,7,7,8,8,9,9,10,10,11,11,12,12,13,13,14,14,15,15,16,16,17,17,18,18,19,19,20,20,21,21,22,22,23,23,24,24,25,25,26,26,27,27,28,28,29,29,30,30],"right_children":[2,4,6,8,10,12,14,16,18,20,22,24,26,28,30,32,34,36,38,40,42,44,46,48,50,52,54,56,58,60,62,-1,-1,-1,-1,-1,-1,-1,-1,-1,-1,-1,-1,-1,-1,-1,-1,-1,-1,-1,-1,-1,-1,-1,-1,-1,-1,-1,-1,-1,-1,-1,-1],"split_conditions":[2.2E1,1E1,7.3E1,1E0,7.3E1,6.7E1,7.5E1,9E1,1E1,2E0,3E0,1.9E1,5.8E1,7.6E1,6.9E1,3E0,4.5E1,2E0,3E0,4E0,9E0,6E0,2.2E1,6E0,6.7E1,1E0,6.3E1,5E0,8.9E1,2.8E1,8.8E1,-4.7157988E-2,-6.0073245E-2,-6.337459E-2,-4.350241E-2,-4.840758E-2,-2.902451E-2,3.6977406E-3,-2.4788512E-2,1.4318286E-2,-6.312994E-3,-4.10379E-2,-2.9835424E-3,-2.240598E-2,1.8047505E-4,4.1541986E-2,1.7225958E-2,2.320641E-2,3.8150593E-3,2.532736E-2,5.3562302E-2,6.837188E-2,1.7815063E-2,4.290797E-2,7.28546E-2,5.2367073E-2,7.024471E-2,7.199206E-2,8.922015E-2,5.788953E-2,8.818837E-2,8.9014456E-2,1.0412315E-1],"split_indices":[4,5,4,9,5,5,6,11,4,1,10,8,4,5,5,2,12,10,2,2,4,13,1,11,4,3,8,12,4,8,4,0,0,0,0,0,0,0,0,0,0,0,0,0,0,0,0,0,0,0,0,0,0,0,0,0,0,0,0,0,0,0,0],"split_type":[0,0,0,0,0,0,0,0,0,0,0,0,0,0,0,0,0,0,0,0,0,0,0,0,0,0,0,0,0,0,0,0,0,0,0,0,0,0,0,0,0,0,0,0,0,0,0,0,0,0,0,0,0,0,0,0,0,0,0,0,0,0,0],"sum_hessian":[1.1110576E4,6.900526E3,4.2100503E3,5.5291157E3,1.3714099E3,1.0418291E3,3.1682212E3,4.229374E3,1.2997418E3,1.0683384E3,3.0307153E2,5.840016E2,4.5782758E2,8.703264E2,2.2978948E3,5.4120825E2,3.6881658E3,1.1333759E3,1.6636603E2,2.5360422E2,8.147342E2,1.17122246E2,1.8594928E2,2.6429904E2,3.197025E2,2.0916365E2,2.4866393E2,4.4101587E2,4.2931052E2,2.5660794E2,2.041287E3,2.4235298E2,2.988553E2,3.6772295E3,1.0936259E1,8.669778E2,2.6639807E2,4.2232513E1,1.2413352E2,2.2410574E2,2.949847E1,6.421103E2,1.7262392E2,4.020144E1,7.692081E1,8.93775E1,9.6571785E1,8.7914665E1,1.7638438E2,2.658782E2,5.3824303E1,1.0639962E2,1.0276403E2,8.742132E1,1.612426E2,1.3109598E2,3.099199E2,9.774533E1,3.315652E2,5.053886E1,2.0606906E2,2.5631552E2,1.7849714E3],"tree_param":{"num_deleted":"0","num_feature":"14","num_nodes":"63","size_leaf_vector":"1"}},{"base_weights":[-4.6995487E-3,-9.4836676E-1,1.475247E0,-1.1204511E0,-2.7026343E-1,6.7049265E-1,1.7376095E0,-1.2240641E0,-7.870151E-1,-4.5095474E-1,2.2012097E-1,4.0069282E-1,1.0101126E0,1.4020157E0,1.8639652E0,-1.0650544E0,-1.2472252E0,-8.536619E-1,-3.3705065E-1,2.2505112E-1,-6.838897E-1,-2.1708459E-1,4.5685226E-1,2.9956314E-1,7.595713E-1,8.1675243E-1,1.1761922E0,1.2132298E0,1.5925857E0,1.3466777E0,1.8899542E0,-4.5969307E-2,-5.9026446E-2,-6.240934E-2,-4.2415187E-2,-4.721045E-2,-2.7988374E-2,3.51112E-3,-2.3847533E-2,1.3523581E-2,-6.0244864E-3,-4.088111E-2,-1.985463E-3,1.6994728E-2,-1.8993469E-2,1.8870713E-2,5.4466654E-2,1.1275145E-2,4.0126715E-2,6.0045462E-2,2.3499027E-2,2.3132173E-2,4.644205E-2,8.729365E-2,5.1229484E-2,5.597697E-2,7.336676E-2,7.233228E-2,8.650562E-2,3.2811653E-2,7.808589E-2,8.095711E-2,9.66085E-2],"categories":[],"categories_nodes":[],"categories_segments":[],"categories_sizes":[],"default_left":[1,0,0,0,1,0,0,0,0,0,0,1,1,0,0,0,0,0,0,0,1,0,0,0,0,0,0,0,1,0,0,0,0,0,0,0,0,0,0,0,0,0,0,0,0,0,0,0,0,0,0,0,0,0,0,0,0,0,0,0,0,0,0],"id":5,"left_children":[1,3,5,7,9,11,13,15,17,19,21,23,25,27,29,31,33,35,37,39,41,43,45,47,49,51,53,55,57,59,61,-1,-1,-1,-1,-1,-1,-1,-1,-1,-1,-1,-1,-1,-1,-1,-1,-1,-1,-1,-1,-1,-1,-1,-1,-1,-1,-1,-1,-1,-1,-1,-1],"loss_changes":[1.5372175E4,7.840122E2,9.0371484E2,1.8423389E2,1.20762245E2,9.629413E1,1.3441309E2,1.37265625E1,3.7907104E1,1.568988E2,3.811832E1,2.1177277E1,1.402182E1,3.0012207E1,2.8973145E1,7.772156E0,3.0810547E-1,2.8975037E1,9.4896145E0,4.048072E0,6.3766388E1,1.1889618E1,1.1578056E1,1.7019924E1,1.5923599E1,8.2565155E0,1.9690948E1,9.076294E0,6.3016357E0,1.6143738E1,2.2365723E1,0E0,0E0,0E0,0E0,0E0,0E0,0E0,0E0,0E0,0E0,0E0,0E0,0E0,0E0,0E0,0E0,0E0,0E0,0E0,0E0,0E0,0E0,0E0,0E0,0E0,0E0,0E0,0E0,0E0,0E0,0E0,0E0],"parents":[2147483647,0,0,1,1,2,2,3,3,4,4,5,5,6,6,7,7,8,8,9,9,10,10,11,11,12,12,13,13,14,14,15,15,16,16,17,17,18,18,19,19,20,20,21,21,22,22,23,23,24,24,25,25,26,26,27,27,28,28,29,29,30,30],"right_children":[2,4,6,8,10,12,14,16,18,20,22,24,26,28,30,32,34,36,38,40,42,44,46,48,50,52,54,56,58,60,62,-1,-1,-1,-1,-1,-1,-1,-1,-1,-1,-1,-1,-1,-1,-1,-1,-1,-1,-1,-1,-1,-1,-1,-1,-1,-1,-1,-1,-1,-1,-1,-1],"split_conditions":[2.2E1,1E1,7.3E1,1E0,6.5E1,6.7E1,7.5E1,9E1,1E1,2E0,2.8E1,6.7E1,6.6E1,7.6E1,2.3E1,3E0,4.5E1,2E0,3E0,4E0,1.1E1,4E0,1.6E1,6.7E1,1E0,7.7E1,1E0,8.6E1,6.3E1,6.1E1,8.8E1,-4.5969307E-2,-5.9026446E-2,-6.240934E-2,-4.2415187E-2,-4.721045E-2,-2.7988374E-2,3.51112E-3,-2.3847533E-2,1.3523581E-2,-6.0244864E-3,-4.088111E-2,-1.985463E-3,1.6994728E-2,-1.8993469E-2,1.8870713E-2,5.4466654E-2,1.1275145E-2,4.0126715E-2,6.0045462E-2,2.3499027E-2,2.3132173E-2,4.644205E-2,8.729365E-2,5.1229484E-2,5.597697E-2,7.336676E-2,7.233228E-2,8.650562E-2,3.2811653E-2,7.808589E-2,8.095711E-2,9.66085E-2],"split_indices":[4,5,4,9,5,5,6,11,4,1,8,6,7,5,5,2,12,10,2,2,4,12,4,4,3,5,3,8,8,7,4,0,0,0,0,0,0,0,0,0,0,0,0,0,0,0,0,0,0,0,0,0,0,0,0,0,0,0,0,0,0,0,0],"split_type":[0,0,0,0,0,0,0,0,0,0,0,0,0,0,0,0,0,0,0,0,0,0,0,0,0,0,0,0,0,0,0,0,0,0,0,0,0,0,0,0,0,0,0,0,0,0,0,0,0,0,0,0,0,0,0,0,0,0,0,0,0,0,0],"sum_hessian":[1.1005036E4,6.720294E3,4.284742E3,5.3595356E3,1.3607584E3,1.0543257E3,3.2304165E3,4.0868909E3,1.2726447E3,9.9442444E2,3.6633392E2,5.8877374E2,4.655519E2,8.8691473E2,2.3435017E3,5.2557837E2,3.5613123E3,1.1076824E3,1.6496237E2,2.5485059E2,7.3957385E2,1.2870992E2,2.3762402E2,4.6076715E2,1.2800658E2,2.178431E2,2.4770883E2,4.492434E2,4.3767133E2,1.14634155E2,2.2288677E3,2.3636792E2,2.8921048E2,3.5506245E3,1.0687754E1,8.450993E2,2.62583E2,4.2304558E1,1.2265781E2,2.2543495E2,2.941563E1,6.122094E2,1.2736449E2,2.8863499E1,9.984641E1,2.1252779E2,2.5096231E1,4.0289154E2,5.787561E1,4.946885E1,7.853772E1,5.360915E1,1.6423395E2,4.9854195E1,1.9785463E2,3.3217438E2,1.1706902E2,2.1792912E2,2.1974219E2,2.8186258E1,8.644789E1,3.0589783E2,1.9229697E3],"tree_param":{"num_deleted":"0","num_feature":"14","num_nodes":"63","size_leaf_vector":"1"}},{"base_weights":[-5.1486515E-3,-9.262565E-1,1.3825133E0,-1.0996917E0,-2.5896418E-1,6.824378E-1,1.6455888E0,-1.2054381E0,-7.6410955E-1,-4.3395996E-1,2.0837797E-1,4.098782E-1,9.9867237E-1,1.3372141E0,1.7573642E0,-1.0432613E0,-1.2292081E0,-8.263185E-1,-2.9365978E-1,2.1282439E-1,-6.618992E-1,-2.0735747E-1,4.3040586E-1,3.0951157E-1,7.8827184E-1,7.515967E-1,1.1563083E0,1.1639135E0,1.5040518E0,1.4991912E0,1.8047781E0,-4.4816658E-2,-5.8036067E-2,-6.1509598E-2,-4.136015E-2,-4.567387E-2,-2.7250541E-2,5.1449817E-3,-2.1586454E-2,1.2778274E-2,-5.748537E-3,-4.0489417E-2,-4.954833E-3,1.6052296E-2,-1.8213755E-2,1.549385E-3,2.6901398E-2,1.1264882E-2,4.0181052E-2,2.7579894E-2,7.10888E-2,5.941341E-2,1.4239043E-2,3.8221303E-2,6.593515E-2,5.4160126E-2,7.0803426E-2,7.799112E-2,5.831808E-2,3.4246128E-2,7.829888E-2,1.0111963E-1,8.821734E-2],"categories":[],"categories_nodes":[],"categories_segments":[],"categories_sizes":[],"default_left":[1,0,0,0,1,0,0,0,0,0,0,0,0,0,0,0,0,0,0,0,1,0,1,1,0,0,0,1,0,0,0,0,0,0,0,0,0,0,0,0,0,0,0,0,0,0,0,0,0,0,0,0,0,0,0,0,0,0,0,0,0,0,0],"id":6,"left_children":[1,3,5,7,9,11,13,15,17,19,21,23,25,27,29,31,33,35,37,39,41,43,45,47,49,51,53,55,57,59,61,-1,-1,-1,-1,-1,-1,-1,-1,-1,-1,-1,-1,-1,-1,-1,-1,-1,-1,-1,-1,-1,-1,-1,-1,-1,-1,-1,-1,-1,-1,-1,-1],"loss_changes":[1.3915722E4,7.5701514E2,7.98834E2,1.8337402E2,1.1059484E2,1.01996155E2,1.06447266E2,1.393457E1,3.6255554E1,1.4512161E2,3.4130222E1,2.4054794E1,2.0524658E1,2.2649292E1,2.5614258E1,7.7819824E0,3.413086E-1,2.6494751E1,8.104065E0,3.6302624E0,6.0461945E1,1.0818321E1,1.03312E1,2.0929321E1,1.9229286E1,4.3856483E1,2.02146E1,6.9804077E0,6.2139893E0,1.876947E1,1.3586426E1,0E0,0E0,0E0,0E0,0E0,0E0,0E0,0E0,0E0,0E0,0E0,0E0,0E0,0E0,0E0,0E0,0E0,0E0,0E0,0E0,0E0,0E0,0E0,0E0,0E0,0E0,0E0,0E0,0E0,0E0,0E0,0E0],"parents":[2147483647,0,0,1,1,2,2,3,3,4,4,5,5,6,6,7,7,8,8,9,9,10,10,11,11,12,12,13,13,14,14,15,15,16,16,17,17,18,18,19,19,20,20,21,21,22,22,23,23,24,24,25,25,26,26,27,27,28,28,29,29,30,30],"right_children":[2,4,6,8,10,12,14,16,18,20,22,24,26,28,30,32,34,36,38,40,42,44,46,48,50,52,54,56,58,60,62,-1,-1,-1,-1,-1,-1,-1,-1,-1,-1,-1,-1,-1,-1,-1,-1,-1,-1,-1,-1,-1,-1,-1,-1,-1,-1,-1,-1,-1,-1,-1,-1],"split_conditions":[2.2E1,1E1,7.6E1,1E0,6.5E1,6.7E1,7.5E1,9E1,1.1E1,2E0,2.8E1,6.7E1,5.8E1,7.6E1,6.1E1,3E0,4.5E1,2E0,3E0,4E0,9E0,4E0,2.5E1,7.6E1,8.7E1,1E0,6.1E1,7.4E1,1.2E1,2.2E1,2E0,-4.4816658E-2,-5.8036067E-2,-6.1509598E-2,-4.136015E-2,-4.567387E-2,-2.7250541E-2,5.1449817E-3,-2.1586454E-2,1.2778274E-2,-5.748537E-3,-4.0489417E-2,-4.954833E-3,1.6052296E-2,-1.8213755E-2,1.549385E-3,2.6901398E-2,1.1264882E-2,4.0181052E-2,2.7579894E-2,7.10888E-2,5.941341E-2,1.4239043E-2,3.8221303E-2,6.593515E-2,5.4160126E-2,7.0803426E-2,7.799112E-2,5.831808E-2,3.4246128E-2,7.829888E-2,1.0111963E-1,8.821734E-2],"split_indices":[4,5,4,9,5,5,6,11,4,1,8,4,4,5,8,2,12,10,2,2,4,12,7,6,8,3,7,7,12,5,2,0,0,0,0,0,0,0,0,0,0,0,0,0,0,0,0,0,0,0,0,0,0,0,0,0,0,0,0,0,0,0,0],"split_type":[0,0,0,0,0,0,0,0,0,0,0,0,0,0,0,0,0,0,0,0,0,0,0,0,0,0,0,0,0,0,0,0,0,0,0,0,0,0,0,0,0,0,0,0,0,0,0,0,0,0,0,0,0,0,0,0,0,0,0,0,0,0,0],"sum_hessian":[1.0885083E4,6.542565E3,4.3425176E3,5.192373E3,1.3501921E3,1.1870989E3,3.155419E3,3.9462617E3,1.2461111E3,9.824036E2,3.6778854E2,6.3881036E2,5.482886E2,8.42907E2,2.312512E3,5.1019824E2,3.4360635E3,1.0999103E3,1.4620082E2,2.5601627E2,7.263874E2,1.2806314E2,2.3972539E2,5.0632794E2,1.3248242E2,2.158061E2,3.3248245E2,4.1735803E2,4.2554895E2,3.638631E2,1.9486488E3,2.3050085E2,2.796974E2,3.4256194E3,1.0444115E1,8.3801654E2,2.6189374E2,3.7822536E1,1.0837828E2,2.266799E2,2.9336353E1,5.748846E2,1.5150279E2,2.9083061E1,9.898008E1,5.1156406E1,1.8856898E2,4.3384174E2,7.24862E1,9.781132E1,3.4671112E1,1.1070465E2,1.05101456E2,9.9084366E1,2.3339809E2,3.201717E2,9.718634E1,3.621239E2,6.3425045E1,2.8435028E1,3.3542807E2,2.9763947E2,1.6510093E3],"tree_param":{"num_deleted":"0","num_feature":"14","num_nodes":"63","size_leaf_vector":"1"}},{"base_weights":[-5.5147856E-3,-9.211911E-1,1.2781601E0,-1.087354E0,-2.7597153E-1,5.4831654E-1,1.525286E0,-1.1879232E0,-7.62792E-1,-4.2840284E-1,2.373224E-1,3.304713E-1,8.619614E-1,1.1923808E0,1.6378018E0,-1.0222645E0,-1.2123654E0,-8.436423E-1,-4.9409634E-1,2.0132609E-1,-6.488187E-1,-1.7014018E-1,4.8684007E-1,2.0061629E-1,5.8773196E-1,6.76766E-1,1.0492424E0,9.66411E-1,1.3517245E0,1.3921447E0,1.6958532E0,-4.3696344E-2,-5.7095863E-2,-6.089328E-2,-5.5826515E-2,-4.4934638E-2,-2.0833634E-2,-3.200046E-2,-6.46799E-3,1.2078631E-2,-5.4846588E-3,-4.238869E-2,-1.2958074E-2,-2.279991E-2,-7.022112E-4,3.6064018E-2,1.3190505E-2,-8.811573E-4,1.9314557E-2,2.6344333E-2,8.5592195E-2,2.9089797E-2,4.8424695E-2,7.42687E-2,4.526978E-2,3.661465E-2,5.4025747E-2,4.0244352E-2,6.9975264E-2,7.181676E-2,5.6744542E-2,7.30179E-2,8.671459E-2],"categories":[],"categories_nodes":[],"categories_segments":[],"categories_sizes":[],"default_left":[1,0,0,0,1,0,0,0,0,0,0,1,1,0,0,0,0,0,0,0,0,0,0,0,0,1,0,0,0,0,0,0,0,0,0,0,0,0,0,0,0,0,0,0,0,0,0,0,0,0,0,0,0,0,0,0,0,0,0,0,0,0,0],"id":7,"left_children":[1,3,5,7,9,11,13,15,17,19,21,23,25,27,29,31,33,35,37,39,41,43,45,47,49,51,53,55,57,59,61,-1,-1,-1,-1,-1,-1,-1,-1,-1,-1,-1,-1,-1,-1,-1,-1,-1,-1,-1,-1,-1,-1,-1,-1,-1,-1,-1,-1,-1,-1,-1,-1],"loss_changes":[1.2641909E4,6.727031E2,8.067905E2,1.6202051E2,1.0078956E2,7.721216E1,1.2332471E2,1.4182617E1,2.529535E1,1.3790237E2,3.0105717E1,2.2296371E1,1.5392456E1,2.9246704E1,3.3249023E1,7.807434E0,3.8671875E-1,2.0977356E1,1.4615219E1,3.2573385E0,5.6797028E1,5.03109E0,9.399487E0,1.813639E1,1.4456459E1,5.9819717E0,1.3022858E1,8.676422E0,1.1810059E1,3.859253E0,1.5708008E1,0E0,0E0,0E0,0E0,0E0,0E0,0E0,0E0,0E0,0E0,0E0,0E0,0E0,0E0,0E0,0E0,0E0,0E0,0E0,0E0,0E0,0E0,0E0,0E0,0E0,0E0,0E0,0E0,0E0,0E0,0E0,0E0],"parents":[2147483647,0,0,1,1,2,2,3,3,4,4,5,5,6,6,7,7,8,8,9,9,10,10,11,11,12,12,13,13,14,14,15,15,16,16,17,17,18,18,19,19,20,20,21,21,22,22,23,23,24,24,25,25,26,26,27,27,28,28,29,29,30,30],"right_children":[2,4,6,8,10,12,14,16,18,20,22,24,26,28,30,32,34,36,38,40,42,44,46,48,50,52,54,56,58,60,62,-1,-1,-1,-1,-1,-1,-1,-1,-1,-1,-1,-1,-1,-1,-1,-1,-1,-1,-1,-1,-1,-1,-1,-1,-1,-1,-1,-1,-1,-1,-1,-1],"split_conditions":[1.9E1,1E1,7.2E1,1E0,7.3E1,6.8E1,7.7E1,9E1,2E0,2E0,3E0,3.6E1,6.5E1,3E0,6.1E1,3E0,1.5E1,1E1,7.9E1,4E0,4E0,6E0,2.2E1,3.3E1,4.4E1,9E1,1E0,8.7E1,7.6E1,1.1E1,9E1,-4.3696344E-2,-5.7095863E-2,-6.089328E-2,-5.5826515E-2,-4.4934638E-2,-2.0833634E-2,-3.200046E-2,-6.46799E-3,1.2078631E-2,-5.4846588E-3,-4.238869E-2,-1.2958074E-2,-2.279991E-2,-7.022112E-4,3.6064018E-2,1.3190505E-2,-8.811573E-4,1.9314557E-2,2.6344333E-2,8.5592195E-2,2.9089797E-2,4.8424695E-2,7.42687E-2,4.526978E-2,3.661465E-2,5.4025747E-2,4.0244352E-2,6.9975264E-2,7.181676E-2,5.6744542E-2,7.30179E-2,8.671459E-2],"split_indices":[4,5,4,9,5,5,5,11,10,1,10,8,8,10,8,2,12,4,6,2,9,13,1,4,13,6,3,4,4,11,4,0,0,0,0,0,0,0,0,0,0,0,0,0,0,0,0,0,0,0,0,0,0,0,0,0,0,0,0,0,0,0,0],"split_type":[0,0,0,0,0,0,0,0,0,0,0,0,0,0,0,0,0,0,0,0,0,0,0,0,0,0,0,0,0,0,0,0,0,0,0,0,0,0,0,0,0,0,0,0,0,0,0,0,0,0,0,0,0,0,0,0,0,0,0,0,0,0,0],"sum_hessian":[1.0753127E4,6.276343E3,4.476784E3,4.9904663E3,1.2858763E3,1.1332234E3,3.343561E3,3.8078887E3,1.1825776E3,9.9157635E2,2.943E2,6.699538E2,4.6326956E2,8.4753143E2,2.4960295E3,4.9510504E2,3.3127837E3,9.0740155E2,2.7517612E2,2.5710703E2,7.3446936E2,1.1189442E2,1.8240556E2,4.4640564E2,2.2354813E2,2.352515E2,2.2801805E2,3.5341238E2,4.9411908E2,4.8187155E2,2.014158E3,2.2476276E2,2.703423E2,3.1219038E3,1.908799E2,8.027906E2,1.0461095E2,1.960083E2,7.916783E1,2.2784653E2,2.9260515E1,4.8543524E2,2.490341E2,3.8841972E1,7.3052444E1,8.7838844E1,9.456672E1,2.0562372E2,2.4078192E2,2.1346265E2,1.0085484E1,1.7973447E2,5.551703E1,5.4240227E1,1.7377783E2,1.1823533E2,2.3517705E2,4.1139008E1,4.5298007E2,4.0731976E2,7.455181E1,2.8809848E2,1.7260596E3],"tree_param":{"num_deleted":"0","num_feature":"14","num_nodes":"63","size_leaf_vector":"1"}},{"base_weights":[-5.8180206E-3,-9.0058714E-1,1.2060153E0,-1.0684153E0,-2.6461512E-1,5.3030354E-1,1.4445297E0,-1.1714034E0,-7.409365E-1,-3.913455E-1,3.0760723E-1,3.1625524E-1,8.2987577E-1,1.092454E0,1.53605E0,-1.0019709E0,-1.1965793E0,-8.2161844E-1,-4.7580454E-1,1.9050519E-1,-5.824087E-1,-6.955318E-2,5.07479E-1,2.1358901E-1,6.239144E-1,6.614296E-1,1.0016797E0,9.096905E-1,1.2748556E0,1.2981956E0,1.5934707E0,-4.2605147E-2,-5.6200262E-2,-5.9881557E-2,-3.8952712E-2,-4.3838985E-2,-2.0016542E-2,-3.0281503E-2,-3.5220713E-3,1.1421306E-2,-5.2323597E-3,-4.2232472E-2,-1.2274228E-2,-5.782376E-3,6.348346E-2,3.917777E-2,1.37433885E-2,-8.165591E-4,1.9923735E-2,4.8217375E-2,1.4768037E-2,2.4276558E-2,4.1043844E-2,6.948423E-2,4.394847E-2,4.8634592E-2,3.0242745E-2,5.3281963E-2,6.9919705E-2,6.760224E-2,4.9289312E-2,9.016156E-2,7.778099E-2],"categories":[],"categories_nodes":[],"categories_segments":[],"categories_sizes":[],"default_left":[1,0,0,0,1,0,0,0,0,0,0,1,1,0,0,0,0,0,0,0,1,0,0,0,0,0,0,0,1,0,0,0,0,0,0,0,0,0,0,0,0,0,0,0,0,0,0,0,0,0,0,0,0,0,0,0,0,0,0,0,0,0,0],"id":8,"left_children":[1,3,5,7,9,11,13,15,17,19,21,23,25,27,29,31,33,35,37,39,41,43,45,47,49,51,53,55,57,59,61,-1,-1,-1,-1,-1,-1,-1,-1,-1,-1,-1,-1,-1,-1,-1,-1,-1,-1,-1,-1,-1,-1,-1,-1,-1,-1,-1,-1,-1,-1,-1,-1],"loss_changes":[1.15087705E4,6.5140234E2,7.258071E2,1.6204883E2,9.266473E1,7.5257324E1,1.05668945E2,1.4469727E1,2.438916E1,1.16307434E2,1.7520247E1,2.1615005E1,1.3523621E1,2.1868774E1,3.4010742E1,7.845276E0,4.6826172E-1,2.0256409E1,1.4305748E1,2.9241848E0,6.933551E1,5.1606307E0,9.528194E0,2.2016817E1,1.8926178E1,6.6260223E0,1.0240509E1,6.10553E0,7.381531E0,7.4001465E0,1.4055664E1,0E0,0E0,0E0,0E0,0E0,0E0,0E0,0E0,0E0,0E0,0E0,0E0,0E0,0E0,0E0,0E0,0E0,0E0,0E0,0E0,0E0,0E0,0E0,0E0,0E0,0E0,0E0,0E0,0E0,0E0,0E0,0E0],"parents":[2147483647,0,0,1,1,2,2,3,3,4,4,5,5,6,6,7,7,8,8,9,9,10,10,11,11,12,12,13,13,14,14,15,15,16,16,17,17,18,18,19,19,20,20,21,21,22,22,23,23,24,24,25,25,26,26,27,27,28,28,29,29,30,30],"right_children":[2,4,6,8,10,12,14,16,18,20,22,24,26,28,30,32,34,36,38,40,42,44,46,48,50,52,54,56,58,60,62,-1,-1,-1,-1,-1,-1,-1,-1,-1,-1,-1,-1,-1,-1,-1,-1,-1,-1,-1,-1,-1,-1,-1,-1,-1,-1,-1,-1,-1,-1,-1,-1],"split_conditions":[1.9E1,1E1,7.3E1,1E0,8.5E1,6.8E1,6.9E1,9E1,2E0,2E0,3E0,6.4E1,6.5E1,6.6E1,7.6E1,3E0,4.5E1,1E1,8E0,4E0,7E0,4.5E1,2.1E1,3.3E1,1E0,5.8E1,1E0,1E1,6E1,1.2E1,2E0,-4.2605147E-2,-5.6200262E-2,-5.9881557E-2,-3.8952712E-2,-4.3838985E-2,-2.0016542E-2,-3.0281503E-2,-3.5220713E-3,1.1421306E-2,-5.2323597E-3,-4.2232472E-2,-1.2274228E-2,-5.782376E-3,6.348346E-2,3.917777E-2,1.37433885E-2,-8.165591E-4,1.9923735E-2,4.8217375E-2,1.4768037E-2,2.4276558E-2,4.1043844E-2,6.948423E-2,4.394847E-2,4.8634592E-2,3.0242745E-2,5.3281963E-2,6.9919705E-2,6.760224E-2,4.9289312E-2,9.016156E-2,7.778099E-2],"split_indices":[4,5,4,9,5,5,5,11,10,1,10,8,8,8,6,2,12,4,12,2,6,13,1,4,3,4,3,11,6,12,2,0,0,0,0,0,0,0,0,0,0,0,0,0,0,0,0,0,0,0,0,0,0,0,0,0,0,0,0,0,0,0,0],"split_type":[0,0,0,0,0,0,0,0,0,0,0,0,0,0,0,0,0,0,0,0,0,0,0,0,0,0,0,0,0,0,0,0,0,0,0,0,0,0,0,0,0,0,0,0,0,0,0,0,0,0,0,0,0,0,0,0,0,0,0,0,0,0,0],"sum_hessian":[1.0611899E4,6.104695E3,4.507205E3,4.8295376E3,1.2751575E3,1.1767347E3,3.3304702E3,3.6721216E3,1.1574156E3,1.0442114E3,2.3094598E2,6.8753656E2,4.8919824E2,6.8979364E2,2.6406765E3,4.8032965E2,3.191792E3,8.857696E2,2.7164615E2,2.5812833E2,7.860831E2,8.022065E1,1.5072534E2,5.1678046E2,1.7075606E2,2.4946187E2,2.3973639E2,3.4754575E2,3.4224792E2,5.1811035E2,2.1225662E3,2.1916258E2,2.6116705E2,3.1819087E3,9.883464E0,7.822628E2,1.0350673E2,2.053763E2,6.626985E1,2.2894035E2,2.9187983E1,4.411852E2,3.4489795E2,7.843468E1,1.7859762E0,6.784018E1,8.288516E1,2.3074376E2,2.860367E2,8.291155E1,8.78445E1,1.2053529E2,1.2892657E2,5.5121044E1,1.8461534E2,2.8620413E2,6.134159E1,1.306366E2,2.1161133E2,4.3909665E2,7.901372E1,3.173338E2,1.8052323E3],"tree_param":{"num_deleted":"0","num_feature":"14","num_nodes":"63","size_leaf_vector":"1"}},{"base_weights":[-6.0567586E-3,-8.8057107E-1,1.1408731E0,-1.0501903E0,-2.5361818E-1,5.422875E-1,1.3843598E0,-1.1557771E0,-7.196154E-1,-3.973472E-1,2.1643056E-1,3.240925E-1,8.2341236E-1,1.1100473E0,1.4851215E0,-9.8229855E-1,-1.1817474E0,-7.659799E-1,-2.60765E-1,1.8031473E-1,-6.082235E-1,-1.5355633E-1,4.378487E-1,2.3614804E-1,6.98694E-1,6.01498E-1,9.664361E-1,9.631954E-1,1.2527269E0,1.2560424E0,1.5274583E0,-4.154028E-2,-5.5344325E-2,-5.9380244E-2,-5.401173E-2,-2.9062003E-2,-4.3616056E-2,-3.2511286E-2,-3.040913E-3,1.080324E-2,-4.991174E-3,-1.9382408E-2,-4.766053E-2,-2.1519115E-2,-2.0576284E-4,4.2559713E-2,1.580634E-2,2.5989417E-2,5.4052733E-3,2.4014628E-2,6.388616E-2,4.88432E-2,5.526516E-3,3.0972583E-2,5.5827565E-2,4.4684093E-2,5.9060484E-2,6.501763E-2,4.8214898E-2,2.6545653E-2,6.5819405E-2,6.395084E-2,7.799992E-2],"categories":[],"categories_nodes":[],"categories_segments":[],"categories_sizes":[],"default_left":[1,0,0,0,1,0,0,0,1,0,0,0,0,0,0,0,0,0,1,0,0,0,0,1,0,0,0,1,0,0,0,0,0,0,0,0,0,0,0,0,0,0,0,0,0,0,0,0,0,0,0,0,0,0,0,0,0,0,0,0,0,0,0],"id":9,"left_children":[1,3,5,7,9,11,13,15,17,19,21,23,25,27,29,31,33,35,37,39,41,43,45,47,49,51,53,55,57,59,61,-1,-1,-1,-1,-1,-1,-1,-1,-1,-1,-1,-1,-1,-1,-1,-1,-1,-1,-1,-1,-1,-1,-1,-1,-1,-1,-1,-1,-1,-1,-1,-1],"loss_changes":[1.0496809E4,6.311821E2,6.591221E2,1.6228125E2,8.559628E1,8.0136444E1,8.728955E1,1.47890625E1,2.3923828E1,1.18229294E2,2.4401117E1,2.4201744E1,1.757788E1,1.6988403E1,2.0876465E1,7.8927E0,5.4541016E-1,1.9715149E1,8.182041E0,2.6263094E0,5.37023E1,4.629481E0,9.09362E0,2.1753529E1,1.7105743E1,4.1703873E1,1.7344421E1,5.4953003E0,4.7506104E0,1.5589966E1,1.4004395E1,0E0,0E0,0E0,0E0,0E0,0E0,0E0,0E0,0E0,0E0,0E0,0E0,0E0,0E0,0E0,0E0,0E0,0E0,0E0,0E0,0E0,0E0,0E0,0E0,0E0,0E0,0E0,0E0,0E0,0E0,0E0,0E0],"parents":[2147483647,0,0,1,1,2,2,3,3,4,4,5,5,6,6,7,7,8,8,9,9,10,10,11,11,12,12,13,13,14,14,15,15,16,16,17,17,18,18,19,19,20,20,21,21,22,22,23,23,24,24,25,25,26,26,27,27,28,28,29,29,30,30],"right_children":[2,4,6,8,10,12,14,16,18,20,22,24,26,28,30,32,34,36,38,40,42,44,46,48,50,52,54,56,58,60,62,-1,-1,-1,-1,-1,-1,-1,-1,-1,-1,-1,-1,-1,-1,-1,-1,-1,-1,-1,-1,-1,-1,-1,-1,-1,-1,-1,-1,-1,-1,-1,-1],"split_conditions":[1.9E1,1E1,7.6E1,1E0,7.3E1,6.8E1,7.5E1,9E1,7.9E1,2E0,3E0,6.7E1,5.7E1,7.6E1,6.1E1,3E0,1.5E1,3E0,1E1,4E0,1.8E2,6E0,4E0,5E0,8.7E1,1E0,6E1,7.4E1,1.2E1,2.2E1,8.9E1,-4.154028E-2,-5.5344325E-2,-5.9380244E-2,-5.401173E-2,-2.9062003E-2,-4.3616056E-2,-3.2511286E-2,-3.040913E-3,1.080324E-2,-4.991174E-3,-1.9382408E-2,-4.766053E-2,-2.1519115E-2,-2.0576284E-4,4.2559713E-2,1.580634E-2,2.5989417E-2,5.4052733E-3,2.4014628E-2,6.388616E-2,4.88432E-2,5.526516E-3,3.0972583E-2,5.5827565E-2,4.4684093E-2,5.9060484E-2,6.501763E-2,4.8214898E-2,2.6545653E-2,6.5819405E-2,6.395084E-2,7.799992E-2],"split_indices":[4,5,4,9,5,5,6,11,6,1,10,4,4,5,8,2,12,2,8,2,7,13,12,13,8,3,8,7,12,5,4,0,0,0,0,0,0,0,0,0,0,0,0,0,0,0,0,0,0,0,0,0,0,0,0,0,0,0,0,0,0,0,0],"split_type":[0,0,0,0,0,0,0,0,0,0,0,0,0,0,0,0,0,0,0,0,0,0,0,0,0,0,0,0,0,0,0,0,0,0,0,0,0,0,0,0,0,0,0,0,0,0,0,0,0,0,0,0,0,0,0,0,0,0,0,0,0,0,0],"sum_hessian":[1.0463341E4,5.936837E3,4.526504E3,4.6721367E3,1.2647004E3,1.30978E3,3.216724E3,3.5392063E3,1.1329304E3,9.6866254E2,2.9603787E2,7.3863855E2,5.711414E2,8.673834E2,2.3493406E3,4.658968E2,3.0733093E3,1.0283514E3,1.0457903E2,2.5908508E2,7.0957745E2,1.1094936E2,1.8508852E2,5.995206E2,1.3911794E2,2.2587755E2,3.452639E2,4.3126123E2,4.361222E2,3.712454E2,1.9780952E3,2.1370728E2,2.5218953E2,2.8955322E3,1.7777705E2,3.7805188E2,6.502995E2,3.4712753E1,6.986628E1,2.2996646E2,2.911863E1,4.3413013E2,2.7544733E2,3.8237656E1,7.271171E1,4.074224E1,1.4434628E2,1.8551277E2,4.1400784E2,1.0234453E2,3.6773403E1,1.2744822E2,9.842933E1,1.0581162E2,2.3945226E2,3.3086472E2,1.0039652E2,3.7130365E2,6.481854E1,2.9274431E1,3.4197095E2,2.3374854E2,1.7443467E3],"tree_param":{"num_deleted":"0","num_feature":"14","num_nodes":"63","size_leaf_vector":"1"}},{"base_weights":[-6.25836E-3,-8.610872E-1,1.0817147E0,-1.0325462E0,-2.4312742E-1,5.121613E-1,1.3146943E0,-1.1409514E0,-6.9865805E-1,-3.8221252E-1,2.0497352E-1,3.307551E-1,8.149282E-1,1.0270468E0,1.4052116E0,-9.52691E-1,-1.1662682E0,-7.799318E-1,-4.3658113E-1,1.7071202E-1,-5.882737E-1,-1.4663239E-1,4.1309276E-1,2.3392862E-1,6.656976E-1,5.0638115E-1,9.0298593E-1,9.182951E-1,1.1958207E0,1.1772203E0,1.4492828E0,-3.9015096E-2,-5.4951657E-2,-5.8654975E-2,-5.2531064E-2,-4.1844107E-2,-1.7644173E-2,-2.8300513E-2,-1.9096434E-3,1.3861189E-2,3.8227667E-3,-1.8613737E-2,-4.660407E-2,-9.865618E-3,3.036481E-2,3.9901067E-2,1.4937832E-2,1.2282995E-3,1.9122811E-2,2.2868773E-2,4.956186E-2,-6.650203E-4,3.1004298E-2,3.8364492E-2,5.868226E-2,3.5771906E-2,5.0124865E-2,6.1474897E-2,2.5378441E-2,2.6236102E-2,6.1792668E-2,6.071356E-2,7.4214846E-2],"categories":[],"categories_nodes":[],"categories_segments":[],"categories_sizes":[],"default_left":[1,0,0,0,1,1,0,0,0,0,0,1,0,0,0,0,0,0,0,0,0,1,0,0,0,0,0,0,0,0,0,0,0,0,0,0,0,0,0,0,0,0,0,0,0,0,0,0,0,0,0,0,0,0,0,0,0,0,0,0,0,0,0],"id":10,"left_children":[1,3,5,7,9,11,13,15,17,19,21,23,25,27,29,31,33,35,37,39,41,43,45,47,49,51,53,55,57,59,61,-1,-1,-1,-1,-1,-1,-1,-1,-1,-1,-1,-1,-1,-1,-1,-1,-1,-1,-1,-1,-1,-1,-1,-1,-1,-1,-1,-1,-1,-1,-1,-1],"loss_changes":[9.58959E3,6.115532E2,6.0133936E2,1.6279688E2,7.832288E1,7.215881E1,8.237402E1,1.5143555E1,2.331018E1,1.0929924E2,2.1868805E1,2.6642494E1,1.2948395E1,1.3112732E1,2.2870117E1,9.478699E0,1.1386719E0,2.0286194E1,1.3647903E1,2.598918E0,5.1520508E1,4.382078E0,8.012545E0,1.9971268E1,1.2076653E1,6.616066E0,1.3150421E1,7.3989563E0,6.3314514E0,1.4713379E1,1.5027832E1,0E0,0E0,0E0,0E0,0E0,0E0,0E0,0E0,0E0,0E0,0E0,0E0,0E0,0E0,0E0,0E0,0E0,0E0,0E0,0E0,0E0,0E0,0E0,0E0,0E0,0E0,0E0,0E0,0E0,0E0,0E0,0E0],"parents":[2147483647,0,0,1,1,2,2,3,3,4,4,5,5,6,6,7,7,8,8,9,9,10,10,11,11,12,12,13,13,14,14,15,15,16,16,17,17,18,18,19,19,20,20,21,21,22,22,23,23,24,24,25,25,26,26,27,27,28,28,29,29,30,30],"right_children":[2,4,6,8,10,12,14,16,18,20,22,24,26,28,30,32,34,36,38,40,42,44,46,48,50,52,54,56,58,60,62,-1,-1,-1,-1,-1,-1,-1,-1,-1,-1,-1,-1,-1,-1,-1,-1,-1,-1,-1,-1,-1,-1,-1,-1,-1,-1,-1,-1,-1,-1,-1,-1],"split_conditions":[1.9E1,1E1,7.6E1,1E0,7.3E1,7.2E1,6.9E1,8.3E1,2E0,2E0,3E0,6.7E1,2.7E1,8.8E1,6.1E1,3E0,1.5E1,1E1,8E0,2.324E3,1.8E2,9E1,4E0,3.3E1,8.3E1,7.7E1,6.8E1,5E0,1.6E1,2.4E1,9E1,-3.9015096E-2,-5.4951657E-2,-5.8654975E-2,-5.2531064E-2,-4.1844107E-2,-1.7644173E-2,-2.8300513E-2,-1.9096434E-3,1.3861189E-2,3.8227667E-3,-1.8613737E-2,-4.660407E-2,-9.865618E-3,3.036481E-2,3.9901067E-2,1.4937832E-2,1.2282995E-3,1.9122811E-2,2.2868773E-2,4.956186E-2,-6.650203E-4,3.1004298E-2,3.8364492E-2,5.868226E-2,3.5771906E-2,5.0124865E-2,6.1474897E-2,2.5378441E-2,2.6236102E-2,6.1792668E-2,6.071356E-2,7.4214846E-2],"split_indices":[4,5,4,9,5,5,6,11,10,1,10,6,7,5,8,2,12,4,12,0,7,7,12,4,8,5,4,12,11,5,4,0,0,0,0,0,0,0,0,0,0,0,0,0,0,0,0,0,0,0,0,0,0,0,0,0,0,0,0,0,0,0,0],"split_type":[0,0,0,0,0,0,0,0,0,0,0,0,0,0,0,0,0,0,0,0,0,0,0,0,0,0,0,0,0,0,0,0,0,0,0,0,0,0,0,0,0,0,0,0,0,0,0,0,0,0,0,0,0,0,0,0,0,0,0,0,0,0,0],"sum_hessian":[1.0309044E4,5.773203E3,4.5358413E3,4.5187583E3,1.2544447E3,1.3177065E3,3.2181345E3,3.4093948E3,1.1093634E3,9.574201E2,2.9702454E2,8.25307E2,4.9239957E2,7.732461E2,2.4448884E3,4.0871802E2,3.0006768E3,8.452604E2,2.6410306E2,2.599818E2,6.974383E2,1.1055071E2,1.8647383E2,6.4154504E2,1.83762E2,1.1082584E2,3.8157373E2,4.741576E2,2.990885E2,4.0053494E2,2.0443535E3,1.9056592E2,2.181521E2,2.8246787E3,1.7599811E2,7.4495496E2,1.0030542E2,1.9902327E2,6.5079796E1,1.2114484E2,1.3883699E2,4.2961386E2,2.6782443E2,1.0427923E2,6.271488E0,4.1334816E1,1.45139E2,2.6673047E2,3.7481454E2,1.13521385E2,7.02406E1,2.005385E1,9.0771996E1,2.5670734E2,1.2486639E2,1.418688E2,3.322888E2,2.8438666E2,1.4701859E1,3.3844524E1,3.666904E2,2.697166E2,1.774637E3],"tree_param":{"num_deleted":"0","num_feature":"14","num_nodes":"63","size_leaf_vector":"1"}},{"base_weights":[-6.421208E-3,-8.4211415E-1,1.0274608E0,-1.015508E0,-2.330011E-1,4.206905E-1,1.228062E0,-1.1268444E0,-6.783117E-1,-3.823892E-1,1.5494117E-1,2.236093E-1,6.376288E-1,9.37554E-1,1.3303303E0,-9.4435954E-1,-1.1545984E0,-7.249441E-1,-2.2689678E-1,1.6169043E-1,-6.048769E-1,-1.9748345E-1,3.3541372E-1,5.273859E-1,1.451517E-1,4.430971E-1,7.588631E-1,7.4995905E-1,1.0722786E0,1.156652E0,1.4030122E0,-3.947658E-2,-5.372364E-2,-5.7872463E-2,-4.6721395E-2,-2.6904294E-2,-4.1674715E-2,-3.0499086E-2,-1.7517023E-3,9.761991E-3,-5.1265205E-3,-1.9385546E-2,-4.602016E-2,1.5702298E-2,-1.7769579E-2,1.9393597E-2,-9.387601E-3,3.8597077E-2,-1.0441168E-3,-1.1123623E-3,1.7950615E-2,1.2144244E-2,3.3818625E-2,5.6362014E-2,3.1055748E-2,4.1791733E-2,2.5541091E-2,3.444146E-2,5.5749994E-2,5.1722493E-2,6.190403E-2,5.6272745E-2,7.183983E-2],"categories":[],"categories_nodes":[],"categories_segments":[],"categories_sizes":[],"default_left":[1,0,0,0,1,0,0,0,1,0,0,0,1,0,0,0,0,0,1,0,0,0,0,0,1,0,0,0,0,0,0,0,0,0,0,0,0,0,0,0,0,0,0,0,0,0,0,0,0,0,0,0,0,0,0,0,0,0,0,0,0,0,0],"id":11,"left_children":[1,3,5,7,9,11,13,15,17,19,21,23,25,27,29,31,33,35,37,39,41,43,45,47,49,51,53,55,57,59,61,-1,-1,-1,-1,-1,-1,-1,-1,-1,-1,-1,-1,-1,-1,-1,-1,-1,-1,-1,-1,-1,-1,-1,-1,-1,-1,-1,-1,-1,-1,-1,-1],"loss_changes":[8.772114E3,5.9275146E2,5.5187695E2,1.6329932E2,7.223575E1,4.8131912E1,1.0006787E2,1.5541504E1,2.2723358E1,1.08977356E2,2.2133911E1,1.4060871E1,1.23268585E1,2.1722351E1,3.0186035E1,7.9953613E0,7.04834E-1,1.9531189E1,7.5680804E0,2.3411283E0,4.340146E1,9.653667E0,6.3803005E0,1.6290352E1,1.6934143E1,9.576138E0,1.6013885E1,7.292099E0,7.6916504E0,6.173462E0,1.4996826E1,0E0,0E0,0E0,0E0,0E0,0E0,0E0,0E0,0E0,0E0,0E0,0E0,0E0,0E0,0E0,0E0,0E0,0E0,0E0,0E0,0E0,0E0,0E0,0E0,0E0,0E0,0E0,0E0,0E0,0E0,0E0,0E0],"parents":[2147483647,0,0,1,1,2,2,3,3,4,4,5,5,6,6,7,7,8,8,9,9,10,10,11,11,12,12,13,13,14,14,15,15,16,16,17,17,18,18,19,19,20,20,21,21,22,22,23,23,24,24,25,25,26,26,27,27,28,28,29,29,30,30],"right_children":[2,4,6,8,10,12,14,16,18,20,22,24,26,28,30,32,34,36,38,40,42,44,46,48,50,52,54,56,58,60,62,-1,-1,-1,-1,-1,-1,-1,-1,-1,-1,-1,-1,-1,-1,-1,-1,-1,-1,-1,-1,-1,-1,-1,-1,-1,-1,-1,-1,-1,-1,-1,-1],"split_conditions":[1.9E1,1E1,7.1E1,1E0,6.6E1,6E1,7.7E1,9E1,7.9E1,2E0,2.8E1,3E0,3.7E1,3E0,9E1,3E0,2.8E1,3E0,1E1,4E0,1.8E2,4E0,4E0,1E0,1.9E1,5.8E1,1E0,8E0,7.6E1,7.7E1,8.8E1,-3.947658E-2,-5.372364E-2,-5.7872463E-2,-4.6721395E-2,-2.6904294E-2,-4.1674715E-2,-3.0499086E-2,-1.7517023E-3,9.761991E-3,-5.1265205E-3,-1.9385546E-2,-4.602016E-2,1.5702298E-2,-1.7769579E-2,1.9393597E-2,-9.387601E-3,3.8597077E-2,-1.0441168E-3,-1.1123623E-3,1.7950615E-2,1.2144244E-2,3.3818625E-2,5.6362014E-2,3.1055748E-2,4.1791733E-2,2.5541091E-2,3.444146E-2,5.5749994E-2,5.1722493E-2,6.190403E-2,5.6272745E-2,7.183983E-2],"split_indices":[4,5,4,9,5,5,5,11,6,1,8,2,7,10,7,2,12,2,8,2,7,12,2,3,8,4,3,11,4,6,4,0,0,0,0,0,0,0,0,0,0,0,0,0,0,0,0,0,0,0,0,0,0,0,0,0,0,0,0,0,0,0,0],"split_type":[0,0,0,0,0,0,0,0,0,0,0,0,0,0,0,0,0,0,0,0,0,0,0,0,0,0,0,0,0,0,0,0,0,0,0,0,0,0,0,0,0,0,0,0,0,0,0,0,0,0,0,0,0,0,0,0,0,0,0,0,0,0,0],"sum_hessian":[1.0150816E4,5.613542E3,4.537274E3,4.369131E3,1.2444114E3,1.1281105E3,3.4091633E3,3.28285E3,1.0862808E3,8.9845166E2,3.4595978E2,5.9217236E2,5.359382E2,8.903004E2,2.518863E3,4.3799854E2,2.8448516E3,9.840226E2,1.0225822E2,2.6084497E2,6.376066E2,1.1713185E2,2.2882793E2,1.20375145E2,4.7179724E2,2.075538E2,3.2838434E2,3.748767E2,5.154237E2,7.4811255E2,1.7707505E3,2.032316E2,2.3476694E2,2.8042827E3,4.056877E1,3.637759E2,6.2024664E2,3.3396816E1,6.88614E1,2.3168758E2,2.9157402E1,3.7898975E2,2.586169E2,2.7396034E1,8.973582E1,2.0820924E2,2.0618685E1,8.296192E1,3.741322E1,2.6514862E2,2.066486E2,1.1279066E2,9.476314E1,8.7418755E1,2.4096559E2,2.7399E2,1.0088669E2,5.338493E1,4.620388E2,3.0463776E2,4.434748E2,1.9587173E2,1.5748788E3],"tree_param":{"num_deleted":"0","num_feature":"14","num_nodes":"63","size_leaf_vector":"1"}},{"base_weights":[-6.5602143E-3,-8.43785E-1,9.5440865E-1,-1.0091612E0,-2.4854949E-1,3.67442E-1,1.1707237E0,-7.3674244E-1,-1.1364532E0,-3.635414E-1,2.4439989E-1,2.0999293E-1,6.5648115E-1,8.885813E-1,1.2708367E0,-8.07894E-1,-4.2503375E-1,-1.030636E0,-1.1481581E0,1.5314485E-1,-5.6219804E-1,2.2885976E-2,4.7244364E-1,1.1043234E-1,5.549975E-1,9.0482783E-1,5.001915E-1,7.4278486E-1,1.0553653E0,1.0456643E0,1.3251294E0,-3.1952146E-2,-4.603421E-2,-2.7713915E-2,-1.7460153E-3,-5.322323E-2,-2.0786507E-2,-5.4727506E-2,-5.802805E-2,1.2650293E-2,3.2240443E-3,-4.4978607E-2,-1.7117977E-2,4.3383904E-2,-1.4995278E-3,4.1072197E-2,1.0072889E-2,3.098815E-3,3.513025E-2,2.3514641E-2,4.6567496E-2,3.3176605E-2,6.2215533E-2,-6.7994534E-3,3.659195E-2,3.0723069E-2,4.402594E-2,4.0966004E-2,5.7261717E-2,4.1288603E-2,5.479898E-2,5.4936815E-2,6.8128064E-2],"categories":[],"categories_nodes":[],"categories_segments":[],"categories_sizes":[],"default_left":[1,0,0,0,1,1,0,0,0,0,1,0,0,0,0,0,0,0,0,0,0,0,0,1,0,0,0,0,1,0,0,0,0,0,0,0,0,0,0,0,0,0,0,0,0,0,0,0,0,0,0,0,0,0,0,0,0,0,0,0,0,0,0],"id":12,"left_children":[1,3,5,7,9,11,13,15,17,19,21,23,25,27,29,31,33,35,37,39,41,43,45,47,49,51,53,55,57,59,61,-1,-1,-1,-1,-1,-1,-1,-1,-1,-1,-1,-1,-1,-1,-1,-1,-1,-1,-1,-1,-1,-1,-1,-1,-1,-1,-1,-1,-1,-1,-1,-1],"loss_changes":[8.039137E3,5.253943E2,5.902661E2,1.4406006E2,6.597685E1,5.694223E1,9.487988E1,2.9232422E1,2.3410645E0,9.686767E1,1.1125494E1,2.7879093E1,1.669664E1,2.0943481E1,2.9256104E1,2.0067505E1,1.2582474E1,5.6569214E0,4.2797852E-1,2.3090777E0,5.0219437E1,5.0683336E0,1.0102999E1,1.8105923E1,5.361374E0,1.305249E1,4.0392006E1,7.945099E0,7.8522644E0,4.534973E0,1.5585449E1,0E0,0E0,0E0,0E0,0E0,0E0,0E0,0E0,0E0,0E0,0E0,0E0,0E0,0E0,0E0,0E0,0E0,0E0,0E0,0E0,0E0,0E0,0E0,0E0,0E0,0E0,0E0,0E0,0E0,0E0,0E0,0E0],"parents":[2147483647,0,0,1,1,2,2,3,3,4,4,5,5,6,6,7,7,8,8,9,9,10,10,11,11,12,12,13,13,14,14,15,15,16,16,17,17,18,18,19,19,20,20,21,21,22,22,23,23,24,24,25,25,26,26,27,27,28,28,29,29,30,30],"right_children":[2,4,6,8,10,12,14,16,18,20,22,24,26,28,30,32,34,36,38,40,42,44,46,48,50,52,54,56,58,60,62,-1,-1,-1,-1,-1,-1,-1,-1,-1,-1,-1,-1,-1,-1,-1,-1,-1,-1,-1,-1,-1,-1,-1,-1,-1,-1,-1,-1,-1,-1,-1,-1],"split_conditions":[1.5E1,1E1,7.1E1,7.2E1,8.5E1,6.4E1,7.7E1,2E0,1.29E2,2E0,9E1,7.7E1,1E0,7.1E1,6.1E1,3E0,8E0,1.7E1,1.1E1,2.324E3,2E0,5E0,2.1E1,8E1,3.2E1,8.1E1,5.4E1,2.5E1,6E1,8.8E1,8.9E1,-3.1952146E-2,-4.603421E-2,-2.7713915E-2,-1.7460153E-3,-5.322323E-2,-2.0786507E-2,-5.4727506E-2,-5.802805E-2,1.2650293E-2,3.2240443E-3,-4.4978607E-2,-1.7117977E-2,4.3383904E-2,-1.4995278E-3,4.1072197E-2,1.0072889E-2,3.098815E-3,3.513025E-2,2.3514641E-2,4.6567496E-2,3.3176605E-2,6.2215533E-2,-6.7994534E-3,3.659195E-2,3.0723069E-2,4.402594E-2,4.0966004E-2,5.7261717E-2,4.1288603E-2,5.479898E-2,5.4936815E-2,6.8128064E-2],"split_indices":[4,5,4,11,5,7,5,10,11,1,7,5,3,7,8,2,12,12,1,0,9,11,1,8,1,6,4,5,6,4,4,0,0,0,0,0,0,0,0,0,0,0,0,0,0,0,0,0,0,0,0,0,0,0,0,0,0,0,0,0,0,0,0],"split_type":[0,0,0,0,0,0,0,0,0,0,0,0,0,0,0,0,0,0,0,0,0,0,0,0,0,0,0,0,0,0,0,0,0,0,0,0,0,0,0,0,0,0,0,0,0,0,0,0,0,0,0,0,0,0,0,0,0,0,0,0,0,0,0],"sum_hessian":[9.990129E3,5.338869E3,4.6512603E3,4.1775195E3,1.1613495E3,1.2532605E3,3.3979998E3,1.3325348E3,2.8449846E3,9.4189343E2,2.1945604E2,8.124298E2,4.4083063E2,8.925257E2,2.5054739E3,1.0835979E3,2.4893692E2,2.9222348E2,2.5527612E3,2.6163522E2,6.802582E2,1.1187998E2,1.0757605E2,6.315102E2,1.8091962E2,1.6841966E2,2.7241098E2,4.791362E2,4.1338953E2,4.9068344E2,2.0147905E3,4.36623E2,6.469749E2,1.8667175E2,6.2265163E1,2.7629233E2,1.5931141E1,4.9641467E2,2.0563464E3,1.22176254E2,1.3945898E2,2.6716412E2,4.130941E2,5.6825247E0,1.06197464E2,4.613189E1,6.1444164E1,5.8476495E2,4.674523E1,1.4951767E2,3.1401943E1,1.00173454E2,6.8246216E1,7.282432E1,1.9958665E2,2.5086873E2,2.2826747E2,1.1677948E2,2.9661002E2,9.461242E1,3.96071E2,2.901678E2,1.7246227E3],"tree_param":{"num_deleted":"0","num_feature":"14","num_nodes":"63","size_leaf_vector":"1"}},{"base_weights":[-6.6560106E-3,-8.257122E-1,9.0916765E-1,-9.932093E-1,-2.3826946E-1,4.021361E-1,1.1410648E0,-7.1701556E-1,-1.1243677E0,-3.4953776E-1,2.317079E-1,1.8588154E-1,6.2145776E-1,8.9136034E-1,1.2354512E0,-7.883144E-1,-4.0897712E-1,-1.0153382E0,-1.1364892E0,1.4511153E-1,-5.434906E-1,-1.2793455E-1,3.5861683E-1,1.0483102E-1,4.670491E-1,4.4315195E-1,7.905294E-1,7.6772857E-1,1.0141073E0,8.305769E-1,1.2570841E0,-3.0992547E-2,-4.5097377E-2,-2.7689248E-2,-2.986512E-3,-5.3701904E-2,-3.1815987E-2,-5.4067858E-2,-5.7463754E-2,8.831913E-3,-5.216898E-3,-4.399423E-2,-1.6420223E-2,2.4232095E-2,-1.5743665E-2,2.8221408E-2,8.307144E-3,-4.7223773E-3,1.5298988E-2,3.721135E-2,6.849602E-3,1.4950876E-2,3.270438E-2,2.9949723E-2,4.806267E-2,2.9607201E-2,4.1962557E-2,5.296842E-2,3.720602E-2,9.607686E-3,5.153429E-2,7.360219E-2,6.1036546E-2],"categories":[],"categories_nodes":[],"categories_segments":[],"categories_sizes":[],"default_left":[1,0,0,0,1,0,0,0,0,0,0,1,1,0,0,0,0,0,0,0,0,0,0,0,0,0,0,0,0,0,0,0,0,0,0,0,0,0,0,0,0,0,0,0,0,0,0,0,0,0,0,0,0,0,0,0,0,0,0,0,0,0,0],"id":13,"left_children":[1,3,5,7,9,11,13,15,17,19,21,23,25,27,29,31,33,35,37,39,41,43,45,47,49,51,53,55,57,59,61,-1,-1,-1,-1,-1,-1,-1,-1,-1,-1,-1,-1,-1,-1,-1,-1,-1,-1,-1,-1,-1,-1,-1,-1,-1,-1,-1,-1,-1,-1,-1,-1],"loss_changes":[7.3734453E3,5.1033862E2,5.4519775E2,1.4545093E2,6.035447E1,6.903403E1,7.39375E1,2.8289062E1,2.4614258E0,8.952763E1,1.01438675E1,1.6712969E1,2.145813E1,1.2529297E1,1.9169678E1,1.9671143E1,1.2455288E1,5.6149597E0,4.8657227E-1,2.0898733E0,4.818486E1,6.845381E0,6.3948517E0,2.2966911E1,1.4928497E1,1.0578293E1,1.1524582E1,5.041321E0,4.5508423E0,1.5133141E1,1.5307617E1,0E0,0E0,0E0,0E0,0E0,0E0,0E0,0E0,0E0,0E0,0E0,0E0,0E0,0E0,0E0,0E0,0E0,0E0,0E0,0E0,0E0,0E0,0E0,0E0,0E0,0E0,0E0,0E0,0E0,0E0,0E0,0E0],"parents":[2147483647,0,0,1,1,2,2,3,3,4,4,5,5,6,6,7,7,8,8,9,9,10,10,11,11,12,12,13,13,14,14,15,15,16,16,17,17,18,18,19,19,20,20,21,21,22,22,23,23,24,24,25,25,26,26,27,27,28,28,29,29,30,30],"right_children":[2,4,6,8,10,12,14,16,18,20,22,24,26,28,30,32,34,36,38,40,42,44,46,48,50,52,54,56,58,60,62,-1,-1,-1,-1,-1,-1,-1,-1,-1,-1,-1,-1,-1,-1,-1,-1,-1,-1,-1,-1,-1,-1,-1,-1,-1,-1,-1,-1,-1,-1,-1,-1],"split_conditions":[1.5E1,1E1,7.6E1,7.2E1,8.5E1,5.9E1,7.5E1,2E0,1.29E2,2E0,1.3E1,6.4E1,6E1,7.6E1,2.5E1,3E0,7.9E1,1.2E1,1.1E1,4E0,2E0,8E0,2.1E1,3.3E1,1E0,8.9E1,6E1,5E0,1.2E1,6.1E1,2E0,-3.0992547E-2,-4.5097377E-2,-2.7689248E-2,-2.986512E-3,-5.3701904E-2,-3.1815987E-2,-5.4067858E-2,-5.7463754E-2,8.831913E-3,-5.216898E-3,-4.399423E-2,-1.6420223E-2,2.4232095E-2,-1.5743665E-2,2.8221408E-2,8.307144E-3,-4.7223773E-3,1.5298988E-2,3.721135E-2,6.849602E-3,1.4950876E-2,3.270438E-2,2.9949723E-2,4.806267E-2,2.9607201E-2,4.1962557E-2,5.296842E-2,3.720602E-2,9.607686E-3,5.153429E-2,7.360219E-2,6.1036546E-2],"split_indices":[4,5,4,11,5,5,6,10,11,1,8,8,8,5,5,2,6,12,1,2,9,11,1,4,3,6,4,12,12,7,2,0,0,0,0,0,0,0,0,0,0,0,0,0,0,0,0,0,0,0,0,0,0,0,0,0,0,0,0,0,0,0,0],"split_type":[0,0,0,0,0,0,0,0,0,0,0,0,0,0,0,0,0,0,0,0,0,0,0,0,0,0,0,0,0,0,0,0,0,0,0,0,0,0,0,0,0,0,0,0,0,0,0,0,0,0,0,0,0,0,0,0,0,0,0,0,0,0,0],"sum_hessian":[9.827804E3,5.1880396E3,4.639764E3,4.0364417E3,1.1515981E3,1.4569496E3,3.182815E3,1.3017272E3,2.7347144E3,9.31354E2,2.2024406E2,7.3453455E2,7.22415E2,8.759331E2,2.3068816E3,1.0557932E3,2.4593398E2,2.8209482E2,2.4526196E3,2.6239767E2,6.6895636E2,5.7444942E1,1.6279912E2,5.712395E2,1.6329503E2,3.533681E2,3.6904688E2,4.4000793E2,4.3592517E2,1.19005394E2,2.1878762E3,4.2789087E2,6.2790234E2,1.7343652E2,7.249745E1,2.4267688E2,3.941794E1,4.778314E2,1.9747882E3,2.332147E2,2.918298E1,2.596983E2,4.0925803E2,1.3059142E1,4.43858E1,7.7739845E1,8.505927E1,2.872202E2,2.8401932E2,8.807547E1,7.521955E1,2.1136075E2,1.4200737E2,1.7604778E2,1.9299911E2,1.300414E2,3.0996655E2,3.7083414E2,6.509105E1,2.8867472E1,9.013792E1,3.1077023E2,1.8771061E3],"tree_param":{"num_deleted":"0","num_feature":"14","num_nodes":"63","size_leaf_vector":"1"}},{"base_weights":[-6.741647E-3,-8.080113E-1,8.670446E-1,-9.7764665E-1,-2.2843586E-1,3.4825465E-1,1.077723E0,-6.976682E-1,-1.1128484E0,-3.3601776E-1,2.1956277E-1,1.6211507E-1,5.556449E-1,7.782322E-1,1.1592864E0,-7.6907957E-1,-3.9343464E-1,-1.0004406E0,-1.1254125E0,1.3749215E-1,-5.252603E-1,1.348377E-2,4.3010247E-1,2.52232E-2,3.04116E-1,4.1154233E-1,7.210646E-1,6.3906467E-1,9.409942E-1,9.979238E-1,1.2319676E0,-3.0052051E-2,-4.4178467E-2,-2.608175E-2,-6.1879976E-4,-5.1798183E-2,-1.898377E-2,-5.3431638E-2,-5.6930732E-2,1.1562568E-2,2.699891E-3,-3.5857096E-2,-7.855058E-3,3.973958E-2,-1.8148354E-3,3.7155475E-2,9.2039E-3,-4.550259E-3,2.424227E-2,3.440199E-2,5.5389395E-3,1.3557196E-2,3.0856237E-2,5.1444866E-2,2.9996773E-2,2.2394981E-2,3.6044896E-2,4.7943976E-2,1.2226181E-2,5.1972188E-2,3.857657E-2,4.7977872E-2,6.326276E-2],"categories":[],"categories_nodes":[],"categories_segments":[],"categories_sizes":[],"default_left":[1,0,0,0,1,0,0,0,0,0,1,0,1,0,0,0,0,0,0,0,1,0,0,1,0,0,0,0,0,0,0,0,0,0,0,0,0,0,0,0,0,0,0,0,0,0,0,0,0,0,0,0,0,0,0,0,0,0,0,0,0,0,0],"id":14,"left_children":[1,3,5,7,9,11,13,15,17,19,21,23,25,27,29,31,33,35,37,39,41,43,45,47,49,51,53,55,57,59,61,-1,-1,-1,-1,-1,-1,-1,-1,-1,-1,-1,-1,-1,-1,-1,-1,-1,-1,-1,-1,-1,-1,-1,-1,-1,-1,-1,-1,-1,-1,-1,-1],"loss_changes":[6.768172E3,4.955569E2,5.0504028E2,1.4687622E2,5.516562E1,5.1522766E1,7.9420654E1,2.7352234E1,2.58667E0,8.270174E1,9.623983E0,1.3716299E1,1.4768204E1,1.5410126E1,2.9056152E1,1.9282349E1,1.1914906E1,5.633026E0,5.498047E-1,2.054943E0,4.6442795E1,4.4313974E0,8.314983E0,1.9305767E1,2.563948E1,9.648724E0,1.0304321E1,5.686981E0,3.7977295E0,6.7854614E0,1.4891846E1,0E0,0E0,0E0,0E0,0E0,0E0,0E0,0E0,0E0,0E0,0E0,0E0,0E0,0E0,0E0,0E0,0E0,0E0,0E0,0E0,0E0,0E0,0E0,0E0,0E0,0E0,0E0,0E0,0E0,0E0,0E0,0E0],"parents":[2147483647,0,0,1,1,2,2,3,3,4,4,5,5,6,6,7,7,8,8,9,9,10,10,11,11,12,12,13,13,14,14,15,15,16,16,17,17,18,18,19,19,20,20,21,21,22,22,23,23,24,24,25,25,26,26,27,27,28,28,29,29,30,30],"right_children":[2,4,6,8,10,12,14,16,18,20,22,24,26,28,30,32,34,36,38,40,42,44,46,48,50,52,54,56,58,60,62,-1,-1,-1,-1,-1,-1,-1,-1,-1,-1,-1,-1,-1,-1,-1,-1,-1,-1,-1,-1,-1,-1,-1,-1,-1,-1,-1,-1,-1,-1,-1,-1],"split_conditions":[1.5E1,1E1,7.3E1,7.2E1,8.5E1,6E1,6.9E1,2E0,1.29E2,2E0,9E1,3.3E1,6.6E1,7.2E1,9E1,3E0,8E0,1.7E1,1.1E1,2.324E3,1.3E1,5E0,2.1E1,6.4E1,1E0,8.7E1,1E0,5E0,4.5E1,1.2E1,8.8E1,-3.0052051E-2,-4.4178467E-2,-2.608175E-2,-6.1879976E-4,-5.1798183E-2,-1.898377E-2,-5.3431638E-2,-5.6930732E-2,1.1562568E-2,2.699891E-3,-3.5857096E-2,-7.855058E-3,3.973958E-2,-1.8148354E-3,3.7155475E-2,9.2039E-3,-4.550259E-3,2.424227E-2,3.440199E-2,5.5389395E-3,1.3557196E-2,3.0856237E-2,5.1444866E-2,2.9996773E-2,2.2394981E-2,3.6044896E-2,4.7943976E-2,1.2226181E-2,5.1972188E-2,3.857657E-2,4.7977872E-2,6.326276E-2],"split_indices":[4,5,4,11,5,5,5,10,11,1,7,4,8,8,7,2,12,12,1,0,8,11,1,8,3,6,3,12,13,11,4,0,0,0,0,0,0,0,0,0,0,0,0,0,0,0,0,0,0,0,0,0,0,0,0,0,0,0,0,0,0,0,0],"split_type":[0,0,0,0,0,0,0,0,0,0,0,0,0,0,0,0,0,0,0,0,0,0,0,0,0,0,0,0,0,0,0,0,0,0,0,0,0,0,0,0,0,0,0,0,0,0,0,0,0,0,0,0,0,0,0,0,0,0,0,0,0,0,0],"sum_hessian":[9.664905E3,5.0416987E3,4.6232065E3,3.8996323E3,1.1420663E3,1.3359982E3,3.2872083E3,1.2719058E3,2.6277268E3,9.2111957E2,2.2094669E2,7.050101E2,6.3098804E2,7.0587225E2,2.581336E3,1.0288748E3,2.4303091E2,2.72285E2,2.3554417E3,2.630949E2,6.5802466E2,1.1219389E2,1.08752785E2,3.595622E2,3.4544788E2,3.390864E2,2.9190164E2,3.8317215E2,3.2270013E2,8.0619635E2,1.7751396E3,4.1946664E2,6.0940814E2,1.8157452E2,6.1456398E1,2.569143E2,1.5370683E1,4.598142E2,1.8956274E3,1.23095856E2,1.3999904E2,4.319486E2,2.2607608E2,5.823755E0,1.0637014E2,4.6971886E1,6.17809E1,2.876291E2,7.19331E1,1.14841E2,2.3060689E2,2.0286366E2,1.3622275E2,8.031024E1,2.1159138E2,1.1679907E2,2.6637308E2,3.142534E2,8.446746E0,6.782205E2,1.2797584E2,1.9654434E2,1.5785952E3],"tree_param":{"num_deleted":"0","num_feature":"14","num_nodes":"63","size_leaf_vector":"1"}},{"base_weights":[-6.7980103E-3,-7.9059273E-1,8.27688E-1,-9.6241605E-1,-2.1889041E-1,3.6009276E-1,1.0461365E0,-6.7866457E-1,-1.1018391E0,-3.2288396E-1,2.0830877E-1,2.1987626E-1,6.3233745E-1,8.029919E-1,1.1396316E0,-7.6835006E-1,-4.3514323E-1,-9.858776E-1,-1.1148729E0,1.3032642E-1,-5.074164E-1,-1.2618811E-1,3.251632E-1,1.5672867E-1,6.169315E-1,3.4126273E-1,7.0017135E-1,7.0886046E-1,9.474281E-1,9.2826533E-1,1.1797799E0,-2.9253496E-2,-4.448177E-2,2.9220674E-2,-2.376664E-2,-5.2384704E-2,-2.9862434E-2,-5.281617E-2,-5.6426216E-2,7.999352E-3,-5.26874E-3,-4.2241134E-2,-1.4915398E-2,2.22756E-2,-1.5202944E-2,2.5476405E-2,7.5644976E-3,-7.464508E-4,1.5108961E-2,8.303691E-3,3.728806E-2,-2.3734715E-2,2.1221478E-2,4.9032357E-2,3.0863917E-2,3.0855058E-2,4.340377E-2,5.020323E-2,3.2091856E-2,1.6183699E-2,4.9060725E-2,4.7358643E-2,6.057294E-2],"categories":[],"categories_nodes":[],"categories_segments":[],"categories_sizes":[],"default_left":[1,0,0,0,1,1,0,1,0,0,0,1,0,0,0,0,0,0,0,0,0,0,0,0,0,0,0,0,0,0,0,0,0,0,0,0,0,0,0,0,0,0,0,0,0,0,0,0,0,0,0,0,0,0,0,0,0,0,0,0,0,0,0],"id":15,"left_children":[1,3,5,7,9,11,13,15,17,19,21,23,25,27,29,31,33,35,37,39,41,43,45,47,49,51,53,55,57,59,61,-1,-1,-1,-1,-1,-1,-1,-1,-1,-1,-1,-1,-1,-1,-1,-1,-1,-1,-1,-1,-1,-1,-1,-1,-1,-1,-1,-1,-1,-1,-1,-1],"loss_changes":[6.2164497E3,4.812246E2,4.6983032E2,1.4832495E2,5.0441086E1,5.5872482E1,7.039795E1,2.6836975E1,2.7172852E0,7.636282E1,8.741589E0,2.422477E1,9.599396E0,1.121991E1,1.8111572E1,1.9661865E1,1.4093216E1,5.7111206E0,6.159668E-1,1.8678699E0,4.550409E1,6.0689306E0,5.2199574E0,2.0933937E1,7.587532E0,6.724592E0,8.767731E0,7.258423E0,5.2769775E0,1.1398499E1,1.2841553E1,0E0,0E0,0E0,0E0,0E0,0E0,0E0,0E0,0E0,0E0,0E0,0E0,0E0,0E0,0E0,0E0,0E0,0E0,0E0,0E0,0E0,0E0,0E0,0E0,0E0,0E0,0E0,0E0,0E0,0E0,0E0,0E0],"parents":[2147483647,0,0,1,1,2,2,3,3,4,4,5,5,6,6,7,7,8,8,9,9,10,10,11,11,12,12,13,13,14,14,15,15,16,16,17,17,18,18,19,19,20,20,21,21,22,22,23,23,24,24,25,25,26,26,27,27,28,28,29,29,30,30],"right_children":[2,4,6,8,10,12,14,16,18,20,22,24,26,28,30,32,34,36,38,40,42,44,46,48,50,52,54,56,58,60,62,-1,-1,-1,-1,-1,-1,-1,-1,-1,-1,-1,-1,-1,-1,-1,-1,-1,-1,-1,-1,-1,-1,-1,-1,-1,-1,-1,-1,-1,-1,-1,-1],"split_conditions":[1.5E1,1E1,7.6E1,7.2E1,8.5E1,7.4E1,7.5E1,3.3E1,1.29E2,2E0,1.3E1,8.4E1,1.6E1,8.8E1,6.1E1,3E0,5E0,1.2E1,1.1E1,4E0,2E0,8E0,2.1E1,3.3E1,3.6E1,7.7E1,1E0,7.1E1,1.1E1,2.2E1,8.9E1,-2.9253496E-2,-4.448177E-2,2.9220674E-2,-2.376664E-2,-5.2384704E-2,-2.9862434E-2,-5.281617E-2,-5.6426216E-2,7.999352E-3,-5.26874E-3,-4.2241134E-2,-1.4915398E-2,2.22756E-2,-1.5202944E-2,2.5476405E-2,7.5644976E-3,-7.464508E-4,1.5108961E-2,8.303691E-3,3.728806E-2,-2.3734715E-2,2.1221478E-2,4.9032357E-2,3.0863917E-2,3.0855058E-2,4.340377E-2,5.020323E-2,3.2091856E-2,1.6183699E-2,4.9060725E-2,4.7358643E-2,6.057294E-2],"split_indices":[4,5,4,11,5,5,6,8,11,1,8,7,8,5,8,2,11,12,1,2,9,11,1,4,8,5,3,8,11,5,4,0,0,0,0,0,0,0,0,0,0,0,0,0,0,0,0,0,0,0,0,0,0,0,0,0,0,0,0,0,0,0,0],"split_type":[0,0,0,0,0,0,0,0,0,0,0,0,0,0,0,0,0,0,0,0,0,0,0,0,0,0,0,0,0,0,0,0,0,0,0,0,0,0,0,0,0,0,0,0,0,0,0,0,0,0,0,0,0,0,0,0,0,0,0,0,0,0,0],"sum_hessian":[9.502319E3,4.9000127E3,4.602306E3,3.7671301E3,1.1328824E3,1.4662994E3,3.1360068E3,1.2430875E3,2.5240427E3,9.112903E2,2.2159216E2,9.690229E2,4.972765E2,8.736279E2,2.262379E3,9.0692474E2,3.3616278E2,2.6277487E2,2.2612678E3,2.637691E2,6.475212E2,5.7349323E1,1.6424284E2,8.3725995E2,1.3176294E2,9.5125336E1,4.0215115E2,5.324979E2,3.4112997E2,3.6498468E2,1.8973943E3,3.6347852E2,5.434463E2,1.2235016E1,3.2392776E2,2.2525E2,3.7524864E1,4.4236823E2,1.8188995E3,2.3457185E2,2.919726E1,2.4659258E2,4.0092862E2,1.3251752E1,4.409757E1,7.877939E1,8.546346E1,3.8444427E2,4.528157E2,2.9791712E1,1.0197123E2,8.363414E0,8.6761925E1,8.926953E1,3.1288162E2,3.4090335E2,1.915946E2,2.8586398E2,5.5266E1,2.996356E1,3.3502112E2,2.3113712E2,1.6662571E3],"tree_param":{"num_deleted":"0","num_feature":"14","num_nodes":"63","size_leaf_vector":"1"}},{"base_weights":[-6.8419757E-3,-7.734642E-1,7.907933E-1,-9.474447E-1,-2.0978612E-1,2.9164326E-1,9.825765E-1,-6.599202E-1,-1.0912904E0,-3.102444E-1,1.97511E-1,1.5984122E-1,5.3186095E-1,7.58804E-1,1.094182E0,-7.0849806E-1,-2.1216169E-1,-9.7162014E-1,-1.1048204E0,1.2352206E-1,-4.900957E-1,5.505292E-3,3.923987E-1,7.8582756E-2,4.384401E-1,7.594783E-1,3.8789603E-1,6.3764125E-1,8.719115E-1,8.3849955E-1,1.139777E0,-2.6723513E-2,-4.1483376E-2,-2.080397E-2,3.3850295E-3,-5.174735E-2,-2.9015666E-2,-5.2219044E-2,-5.594771E-2,1.0583008E-2,2.2411093E-3,-4.1307792E-2,-1.4293753E-2,3.651202E-2,-2.0692653E-3,3.3737812E-2,8.418924E-3,1.7940719E-3,2.9547459E-2,1.7997812E-2,3.9447475E-2,2.9286698E-2,5.701076E-2,-1.0190394E-2,3.0209376E-2,2.8045297E-2,4.222941E-2,2.5148688E-2,4.5038406E-2,7.794555E-3,4.3571815E-2,4.6281375E-2,5.879525E-2],"categories":[],"categories_nodes":[],"categories_segments":[],"categories_sizes":[],"default_left":[1,0,0,0,1,1,0,1,0,0,1,0,0,0,0,0,1,0,0,0,0,0,0,1,0,0,0,0,0,0,0,0,0,0,0,0,0,0,0,0,0,0,0,0,0,0,0,0,0,0,0,0,0,0,0,0,0,0,0,0,0,0,0],"id":16,"left_children":[1,3,5,7,9,11,13,15,17,19,21,23,25,27,29,31,33,35,37,39,41,43,45,47,49,51,53,55,57,59,61,-1,-1,-1,-1,-1,-1,-1,-1,-1,-1,-1,-1,-1,-1,-1,-1,-1,-1,-1,-1,-1,-1,-1,-1,-1,-1,-1,-1,-1,-1,-1,-1],"loss_changes":[5.7128955E3,4.6699585E2,4.3802783E2,1.4982959E2,4.608742E1,4.0198883E1,8.17688E1,2.6306763E1,2.852295E0,7.048458E1,8.348635E0,1.8596987E1,1.4462761E1,1.457196E1,2.474414E1,2.2686218E1,6.903551E0,5.708145E0,6.862793E-1,1.8313437E0,4.3572815E1,3.8849003E0,6.89098E0,1.3945661E1,4.822304E0,1.080513E1,3.5690052E1,8.048843E0,5.5961304E0,7.4500885E0,1.3364258E1,0E0,0E0,0E0,0E0,0E0,0E0,0E0,0E0,0E0,0E0,0E0,0E0,0E0,0E0,0E0,0E0,0E0,0E0,0E0,0E0,0E0,0E0,0E0,0E0,0E0,0E0,0E0,0E0,0E0,0E0,0E0,0E0],"parents":[2147483647,0,0,1,1,2,2,3,3,4,4,5,5,6,6,7,7,8,8,9,9,10,10,11,11,12,12,13,13,14,14,15,15,16,16,17,17,18,18,19,19,20,20,21,21,22,22,23,23,24,24,25,25,26,26,27,27,28,28,29,29,30,30],"right_children":[2,4,6,8,10,12,14,16,18,20,22,24,26,28,30,32,34,36,38,40,42,44,46,48,50,52,54,56,58,60,62,-1,-1,-1,-1,-1,-1,-1,-1,-1,-1,-1,-1,-1,-1,-1,-1,-1,-1,-1,-1,-1,-1,-1,-1,-1,-1,-1,-1,-1,-1,-1,-1],"split_conditions":[1.5E1,1E1,7.1E1,7.2E1,8.5E1,6.4E1,8.1E1,6.7E1,1.29E2,2E0,9E1,7.7E1,1E0,7.4E1,5.9E1,3E0,8.3E1,1.2E1,1.1E1,2.324E3,2E0,5E0,2.1E1,8E1,3.2E1,3.2E1,5.4E1,8.6E1,3E0,7.6E1,8.9E1,-2.6723513E-2,-4.1483376E-2,-2.080397E-2,3.3850295E-3,-5.174735E-2,-2.9015666E-2,-5.2219044E-2,-5.594771E-2,1.0583008E-2,2.2411093E-3,-4.1307792E-2,-1.4293753E-2,3.651202E-2,-2.0692653E-3,3.3737812E-2,8.418924E-3,1.7940719E-3,2.9547459E-2,1.7997812E-2,3.9447475E-2,2.9286698E-2,5.701076E-2,-1.0190394E-2,3.0209376E-2,2.8045297E-2,4.222941E-2,2.5148688E-2,4.5038406E-2,7.794555E-3,4.3571815E-2,4.6281375E-2,5.879525E-2],"split_indices":[4,5,4,11,5,7,6,6,11,1,7,5,3,5,8,2,8,12,1,0,9,11,1,8,1,4,4,8,12,4,4,0,0,0,0,0,0,0,0,0,0,0,0,0,0,0,0,0,0,0,0,0,0,0,0,0,0,0,0,0,0,0,0],"split_type":[0,0,0,0,0,0,0,0,0,0,0,0,0,0,0,0,0,0,0,0,0,0,0,0,0,0,0,0,0,0,0,0,0,0,0,0,0,0,0,0,0,0,0,0,0,0,0,0,0,0,0,0,0,0,0,0,0,0,0,0,0,0,0],"sum_hessian":[9.340659E3,4.762939E3,4.5777197E3,3.6390557E3,1.1238833E3,1.2713431E3,3.3063767E3,1.2153512E3,2.4237046E3,9.017166E2,2.2216669E2,8.219972E2,4.4934595E2,1.102876E3,2.2035007E3,1.095876E3,1.1947519E2,2.535872E2,2.1701174E3,2.6438486E2,6.373318E2,1.1242876E2,1.0973793E2,6.373767E2,1.846205E2,1.7243704E2,2.769089E2,5.356817E2,5.6719434E2,3.3640955E2,1.8670912E3,4.520445E2,6.4383154E2,6.883373E1,5.0641457E1,2.1684879E2,3.6738415E1,4.2549506E2,1.7446223E3,1.2391722E2,1.4046764E2,2.397538E2,3.9757797E2,5.946538E0,1.0648222E2,4.7657658E1,6.2080276E1,5.893311E2,4.8045628E1,1.5250049E2,3.2120014E1,1.20147644E2,5.22894E1,7.414091E1,2.02768E2,3.9348795E2,1.4219377E2,4.248204E1,5.247123E2,1.5748923E1,3.206606E2,2.7336124E2,1.59373E3],"tree_param":{"num_deleted":"0","num_feature":"14","num_nodes":"63","size_leaf_vector":"1"}},{"base_weights":[-6.8621864E-3,-8.310424E-1,6.8793446E-1,-9.882307E-1,-2.578873E-1,1.7350577E-1,9.3010426E-1,-7.4931574E-1,-1.0783485E0,-4.3452E-1,1.0691601E-1,6.608112E-2,4.7721356E-1,7.0666885E-1,1.0471392E0,-5.37715E-1,-8.736398E-1,-1.0870136E0,-9.3281096E-1,3.787926E-1,-4.673365E-1,-2.5996843E-1,2.4337125E-1,1.8103285E-2,5.1271075E-1,7.335422E-1,2.852812E-1,5.461222E-1,7.978795E-1,7.884723E-1,1.0935801E0,-1.9733403E-3,-3.0338466E-2,-3.4892313E-2,-4.877046E-2,-5.4905303E-2,-4.85335E-2,-2.2876278E-2,-4.922852E-2,4.46163E-2,8.568622E-3,-2.794993E-2,-1.5218689E-2,1.2270051E-2,-2.0873228E-2,1.5000263E-2,-1.1582408E-2,-2.7003053E-3,1.0059517E-2,1.9820929E-2,5.8237355E-2,2.6147207E-2,5.8788367E-2,-3.3551894E-2,2.0523971E-2,2.1166896E-2,3.3781976E-2,3.2847192E-2,4.4929486E-2,2.0281507E-2,4.314781E-2,4.419617E-2,5.6703992E-2],"categories":[],"categories_nodes":[],"categories_segments":[],"categories_sizes":[],"default_left":[0,0,1,0,0,1,0,0,0,0,0,1,0,0,0,0,0,0,0,0,1,0,0,1,0,0,0,1,0,0,0,0,0,0,0,0,0,0,0,0,0,0,0,0,0,0,0,0,0,0,0,0,0,0,0,0,0,0,0,0,0,0,0],"id":17,"left_children":[1,3,5,7,9,11,13,15,17,19,21,23,25,27,29,31,33,35,37,39,41,43,45,47,49,51,53,55,57,59,61,-1,-1,-1,-1,-1,-1,-1,-1,-1,-1,-1,-1,-1,-1,-1,-1,-1,-1,-1,-1,-1,-1,-1,-1,-1,-1,-1,-1,-1,-1,-1,-1],"loss_changes":[5.2583335E3,3.781587E2,6.2054297E2,7.015405E1,5.8383835E1,5.20386E1,8.784033E1,2.3363892E1,2.0014648E0,1.6463196E1,1.488978E1,2.5278955E1,2.0299004E1,1.66604E1,2.5817383E1,1.1601883E1,9.500427E0,1.8383789E0,3.0280685E0,2.4267473E0,8.597839E0,6.531319E0,5.8907137E0,1.4093662E1,8.215761E0,1.5948463E1,2.901117E1,6.490837E0,9.946259E0,9.391907E0,1.4963379E1,0E0,0E0,0E0,0E0,0E0,0E0,0E0,0E0,0E0,0E0,0E0,0E0,0E0,0E0,0E0,0E0,0E0,0E0,0E0,0E0,0E0,0E0,0E0,0E0,0E0,0E0,0E0,0E0,0E0,0E0,0E0,0E0],"parents":[2147483647,0,0,1,1,2,2,3,3,4,4,5,5,6,6,7,7,8,8,9,9,10,10,11,11,12,12,13,13,14,14,15,15,16,16,17,17,18,18,19,19,20,20,21,21,22,22,23,23,24,24,25,25,26,26,27,27,28,28,29,29,30,30],"right_children":[2,4,6,8,10,12,14,16,18,20,22,24,26,28,30,32,34,36,38,40,42,44,46,48,50,52,54,56,58,60,62,-1,-1,-1,-1,-1,-1,-1,-1,-1,-1,-1,-1,-1,-1,-1,-1,-1,-1,-1,-1,-1,-1,-1,-1,-1,-1,-1,-1,-1,-1,-1,-1],"split_conditions":[1.1E1,1E0,6.8E1,8.3E1,6.6E1,6.7E1,8.1E1,3E0,1.5E1,5E0,1.3E1,7.7E1,1E0,8.8E1,5.8E1,9E0,1.6E1,1E0,1.29E2,2E0,8.8E1,4E0,5E0,3.3E1,1.1E1,3E1,4.5E1,3.5E1,2.3E1,6.2E1,8.9E1,-1.9733403E-3,-3.0338466E-2,-3.4892313E-2,-4.877046E-2,-5.4905303E-2,-4.85335E-2,-2.2876278E-2,-4.922852E-2,4.46163E-2,8.568622E-3,-2.794993E-2,-1.5218689E-2,1.2270051E-2,-2.0873228E-2,1.5000263E-2,-1.1582408E-2,-2.7003053E-3,1.0059517E-2,1.9820929E-2,5.8237355E-2,2.6147207E-2,5.8788367E-2,-3.3551894E-2,2.0523971E-2,2.1166896E-2,3.3781976E-2,3.2847192E-2,4.4929486E-2,2.0281507E-2,4.314781E-2,4.419617E-2,5.6703992E-2],"split_indices":[4,10,4,11,5,6,6,2,12,11,8,5,3,4,8,11,11,6,11,6,8,12,9,4,11,4,4,8,7,5,4,0,0,0,0,0,0,0,0,0,0,0,0,0,0,0,0,0,0,0,0,0,0,0,0,0,0,0,0,0,0,0,0],"split_type":[0,0,0,0,0,0,0,0,0,0,0,0,0,0,0,0,0,0,0,0,0,0,0,0,0,0,0,0,0,0,0,0,0,0,0,0,0,0,0,0,0,0,0,0,0,0,0,0,0,0,0,0,0,0,0,0,0,0,0,0,0,0,0],"sum_hessian":[9.180655E3,4.199242E3,4.9814126E3,3.2948914E3,9.04351E2,1.5949851E3,3.3864275E3,9.049798E2,2.3899116E3,6.0919574E2,2.951552E2,1.1791315E3,4.1585364E2,1.1664868E3,2.2199407E3,3.3689923E2,5.6808057E2,2.2495103E3,1.4040137E2,2.3218319E1,5.859774E2,7.97711E1,2.1538411E2,1.0656931E3,1.1343833E2,1.768482E2,2.3900543E2,4.25145E2,7.413418E2,3.406365E2,1.8793042E3,4.1200005E1,2.9569925E2,2.1116954E2,3.56911E2,2.0460032E3,2.0350702E2,1.4754684E1,1.2564668E2,5.7299695E0,1.748835E1,3.7347675E2,2.125007E2,1.8820911E1,6.0950195E1,1.9276967E2,2.261445E1,7.6507214E2,3.0062094E2,9.7633194E1,1.5805133E1,1.21276146E2,5.557206E1,2.7162968E1,2.1184247E2,2.2043654E2,2.0470847E2,3.1210272E2,4.2923904E2,5.6528698E1,2.8410782E2,3.0795056E2,1.5713536E3],"tree_param":{"num_deleted":"0","num_feature":"14","num_nodes":"63","size_leaf_vector":"1"}},{"base_weights":[-6.87962E-3,-8.1496847E-1,6.5780026E-1,-9.750476E-1,-2.4731956E-1,1.8826044E-1,9.049629E-1,-7.3129416E-1,-1.0683677E0,-4.1869923E-1,1.01384215E-1,6.12718E-2,4.3596506E-1,6.487659E-1,1.0010139E0,-5.2057374E-1,-8.5666025E-1,-1.077331E0,-9.188212E-1,3.581205E-1,-4.508456E-1,-2.488557E-1,2.3023638E-1,-2.0997977E-2,2.4716215E-1,3.273176E-1,5.9595263E-1,5.277965E-1,7.915879E-1,8.37778E-1,1.0715616E0,-1.8794602E-3,-2.944076E-2,-3.3962514E-2,-4.8028223E-2,-5.429418E-2,-4.5688406E-2,-2.215165E-2,-4.8588276E-2,-1.0295394E-2,2.5842536E-2,-2.7917583E-2,-1.5730828E-2,1.1625925E-2,-2.0062378E-2,1.4180276E-2,-1.1073262E-2,-3.7650212E-3,2.0294482E-2,2.9167915E-2,3.010378E-3,1.776543E-2,-2.3466105E-2,2.539051E-2,5.0923306E-2,2.0732718E-2,3.256851E-2,2.8710842E-2,4.387106E-2,4.3903343E-2,3.099575E-2,3.9810445E-2,5.5154692E-2],"categories":[],"categories_nodes":[],"categories_segments":[],"categories_sizes":[],"default_left":[0,0,1,0,0,1,0,0,0,0,0,1,1,0,0,0,0,0,0,1,1,0,0,1,0,1,0,0,1,0,0,0,0,0,0,0,0,0,0,0,0,0,0,0,0,0,0,0,0,0,0,0,0,0,0,0,0,0,0,0,0,0,0],"id":18,"left_children":[1,3,5,7,9,11,13,15,17,19,21,23,25,27,29,31,33,35,37,39,41,43,45,47,49,51,53,55,57,59,61,-1,-1,-1,-1,-1,-1,-1,-1,-1,-1,-1,-1,-1,-1,-1,-1,-1,-1,-1,-1,-1,-1,-1,-1,-1,-1,-1,-1,-1,-1,-1,-1],"loss_changes":[4.847652E3,3.6988672E2,5.745283E2,7.148364E1,5.366752E1,5.373199E1,7.91792E1,2.287262E1,2.086914E0,1.5190399E1,1.343792E1,1.7301453E1,9.870117E0,1.4914246E1,2.6251953E1,1.0914261E1,9.520874E0,2.0285645E0,3.0099945E0,2.2974243E0,8.294662E0,5.9782863E0,5.300583E0,1.8225937E1,2.1778511E1,7.9061165E0,8.159088E0,6.4894714E0,7.051651E0,5.740509E0,1.3383301E1,0E0,0E0,0E0,0E0,0E0,0E0,0E0,0E0,0E0,0E0,0E0,0E0,0E0,0E0,0E0,0E0,0E0,0E0,0E0,0E0,0E0,0E0,0E0,0E0,0E0,0E0,0E0,0E0,0E0,0E0,0E0,0E0],"parents":[2147483647,0,0,1,1,2,2,3,3,4,4,5,5,6,6,7,7,8,8,9,9,10,10,11,11,12,12,13,13,14,14,15,15,16,16,17,17,18,18,19,19,20,20,21,21,22,22,23,23,24,24,25,25,26,26,27,27,28,28,29,29,30,30],"right_children":[2,4,6,8,10,12,14,16,18,20,22,24,26,28,30,32,34,36,38,40,42,44,46,48,50,52,54,56,58,60,62,-1,-1,-1,-1,-1,-1,-1,-1,-1,-1,-1,-1,-1,-1,-1,-1,-1,-1,-1,-1,-1,-1,-1,-1,-1,-1,-1,-1,-1,-1,-1,-1],"split_conditions":[1.1E1,1E0,7.1E1,8.3E1,6.6E1,6E1,7.7E1,3E0,1.5E1,5E0,1.3E1,3.3E1,7.8E1,7.1E1,9E1,9E0,1.6E1,1E0,1.29E2,4E0,6.6E1,4E0,5E0,6.4E1,1E0,2.1E1,1.1E1,2.5E1,6E1,1.2E1,6.6E1,-1.8794602E-3,-2.944076E-2,-3.3962514E-2,-4.8028223E-2,-5.429418E-2,-4.5688406E-2,-2.215165E-2,-4.8588276E-2,-1.0295394E-2,2.5842536E-2,-2.7917583E-2,-1.5730828E-2,1.1625925E-2,-2.0062378E-2,1.4180276E-2,-1.1073262E-2,-3.7650212E-3,2.0294482E-2,2.9167915E-2,3.010378E-3,1.776543E-2,-2.3466105E-2,2.539051E-2,5.0923306E-2,2.0732718E-2,3.256851E-2,2.8710842E-2,4.387106E-2,4.3903343E-2,3.099575E-2,3.9810445E-2,5.5154692E-2],"split_indices":[4,10,4,11,5,5,5,2,12,11,8,4,8,7,7,11,11,5,11,8,7,12,9,8,3,13,11,5,6,11,8,0,0,0,0,0,0,0,0,0,0,0,0,0,0,0,0,0,0,0,0,0,0,0,0,0,0,0,0,0,0,0,0],"split_type":[0,0,0,0,0,0,0,0,0,0,0,0,0,0,0,0,0,0,0,0,0,0,0,0,0,0,0,0,0,0,0,0,0,0,0,0,0,0,0,0,0,0,0,0,0,0,0,0,0,0,0,0,0,0,0,0,0,0,0,0,0,0,0],"sum_hessian":[9.023264E3,4.0722153E3,4.9510483E3,3.175886E3,8.963293E2,1.7080305E3,3.2430178E3,8.81703E2,2.294183E3,6.008332E2,2.9549606E2,1.1299803E3,5.780502E2,8.8642096E2,2.356597E3,3.3081244E2,5.5089056E2,2.1586018E3,1.3558122E2,2.3472706E1,5.773605E2,7.922341E1,2.1627266E2,7.839247E2,3.4605573E2,3.4607605E2,2.3197412E2,4.824684E2,4.0395255E2,7.150234E2,1.6415735E3,4.1146393E1,2.8966605E2,2.0625699E2,3.4463358E2,2.0459786E3,1.12623085E2,1.4514399E1,1.21066826E2,5.0897346E0,1.838297E1,3.2096796E2,2.5639255E2,1.8923191E1,6.030022E1,1.9375267E2,2.2519989E1,6.961892E2,8.773549E1,1.22909706E2,2.2314601E2,3.3486414E2,1.1211908E1,1.9375572E2,3.8218395E1,2.5413855E2,2.2832986E2,1.1653078E2,2.8742178E2,6.0087476E2,1.1414865E2,1.7136809E2,1.4702054E3],"tree_param":{"num_deleted":"0","num_feature":"14","num_nodes":"63","size_leaf_vector":"1"}},{"base_weights":[-6.890661E-3,-7.9909736E-1,6.292411E-1,-9.6208525E-1,-2.3717164E-1,1.7866904E-1,8.6925155E-1,-7.1351725E-1,-1.0587208E0,-4.0337768E-1,9.6154615E-2,4.6428043E-2,3.9586905E-1,6.183751E-1,9.6430784E-1,-5.0378615E-1,-8.398963E-1,-1.0674082E0,-8.914353E-1,3.3721012E-1,-4.347917E-1,-2.3817901E-1,2.1787871E-1,-3.2143027E-2,2.4761716E-1,1.5605463E-1,4.8059884E-1,5.017321E-1,7.5688607E-1,7.5209355E-1,1.0177132E0,-1.7899413E-3,-2.8558705E-2,-4.5356523E-2,-2.7767122E-2,-5.3849753E-2,-4.554971E-2,-4.6210907E-2,-8.27732E-3,4.0426396E-2,7.2120638E-3,-2.305929E-2,5.6475475E-3,1.2962306E-2,-1.8768985E-2,1.3410111E-2,-1.0585218E-2,7.6284595E-3,-5.616627E-3,2.5779074E-2,4.089977E-3,-8.318362E-3,1.7665794E-2,3.297023E-2,1.7865766E-2,1.9689916E-2,3.0992756E-2,2.7342066E-2,4.201647E-2,2.7597496E-2,3.9991055E-2,4.009266E-2,5.2892383E-2],"categories":[],"categories_nodes":[],"categories_segments":[],"categories_sizes":[],"default_left":[0,0,1,0,0,1,0,0,0,0,0,1,1,0,0,0,0,0,1,0,0,0,0,0,0,0,0,0,1,0,0,0,0,0,0,0,0,0,0,0,0,0,0,0,0,0,0,0,0,0,0,0,0,0,0,0,0,0,0,0,0,0,0],"id":19,"left_children":[1,3,5,7,9,11,13,15,17,19,21,23,25,27,29,31,33,35,37,39,41,43,45,47,49,51,53,55,57,59,61,-1,-1,-1,-1,-1,-1,-1,-1,-1,-1,-1,-1,-1,-1,-1,-1,-1,-1,-1,-1,-1,-1,-1,-1,-1,-1,-1,-1,-1,-1,-1,-1],"loss_changes":[4.4703013E3,3.6159888E2,5.3189575E2,7.279663E1,4.9322166E1,4.9131115E1,7.5948E1,2.2378357E1,2.2497559E0,1.3960999E1,1.2130236E1,1.6838911E1,1.3080505E1,1.3914978E1,2.5596191E1,1.0259193E1,9.737366E0,2.151123E0,2.579155E0,2.132144E0,8.293556E0,5.5361114E0,4.771655E0,1.137182E1,1.3249897E1,1.0903367E1,1.0299713E1,5.9173126E0,6.5951385E0,4.0624084E0,1.5226685E1,0E0,0E0,0E0,0E0,0E0,0E0,0E0,0E0,0E0,0E0,0E0,0E0,0E0,0E0,0E0,0E0,0E0,0E0,0E0,0E0,0E0,0E0,0E0,0E0,0E0,0E0,0E0,0E0,0E0,0E0,0E0,0E0],"parents":[2147483647,0,0,1,1,2,2,3,3,4,4,5,5,6,6,7,7,8,8,9,9,10,10,11,11,12,12,13,13,14,14,15,15,16,16,17,17,18,18,19,19,20,20,21,21,22,22,23,23,24,24,25,25,26,26,27,27,28,28,29,29,30,30],"right_children":[2,4,6,8,10,12,14,16,18,20,22,24,26,28,30,32,34,36,38,40,42,44,46,48,50,52,54,56,58,60,62,-1,-1,-1,-1,-1,-1,-1,-1,-1,-1,-1,-1,-1,-1,-1,-1,-1,-1,-1,-1,-1,-1,-1,-1,-1,-1,-1,-1,-1,-1,-1,-1],"split_conditions":[1.1E1,1E0,7.1E1,8.3E1,6.6E1,3.3E1,7.7E1,3E0,1E0,5E0,1.3E1,3.9E1,1.4E1,7.1E1,6.1E1,9E0,3E0,1.5E1,1.4E1,2E0,1.8E1,8E0,5E0,3E0,3E0,5.8E1,1E0,2.5E1,6E1,8.8E1,9E1,-1.7899413E-3,-2.8558705E-2,-4.5356523E-2,-2.7767122E-2,-5.3849753E-2,-4.554971E-2,-4.6210907E-2,-8.27732E-3,4.0426396E-2,7.2120638E-3,-2.305929E-2,5.6475475E-3,1.2962306E-2,-1.8768985E-2,1.3410111E-2,-1.0585218E-2,7.6284595E-3,-5.616627E-3,2.5779074E-2,4.089977E-3,-8.318362E-3,1.7665794E-2,3.297023E-2,1.7865766E-2,1.9689916E-2,3.0992756E-2,2.7342066E-2,4.201647E-2,2.7597496E-2,3.9991055E-2,4.009266E-2,5.2892383E-2],"split_indices":[4,10,4,11,5,6,5,2,5,11,8,4,8,7,8,11,9,12,13,6,12,11,9,2,9,5,3,5,6,4,4,0,0,0,0,0,0,0,0,0,0,0,0,0,0,0,0,0,0,0,0,0,0,0,0,0,0,0,0,0,0,0,0],"split_type":[0,0,0,0,0,0,0,0,0,0,0,0,0,0,0,0,0,0,0,0,0,0,0,0,0,0,0,0,0,0,0,0,0,0,0,0,0,0,0,0,0,0,0,0,0,0,0,0,0,0,0,0,0,0,0,0,0,0,0,0,0,0,0],"sum_hessian":[8.868564E3,3.949633E3,4.9189316E3,3.0610547E3,8.885783E2,1.7101699E3,3.2087617E3,8.5925244E2,2.2018022E3,5.9278735E2,2.9579095E2,1.0637349E3,6.464351E2,8.837744E2,2.3249873E3,3.2495798E2,5.342945E2,2.0879897E3,1.1381248E2,2.3725405E1,5.6906195E2,7.869274E1,2.170982E2,7.655875E2,2.9814728E2,1.6950877E2,4.7692636E2,4.822683E2,4.015061E2,4.7049307E2,1.8544943E3,4.109536E1,2.838626E2,4.3040982E2,1.0388464E2,1.96186E3,1.2612986E2,1.0863314E2,5.1793356E0,5.9653544E0,1.776005E1,5.4305194E2,2.6010008E1,1.6820389E1,6.1872353E1,1.9466934E2,2.2428871E1,2.3148097E2,5.3410657E2,1.1316356E2,1.8498373E2,6.4401566E1,1.0510721E2,1.9286028E2,2.8406607E2,2.5426749E2,2.2800081E2,1.16302086E2,2.85204E2,9.3012695E1,3.7748038E2,2.9403424E2,1.56046E3],"tree_param":{"num_deleted":"0","num_feature":"14","num_nodes":"63","size_leaf_vector":"1"}},{"base_weights":[-6.882303E-3,-7.833633E-1,6.021268E-1,-1.0166668E0,-3.825103E-1,1.3899359E-1,8.2052255E-1,-8.002372E-1,-1.051446E0,-5.070163E-1,8.249567E-2,4.3314695E-2,4.0913182E-1,6.0486746E-1,9.3832886E-1,-6.2941843E-1,-9.591838E-1,-1.0608224E0,-8.756089E-1,-3.3231267E-1,-6.175246E-1,-2.0153761E-1,2.2955738E-1,-3.9161206E-3,3.5199854E-1,6.091594E-1,2.7738392E-1,4.5593733E-1,6.953114E-1,6.8459886E-1,9.8498553E-1,-3.3635117E-2,-6.5160813E-3,-4.8794333E-2,-2.3472534E-2,-5.324601E-2,-3.8146477E-2,-4.544372E-2,-7.971211E-3,-1.8209657E-2,2.4385003E-2,-3.5517994E-2,-1.3490294E-2,-2.1771103E-2,2.5945285E-3,3.207753E-2,5.307845E-3,2.0081077E-2,-1.5737627E-3,2.8771475E-2,-1.8537421E-4,1.6364051E-2,3.971583E-2,-4.369643E-2,2.078714E-2,1.5458079E-2,2.8479595E-2,2.8278152E-2,3.9472822E-2,3.9654584E-3,3.684845E-2,3.9015908E-2,5.1357448E-2],"categories":[],"categories_nodes":[],"categories_segments":[],"categories_sizes":[],"default_left":[0,0,1,0,1,1,0,0,0,0,0,1,0,0,0,0,0,0,1,0,1,1,0,1,0,0,0,1,0,0,0,0,0,0,0,0,0,0,0,0,0,0,0,0,0,0,0,0,0,0,0,0,0,0,0,0,0,0,0,0,0,0,0],"id":20,"left_children":[1,3,5,7,9,11,13,15,17,19,21,23,25,27,29,31,33,35,37,39,41,43,45,47,49,51,53,55,57,59,61,-1,-1,-1,-1,-1,-1,-1,-1,-1,-1,-1,-1,-1,-1,-1,-1,-1,-1,-1,-1,-1,-1,-1,-1,-1,-1,-1,-1,-1,-1,-1,-1],"loss_changes":[4.1230273E3,3.5802783E2,4.9412817E2,1.7388916E1,8.1765656E1,4.0485123E1,8.378784E1,8.613953E0,2.5061035E0,2.1293762E1,1.2534973E1,1.6888836E1,1.0629036E1,1.5521301E1,2.4724731E1,3.5101852E0,9.6476746E-1,1.5964355E0,2.5043716E0,1.151379E1,2.1789612E1,6.0996485E0,9.970683E0,1.1251365E1,1.221929E1,8.188435E0,4.0006805E1,7.283615E0,8.466431E0,1.060907E1,1.4817749E1,0E0,0E0,0E0,0E0,0E0,0E0,0E0,0E0,0E0,0E0,0E0,0E0,0E0,0E0,0E0,0E0,0E0,0E0,0E0,0E0,0E0,0E0,0E0,0E0,0E0,0E0,0E0,0E0,0E0,0E0,0E0,0E0],"parents":[2147483647,0,0,1,1,2,2,3,3,4,4,5,5,6,6,7,7,8,8,9,9,10,10,11,11,12,12,13,13,14,14,15,15,16,16,17,17,18,18,19,19,20,20,21,21,22,22,23,23,24,24,25,25,26,26,27,27,28,28,29,29,30,30],"right_children":[2,4,6,8,10,12,14,16,18,20,22,24,26,28,30,32,34,36,38,40,42,44,46,48,50,52,54,56,58,60,62,-1,-1,-1,-1,-1,-1,-1,-1,-1,-1,-1,-1,-1,-1,-1,-1,-1,-1,-1,-1,-1,-1,-1,-1,-1,-1,-1,-1,-1,-1,-1,-1],"split_conditions":[1.1E1,1E0,6.7E1,9E1,6.6E1,6.8E1,8.1E1,3E0,1E0,3E0,5.9E1,6.7E1,1E0,8.8E1,5.8E1,1.4E1,1.7E1,2.8E1,1.4E1,4.5E1,6.1E1,1.3E1,9E0,3E0,1E0,2.3E1,4.4E1,2E1,2.3E1,7.6E1,8.9E1,-3.3635117E-2,-6.5160813E-3,-4.8794333E-2,-2.3472534E-2,-5.324601E-2,-3.8146477E-2,-4.544372E-2,-7.971211E-3,-1.8209657E-2,2.4385003E-2,-3.5517994E-2,-1.3490294E-2,-2.1771103E-2,2.5945285E-3,3.207753E-2,5.307845E-3,2.0081077E-2,-1.5737627E-3,2.8771475E-2,-1.8537421E-4,1.6364051E-2,3.971583E-2,-4.369643E-2,2.078714E-2,1.5458079E-2,2.8479595E-2,2.8278152E-2,3.9472822E-2,3.9654584E-3,3.684845E-2,3.9015908E-2,5.1357448E-2],"split_indices":[4,9,4,11,5,5,6,2,5,2,6,6,3,4,8,12,12,12,13,13,7,8,11,13,3,4,4,8,7,4,4,0,0,0,0,0,0,0,0,0,0,0,0,0,0,0,0,0,0,0,0,0,0,0,0,0,0,0,0,0,0,0,0],"split_type":[0,0,0,0,0,0,0,0,0,0,0,0,0,0,0,0,0,0,0,0,0,0,0,0,0,0,0,0,0,0,0,0,0,0,0,0,0,0,0,0,0,0,0,0,0,0,0,0,0,0,0,0,0,0,0,0,0,0,0,0,0,0,0],"sum_hessian":[8.716901E3,3.8314949E3,4.8854067E3,2.4209329E3,1.4105619E3,1.5660518E3,3.319355E3,3.384959E2,2.082437E3,1.1125774E3,2.979845E2,1.1573102E3,4.0874152E2,1.1748394E3,2.1445156E3,1.6554546E2,1.7295045E2,1.9722366E3,1.1020047E2,4.3263223E2,6.799451E2,1.01526665E2,1.9645784E2,1.0045884E3,1.5272182E2,1.6087213E2,2.4786938E2,4.461784E2,7.28661E2,3.3552487E2,1.8089908E3,1.5201427E2,1.3531192E1,1.662864E2,6.664052E0,1.9429344E3,2.9302074E1,1.0505195E2,5.1485243E0,4.169769E2,1.565535E1,5.358414E2,1.4410379E2,5.2425735E1,4.910093E1,4.4312897E1,1.5214494E2,6.3061012E1,9.415274E2,9.342236E1,5.9299454E1,6.487529E1,9.599685E1,2.6021635E1,2.2184775E2,1.9634056E2,2.4983783E2,3.093413E2,4.193197E2,2.6918377E1,3.086065E2,3.1234207E2,1.4966487E3],"tree_param":{"num_deleted":"0","num_feature":"14","num_nodes":"63","size_leaf_vector":"1"}},{"base_weights":[-6.873424E-3,-7.6774883E-1,5.7638866E-1,-1.0062964E0,-3.6855942E-1,1.8784612E-1,8.199485E-1,-7.896471E-1,-1.0433984E0,-5.2865916E-1,-2.5792954E-2,6.2796704E-2,4.0183476E-1,5.4908705E-1,8.9696085E-1,-6.2282366E-1,-9.440477E-1,-1.0533679E0,-8.599733E-1,-3.5350558E-1,-6.4757156E-1,-2.1961595E-1,1.8127035E-1,-2.3104986E-2,2.299969E-1,1.9420595E-1,4.8432168E-1,4.1249534E-1,6.6336805E-1,6.672877E-1,9.441049E-1,-3.3410646E-2,-6.867934E-3,-4.8005816E-2,-2.2810264E-2,-5.313629E-2,-4.500426E-2,-4.4686284E-2,-7.675353E-3,-1.9266186E-2,1.9200599E-2,-3.4446996E-2,1.8634422E-3,-1.7666541E-2,1.1266995E-3,4.3680876E-2,5.190044E-3,-3.6681734E-3,1.861625E-2,2.6340336E-2,4.5690476E-3,2.9937255E-3,2.3512682E-2,8.850622E-3,2.7104167E-2,2.5340548E-2,7.998182E-3,3.3795785E-2,-1.4743189E-2,3.405529E-2,-3.3913334E-3,5.8592733E-2,4.529966E-2],"categories":[],"categories_nodes":[],"categories_segments":[],"categories_sizes":[],"default_left":[0,0,1,0,1,1,0,0,0,0,1,1,0,0,0,0,0,0,1,0,1,0,0,1,0,0,0,0,0,0,0,0,0,0,0,0,0,0,0,0,0,0,0,0,0,0,0,0,0,0,0,0,0,0,0,0,0,0,0,0,0,0,0],"id":21,"left_children":[1,3,5,7,9,11,13,15,17,19,21,23,25,27,29,31,33,35,37,39,41,43,45,47,49,51,53,55,57,59,61,-1,-1,-1,-1,-1,-1,-1,-1,-1,-1,-1,-1,-1,-1,-1,-1,-1,-1,-1,-1,-1,-1,-1,-1,-1,-1,-1,-1,-1,-1,-1,-1],"loss_changes":[3.8033887E3,3.537627E2,4.5894678E2,1.7882568E1,7.641002E1,5.003074E1,6.170581E1,8.282639E0,2.722168E0,1.9541107E1,1.7876486E1,1.697993E1,1.1719269E1,1.0070694E1,2.449121E1,3.6204987E0,9.4877625E-1,1.736084E0,2.4312515E0,9.20686E0,1.6009018E1,7.455386E0,1.1463783E1,1.5561444E1,1.6458477E1,7.30611E0,8.654732E0,7.171818E0,4.5177155E0,4.0944977E0,1.5625732E1,0E0,0E0,0E0,0E0,0E0,0E0,0E0,0E0,0E0,0E0,0E0,0E0,0E0,0E0,0E0,0E0,0E0,0E0,0E0,0E0,0E0,0E0,0E0,0E0,0E0,0E0,0E0,0E0,0E0,0E0,0E0,0E0],"parents":[2147483647,0,0,1,1,2,2,3,3,4,4,5,5,6,6,7,7,8,8,9,9,10,10,11,11,12,12,13,13,14,14,15,15,16,16,17,17,18,18,19,19,20,20,21,21,22,22,23,23,24,24,25,25,26,26,27,27,28,28,29,29,30,30],"right_children":[2,4,6,8,10,12,14,16,18,20,22,24,26,28,30,32,34,36,38,40,42,44,46,48,50,52,54,56,58,60,62,-1,-1,-1,-1,-1,-1,-1,-1,-1,-1,-1,-1,-1,-1,-1,-1,-1,-1,-1,-1,-1,-1,-1,-1,-1,-1,-1,-1,-1,-1,-1,-1],"split_conditions":[1.1E1,1E0,7.5E1,9.2E1,2.6E1,5.9E1,6.9E1,3E0,1E0,3E0,6.7E1,3.3E1,3.7E1,3.5E1,6.9E1,1.4E1,1.7E1,1.5E1,1.4E1,4.4E1,7.9E1,8.8E1,7E0,6.4E1,1E0,2.8E1,3E1,8E0,4.3E1,2.2E1,2E0,-3.3410646E-2,-6.867934E-3,-4.8005816E-2,-2.2810264E-2,-5.313629E-2,-4.500426E-2,-4.4686284E-2,-7.675353E-3,-1.9266186E-2,1.9200599E-2,-3.4446996E-2,1.8634422E-3,-1.7666541E-2,1.1266995E-3,4.3680876E-2,5.190044E-3,-3.6681734E-3,1.861625E-2,2.6340336E-2,4.5690476E-3,2.9937255E-3,2.3512682E-2,8.850622E-3,2.7104167E-2,2.5340548E-2,7.998182E-3,3.3795785E-2,-1.4743189E-2,3.405529E-2,-3.3913334E-3,5.8592733E-2,4.529966E-2],"split_indices":[4,9,4,11,5,5,5,2,5,2,7,4,7,7,6,12,12,12,13,13,6,5,11,8,3,1,8,11,11,11,2,0,0,0,0,0,0,0,0,0,0,0,0,0,0,0,0,0,0,0,0,0,0,0,0,0,0,0,0,0,0,0,0],"split_type":[0,0,0,0,0,0,0,0,0,0,0,0,0,0,0,0,0,0,0,0,0,0,0,0,0,0,0,0,0,0,0,0,0,0,0,0,0,0,0,0,0,0,0,0,0,0,0,0,0,0,0,0,0,0,0,0,0,0,0,0,0,0,0],"sum_hessian":[8.568251E3,3.7178872E3,4.8503643E3,2.3262476E3,1.3916398E3,1.8696106E3,2.9807534E3,3.4338715E2,1.9828604E3,9.482076E2,4.4343213E2,1.1808474E3,6.887632E2,6.616793E2,2.3190742E3,1.6747311E2,1.7591402E2,1.8761453E3,1.0671499E2,3.8503625E2,5.631713E2,2.290075E2,2.1442464E2,7.806422E2,4.002052E2,1.9678572E2,4.9197745E2,3.0351697E2,3.5816232E2,3.9753687E2,1.9215374E3,1.5280954E2,1.4663581E1,1.6936731E2,6.546717E0,1.7626042E3,1.1354103E2,1.0159605E2,5.1189456E0,3.6956973E2,1.5466509E1,5.310848E2,3.2086563E1,1.472417E2,8.17658E1,2.054413E1,1.9388051E2,6.9333496E2,8.7307236E1,1.2651212E2,2.7369308E2,1.3318944E2,6.359629E1,7.848393E1,4.1349353E2,2.2025073E2,8.326624E1,3.5382376E2,4.338551E0,3.9027426E2,7.2626057E0,2.7119113E2,1.6503462E3],"tree_param":{"num_deleted":"0","num_feature":"14","num_nodes":"63","size_leaf_vector":"1"}},{"base_weights":[-6.8547167E-3,-7.522381E-1,5.518458E-1,-9.961043E-1,-3.5495913E-1,1.8488449E-1,7.936298E-1,-7.737403E-1,-1.0346489E0,-5.1187843E-1,-2.452512E-2,7.383993E-2,4.173873E-1,5.7430416E-1,8.8403594E-1,-6.0565907E-1,-9.315629E-1,-1.0451009E0,-8.4450126E-1,-3.3995E-1,-6.299027E-1,-2.1016091E-1,1.7182492E-1,-1.8701388E-2,2.9470676E-1,3.028139E-1,7.170679E-1,4.916349E-1,7.031695E-1,1.1308593E0,8.4544915E-1,-3.25428E-2,-6.5772356E-3,-4.7400326E-2,-2.2160538E-2,-5.274133E-2,-4.4350393E-2,-4.3037105E-2,1.8200276E-2,1.1177993E-3,-2.0183822E-2,-3.3556454E-2,1.7710644E-3,-1.6972858E-2,1.0705375E-3,4.094631E-2,4.922004E-3,8.6708646E-4,-1.836296E-2,2.4509192E-2,-7.533308E-3,9.584407E-3,2.4084914E-2,2.3993896E-2,4.2503517E-2,2.6895285E-2,1.2173504E-2,3.3020288E-2,5.2497726E-2,5.745229E-2,1.9670691E-2,2.3519354E-2,4.340857E-2],"categories":[],"categories_nodes":[],"categories_segments":[],"categories_sizes":[],"default_left":[0,0,1,0,1,1,0,0,0,0,1,1,0,1,0,0,0,0,0,0,1,0,0,0,0,0,0,0,1,0,0,0,0,0,0,0,0,0,0,0,0,0,0,0,0,0,0,0,0,0,0,0,0,0,0,0,0,0,0,0,0,0,0],"id":22,"left_children":[1,3,5,7,9,11,13,15,17,19,21,23,25,27,29,31,33,35,37,39,41,43,45,47,49,51,53,55,57,59,61,-1,-1,-1,-1,-1,-1,-1,-1,-1,-1,-1,-1,-1,-1,-1,-1,-1,-1,-1,-1,-1,-1,-1,-1,-1,-1,-1,-1,-1,-1,-1,-1],"loss_changes":[3.5087307E3,3.4935925E2,4.2713464E2,1.8365234E1,7.1258286E1,4.9386543E1,5.7048584E1,8.304108E0,2.8990479E0,1.8695694E1,1.620594E1,2.6506918E1,2.1018051E1,8.710754E0,1.8602783E1,3.4447937E0,9.4947815E-1,1.8310547E0,2.3615036E0,8.817234E0,1.51480255E1,6.8483305E0,1.01832905E1,1.1497606E1,3.3409996E1,8.835987E0,4.9651947E0,5.8539505E0,4.1990814E0,3.2318726E0,1.4760498E1,0E0,0E0,0E0,0E0,0E0,0E0,0E0,0E0,0E0,0E0,0E0,0E0,0E0,0E0,0E0,0E0,0E0,0E0,0E0,0E0,0E0,0E0,0E0,0E0,0E0,0E0,0E0,0E0,0E0,0E0,0E0,0E0],"parents":[2147483647,0,0,1,1,2,2,3,3,4,4,5,5,6,6,7,7,8,8,9,9,10,10,11,11,12,12,13,13,14,14,15,15,16,16,17,17,18,18,19,19,20,20,21,21,22,22,23,23,24,24,25,25,26,26,27,27,28,28,29,29,30,30],"right_children":[2,4,6,8,10,12,14,16,18,20,22,24,26,28,30,32,34,36,38,40,42,44,46,48,50,52,54,56,58,60,62,-1,-1,-1,-1,-1,-1,-1,-1,-1,-1,-1,-1,-1,-1,-1,-1,-1,-1,-1,-1,-1,-1,-1,-1,-1,-1,-1,-1,-1,-1,-1,-1],"split_conditions":[1.1E1,1E0,7.6E1,9.2E1,2.6E1,5.8E1,7.5E1,3E0,1E0,3E0,6.7E1,3.5E1,5E0,6.7E1,2E0,1.4E1,1.7E1,1.5E1,2.1E1,9E0,7.9E1,8.8E1,7E0,1E0,1E0,7.4E1,8.4E1,1.1E1,1.4E1,3.8E1,2.3E1,-3.25428E-2,-6.5772356E-3,-4.7400326E-2,-2.2160538E-2,-5.274133E-2,-4.4350393E-2,-4.3037105E-2,1.8200276E-2,1.1177993E-3,-2.0183822E-2,-3.3556454E-2,1.7710644E-3,-1.6972858E-2,1.0705375E-3,4.094631E-2,4.922004E-3,8.6708646E-4,-1.836296E-2,2.4509192E-2,-7.533308E-3,9.584407E-3,2.4084914E-2,2.3993896E-2,4.2503517E-2,2.6895285E-2,1.2173504E-2,3.3020288E-2,5.2497726E-2,5.745229E-2,1.9670691E-2,2.3519354E-2,4.340857E-2],"split_indices":[4,9,4,11,5,4,6,2,5,2,7,7,10,8,2,12,12,12,12,11,6,5,11,3,3,5,8,11,13,1,5,0,0,0,0,0,0,0,0,0,0,0,0,0,0,0,0,0,0,0,0,0,0,0,0,0,0,0,0,0,0,0,0],"split_type":[0,0,0,0,0,0,0,0,0,0,0,0,0,0,0,0,0,0,0,0,0,0,0,0,0,0,0,0,0,0,0,0,0,0,0,0,0,0,0,0,0,0,0,0,0,0,0,0,0,0,0,0,0,0,0,0,0,0,0,0,0,0,0],"sum_hessian":[8.423418E3,3.6086438E3,4.814774E3,2.2351248E3,1.373519E3,1.9130532E3,2.9017207E3,3.3331277E2,1.9018119E3,9.3089746E2,4.4262164E2,1.2955902E3,6.17463E2,8.491153E2,2.0526055E3,1.637531E2,1.6955968E2,1.7984573E3,1.0335459E2,3.8049808E2,5.5039935E2,2.2748216E2,2.1513947E2,9.1368097E2,3.819092E2,4.4814093E2,1.6932208E2,5.202082E2,3.289071E2,2.7368042E2,1.778925E3,1.4916093E2,1.4592155E1,1.6312572E2,6.4339542E0,1.6888872E3,1.0957013E2,1.02268E2,1.0865926E0,5.7012463E1,3.2348563E2,5.18276E2,3.2123333E1,1.4567807E2,8.18041E1,2.0878176E1,1.9426129E2,8.2891595E2,8.4764984E1,2.6534637E2,1.1656285E2,2.777006E2,1.7044035E2,6.248948E1,1.0683261E2,4.3747302E2,8.273515E1,2.95386E2,3.3521114E1,2.6654877E2,7.131644E0,1.02855385E2,1.6760697E3],"tree_param":{"num_deleted":"0","num_feature":"14","num_nodes":"63","size_leaf_vector":"1"}},{"base_weights":[-6.815642E-3,-7.3684144E-1,5.2841777E-1,-9.860571E-1,-3.417561E-1,1.755923E-1,7.6399475E-1,-7.5200444E-1,-1.0250732E0,-4.9544743E-1,-2.331817E-2,7.396395E-2,4.1022637E-1,5.485145E-1,8.53809E-1,-5.772318E-1,-9.218682E-1,-1.0358834E0,-8.2903206E-1,-5.6822133E-1,-2.1297377E-1,-2.0106587E-1,1.629129E-1,3.9670984E-3,3.0563655E-1,4.2302817E-2,4.6619734E-1,4.6812636E-1,6.782941E-1,1.1004162E0,8.155783E-1,-4.0665623E-2,-2.396535E-2,-4.6988588E-2,-2.1523342E-2,-5.2025188E-2,-3.55401E-2,-4.3222006E-2,-5.768088E-3,-1.8874077E-2,-3.3475265E-2,-1.26400655E-2,3.8503785E-2,5.6652278E-2,-1.113405E-2,3.8445115E-2,4.6683317E-3,-1.32679E-3,2.613621E-2,-1.3953941E-2,1.7783564E-2,-1.1975392E-2,1.6537854E-2,1.0843231E-2,2.5837082E-2,1.546976E-2,2.6711607E-2,3.6821928E-2,1.8738411E-2,5.592513E-2,1.8942801E-2,2.2841513E-2,4.192576E-2],"categories":[],"categories_nodes":[],"categories_segments":[],"categories_sizes":[],"default_left":[0,0,1,0,1,1,0,0,0,1,1,1,0,0,0,0,0,0,1,0,0,0,0,1,1,0,0,0,0,0,0,0,0,0,0,0,0,0,0,0,0,0,0,0,0,0,0,0,0,0,0,0,0,0,0,0,0,0,0,0,0,0,0],"id":23,"left_children":[1,3,5,7,9,11,13,15,17,19,21,23,25,27,29,31,33,35,37,39,41,43,45,47,49,51,53,55,57,59,61,-1,-1,-1,-1,-1,-1,-1,-1,-1,-1,-1,-1,-1,-1,-1,-1,-1,-1,-1,-1,-1,-1,-1,-1,-1,-1,-1,-1,-1,-1,-1,-1],"loss_changes":[3.2370684E3,3.447268E2,3.971693E2,1.8848877E1,6.640622E1,4.5635212E1,5.4997192E1,8.692596E0,3.038086E0,1.8694E1,1.4691106E1,2.1688057E1,1.1894737E1,8.507843E0,1.8156738E1,3.2125702E0,9.670563E-1,1.8717041E0,2.4550934E0,1.3795486E1,7.598284E0,6.798852E0,9.065214E0,1.6283154E1,9.178225E0,6.3786464E0,6.215248E0,5.349777E0,5.3950653E0,3.078949E0,1.4046875E1,0E0,0E0,0E0,0E0,0E0,0E0,0E0,0E0,0E0,0E0,0E0,0E0,0E0,0E0,0E0,0E0,0E0,0E0,0E0,0E0,0E0,0E0,0E0,0E0,0E0,0E0,0E0,0E0,0E0,0E0,0E0,0E0],"parents":[2147483647,0,0,1,1,2,2,3,3,4,4,5,5,6,6,7,7,8,8,9,9,10,10,11,11,12,12,13,13,14,14,15,15,16,16,17,17,18,18,19,19,20,20,21,21,22,22,23,23,24,24,25,25,26,26,27,27,28,28,29,29,30,30],"right_children":[2,4,6,8,10,12,14,16,18,20,22,24,26,28,30,32,34,36,38,40,42,44,46,48,50,52,54,56,58,60,62,-1,-1,-1,-1,-1,-1,-1,-1,-1,-1,-1,-1,-1,-1,-1,-1,-1,-1,-1,-1,-1,-1,-1,-1,-1,-1,-1,-1,-1,-1,-1,-1],"split_conditions":[1.1E1,1E0,7.6E1,9E1,2.6E1,6.7E1,7.5E1,3E0,1E0,8.3E1,6.7E1,5.9E1,1.9E1,8.8E1,2E0,1.7E1,1.7E1,2.8E1,1.4E1,3E0,2E1,3E0,7E0,8.6E1,3E0,2.324E3,2.5E1,5E0,1.1E1,3.8E1,2.5E1,-4.0665623E-2,-2.396535E-2,-4.6988588E-2,-2.1523342E-2,-5.2025188E-2,-3.55401E-2,-4.3222006E-2,-5.768088E-3,-1.8874077E-2,-3.3475265E-2,-1.26400655E-2,3.8503785E-2,5.6652278E-2,-1.113405E-2,3.8445115E-2,4.6683317E-3,-1.32679E-3,2.613621E-2,-1.3953941E-2,1.7783564E-2,-1.1975392E-2,1.6537854E-2,1.0843231E-2,2.5837082E-2,1.546976E-2,2.6711607E-2,3.6821928E-2,1.8738411E-2,5.592513E-2,1.8942801E-2,2.2841513E-2,4.192576E-2],"split_indices":[4,9,4,11,5,6,6,2,5,8,7,4,7,5,2,1,12,12,13,2,12,11,11,7,13,0,8,12,11,1,5,0,0,0,0,0,0,0,0,0,0,0,0,0,0,0,0,0,0,0,0,0,0,0,0,0,0,0,0,0,0,0,0],"split_type":[0,0,0,0,0,0,0,0,0,0,0,0,0,0,0,0,0,0,0,0,0,0,0,0,0,0,0,0,0,0,0,0,0,0,0,0,0,0,0,0,0,0,0,0,0,0,0,0,0,0,0,0,0,0,0,0,0,0,0,0,0,0,0],"sum_hessian":[8.282582E3,3.503561E3,4.7790205E3,2.1474663E3,1.3560947E3,1.9140615E3,2.8649592E3,3.0972705E2,1.8377391E3,9.14273E2,4.4182178E2,1.3364938E3,5.775677E2,8.4492993E2,2.0200293E3,1.548255E2,1.5490154E2,1.7376372E3,1.0010193E2,7.26176E2,1.8809698E2,2.2601897E2,2.158028E2,1.0271661E3,3.0932767E2,7.649376E1,5.0107394E2,5.2459326E2,3.2033664E2,2.6739774E2,1.7526316E3,4.325044E1,1.1157506E2,1.4857593E2,6.325608E0,1.7111167E3,2.6520514E1,9.5168945E1,4.932977E0,2.5350243E2,4.726736E2,1.8148701E2,6.6099734E0,2.7837462E0,2.2323523E2,2.1181595E1,1.946212E2,9.7101904E2,5.6147038E1,2.4022175E1,2.853055E2,3.877829E1,3.771547E1,8.53478E1,4.1572617E2,1.5590921E2,3.6868408E2,2.676403E2,5.269635E1,2.6032245E2,7.075287E0,1.065796E2,1.646052E3],"tree_param":{"num_deleted":"0","num_feature":"14","num_nodes":"63","size_leaf_vector":"1"}},{"base_weights":[-6.76931E-3,-7.215011E-1,5.060437E-1,-9.76138E-1,-3.2883608E-1,1.6676144E-1,7.3564994E-1,-7.421632E-1,-1.0177298E0,-4.4407856E-1,7.414603E-2,5.1726863E-2,3.5842595E-1,4.788987E-1,8.0997115E-1,-5.720487E-1,-9.0676725E-1,-1.0292023E0,-8.1380457E-1,-5.4448396E-1,-2.6935816E-1,-1.8599562E-1,2.0662919E-1,-4.4126745E-2,1.7338952E-1,1.1553889E-1,4.195251E-1,3.7457323E-1,6.1767393E-1,6.5343565E-1,8.7480134E-1,-3.0904029E-2,-5.0063496E-3,-4.6199568E-2,-2.089867E-2,-5.1987942E-2,-4.298973E-2,-4.248525E-2,-5.548357E-3,-1.6812978E-2,-3.4255393E-2,-1.7325493E-2,8.365159E-3,-2.0331671E-2,2.4138407E-3,2.8304094E-2,4.858223E-3,6.466513E-3,-7.838975E-3,1.68423E-3,1.4331388E-2,-3.771591E-2,9.976378E-3,7.4766236E-3,2.4304986E-2,2.0002712E-2,-9.114754E-3,2.1166129E-2,3.4497738E-2,3.44393E-2,2.1394797E-2,3.0165384E-2,4.5566637E-2],"categories":[],"categories_nodes":[],"categories_segments":[],"categories_sizes":[],"default_left":[0,0,1,0,1,1,0,0,0,1,0,1,0,0,0,0,0,0,1,0,0,1,0,0,0,0,0,0,0,0,0,0,0,0,0,0,0,0,0,0,0,0,0,0,0,0,0,0,0,0,0,0,0,0,0,0,0,0,0,0,0,0,0],"id":24,"left_children":[1,3,5,7,9,11,13,15,17,19,21,23,25,27,29,31,33,35,37,39,41,43,45,47,49,51,53,55,57,59,61,-1,-1,-1,-1,-1,-1,-1,-1,-1,-1,-1,-1,-1,-1,-1,-1,-1,-1,-1,-1,-1,-1,-1,-1,-1,-1,-1,-1,-1,-1,-1,-1],"loss_changes":[2.9862998E3,3.4000574E2,3.6943555E2,1.9332764E1,6.228505E1,4.2224762E1,5.359436E1,8.308868E0,3.2564697E0,1.8142075E1,1.0341523E1,1.3984406E1,1.0613586E1,8.998352E0,2.1677856E1,3.3647804E0,9.483185E-1,2.0622559E0,2.3781357E0,1.9126846E1,1.294202E1,5.2609534E0,7.7573633E0,1.3134903E1,8.348857E0,1.0801307E1,1.0238899E1,5.272915E0,3.529564E0,4.8561096E0,1.4797485E1,0E0,0E0,0E0,0E0,0E0,0E0,0E0,0E0,0E0,0E0,0E0,0E0,0E0,0E0,0E0,0E0,0E0,0E0,0E0,0E0,0E0,0E0,0E0,0E0,0E0,0E0,0E0,0E0,0E0,0E0,0E0,0E0],"parents":[2147483647,0,0,1,1,2,2,3,3,4,4,5,5,6,6,7,7,8,8,9,9,10,10,11,11,12,12,13,13,14,14,15,15,16,16,17,17,18,18,19,19,20,20,21,21,22,22,23,23,24,24,25,25,26,26,27,27,28,28,29,29,30,30],"right_children":[2,4,6,8,10,12,14,16,18,20,22,24,26,28,30,32,34,36,38,40,42,44,46,48,50,52,54,56,58,60,62,-1,-1,-1,-1,-1,-1,-1,-1,-1,-1,-1,-1,-1,-1,-1,-1,-1,-1,-1,-1,-1,-1,-1,-1,-1,-1,-1,-1,-1,-1,-1,-1],"split_conditions":[1.1E1,1E0,7.6E1,9.2E1,6.6E1,5.9E1,6.9E1,3E0,1E0,1.3E1,5.9E1,2.7E1,1.9E1,7.1E1,8.2E1,1.4E1,1.7E1,1.5E1,1.4E1,3E0,2E0,1.3E1,9E0,2E0,2.1E1,9E0,3E1,2.3E1,6.2E1,1.3E1,9E1,-3.0904029E-2,-5.0063496E-3,-4.6199568E-2,-2.089867E-2,-5.1987942E-2,-4.298973E-2,-4.248525E-2,-5.548357E-3,-1.6812978E-2,-3.4255393E-2,-1.7325493E-2,8.365159E-3,-2.0331671E-2,2.4138407E-3,2.8304094E-2,4.858223E-3,6.466513E-3,-7.838975E-3,1.68423E-3,1.4331388E-2,-3.771591E-2,9.976378E-3,7.4766236E-3,2.4304986E-2,2.0002712E-2,-9.114754E-3,2.1166129E-2,3.4497738E-2,3.44393E-2,2.1394797E-2,3.0165384E-2,4.5566637E-2],"split_indices":[4,9,4,11,5,5,5,2,5,6,6,4,7,7,8,12,12,12,13,2,4,8,11,1,8,1,8,13,6,11,4,0,0,0,0,0,0,0,0,0,0,0,0,0,0,0,0,0,0,0,0,0,0,0,0,0,0,0,0,0,0,0,0],"split_type":[0,0,0,0,0,0,0,0,0,0,0,0,0,0,0,0,0,0,0,0,0,0,0,0,0,0,0,0,0,0,0,0,0,0,0,0,0,0,0,0,0,0,0,0,0,0,0,0,0,0,0,0,0,0,0,0,0,0,0,0,0,0,0],"sum_hessian":[8.1456343E3,3.4027095E3,4.742925E3,2.0632437E3,1.3394658E3,1.9149656E3,2.8279592E3,3.1425323E2,1.7489904E3,1.0415168E3,2.979489E2,1.197507E3,7.1745856E2,6.3650867E2,2.1914507E3,1.5674069E2,1.5751253E2,1.6520037E3,9.698674E1,6.600779E2,3.81439E2,1.0040043E2,1.975485E2,6.701541E2,5.2735284E2,1.4478528E2,5.726733E2,3.6546573E2,2.710429E2,6.450431E2,1.5464076E3,1.4252856E2,1.421213E1,1.51291E2,6.221526E0,1.5502627E3,1.01741E2,9.207467E1,4.912072E0,2.6745032E2,3.926276E2,3.2433942E2,5.7099586E1,5.1325935E1,4.9074497E1,4.5142223E1,1.5240627E2,2.6380795E2,4.063462E2,2.3666754E2,2.9068533E2,1.2045966E1,1.3273932E2,1.1391968E2,4.587536E2,3.4974387E2,1.5721861E1,7.533531E1,1.957076E2,5.558648E2,8.917831E1,1.8547917E2,1.3609283E3],"tree_param":{"num_deleted":"0","num_feature":"14","num_nodes":"63","size_leaf_vector":"1"}},{"base_weights":[-6.737141E-3,-7.063225E-1,4.8472264E-1,-9.6631426E-1,-3.1641895E-1,1.5840693E-1,7.0851964E-1,-7.26555E-1,-1.0095055E0,-4.9544182E-1,-6.800938E-2,6.038534E-2,3.6388823E-1,4.9817497E-1,7.98033E-1,-5.5559736E-1,-8.9452475E-1,-1.0215111E0,-7.98678E-1,-3.1958446E-1,-6.067493E-1,-2.3603903E-1,1.5002508E-1,1.1896514E-1,-2.5682962E-1,2.6007017E-1,6.384643E-1,4.1954264E-1,6.2249875E-1,1.048878E0,7.596787E-1,-3.006651E-2,-4.7890334E-3,-4.5607507E-2,-2.0286506E-2,-4.8742604E-2,-5.3249028E-2,-4.0814895E-2,2.0445725E-2,-1.7962418E-2,3.372703E-2,-3.433418E-2,-8.575483E-3,-1.7173924E-2,3.7723437E-3,