{"learner":{"attributes":{"best_iteration":"122","best_score":"0.26187625188507696","scikit_learn":"{\"_estimator_type\": \"classifier\"}"},"feature_names":["season","gameweek","player_position","started_last_match","minutes_last_match","minutes_last_match_plus_1","minutes_last_match_plus_2","minutes_last_match_plus_3","minutes_last_match_plus_4","games_played_last_5","starts_last_5","days_since_last_match","days_since_last_team_match","days_till_next_match"],"feature_types":["int","int","int","int","float","float","float","float","float","int","int","float","float","float"],"gradient_booster":{"model":{"cats":{"enc":[],"feature_segments":[],"sorted_idx":[]},"gbtree_model_param":{"num_parallel_tree":"1","num_trees":"143"},"iteration_indptr":[0,1,2,3,4,5,6,7,8,9,10,11,12,13,14,15,16,17,18,19,20,21,22,23,24,25,26,27,28,29,30,31,32,33,34,35,36,37,38,39,40,41,42,43,44,45,46,47,48,49,50,51,52,53,54,55,56,57,58,59,60,61,62,63,64,65,66,67,68,69,70,71,72,73,74,75,76,77,78,79,80,81,82,83,84,85,86,87,88,89,90,91,92,93,94,95,96,97,98,99,100,101,102,103,104,105,106,107,108,109,110,111,112,113,114,115,116,117,118,119,120,121,122,123,124,125,126,127,128,129,130,131,132,133,134,135,136,137,138,139,140,141,142,143],"tree_info":[0,0,0,0,0,0,0,0,0,0,0,0,0,0,0,0,0,0,0,0,0,0,0,0,0,0,0,0,0,0,0,0,0,0,0,0,0,0,0,0,0,0,0,0,0,0,0,0,0,0,0,0,0,0,0,0,0,0,0,0,0,0,0,0,0,0,0,0,0,0,0,0,0,0,0,0,0,0,0,0,0,0,0,0,0,0,0,0,0,0,0,0,0,0,0,0,0,0,0,0,0,0,0,0,0,0,0,0,0,0,0,0,0,0,0,0,0,0,0,0,0,0,0,0,0,0,0,0,0,0,0,0,0,0,0,0,0,0,0,0,0,0,0],"trees":[{"base_weights":[-1.4087608E-8,-9.998643E-1,2.3394032E0,-1.1768973E0,8.310639E-2,1.0882568E0,2.6481168E0,-1.2429811E0,1.5314943E-1,-1.2773377E-1,7.397861E-1,6.821873E-1,1.5106885E0,2.044446E0,2.8606615E0,-1.3398975E0,-9.3801343E-1,-3.372018E-1,5.1704705E-1,2.855083E-1,-3.021588E-1,9.086396E-1,-5.991778E-1,5.323819E-1,1.1175743E0,1.1039366E0,1.707463E0,1.6093575E0,2.3481948E0,2.4633353E0,2.9690232E0,-5.9830375E-2,-6.788539E-2,-5.1460095E-2,-3.2754276E-2,9.07101E-4,-2.5491938E-2,1.0900014E-3,3.88481E-2,1.7296499E-2,-8.182502E-3,-3.6707994E-2,1.364651E-3,2.1077717E-2,6.828971E-2,-5.4611057E-2,-1.3583513E-2,4.9867358E-2,1.647199E-2,4.2101335E-2,8.754673E-2,9.545658E-2,4.985146E-2,6.676828E-2,9.6871E-2,7.465106E-2,1.036221E-1,1.0413649E-1,1.2515938E-1,1.0705041E-1,1.2814987E-1,1.2443222E-1,1.5151402E-1],"categories":[],"categories_nodes":[],"categories_segments":[],"categories_sizes":[],"default_left":[1,0,0,1,0,0,0,0,0,0,0,0,0,0,0,0,0,0,0,0,1,0,0,0,0,0,0,0,0,0,0,0,0,0,0,0,0,0,0,0,0,0,0,0,0,0,0,0,0,0,0,0,0,0,0,0,0,0,0,0,0,0,0],"id":0,"left_children":[1,3,5,7,9,11,13,15,17,19,21,23,25,27,29,31,33,35,37,39,41,43,45,47,49,51,53,55,57,59,61,-1,-1,-1,-1,-1,-1,-1,-1,-1,-1,-1,-1,-1,-1,-1,-1,-1,-1,-1,-1,-1,-1,-1,-1,-1,-1,-1,-1,-1,-1,-1,-1],"loss_changes":[3.9519727E4,2.2694023E3,1.9511035E3,8.943838E2,2.3047992E2,1.7100586E2,5.146953E2,2.852041E2,8.625925E1,9.093724E1,9.20103E1,3.2876617E1,3.7392456E1,1.3630225E2,1.2176758E2,1.7138672E1,5.9713135E1,1.2653553E1,3.568033E1,1.0223352E1,1.26233E2,7.95087E1,7.116148E0,3.587983E1,2.1294022E1,1.2112946E1,2.555597E1,2.0553345E1,2.0379639E1,1.5338623E1,6.1632812E1,0E0,0E0,0E0,0E0,0E0,0E0,0E0,0E0,0E0,0E0,0E0,0E0,0E0,0E0,0E0,0E0,0E0,0E0,0E0,0E0,0E0,0E0,0E0,0E0,0E0,0E0,0E0,0E0,0E0,0E0,0E0,0E0],"parents":[2147483647,0,0,1,1,2,2,3,3,4,4,5,5,6,6,7,7,8,8,9,9,10,10,11,11,12,12,13,13,14,14,15,15,16,16,17,17,18,18,19,19,20,20,21,21,22,22,23,23,24,24,25,25,26,26,27,27,28,28,29,29,30,30],"right_children":[2,4,6,8,10,12,14,16,18,20,22,24,26,28,30,32,34,36,38,40,42,44,46,48,50,52,54,56,58,60,62,-1,-1,-1,-1,-1,-1,-1,-1,-1,-1,-1,-1,-1,-1,-1,-1,-1,-1,-1,-1,-1,-1,-1,-1,-1,-1,-1,-1,-1,-1,-1,-1],"split_conditions":[4.4E1,9E0,7.3E1,5.9E1,2E0,6.8E1,7.7E1,1E0,3E0,2E0,1E0,6.7E1,6.1E1,3E0,8.1E1,8E1,2E0,1.1E1,8.5E1,4E0,1.6E1,2.1E1,7.5E1,1E0,8.4E1,1E0,6E1,8.5E1,7.5E1,8.9E1,8.8E1,-5.9830375E-2,-6.788539E-2,-5.1460095E-2,-3.2754276E-2,9.07101E-4,-2.5491938E-2,1.0900014E-3,3.88481E-2,1.7296499E-2,-8.182502E-3,-3.6707994E-2,1.364651E-3,2.1077717E-2,6.828971E-2,-5.4611057E-2,-1.3583513E-2,4.9867358E-2,1.647199E-2,4.2101335E-2,8.754673E-2,9.545658E-2,4.985146E-2,6.676828E-2,9.6871E-2,7.465106E-2,1.036221E-1,1.0413649E-1,1.2515938E-1,1.0705041E-1,1.2814987E-1,1.2443222E-1,1.5151402E-1],"split_indices":[4,4,4,5,10,5,5,9,10,1,3,4,8,10,6,11,10,11,5,2,4,4,7,3,8,3,4,8,6,4,4,0,0,0,0,0,0,0,0,0,0,0,0,0,0,0,0,0,0,0,0,0,0,0,0,0,0,0,0,0,0,0,0],"split_type":[0,0,0,0,0,0,0,0,0,0,0,0,0,0,0,0,0,0,0,0,0,0,0,0,0,0,0,0,0,0,0,0,0,0,0,0,0,0,0,0,0,0,0,0,0,0,0,0,0,0,0,0,0,0,0,0,0,0,0,0,0,0,0],"sum_hessian":[1.6893375E4,1.1835457E4,5.0579185E3,1.0172477E4,1.6629799E3,1.00191455E3,4.0560042E3,9.69104E3,4.8143683E2,1.2594226E3,4.0355734E2,5.121841E2,4.897305E2,1.0589587E3,2.9970454E3,7.351419E3,2.339621E3,2.0511636E2,2.7632047E2,3.7361926E2,8.858033E2,3.586502E2,4.490713E1,3.8272205E2,1.29462E2,1.618275E2,3.2790298E2,4.3794568E2,6.2101306E2,6.4731E2,2.3497354E3,8.202632E2,6.531156E3,1.7673586E3,5.722625E2,6.73607E1,1.3775566E2,9.5478226E1,1.8084224E2,3.2952127E2,4.4097996E1,3.8272205E2,5.0308127E2,1.7457143E2,1.8407878E2,1.6991888E1,2.7915245E1,1.15099815E2,2.6762222E2,9.183711E1,3.7624893E1,1.6991888E1,1.4483562E2,1.2784373E2,2.0005925E2,3.533908E2,8.455487E1,2.3424532E2,3.8676773E2,1.5818639E2,4.8912363E2,2.7045422E2,2.0792812E3],"tree_param":{"num_deleted":"0","num_feature":"14","num_nodes":"63","size_leaf_vector":"1"}},{"base_weights":[-1.4259899E-3,-9.8777306E-1,2.0850117E0,-1.1488743E0,3.9065164E-2,9.7303855E-1,2.379883E0,-1.2439325E0,-2.4105093E-1,-1.5284052E-1,6.802173E-1,6.0297126E-1,1.327866E0,1.8500541E0,2.557278E0,-9.811643E-1,-1.3156363E0,-6.1597586E-1,4.2265588E-1,2.6952818E-1,-3.4633526E-1,7.7916E-1,-6.282325E-1,3.4779432E-1,8.1730705E-1,9.916765E-1,1.5159371E0,1.5766709E0,2.1519377E0,2.1414385E0,2.6350613E0,-5.1641654E-2,-3.233061E-2,-5.8853477E-2,-6.654641E-2,-3.698013E-2,-1.933572E-2,4.2910326E-2,1.3998158E-2,1.6308714E-2,-7.810518E-3,-3.730068E-2,-3.1493695E-3,2.1907074E-2,6.448602E-2,-4.9832378E-2,2.4204839E-3,9.874812E-3,3.1073743E-2,6.2057402E-2,3.1603593E-2,8.4183946E-2,3.363153E-2,6.2160533E-2,9.5046245E-2,7.2179995E-2,9.583669E-2,9.8719336E-2,1.1644582E-1,7.208654E-2,1.0946089E-1,1.09551385E-1,1.3426034E-1],"categories":[],"categories_nodes":[],"categories_segments":[],"categories_sizes":[],"default_left":[1,0,0,0,0,0,0,0,0,0,0,0,0,0,0,1,0,0,0,0,1,0,1,0,0,0,0,0,1,0,0,0,0,0,0,0,0,0,0,0,0,0,0,0,0,0,0,0,0,0,0,0,0,0,0,0,0,0,0,0,0,0,0],"id":1,"left_children":[1,3,5,7,9,11,13,15,17,19,21,23,25,27,29,31,33,35,37,39,41,43,45,47,49,51,53,55,57,59,61,-1,-1,-1,-1,-1,-1,-1,-1,-1,-1,-1,-1,-1,-1,-1,-1,-1,-1,-1,-1,-1,-1,-1,-1,-1,-1,-1,-1,-1,-1,-1,-1],"loss_changes":[3.474122E4,1.8962441E3,1.7744668E3,8.547334E2,1.9148842E2,1.4856067E2,3.9776562E2,1.6769531E2,2.3426598E2,9.799739E1,4.690184E1,3.0268143E1,3.515985E1,8.555591E1,9.804492E1,3.2635742E1,1.3356445E1,1.6757431E1,2.0893986E1,9.141407E0,9.30443E1,5.7543594E1,6.46912E0,1.0438339E1,2.2993149E1,4.543199E1,3.6480347E1,2.299646E1,1.1409912E1,1.3909668E1,5.415039E1,0E0,0E0,0E0,0E0,0E0,0E0,0E0,0E0,0E0,0E0,0E0,0E0,0E0,0E0,0E0,0E0,0E0,0E0,0E0,0E0,0E0,0E0,0E0,0E0,0E0,0E0,0E0,0E0,0E0,0E0,0E0,0E0],"parents":[2147483647,0,0,1,1,2,2,3,3,4,4,5,5,6,6,7,7,8,8,9,9,10,10,11,11,12,12,13,13,14,14,15,15,16,16,17,17,18,18,19,19,20,20,21,21,22,22,23,23,24,24,25,25,26,26,27,27,28,28,29,29,30,30],"right_children":[2,4,6,8,10,12,14,16,18,20,22,24,26,28,30,32,34,36,38,40,42,44,46,48,50,52,54,56,58,60,62,-1,-1,-1,-1,-1,-1,-1,-1,-1,-1,-1,-1,-1,-1,-1,-1,-1,-1,-1,-1,-1,-1,-1,-1,-1,-1,-1,-1,-1,-1,-1,-1],"split_conditions":[3.2E1,9E0,7.3E1,2E0,2E0,6.5E1,6.9E1,4.8E1,6.5E1,2E0,1E0,2.1E1,5.8E1,7.5E1,8.9E1,2.1E1,8E1,7.8E1,1E1,4E0,1.5E1,6.9E1,9E1,6.2E1,1E0,1E0,5E0,8.1E1,6.3E1,1.7E1,6.9E1,-5.1641654E-2,-3.233061E-2,-5.8853477E-2,-6.654641E-2,-3.698013E-2,-1.933572E-2,4.2910326E-2,1.3998158E-2,1.6308714E-2,-7.810518E-3,-3.730068E-2,-3.1493695E-3,2.1907074E-2,6.448602E-2,-4.9832378E-2,2.4204839E-3,9.874812E-3,3.1073743E-2,6.2057402E-2,3.1603593E-2,8.4183946E-2,3.363153E-2,6.2160533E-2,9.5046245E-2,7.2179995E-2,9.583669E-2,9.8719336E-2,1.1644582E-1,7.208654E-2,1.0946089E-1,1.09551385E-1,1.3426034E-1],"split_indices":[4,4,4,10,10,5,6,11,5,1,3,8,4,5,4,5,11,6,11,2,4,5,8,4,3,3,10,8,8,5,5,0,0,0,0,0,0,0,0,0,0,0,0,0,0,0,0,0,0,0,0,0,0,0,0,0,0,0,0,0,0,0,0],"split_type":[0,0,0,0,0,0,0,0,0,0,0,0,0,0,0,0,0,0,0,0,0,0,0,0,0,0,0,0,0,0,0,0,0,0,0,0,0,0,0,0,0,0,0,0,0,0,0,0,0,0,0,0,0,0,0,0,0,0,0,0,0,0,0],"sum_hessian":[1.6879455E4,1.14616E4,5.417855E3,9.907144E3,1.5544559E3,1.1364712E3,4.281384E3,8.967759E3,9.3938495E2,1.196953E3,3.5750296E2,5.576105E2,5.7886066E2,1.0767773E3,3.2046062E3,1.9256454E3,7.0421133E3,6.0033203E2,3.3905292E2,3.7594058E2,8.2101245E2,3.3274582E2,2.4757145E1,2.5575027E2,3.018602E2,2.0990854E2,3.6895212E2,5.683274E2,5.0844995E2,5.0946692E2,2.6951394E3,1.6662239E3,2.594216E2,7.076613E2,6.334452E3,3.8857263E2,2.117594E2,8.2430466E1,2.5662244E2,3.3200055E2,4.394004E1,3.3991293E2,4.810995E2,2.0061032E2,1.321355E2,1.5723275E1,9.03387E0,1.6619952E2,8.955075E1,9.006957E1,2.1179063E2,6.488893E1,1.450196E2,2.184387E2,1.5051343E2,4.1225256E2,1.5607483E2,2.5988278E2,2.4856718E2,3.4557762E1,4.7490915E2,2.7801584E2,2.4171235E3],"tree_param":{"num_deleted":"0","num_feature":"14","num_nodes":"63","size_leaf_vector":"1"}},{"base_weights":[-2.533646E-3,-9.87022E-1,1.8604338E0,-1.1802475E0,-2.3122337E-1,8.505599E-1,2.165478E0,-1.2919893E0,-8.28098E-1,-4.507452E-1,3.6565652E-1,5.1221395E-1,1.2183385E0,1.7030711E0,2.3242428E0,-1.1425161E0,-1.31157E0,-9.2430013E-1,-2.6892072E-1,-8.511992E-1,-5.457756E-2,-6.385068E-2,6.695374E-1,2.7248254E-1,7.164451E-1,9.84908E-1,1.4566474E0,1.3532951E0,1.9421118E0,2.022997E0,2.4052436E0,-5.0651062E-2,-6.2681936E-2,-6.561788E-2,-4.338279E-2,-4.9153816E-2,-2.5165264E-2,-1.7720183E-2,3.61556E-2,-3.260004E-2,-5.7950187E-2,1.2727982E-2,-1.5825946E-2,1.4007285E-2,-1.8472975E-2,2.5312418E-2,6.9507815E-2,7.5155534E-3,2.9150093E-2,1.883089E-2,4.6307623E-2,4.5724627E-2,7.902232E-2,5.8069028E-2,8.548387E-2,3.2260817E-2,7.023232E-2,8.526413E-2,1.0287886E-1,8.821335E-2,1.0512228E-1,1.0250969E-1,1.224874E-1],"categories":[],"categories_nodes":[],"categories_segments":[],"categories_sizes":[],"default_left":[1,0,0,0,1,0,0,0,0,0,1,0,1,0,0,0,0,1,1,0,0,0,0,0,0,0,0,0,0,0,0,0,0,0,0,0,0,0,0,0,0,0,0,0,0,0,0,0,0,0,0,0,0,0,0,0,0,0,0,0,0,0,0],"id":2,"left_children":[1,3,5,7,9,11,13,15,17,19,21,23,25,27,29,31,33,35,37,39,41,43,45,47,49,51,53,55,57,59,61,-1,-1,-1,-1,-1,-1,-1,-1,-1,-1,-1,-1,-1,-1,-1,-1,-1,-1,-1,-1,-1,-1,-1,-1,-1,-1,-1,-1,-1,-1,-1,-1],"loss_changes":[3.0852635E4,1.6070215E3,1.7898379E3,3.4382324E2,2.939417E2,1.6747723E2,3.2391797E2,1.7969727E1,1.1347424E2,2.6008112E2,7.8801384E1,3.4338196E1,3.4533264E1,9.312671E1,7.619531E1,9.928101E0,9.1503906E-1,4.4127197E1,2.6691317E1,4.923694E1,6.691083E1,2.6484821E1,4.0890213E1,1.2282705E1,2.6749573E1,1.2381409E1,2.176178E1,1.6118958E1,1.5031982E1,1.0890137E1,3.626172E1,0E0,0E0,0E0,0E0,0E0,0E0,0E0,0E0,0E0,0E0,0E0,0E0,0E0,0E0,0E0,0E0,0E0,0E0,0E0,0E0,0E0,0E0,0E0,0E0,0E0,0E0,0E0,0E0,0E0,0E0,0E0,0E0],"parents":[2147483647,0,0,1,1,2,2,3,3,4,4,5,5,6,6,7,7,8,8,9,9,10,10,11,11,12,12,13,13,14,14,15,15,16,16,17,17,18,18,19,19,20,20,21,21,22,22,23,23,24,24,25,25,26,26,27,27,28,28,29,29,30,30],"right_children":[2,4,6,8,10,12,14,16,18,20,22,24,26,28,30,32,34,36,38,40,42,44,46,48,50,52,54,56,58,60,62,-1,-1,-1,-1,-1,-1,-1,-1,-1,-1,-1,-1,-1,-1,-1,-1,-1,-1,-1,-1,-1,-1,-1,-1,-1,-1,-1,-1,-1,-1,-1,-1],"split_conditions":[2.7E1,1E1,7.3E1,1E0,6.5E1,6.5E1,7.7E1,8E1,1.1E1,9E0,2.7E1,2.1E1,6.5E1,3E0,8.1E1,3E0,4.5E1,6.5E1,8.5E1,1.8E2,2E0,1.1E1,1.6E1,6.2E1,2.3E1,7.1E1,6E1,3E0,9E1,8.9E1,8.8E1,-5.0651062E-2,-6.2681936E-2,-6.561788E-2,-4.338279E-2,-4.9153816E-2,-2.5165264E-2,-1.7720183E-2,3.61556E-2,-3.260004E-2,-5.7950187E-2,1.2727982E-2,-1.5825946E-2,1.4007285E-2,-1.8472975E-2,2.5312418E-2,6.9507815E-2,7.5155534E-3,2.9150093E-2,1.883089E-2,4.6307623E-2,4.5724627E-2,7.902232E-2,5.8069028E-2,8.548387E-2,3.2260817E-2,7.023232E-2,8.526413E-2,1.0287886E-1,8.821335E-2,1.0512228E-1,1.0250969E-1,1.224874E-1],"split_indices":[4,5,4,9,5,5,5,11,4,4,8,8,8,10,6,2,12,6,7,7,1,11,4,4,6,4,4,12,4,4,4,0,0,0,0,0,0,0,0,0,0,0,0,0,0,0,0,0,0,0,0,0,0,0,0,0,0,0,0,0,0,0,0],"split_type":[0,0,0,0,0,0,0,0,0,0,0,0,0,0,0,0,0,0,0,0,0,0,0,0,0,0,0,0,0,0,0,0,0,0,0,0,0,0,0,0,0,0,0,0,0,0,0,0,0,0,0,0,0,0,0,0,0,0,0,0,0,0,0],"sum_hessian":[1.6819953E4,1.1004877E4,5.8150757E3,8.763787E3,2.2410896E3,1.349902E3,4.4651733E3,6.650746E3,2.113041E3,1.6386632E3,6.0242645E2,7.0433057E2,6.455715E2,1.1442476E3,3.320926E3,7.7719604E2,5.87355E3,1.802314E3,3.107271E2,8.1435187E2,8.243114E2,2.4994394E2,3.5248248E2,3.250791E2,3.7925146E2,3.2871674E2,3.168547E2,4.6723193E2,6.770156E2,7.092323E2,2.6116936E3,3.6359818E2,4.1359787E2,5.861196E3,1.2354165E1,1.580343E3,2.2197092E2,2.8666785E2,2.405927E1,4.96291E2,3.1806088E2,3.781067E2,4.4620468E2,1.1762612E2,1.3231783E2,2.8875452E2,6.372797E1,2.343571E2,9.072199E1,1.4579271E2,2.3345874E2,2.9622693E2,3.2489807E1,1.488029E2,1.6805182E2,3.2510593E1,4.3472134E2,2.2706177E2,4.499539E2,1.7207263E2,5.3715967E2,2.9614664E2,2.3155469E3],"tree_param":{"num_deleted":"0","num_feature":"14","num_nodes":"63","size_leaf_vector":"1"}},{"base_weights":[-3.4075954E-3,-9.838084E-1,1.6804187E0,-1.1638827E0,-2.6661387E-1,7.063031E-1,1.9760092E0,-1.2688488E0,-8.2693774E-1,-4.5606986E-1,3.0250064E-1,3.5722342E-1,1.0381583E0,1.5470425E0,2.127474E0,-1.1219108E0,-1.2894354E0,-9.0369093E-1,-3.4060362E-1,2.4053611E-1,-6.746216E-1,-1.1808858E-1,5.940538E-1,2.1172075E-1,6.544418E-1,7.224358E-1,1.2310324E0,1.2957387E0,1.8123899E0,1.8334799E0,2.2026825E0,-4.977343E-2,-6.1503947E-2,-6.3389614E-2,-6.546966E-2,-4.9503606E-2,-3.0261919E-2,-2.1061009E-2,3.3110496E-2,1.467109E-2,-8.034198E-3,-4.4179387E-2,-1.0998114E-2,8.80359E-3,-1.7411863E-2,4.1104905E-2,1.9180775E-2,-5.17963E-3,1.6197328E-2,4.5040008E-2,1.8004255E-2,2.3165755E-2,4.9889054E-2,8.482997E-2,5.4324366E-2,4.345534E-2,6.8611614E-2,7.392731E-2,9.805195E-2,6.0443696E-2,9.339341E-2,9.372623E-2,1.1267481E-1],"categories":[],"categories_nodes":[],"categories_segments":[],"categories_sizes":[],"default_left":[1,0,0,0,1,0,0,0,0,0,1,1,1,0,0,0,0,0,1,0,1,0,0,0,0,0,0,0,0,0,0,0,0,0,0,0,0,0,0,0,0,0,0,0,0,0,0,0,0,0,0,0,0,0,0,0,0,0,0,0,0,0,0],"id":3,"left_children":[1,3,5,7,9,11,13,15,17,19,21,23,25,27,29,31,33,35,37,39,41,43,45,47,49,51,53,55,57,59,61,-1,-1,-1,-1,-1,-1,-1,-1,-1,-1,-1,-1,-1,-1,-1,-1,-1,-1,-1,-1,-1,-1,-1,-1,-1,-1,-1,-1,-1,-1,-1,-1],"loss_changes":[2.7609713E4,1.3648242E3,1.7707285E3,2.9775977E2,2.2900826E2,1.6578882E2,3.0345898E2,1.8033203E1,7.4707886E1,2.426755E2,6.515231E1,3.0157616E1,4.3855225E1,8.004907E1,7.305176E1,9.704712E0,7.783203E-1,4.413318E1,2.2554195E1,8.134642E0,1.15029175E2,1.4828367E1,1.4735138E1,1.6728495E1,1.633738E1,1.9591522E1,2.8756897E1,1.9632568E1,2.68031E1,1.3124756E1,4.1987305E1,0E0,0E0,0E0,0E0,0E0,0E0,0E0,0E0,0E0,0E0,0E0,0E0,0E0,0E0,0E0,0E0,0E0,0E0,0E0,0E0,0E0,0E0,0E0,0E0,0E0,0E0,0E0,0E0,0E0,0E0,0E0,0E0],"parents":[2147483647,0,0,1,1,2,2,3,3,4,4,5,5,6,6,7,7,8,8,9,9,10,10,11,11,12,12,13,13,14,14,15,15,16,16,17,17,18,18,19,19,20,20,21,21,22,22,23,23,24,24,25,25,26,26,27,27,28,28,29,29,30,30],"right_children":[2,4,6,8,10,12,14,16,18,20,22,24,26,28,30,32,34,36,38,40,42,44,46,48,50,52,54,56,58,60,62,-1,-1,-1,-1,-1,-1,-1,-1,-1,-1,-1,-1,-1,-1,-1,-1,-1,-1,-1,-1,-1,-1,-1,-1,-1,-1,-1,-1,-1,-1,-1,-1],"split_conditions":[2.3E1,1E1,7.1E1,1E0,6.8E1,5.3E1,7.7E1,8.4E1,1E1,2E0,2.8E1,3.2E1,3.6E1,7.2E1,6.6E1,3E0,3E0,2E0,8.5E1,4E0,2E0,1.1E1,2.2E1,2.9E1,1E0,5.8E1,1E0,7.7E1,6.3E1,7.6E1,8.8E1,-4.977343E-2,-6.1503947E-2,-6.3389614E-2,-6.546966E-2,-4.9503606E-2,-3.0261919E-2,-2.1061009E-2,3.3110496E-2,1.467109E-2,-8.034198E-3,-4.4179387E-2,-1.0998114E-2,8.80359E-3,-1.7411863E-2,4.1104905E-2,1.9180775E-2,-5.17963E-3,1.6197328E-2,4.5040008E-2,1.8004255E-2,2.3165755E-2,4.9889054E-2,8.482997E-2,5.4324366E-2,4.345534E-2,6.8611614E-2,7.392731E-2,9.805195E-2,6.0443696E-2,9.339341E-2,9.372623E-2,1.1267481E-1],"split_indices":[4,5,4,9,5,5,5,11,4,1,8,8,7,8,8,2,2,10,7,2,4,11,1,4,3,4,3,4,6,4,4,0,0,0,0,0,0,0,0,0,0,0,0,0,0,0,0,0,0,0,0,0,0,0,0,0,0,0,0,0,0,0,0],"split_type":[0,0,0,0,0,0,0,0,0,0,0,0,0,0,0,0,0,0,0,0,0,0,0,0,0,0,0,0,0,0,0,0,0,0,0,0,0,0,0,0,0,0,0,0,0,0,0,0,0,0,0,0,0,0,0,0,0,0,0,0,0,0,0],"sum_hessian":[1.6722797E4,1.0569289E4,6.1535083E3,8.447624E3,2.121665E3,1.4333402E3,4.7201685E3,6.4389717E3,2.0086521E3,1.5919199E3,5.2974524E2,6.995536E2,7.337866E2,1.2346635E3,3.485505E3,7.980885E2,5.6408833E3,1.7341161E3,2.7453607E2,3.8014743E2,1.2117725E3,2.1712282E2,3.1262244E2,4.7079108E2,2.2876253E2,2.8007202E2,4.5371457E2,6.3713354E2,5.975299E2,7.1518555E2,2.7703193E3,3.7266638E2,4.2542215E2,2.7371323E3,2.9037507E3,1.3430726E3,3.9104337E2,2.5464502E2,1.9891047E1,3.361124E2,4.403504E1,8.2955634E2,3.8221606E2,9.5410545E1,1.2171228E2,1.4864005E2,1.6398238E2,1.235993E2,3.471918E2,1.234131E2,1.0534943E2,1.456691E2,1.3440294E2,1.0494819E2,3.4876636E2,9.874708E1,5.383865E2,1.8746286E2,4.1006702E2,3.920705E1,6.759785E2,3.765338E2,2.3937856E3],"tree_param":{"num_deleted":"0","num_feature":"14","num_nodes":"63","size_leaf_vector":"1"}},{"base_weights":[-4.1143876E-3,-9.6563196E-1,1.5510466E0,-1.1433189E0,-2.6479283E-1,6.5147144E-1,1.8295988E0,-1.2472997E0,-8.11036E-1,-4.2874345E-1,3.5813522E-1,3.3942646E-1,9.5220417E-1,1.4553591E0,1.9788805E0,-1.0932701E0,-1.267678E0,-8.78748E-1,-3.6179325E-1,2.2735399E-1,-6.276226E-1,-4.916509E-2,6.037109E-1,2.0422904E-1,6.320809E-1,6.5914303E-1,1.1308386E0,1.2405449E0,1.6869732E0,1.6631427E0,2.036362E0,-4.8125558E-2,-6.0344707E-2,-6.342521E-2,-4.0551867E-2,-4.8251424E-2,-2.9186478E-2,-2.213519E-2,2.833266E-2,1.385314E-2,-7.6685436E-3,-5.0869334E-2,-1.9374521E-2,-1.0561368E-2,2.1142013E-2,4.076412E-2,1.9694593E-2,2.215857E-2,4.3321215E-3,4.185094E-2,1.8548684E-2,2.0630067E-2,4.6565667E-2,4.633538E-2,6.765904E-2,5.6358665E-2,7.4250475E-2,7.231282E-2,8.830663E-2,8.68161E-2,5.75638E-2,8.746564E-2,1.0422637E-1],"categories":[],"categories_nodes":[],"categories_segments":[],"categories_sizes":[],"default_left":[1,0,0,0,1,0,0,0,0,0,0,1,1,0,0,0,0,0,1,0,0,0,0,0,0,0,1,0,0,0,0,0,0,0,0,0,0,0,0,0,0,0,0,0,0,0,0,0,0,0,0,0,0,0,0,0,0,0,0,0,0,0,0],"id":4,"left_children":[1,3,5,7,9,11,13,15,17,19,21,23,25,27,29,31,33,35,37,39,41,43,45,47,49,51,53,55,57,59,61,-1,-1,-1,-1,-1,-1,-1,-1,-1,-1,-1,-1,-1,-1,-1,-1,-1,-1,-1,-1,-1,-1,-1,-1,-1,-1,-1,-1,-1,-1,-1,-1],"loss_changes":[2.4816605E4,1.2768154E3,1.5876621E3,2.816494E2,2.1212701E2,1.4050879E2,2.675713E2,1.8166016E1,5.9082764E1,2.1459879E2,4.333914E1,2.9073395E1,3.9233154E1,6.6775635E1,5.9371094E1,9.760132E0,1.0449219E0,4.2614136E1,1.9592674E1,7.2917557E0,1.1767557E2,1.2618561E1,1.1673561E1,1.4187452E1,1.214389E1,1.9182663E1,2.0216797E1,1.833435E1,1.0084351E1,1.815393E1,3.673633E1,0E0,0E0,0E0,0E0,0E0,0E0,0E0,0E0,0E0,0E0,0E0,0E0,0E0,0E0,0E0,0E0,0E0,0E0,0E0,0E0,0E0,0E0,0E0,0E0,0E0,0E0,0E0,0E0,0E0,0E0,0E0,0E0],"parents":[2147483647,0,0,1,1,2,2,3,3,4,4,5,5,6,6,7,7,8,8,9,9,10,10,11,11,12,12,13,13,14,14,15,15,16,16,17,17,18,18,19,19,20,20,21,21,22,22,23,23,24,24,25,25,26,26,27,27,28,28,29,29,30,30],"right_children":[2,4,6,8,10,12,14,16,18,20,22,24,26,28,30,32,34,36,38,40,42,44,46,48,50,52,54,56,58,60,62,-1,-1,-1,-1,-1,-1,-1,-1,-1,-1,-1,-1,-1,-1,-1,-1,-1,-1,-1,-1,-1,-1,-1,-1,-1,-1,-1,-1,-1,-1,-1,-1],"split_conditions":[2.2E1,1E1,7.1E1,1E0,7.6E1,5.3E1,7.5E1,8E1,1E1,2E0,3E0,3.7E1,3.6E1,7.6E1,8.8E1,3E0,4.5E1,2E0,7.2E1,4E0,2E0,4E0,2.2E1,6E0,1E0,5.8E1,8.3E1,7.7E1,8.9E1,1.2E1,5.6E1,-4.8125558E-2,-6.0344707E-2,-6.342521E-2,-4.0551867E-2,-4.8251424E-2,-2.9186478E-2,-2.213519E-2,2.833266E-2,1.385314E-2,-7.6685436E-3,-5.0869334E-2,-1.9374521E-2,-1.0561368E-2,2.1142013E-2,4.076412E-2,1.9694593E-2,2.215857E-2,4.3321215E-3,4.185094E-2,1.8548684E-2,2.0630067E-2,4.6565667E-2,4.633538E-2,6.765904E-2,5.6358665E-2,7.4250475E-2,7.231282E-2,8.830663E-2,8.68161E-2,5.75638E-2,8.746564E-2,1.0422637E-1],"split_indices":[4,5,4,9,5,5,6,11,4,1,10,8,7,5,4,2,12,10,6,2,9,4,1,13,3,4,8,8,4,11,8,0,0,0,0,0,0,0,0,0,0,0,0,0,0,0,0,0,0,0,0,0,0,0,0,0,0,0,0,0,0,0,0],"split_type":[0,0,0,0,0,0,0,0,0,0,0,0,0,0,0,0,0,0,0,0,0,0,0,0,0,0,0,0,0,0,0,0,0,0,0,0,0,0,0,0,0,0,0,0,0,0,0,0,0,0,0,0,0,0,0,0,0,0,0,0,0,0,0],"sum_hessian":[1.6594242E4,1.0254511E4,6.3397314E3,8.1799736E3,2.074537E3,1.4997328E3,4.8399985E3,6.2282295E3,1.9517441E3,1.6425424E3,4.3199475E2,7.3706805E2,7.6266473E2,1.3831862E3,3.4568123E3,7.3411224E2,5.494117E3,1.6952692E3,2.56475E2,3.8204434E2,1.260498E3,1.6279327E2,2.6920148E2,5.053224E2,2.3174565E2,2.906027E2,4.7206207E2,7.209168E2,6.622694E2,5.370124E2,2.9197998E3,3.4572366E2,3.8838858E2,5.4824194E3,1.1697697E1,1.3099058E3,3.8536343E2,2.3639708E2,2.0077927E1,3.381646E2,4.3879715E1,4.7929935E2,7.811987E2,1.2159598E2,4.1197292E1,1.3260419E2,1.365973E2,1.6574687E2,3.3957553E2,1.2860245E2,1.03143196E2,1.5380055E2,1.3680214E2,2.4880418E2,2.2325789E2,4.9634515E2,2.2457166E2,1.686596E2,4.9360977E2,4.677483E2,6.9264084E1,4.2489456E2,2.4949053E3],"tree_param":{"num_deleted":"0","num_feature":"14","num_nodes":"63","size_leaf_vector":"1"}},{"base_weights":[-4.679347E-3,-9.424294E-1,1.4478703E0,-1.121257E0,-2.536041E-1,6.1199147E-1,1.7046689E0,-1.2271676E0,-7.872537E-1,-4.4213298E-1,2.4867702E-1,3.567593E-1,9.328812E-1,1.2806605E0,1.819995E0,-1.0750419E0,-1.2487048E0,-8.5459954E-1,-3.4674978E-1,2.1497145E-1,-6.6857356E-1,-1.1234693E-1,5.102863E-1,2.4750072E-1,7.2508895E-1,7.1176386E-1,1.1305709E0,1.0409989E0,1.4984432E0,1.5609845E0,1.8984526E0,-4.7343537E-2,-5.930805E-2,-6.1293423E-2,-6.348979E-2,-4.5737E-2,-2.1772316E-2,-2.1256898E-2,2.6666373E-2,1.3086431E-2,-7.3185647E-3,-2.1857118E-2,-5.0896842E-2,1.1161898E-2,-1.51522225E-2,2.1268403E-2,6.0403228E-2,8.252236E-3,2.8289968E-2,2.249196E-2,4.5938674E-2,-2.5878374E-2,3.6858335E-2,7.803874E-2,4.989662E-2,4.198365E-2,5.788194E-2,6.434288E-2,8.196588E-2,6.627987E-2,8.22955E-2,8.191622E-2,9.682609E-2],"categories":[],"categories_nodes":[],"categories_segments":[],"categories_sizes":[],"default_left":[1,0,0,0,1,0,0,0,0,0,1,0,1,0,0,0,0,1,1,0,0,0,0,0,1,0,0,0,1,0,0,0,0,0,0,0,0,0,0,0,0,0,0,0,0,0,0,0,0,0,0,0,0,0,0,0,0,0,0,0,0,0,0],"id":5,"left_children":[1,3,5,7,9,11,13,15,17,19,21,23,25,27,29,31,33,35,37,39,41,43,45,47,49,51,53,55,57,59,61,-1,-1,-1,-1,-1,-1,-1,-1,-1,-1,-1,-1,-1,-1,-1,-1,-1,-1,-1,-1,-1,-1,-1,-1,-1,-1,-1,-1,-1,-1,-1,-1],"loss_changes":[2.239546E4,1.2304473E3,1.3835205E3,2.7961523E2,1.9523178E2,1.23951294E2,2.3892676E2,1.8382812E1,5.6436646E1,2.2312195E2,5.3229397E1,3.389975E1,2.8555054E1,5.3680664E1,7.581055E1,9.612915E0,9.8046875E-1,4.139917E1,1.7838097E1,6.5399323E0,8.968585E1,1.5257897E1,1.8839508E1,1.7087502E1,9.887169E0,1.0366531E1,1.85802E1,1.0937134E1,1.4350342E1,1.5946533E1,2.6243164E1,0E0,0E0,0E0,0E0,0E0,0E0,0E0,0E0,0E0,0E0,0E0,0E0,0E0,0E0,0E0,0E0,0E0,0E0,0E0,0E0,0E0,0E0,0E0,0E0,0E0,0E0,0E0,0E0,0E0,0E0,0E0,0E0],"parents":[2147483647,0,0,1,1,2,2,3,3,4,4,5,5,6,6,7,7,8,8,9,9,10,10,11,11,12,12,13,13,14,14,15,15,16,16,17,17,18,18,19,19,20,20,21,21,22,22,23,23,24,24,25,25,26,26,27,27,28,28,29,29,30,30],"right_children":[2,4,6,8,10,12,14,16,18,20,22,24,26,28,30,32,34,36,38,40,42,44,46,48,50,52,54,56,58,60,62,-1,-1,-1,-1,-1,-1,-1,-1,-1,-1,-1,-1,-1,-1,-1,-1,-1,-1,-1,-1,-1,-1,-1,-1,-1,-1,-1,-1,-1,-1,-1,-1],"split_conditions":[2.2E1,1E1,7.1E1,1E0,6.5E1,6.5E1,6.9E1,8.4E1,1E1,2E0,3E1,6.9E1,5.9E1,6.1E1,8.1E1,3E0,3E0,6.5E1,7.2E1,4E0,1.8E2,9E0,1.6E1,6.2E1,4.1E1,2.3E1,1E0,8.8E1,6.3E1,8.7E1,8.8E1,-4.7343537E-2,-5.930805E-2,-6.1293423E-2,-6.348979E-2,-4.5737E-2,-2.1772316E-2,-2.1256898E-2,2.6666373E-2,1.3086431E-2,-7.3185647E-3,-2.1857118E-2,-5.0896842E-2,1.1161898E-2,-1.51522225E-2,2.1268403E-2,6.0403228E-2,8.252236E-3,2.8289968E-2,2.249196E-2,4.5938674E-2,-2.5878374E-2,3.6858335E-2,7.803874E-2,4.989662E-2,4.198365E-2,5.788194E-2,6.434288E-2,8.196588E-2,6.627987E-2,8.22955E-2,8.191622E-2,9.682609E-2],"split_indices":[4,5,4,9,5,5,5,11,4,1,8,6,8,8,6,2,2,6,6,2,7,11,4,4,7,4,3,4,6,4,4,0,0,0,0,0,0,0,0,0,0,0,0,0,0,0,0,0,0,0,0,0,0,0,0,0,0,0,0,0,0,0,0],"split_type":[0,0,0,0,0,0,0,0,0,0,0,0,0,0,0,0,0,0,0,0,0,0,0,0,0,0,0,0,0,0,0,0,0,0,0,0,0,0,0,0,0,0,0,0,0,0,0,0,0,0,0,0,0,0,0,0,0,0,0,0,0,0,0],"sum_hessian":[1.6439518E4,9.990264E3,6.449254E3,7.9307236E3,2.0595405E3,1.5164849E3,4.932769E3,6.0193447E3,1.9113788E3,1.4975587E3,5.619819E2,8.4583154E2,6.7065326E2,1.0573641E3,3.8754048E3,7.528163E2,5.2665283E3,1.6570958E3,2.5428285E2,3.8381693E2,1.1137418E3,2.3636537E2,3.2561652E2,6.5361884E2,1.922127E2,3.1874036E2,3.519129E2,5.061479E2,5.512162E2,9.058469E2,2.9695579E3,3.5400607E2,3.988102E2,2.557017E3,2.7095112E3,1.448134E3,2.0896178E2,2.3396097E2,2.0321888E1,3.4008603E2,4.3730907E1,6.712993E2,4.4244247E2,8.558475E1,1.5078062E2,2.9172388E2,3.3892624E1,5.203417E2,1.3327719E2,8.076216E1,1.1145055E2,6.0608377E0,3.1267953E2,8.0393875E1,2.7151904E2,1.886785E2,3.174694E2,2.2436559E2,3.268506E2,2.4457364E2,6.6127325E2,3.8472736E2,2.5848306E3],"tree_param":{"num_deleted":"0","num_feature":"14","num_nodes":"63","size_leaf_vector":"1"}},{"base_weights":[-5.1389225E-3,-9.201201E-1,1.3573408E0,-1.1002307E0,-2.4290965E-1,5.756178E-1,1.5965374E0,-1.2083023E0,-7.6415217E-1,-3.9695427E-1,3.235846E-1,3.366989E-1,8.738278E-1,1.2457803E0,1.7203599E0,-1.0531137E0,-1.2304027E0,-8.3113825E-1,-3.3227473E-1,2.0333001E-1,-5.862956E-1,-4.6005312E-2,5.417319E-1,1.5616648E-1,5.474983E-1,6.510331E-1,1.0461023E0,1.0398098E0,1.467493E0,1.5223951E0,1.8012208E0,-4.619072E-2,-5.830254E-2,-6.035265E-2,-6.259986E-2,-4.5933675E-2,-2.6836334E-2,-2.0479161E-2,2.4546407E-2,1.2367032E-2,-6.9836522E-3,-4.082146E-2,-1.0104238E-2,1.1775526E-2,-1.4390038E-2,3.6839798E-2,1.7356785E-2,3.9252777E-2,5.5029313E-3,2.1432733E-2,4.708813E-2,1.9910527E-2,3.729097E-2,7.2365135E-2,4.627613E-2,3.8096786E-2,5.61421E-2,5.9040856E-2,7.819865E-2,6.797867E-2,8.0087684E-2,7.47767E-2,9.1964066E-2],"categories":[],"categories_nodes":[],"categories_segments":[],"categories_sizes":[],"default_left":[1,0,0,0,1,0,0,0,0,0,0,0,1,0,0,0,0,0,1,0,0,0,0,0,1,0,0,0,0,0,0,0,0,0,0,0,0,0,0,0,0,0,0,0,0,0,0,0,0,0,0,0,0,0,0,0,0,0,0,0,0,0,0],"id":6,"left_children":[1,3,5,7,9,11,13,15,17,19,21,23,25,27,29,31,33,35,37,39,41,43,45,47,49,51,53,55,57,59,61,-1,-1,-1,-1,-1,-1,-1,-1,-1,-1,-1,-1,-1,-1,-1,-1,-1,-1,-1,-1,-1,-1,-1,-1,-1,-1,-1,-1,-1,-1,-1,-1],"loss_changes":[2.027668E4,1.186585E3,1.2209502E3,2.7823438E2,1.7863084E2,1.08898926E2,2.1514453E2,1.8645508E1,5.3905884E1,1.8295609E2,3.532762E1,3.2357468E1,2.545996E1,5.8249146E1,5.640625E1,9.607788E0,1.0517578E0,4.127539E1,1.6311794E1,5.86868E0,1.07987854E2,1.1193078E1,1.0198891E1,1.3270028E1,1.8005241E1,6.883583E0,1.7161499E1,1.4879822E1,1.5521484E1,1.1752197E1,2.7708008E1,0E0,0E0,0E0,0E0,0E0,0E0,0E0,0E0,0E0,0E0,0E0,0E0,0E0,0E0,0E0,0E0,0E0,0E0,0E0,0E0,0E0,0E0,0E0,0E0,0E0,0E0,0E0,0E0,0E0,0E0,0E0,0E0],"parents":[2147483647,0,0,1,1,2,2,3,3,4,4,5,5,6,6,7,7,8,8,9,9,10,10,11,11,12,12,13,13,14,14,15,15,16,16,17,17,18,18,19,19,20,20,21,21,22,22,23,23,24,24,25,25,26,26,27,27,28,28,29,29,30,30],"right_children":[2,4,6,8,10,12,14,16,18,20,22,24,26,28,30,32,34,36,38,40,42,44,46,48,50,52,54,56,58,60,62,-1,-1,-1,-1,-1,-1,-1,-1,-1,-1,-1,-1,-1,-1,-1,-1,-1,-1,-1,-1,-1,-1,-1,-1,-1,-1,-1,-1,-1,-1,-1,-1],"split_conditions":[2.2E1,1E1,7.1E1,1E0,7.6E1,6.5E1,7.7E1,8.4E1,1E1,2E0,3E0,3.1E1,6.1E1,7E1,8.8E1,3E0,3E0,2E0,7.9E1,4E0,4E0,1.2E1,2.2E1,3E0,7.5E1,7.7E1,1E0,8E1,6.3E1,6.7E1,8.8E1,-4.619072E-2,-5.830254E-2,-6.035265E-2,-6.259986E-2,-4.5933675E-2,-2.6836334E-2,-2.0479161E-2,2.4546407E-2,1.2367032E-2,-6.9836522E-3,-4.082146E-2,-1.0104238E-2,1.1775526E-2,-1.4390038E-2,3.6839798E-2,1.7356785E-2,3.9252777E-2,5.5029313E-3,2.1432733E-2,4.708813E-2,1.9910527E-2,3.729097E-2,7.2365135E-2,4.627613E-2,3.8096786E-2,5.61421E-2,5.9040856E-2,7.819865E-2,6.797867E-2,8.0087684E-2,7.47767E-2,9.1964066E-2],"split_indices":[4,5,4,9,5,5,5,11,4,1,10,8,7,7,7,2,2,10,7,2,9,11,1,13,6,5,3,4,6,6,4,0,0,0,0,0,0,0,0,0,0,0,0,0,0,0,0,0,0,0,0,0,0,0,0,0,0,0,0,0,0,0,0],"split_type":[0,0,0,0,0,0,0,0,0,0,0,0,0,0,0,0,0,0,0,0,0,0,0,0,0,0,0,0,0,0,0,0,0,0,0,0,0,0,0,0,0,0,0,0,0,0,0,0,0,0,0,0,0,0,0,0,0,0,0,0,0,0,0],"sum_hessian":[1.62630205E4,9.729466E3,6.5335547E3,7.6849536E3,2.044512E3,1.5315789E3,5.0019756E3,5.813071E3,1.8718827E3,1.6076493E3,4.3686267E2,8.5150336E2,6.8007556E2,1.3079514E3,3.6940242E3,7.3070886E2,5.0823623E3,1.619731E3,2.5215173E2,3.854744E2,1.2221749E3,1.6244089E2,2.7442178E2,4.596186E2,3.918848E2,2.9863873E2,3.814368E2,6.8099695E2,6.269545E2,1.0770355E3,2.6169888E3,3.4495593E2,3.8575293E2,2.4692751E3,2.613087E3,1.2468839E3,3.72847E2,2.3096394E2,2.1187792E1,3.41886E2,4.35884E1,7.6364435E2,4.5853058E2,7.506766E1,8.737323E1,1.3565465E2,1.3876714E2,3.0300999E1,4.293176E2,3.0272208E2,8.9162704E1,8.285139E1,2.1578734E2,8.560471E1,2.958321E2,1.5901524E2,5.219817E2,1.6120279E2,4.6575174E2,3.588686E2,7.181669E2,2.9422092E2,2.3227678E3],"tree_param":{"num_deleted":"0","num_feature":"14","num_nodes":"63","size_leaf_vector":"1"}},{"base_weights":[-5.5087972E-3,-9.144526E-1,1.2555232E0,-1.0877318E0,-2.565619E-1,5.1489216E-1,1.5016602E0,-1.1905695E0,-7.633327E-1,-4.080409E-1,2.929059E-1,2.7025273E-1,7.8690344E-1,1.2152559E0,1.6402212E0,-1.0269743E0,-1.2126029E0,-8.2470936E-1,-3.3424446E-1,1.9237722E-1,-6.119232E-1,-8.643635E-2,5.1510864E-1,1.9381359E-1,7.0372134E-1,5.941349E-1,9.676808E-1,1.0453107E0,1.4043925E0,1.3477541E0,1.6910971E0,-4.4636462E-2,-5.7314944E-2,-6.067556E-2,-3.6274206E-2,-3.2495182E-2,-4.6240978E-2,-2.2417154E-2,1.4905447E-2,1.16914315E-2,-6.6632167E-3,-4.2611867E-2,-1.4467214E-2,4.938535E-2,-7.8002014E-3,3.453715E-2,1.6903855E-2,5.6707445E-3,2.7358567E-2,4.967676E-2,1.8232435E-2,1.8925574E-2,3.555276E-2,3.991723E-2,5.9890296E-2,4.529589E-2,6.0854357E-2,6.38425E-2,7.542529E-2,2.912401E-2,7.096031E-2,7.290544E-2,8.648074E-2],"categories":[],"categories_nodes":[],"categories_segments":[],"categories_sizes":[],"default_left":[1,0,0,0,1,0,0,0,1,0,0,1,1,0,0,0,0,0,0,0,1,0,0,0,0,0,0,0,1,0,0,0,0,0,0,0,0,0,0,0,0,0,0,0,0,0,0,0,0,0,0,0,0,0,0,0,0,0,0,0,0,0,0],"id":7,"left_children":[1,3,5,7,9,11,13,15,17,19,21,23,25,27,29,31,33,35,37,39,41,43,45,47,49,51,53,55,57,59,61,-1,-1,-1,-1,-1,-1,-1,-1,-1,-1,-1,-1,-1,-1,-1,-1,-1,-1,-1,-1,-1,-1,-1,-1,-1,-1,-1,-1,-1,-1,-1,-1],"loss_changes":[1.8421023E4,1.0644072E3,1.226417E3,2.4569531E2,1.622874E2,1.1162845E2,1.9849805E2,1.897998E1,4.665747E1,1.8713403E2,3.5584587E1,2.923323E1,2.7139862E1,5.1603516E1,4.8341797E1,9.749817E0,1.3051758E0,2.6670776E1,1.6345337E1,5.26884E0,8.818106E1,1.1856347E1,8.038185E0,2.138409E1,1.2657883E1,9.499435E0,1.4975037E1,1.9815125E1,8.411865E0,2.7007263E1,2.3449219E1,0E0,0E0,0E0,0E0,0E0,0E0,0E0,0E0,0E0,0E0,0E0,0E0,0E0,0E0,0E0,0E0,0E0,0E0,0E0,0E0,0E0,0E0,0E0,0E0,0E0,0E0,0E0,0E0,0E0,0E0,0E0,0E0],"parents":[2147483647,0,0,1,1,2,2,3,3,4,4,5,5,6,6,7,7,8,8,9,9,10,10,11,11,12,12,13,13,14,14,15,15,16,16,17,17,18,18,19,19,20,20,21,21,22,22,23,23,24,24,25,25,26,26,27,27,28,28,29,29,30,30],"right_children":[2,4,6,8,10,12,14,16,18,20,22,24,26,28,30,32,34,36,38,40,42,44,46,48,50,52,54,56,58,60,62,-1,-1,-1,-1,-1,-1,-1,-1,-1,-1,-1,-1,-1,-1,-1,-1,-1,-1,-1,-1,-1,-1,-1,-1,-1,-1,-1,-1,-1,-1,-1,-1],"split_conditions":[1.9E1,1E1,7.1E1,1E0,7.6E1,6E1,8.1E1,8E1,6.5E1,2E0,3E0,7.7E1,5.9E1,7.9E1,5.9E1,3E0,4.5E1,3E0,3E0,4E0,7E0,4E0,2.2E1,6.2E1,1E0,7.7E1,6E1,3E0,6.3E1,2.3E1,8.9E1,-4.4636462E-2,-5.7314944E-2,-6.067556E-2,-3.6274206E-2,-3.2495182E-2,-4.6240978E-2,-2.2417154E-2,1.4905447E-2,1.16914315E-2,-6.6632167E-3,-4.2611867E-2,-1.4467214E-2,4.938535E-2,-7.8002014E-3,3.453715E-2,1.6903855E-2,5.6707445E-3,2.7358567E-2,4.967676E-2,1.8232435E-2,1.8925574E-2,3.555276E-2,3.991723E-2,5.9890296E-2,4.529589E-2,6.0854357E-2,6.38425E-2,7.542529E-2,2.912401E-2,7.096031E-2,7.290544E-2,8.648074E-2],"split_indices":[4,5,4,9,5,5,6,11,6,1,10,7,8,5,8,2,12,2,4,2,6,11,1,4,3,5,4,10,8,5,4,0,0,0,0,0,0,0,0,0,0,0,0,0,0,0,0,0,0,0,0,0,0,0,0,0,0,0,0,0,0,0,0],"split_type":[0,0,0,0,0,0,0,0,0,0,0,0,0,0,0,0,0,0,0,0,0,0,0,0,0,0,0,0,0,0,0,0,0,0,0,0,0,0,0,0,0,0,0,0,0,0,0,0,0,0,0,0,0,0,0,0,0,0,0,0,0,0,0],"sum_hessian":[1.6069283E4,9.338458E3,6.7308257E3,7.3910938E3,1.9473641E3,1.6796919E3,5.051134E3,5.61E3,1.7810935E3,1.5267283E3,4.2063586E2,8.8539E2,7.943019E2,1.6501201E3,3.4010137E3,6.715358E2,4.9384644E3,1.5574015E3,2.2369211E2,3.8702502E2,1.1397032E3,1.55603E2,2.6503287E2,7.538933E2,1.3149667E2,3.8647656E2,4.0782535E2,8.725944E2,7.775257E2,5.080289E2,2.8929849E3,3.20002E2,3.5153384E2,4.927783E3,1.0680978E1,5.698535E2,9.875479E2,1.8974626E2,3.3945854E1,3.4357303E2,4.3451984E1,6.5219244E2,4.8751077E2,8.661979E0,1.4694102E2,1.3158476E2,1.3344812E2,6.1523193E2,1.3866139E2,6.9857544E1,6.1639133E1,1.3737251E2,2.4910405E2,2.3751817E2,1.7030717E2,4.8516614E2,3.874283E2,3.5540533E2,4.2212033E2,4.416462E1,4.638643E2,4.1592944E2,2.4770554E3],"tree_param":{"num_deleted":"0","num_feature":"14","num_nodes":"63","size_leaf_vector":"1"}},{"base_weights":[-5.8102E-3,-8.936273E-1,1.1848509E0,-1.0685236E0,-2.4582899E-1,5.151991E-1,1.4287392E0,-1.1738498E0,-7.4121165E-1,-3.923214E-1,2.7704853E-1,2.6705688E-1,7.7601993E-1,1.1064205E0,1.5358719E0,-1.0115515E0,-1.1972605E0,-8.0224234E-1,-3.205207E-1,1.8206528E-1,-5.9134585E-1,-8.207132E-2,4.8506883E-1,1.5454523E-1,5.01233E-1,6.499987E-1,1.0280063E0,9.5366883E-1,1.2725605E0,1.2381403E0,1.5766761E0,-4.3975692E-2,-5.6438763E-2,-5.8617618E-2,-6.1017096E-2,-3.145271E-2,-4.510953E-2,-2.1559691E-2,1.4085445E-2,1.1056448E-2,-6.3567087E-3,-5.1129874E-2,-2.0703182E-2,4.6361145E-2,-7.439378E-3,3.650657E-2,1.8197931E-2,-3.2248627E-3,1.3852412E-2,1.6133389E-2,3.5951678E-2,2.5243392E-2,3.9265234E-2,3.650021E-2,6.270113E-2,3.53337E-2,5.2632242E-2,5.755244E-2,6.972873E-2,4.7547873E-2,7.017644E-2,6.673106E-2,8.070006E-2],"categories":[],"categories_nodes":[],"categories_segments":[],"categories_sizes":[],"default_left":[1,0,0,0,1,0,0,0,1,0,0,1,1,0,0,0,0,0,0,0,0,0,0,0,0,0,0,0,1,1,0,0,0,0,0,0,0,0,0,0,0,0,0,0,0,0,0,0,0,0,0,0,0,0,0,0,0,0,0,0,0,0,0],"id":8,"left_children":[1,3,5,7,9,11,13,15,17,19,21,23,25,27,29,31,33,35,37,39,41,43,45,47,49,51,53,55,57,59,61,-1,-1,-1,-1,-1,-1,-1,-1,-1,-1,-1,-1,-1,-1,-1,-1,-1,-1,-1,-1,-1,-1,-1,-1,-1,-1,-1,-1,-1,-1,-1,-1],"loss_changes":[1.6769273E4,1.0293306E3,1.1059404E3,2.4580518E2,1.4818799E2,1.1697516E2,1.697998E2,1.9351074E1,4.4537598E1,1.7278787E2,3.1689857E1,2.440915E1,2.7347168E1,3.0320068E1,4.3301758E1,9.666016E0,1.2851562E0,2.5794983E1,1.4964809E1,4.732395E0,8.536194E1,1.065946E1,7.7008133E0,1.6901535E1,1.1480797E1,1.1205536E1,1.8778412E1,1.5179382E1,7.1746826E0,2.0211487E1,2.7410645E1,0E0,0E0,0E0,0E0,0E0,0E0,0E0,0E0,0E0,0E0,0E0,0E0,0E0,0E0,0E0,0E0,0E0,0E0,0E0,0E0,0E0,0E0,0E0,0E0,0E0,0E0,0E0,0E0,0E0,0E0,0E0,0E0],"parents":[2147483647,0,0,1,1,2,2,3,3,4,4,5,5,6,6,7,7,8,8,9,9,10,10,11,11,12,12,13,13,14,14,15,15,16,16,17,17,18,18,19,19,20,20,21,21,22,22,23,23,24,24,25,25,26,26,27,27,28,28,29,29,30,30],"right_children":[2,4,6,8,10,12,14,16,18,20,22,24,26,28,30,32,34,36,38,40,42,44,46,48,50,52,54,56,58,60,62,-1,-1,-1,-1,-1,-1,-1,-1,-1,-1,-1,-1,-1,-1,-1,-1,-1,-1,-1,-1,-1,-1,-1,-1,-1,-1,-1,-1,-1,-1,-1,-1],"split_conditions":[1.9E1,1E1,7.3E1,1E0,7.6E1,6E1,6.9E1,8.4E1,6.5E1,2E0,3E0,3.7E1,8.3E1,7.5E1,6.9E1,3E0,3E0,3E0,3E0,4E0,1E0,4E0,1E1,2.9E1,5.4E1,5.8E1,5.5E1,5E0,6.3E1,6.9E1,8.8E1,-4.3975692E-2,-5.6438763E-2,-5.8617618E-2,-6.1017096E-2,-3.145271E-2,-4.510953E-2,-2.1559691E-2,1.4085445E-2,1.1056448E-2,-6.3567087E-3,-5.1129874E-2,-2.0703182E-2,4.6361145E-2,-7.439378E-3,3.650657E-2,1.8197931E-2,-3.2248627E-3,1.3852412E-2,1.6133389E-2,3.5951678E-2,2.5243392E-2,3.9265234E-2,3.650021E-2,6.270113E-2,3.53337E-2,5.2632242E-2,5.755244E-2,6.972873E-2,4.7547873E-2,7.017644E-2,6.673106E-2,8.070006E-2],"split_indices":[4,5,4,9,5,5,6,11,6,1,10,8,8,5,5,2,2,2,4,2,9,11,11,4,6,4,4,12,8,7,4,0,0,0,0,0,0,0,0,0,0,0,0,0,0,0,0,0,0,0,0,0,0,0,0,0,0,0,0,0,0,0,0],"split_type":[0,0,0,0,0,0,0,0,0,0,0,0,0,0,0,0,0,0,0,0,0,0,0,0,0,0,0,0,0,0,0,0,0,0,0,0,0,0,0,0,0,0,0,0,0,0,0,0,0,0,0,0,0,0,0,0,0,0,0,0,0,0,0],"sum_hessian":[1.5861629E4,9.086514E3,6.7751147E3,7.1543037E3,1.9322104E3,1.8095869E3,4.965528E3,5.4106265E3,1.7436774E3,1.5095388E3,4.2267154E2,9.283697E2,8.812172E2,1.2415474E3,3.7239805E3,6.876429E2,4.7229834E3,1.5219738E3,2.2170361E2,3.8847656E2,1.1210624E3,1.55253E2,2.6741855E2,6.282042E2,3.0016547E2,5.8982074E2,2.9139648E2,6.503478E2,5.911996E2,4.526346E2,3.271346E3,3.2738663E2,3.6025623E2,2.2965127E3,2.4264707E3,5.596017E2,9.62372E2,1.875256E2,3.417801E1,3.4515512E2,4.332144E1,3.2520642E2,7.958559E2,8.826486E0,1.4642651E2,8.678443E1,1.8063411E2,2.2548946E2,4.0271475E2,1.6630264E2,1.3386282E2,2.8686108E2,3.0295963E2,1.27507645E2,1.6388885E2,1.8838138E2,4.6196637E2,3.014373E2,2.8976233E2,1.6787819E2,2.8475644E2,4.4196228E2,2.8293835E3],"tree_param":{"num_deleted":"0","num_feature":"14","num_nodes":"63","size_leaf_vector":"1"}},{"base_weights":[-6.0578305E-3,-8.7343305E-1,1.1209966E0,-1.0500487E0,-2.3553388E-1,4.8613775E-1,1.3530633E0,-1.1580408E0,-7.196586E-1,-3.864995E-1,2.4030884E-1,2.7167878E-1,7.541629E-1,1.0436686E0,1.4564519E0,-9.866058E-1,-1.1814537E0,-7.8034055E-1,-3.0729458E-1,1.723505E-1,-5.908713E-1,-4.303659E-2,5.239242E-1,2.0314667E-1,6.980215E-1,5.9234554E-1,9.233916E-1,8.979945E-1,1.202713E0,1.209429E0,1.5029311E0,-4.247004E-2,-5.5536207E-2,-5.912113E-2,-3.375548E-2,-4.2644683E-2,-2.6873438E-2,3.014942E-2,-1.8807285E-2,1.0459195E-2,-6.063583E-3,-2.0324033E-2,-4.923707E-2,3.186558E-2,-8.177022E-3,3.7909977E-2,1.6049635E-2,5.63273E-3,2.3922456E-2,4.8597097E-2,1.9717896E-2,2.2231746E-2,3.652784E-2,3.6981303E-2,5.5930275E-2,1.8873608E-2,4.696576E-2,5.410674E-2,6.5686025E-2,6.317789E-2,3.995703E-2,6.590776E-2,7.7821895E-2],"categories":[],"categories_nodes":[],"categories_segments":[],"categories_sizes":[],"default_left":[1,0,0,0,0,0,0,0,1,0,0,1,1,0,0,0,0,0,0,0,0,0,0,0,0,0,0,0,1,0,0,0,0,0,0,0,0,0,0,0,0,0,0,0,0,0,0,0,0,0,0,0,0,0,0,0,0,0,0,0,0,0,0],"id":9,"left_children":[1,3,5,7,9,11,13,15,17,19,21,23,25,27,29,31,33,35,37,39,41,43,45,47,49,51,53,55,57,59,61,-1,-1,-1,-1,-1,-1,-1,-1,-1,-1,-1,-1,-1,-1,-1,-1,-1,-1,-1,-1,-1,-1,-1,-1,-1,-1,-1,-1,-1,-1,-1,-1],"loss_changes":[1.5294105E4,9.957988E2,1.0017637E3,2.4619775E2,1.378969E2,1.04576355E2,1.5784473E2,1.9771973E1,4.2505188E1,1.6647354E2,3.7200783E1,2.9491417E1,2.1625916E1,2.7912231E1,4.1027344E1,9.833984E0,1.4506836E0,2.5769592E1,1.4063911E1,4.2522974E0,7.708005E1,1.9153673E1,1.0752373E1,2.1748821E1,1.1265228E1,8.182266E0,1.3306702E1,1.3778198E1,6.5463867E0,1.2228027E1,2.8959473E1,0E0,0E0,0E0,0E0,0E0,0E0,0E0,0E0,0E0,0E0,0E0,0E0,0E0,0E0,0E0,0E0,0E0,0E0,0E0,0E0,0E0,0E0,0E0,0E0,0E0,0E0,0E0,0E0,0E0,0E0,0E0,0E0],"parents":[2147483647,0,0,1,1,2,2,3,3,4,4,5,5,6,6,7,7,8,8,9,9,10,10,11,11,12,12,13,13,14,14,15,15,16,16,17,17,18,18,19,19,20,20,21,21,22,22,23,23,24,24,25,25,26,26,27,27,28,28,29,29,30,30],"right_children":[2,4,6,8,10,12,14,16,18,20,22,24,26,28,30,32,34,36,38,40,42,44,46,48,50,52,54,56,58,60,62,-1,-1,-1,-1,-1,-1,-1,-1,-1,-1,-1,-1,-1,-1,-1,-1,-1,-1,-1,-1,-1,-1,-1,-1,-1,-1,-1,-1,-1,-1,-1,-1],"split_conditions":[1.9E1,1E1,7.3E1,1E0,3E0,6.5E1,6.9E1,8E1,6.5E1,2E0,8.5E1,8.4E1,6.5E1,7.5E1,8.9E1,3E0,4.5E1,2E0,6E0,4E0,2.8E1,7E0,2.1E1,6.1E1,1E0,5.8E1,6E1,3E0,5.8E1,1.3E1,8.8E1,-4.247004E-2,-5.5536207E-2,-5.912113E-2,-3.375548E-2,-4.2644683E-2,-2.6873438E-2,3.014942E-2,-1.8807285E-2,1.0459195E-2,-6.063583E-3,-2.0324033E-2,-4.923707E-2,3.186558E-2,-8.177022E-3,3.7909977E-2,1.6049635E-2,5.63273E-3,2.3922456E-2,4.8597097E-2,1.9717896E-2,2.2231746E-2,3.652784E-2,3.6981303E-2,5.5930275E-2,1.8873608E-2,4.696576E-2,5.410674E-2,6.5686025E-2,6.317789E-2,3.995703E-2,6.590776E-2,7.7821895E-2],"split_indices":[4,5,4,9,10,5,6,11,6,1,5,8,8,5,4,2,12,4,11,2,11,11,1,4,3,4,4,12,8,12,7,0,0,0,0,0,0,0,0,0,0,0,0,0,0,0,0,0,0,0,0,0,0,0,0,0,0,0,0,0,0,0,0],"split_type":[0,0,0,0,0,0,0,0,0,0,0,0,0,0,0,0,0,0,0,0,0,0,0,0,0,0,0,0,0,0,0,0,0,0,0,0,0,0,0,0,0,0,0,0,0,0,0,0,0,0,0,0,0,0,0,0,0,0,0,0,0,0,0],"sum_hessian":[1.5642877E4,8.839935E3,6.8029424E3,6.9226177E3,1.9173169E3,1.8219036E3,4.981039E3,5.2153965E3,1.7072212E3,1.4556772E3,4.6163968E2,1.01320575E3,8.086978E2,1.2503647E3,3.7306743E3,6.3186505E2,4.5835312E3,1.4874423E3,2.197789E2,3.8983603E2,1.0658412E3,2.3135405E2,2.3028563E2,8.741653E2,1.3904047E2,4.1570187E2,3.9299594E2,6.560829E2,5.942819E2,5.95072E2,3.1356023E3,3.0383643E2,3.2802866E2,4.573445E3,1.0086298E1,1.1433715E3,3.4407083E2,1.49089775E1,2.0486992E2,3.4663947E2,4.319656E1,7.273593E2,3.3848187E2,3.4166424E1,1.9718762E2,1.0561806E2,1.24667564E2,6.589705E2,2.1519478E2,7.19432E1,6.709727E1,2.029838E2,2.1271808E2,2.049006E2,1.8809532E2,4.8996952E1,6.0708594E2,2.9001288E2,3.04269E2,5.2387787E2,7.119415E1,7.098607E2,2.4257415E3],"tree_param":{"num_deleted":"0","num_feature":"14","num_nodes":"63","size_leaf_vector":"1"}},{"base_weights":[-6.257185E-3,-8.537944E-1,1.0628262E0,-1.0322247E0,-2.2565044E-1,4.9890605E-1,1.3009769E0,-1.1430464E0,-6.9864523E-1,-3.8794485E-1,1.863159E-1,2.602855E-1,7.253337E-1,1.0268605E0,1.4051895E0,-9.725707E-1,-1.1679921E0,-7.5900465E-1,-2.9441592E-1,1.6319267E-1,-6.092014E-1,-3.325569E-1,3.1521305E-1,1.619439E-1,5.2032113E-1,5.411652E-1,8.8522595E-1,8.7492913E-1,1.1802016E0,1.1066911E0,1.4380084E0,-4.1869085E-2,-5.4739427E-2,-5.7064958E-2,-5.9639115E-2,-2.91262E-2,-4.308052E-2,-2.002721E-2,1.3384784E-2,9.897019E-3,-5.7832953E-3,-1.9989949E-2,-4.6485297E-2,-2.0576676E-2,2.5588904E-2,2.7157882E-2,8.326445E-3,1.3239919E-2,-1.1020321E-2,1.6203098E-2,3.7763786E-2,4.1480742E-2,1.1974501E-2,2.7943103E-2,5.154543E-2,3.84417E-2,5.219419E-2,6.136925E-2,4.491813E-2,3.2202672E-2,6.122374E-2,8.1412405E-2,7.019251E-2],"categories":[],"categories_nodes":[],"categories_segments":[],"categories_sizes":[],"default_left":[1,0,0,0,1,0,0,0,1,0,0,0,0,0,0,0,0,0,0,0,0,0,0,0,0,0,0,0,0,0,0,0,0,0,0,0,0,0,0,0,0,0,0,0,0,0,0,0,0,0,0,0,0,0,0,0,0,0,0,0,0,0,0],"id":10,"left_children":[1,3,5,7,9,11,13,15,17,19,21,23,25,27,29,31,33,35,37,39,41,43,45,47,49,51,53,55,57,59,61,-1,-1,-1,-1,-1,-1,-1,-1,-1,-1,-1,-1,-1,-1,-1,-1,-1,-1,-1,-1,-1,-1,-1,-1,-1,-1,-1,-1,-1,-1,-1,-1],"loss_changes":[1.3970102E4,9.636675E2,9.149839E2,2.467876E2,1.27359795E2,1.0927655E2,1.3547412E2,2.0235352E1,4.0588867E1,1.6668304E2,3.613482E1,2.5181183E1,3.0116455E1,2.981189E1,3.2401367E1,9.781616E0,1.5366211E0,2.584076E1,1.3168987E1,3.822322E0,6.506293E1,7.3912477E0,1.45518875E1,2.8307978E1,1.2236061E1,4.2041428E1,2.5791748E1,1.1187561E1,7.621643E0,1.8177643E1,1.8007812E1,0E0,0E0,0E0,0E0,0E0,0E0,0E0,0E0,0E0,0E0,0E0,0E0,0E0,0E0,0E0,0E0,0E0,0E0,0E0,0E0,0E0,0E0,0E0,0E0,0E0,0E0,0E0,0E0,0E0,0E0,0E0,0E0],"parents":[2147483647,0,0,1,1,2,2,3,3,4,4,5,5,6,6,7,7,8,8,9,9,10,10,11,11,12,12,13,13,14,14,15,15,16,16,17,17,18,18,19,19,20,20,21,21,22,22,23,23,24,24,25,25,26,26,27,27,28,28,29,29,30,30],"right_children":[2,4,6,8,10,12,14,16,18,20,22,24,26,28,30,32,34,36,38,40,42,44,46,48,50,52,54,56,58,60,62,-1,-1,-1,-1,-1,-1,-1,-1,-1,-1,-1,-1,-1,-1,-1,-1,-1,-1,-1,-1,-1,-1,-1,-1,-1,-1,-1,-1,-1,-1,-1,-1],"split_conditions":[1.9E1,1E1,7.6E1,1E0,6.5E1,5.9E1,7.5E1,8.4E1,6.5E1,2E0,2E0,6.2E1,6E1,7.6E1,6.5E1,3E0,3E0,3E0,3E0,4E0,1.8E2,1.6E1,1.1E1,1E0,2.1E1,1E0,5.9E1,3E0,1.2E1,2.8E1,2E0,-4.1869085E-2,-5.4739427E-2,-5.7064958E-2,-5.9639115E-2,-2.91262E-2,-4.308052E-2,-2.002721E-2,1.3384784E-2,9.897019E-3,-5.7832953E-3,-1.9989949E-2,-4.6485297E-2,-2.0576676E-2,2.5588904E-2,2.7157882E-2,8.326445E-3,1.3239919E-2,-1.1020321E-2,1.6203098E-2,3.7763786E-2,4.1480742E-2,1.1974501E-2,2.7943103E-2,5.154543E-2,3.84417E-2,5.219419E-2,6.136925E-2,4.491813E-2,3.2202672E-2,6.122374E-2,8.1412405E-2,7.019251E-2],"split_indices":[4,5,4,9,5,5,6,11,6,1,10,4,4,5,5,2,2,2,4,2,7,4,11,3,5,3,8,10,12,8,2,0,0,0,0,0,0,0,0,0,0,0,0,0,0,0,0,0,0,0,0,0,0,0,0,0,0,0,0,0,0,0,0],"split_type":[0,0,0,0,0,0,0,0,0,0,0,0,0,0,0,0,0,0,0,0,0,0,0,0,0,0,0,0,0,0,0,0,0,0,0,0,0,0,0,0,0,0,0,0,0,0,0,0,0,0,0,0,0,0,0,0,0,0,0,0,0,0,0],"sum_hessian":[1.5416041E4,8.599119E3,6.816922E3,6.6963223E3,1.9027966E3,2.0249985E3,4.791924E3,5.0246167E3,1.6717052E3,1.3650806E3,5.3771606E2,9.869995E2,1.037999E3,1.3229484E3,3.468975E3,6.4650226E2,4.3781147E3,1.4537535E3,2.179517E2,3.9110995E2,9.739706E2,1.0668358E2,4.310325E2,7.1733636E2,2.6966312E2,4.8441757E2,5.535815E2,6.6789764E2,6.550507E2,3.4706174E2,3.1219136E3,3.106899E2,3.3581235E2,2.1307961E3,2.2473186E3,5.3692523E2,9.1682825E2,1.8357892E2,3.4372787E1,3.4803284E2,4.3077118E1,5.9044763E2,3.8352292E2,9.8027016E1,8.656564E0,1.691141E2,2.619184E2,5.6551654E2,1.5181982E2,1.4822717E2,1.2143594E2,2.4674239E2,2.3767517E2,1.723384E2,3.8124307E2,4.1367847E2,2.542192E2,5.582396E2,9.68111E1,7.1741035E1,2.753207E2,4.681189E2,2.6537947E3],"tree_param":{"num_deleted":"0","num_feature":"14","num_nodes":"63","size_leaf_vector":"1"}},{"base_weights":[-6.425402E-3,-8.402406E-1,1.0029103E0,-1.0171556E0,-2.2486639E-1,3.9824608E-1,1.2132708E0,-1.1287854E0,-6.8304545E-1,-3.6700454E-1,2.1525939E-1,1.8963967E-1,6.098562E-1,9.2175156E-1,1.3190101E0,-9.539058E-1,-1.1545774E0,-7.5459003E-1,-3.2514074E-1,1.545553E-1,-5.692167E-1,-4.1951653E-2,4.688334E-1,1.2761702E-1,5.5791545E-1,3.992716E-1,7.397785E-1,7.6302123E-1,1.116428E0,1.0994462E0,1.3769118E0,-4.085336E-2,-5.39415E-2,-5.635345E-2,-5.9008736E-2,-4.1987706E-2,-2.4168668E-2,-1.7608887E-2,6.54602E-2,9.367534E-3,-5.5153547E-3,-1.9643473E-2,-4.7450963E-2,3.0285493E-2,-7.7742375E-3,3.3503704E-2,1.3230431E-2,-3.3157002E-3,1.26680005E-2,4.1950896E-2,9.419598E-3,1.14587005E-2,3.0862069E-2,5.1253755E-2,3.1219548E-2,2.1659028E-2,4.1254606E-2,4.765649E-2,6.0542554E-2,3.2358896E-2,5.6257483E-2,5.776313E-2,7.079774E-2],"categories":[],"categories_nodes":[],"categories_segments":[],"categories_sizes":[],"default_left":[1,0,0,0,0,0,0,0,1,0,0,1,1,0,0,0,0,0,0,0,0,0,0,0,0,0,0,0,1,0,0,0,0,0,0,0,0,0,0,0,0,0,0,0,0,0,0,0,0,0,0,0,0,0,0,0,0,0,0,0,0,0,0],"id":11,"left_children":[1,3,5,7,9,11,13,15,17,19,21,23,25,27,29,31,33,35,37,39,41,43,45,47,49,51,53,55,57,59,61,-1,-1,-1,-1,-1,-1,-1,-1,-1,-1,-1,-1,-1,-1,-1,-1,-1,-1,-1,-1,-1,-1,-1,-1,-1,-1,-1,-1,-1,-1,-1,-1],"loss_changes":[1.2780045E4,9.0509814E2,8.7332275E2,2.401128E2,1.1632293E2,7.821976E1,1.5587158E2,2.072754E1,4.1236694E1,1.4825977E2,2.9645527E1,2.0373722E1,2.3794586E1,4.1166138E1,4.5999023E1,9.850037E0,1.6362305E0,3.0761536E1,1.2464373E1,3.437008E0,6.744974E1,1.6742783E1,9.226589E0,1.872926E1,1.3212502E1,1.2395081E1,1.7247314E1,1.5042603E1,8.229553E0,8.395752E0,2.392334E1,0E0,0E0,0E0,0E0,0E0,0E0,0E0,0E0,0E0,0E0,0E0,0E0,0E0,0E0,0E0,0E0,0E0,0E0,0E0,0E0,0E0,0E0,0E0,0E0,0E0,0E0,0E0,0E0,0E0,0E0,0E0,0E0],"parents":[2147483647,0,0,1,1,2,2,3,3,4,4,5,5,6,6,7,7,8,8,9,9,10,10,11,11,12,12,13,13,14,14,15,15,16,16,17,17,18,18,19,19,20,20,21,21,22,22,23,23,24,24,25,25,26,26,27,27,28,28,29,29,30,30],"right_children":[2,4,6,8,10,12,14,16,18,20,22,24,26,28,30,32,34,36,38,40,42,44,46,48,50,52,54,56,58,60,62,-1,-1,-1,-1,-1,-1,-1,-1,-1,-1,-1,-1,-1,-1,-1,-1,-1,-1,-1,-1,-1,-1,-1,-1,-1,-1,-1,-1,-1,-1,-1,-1],"split_conditions":[1.8E1,1E1,7.1E1,1E0,3E0,5.4E1,7.7E1,8.4E1,8.9E1,2E0,8.5E1,7.7E1,3.6E1,7.7E1,6.7E1,3E0,3E0,2E0,1.5E1,4E0,2.8E1,7E0,2.2E1,2.9E1,1E0,5.8E1,1E0,7.7E1,6.3E1,7.6E1,9E1,-4.085336E-2,-5.39415E-2,-5.635345E-2,-5.9008736E-2,-4.1987706E-2,-2.4168668E-2,-1.7608887E-2,6.54602E-2,9.367534E-3,-5.5153547E-3,-1.9643473E-2,-4.7450963E-2,3.0285493E-2,-7.7742375E-3,3.3503704E-2,1.3230431E-2,-3.3157002E-3,1.26680005E-2,4.1950896E-2,9.419598E-3,1.14587005E-2,3.0862069E-2,5.1253755E-2,3.1219548E-2,2.1659028E-2,4.1254606E-2,4.765649E-2,6.0542554E-2,3.2358896E-2,5.6257483E-2,5.776313E-2,7.079774E-2],"split_indices":[4,5,4,9,10,5,5,11,8,1,5,7,7,8,8,2,2,4,4,2,11,11,1,4,3,4,3,4,6,4,4,0,0,0,0,0,0,0,0,0,0,0,0,0,0,0,0,0,0,0,0,0,0,0,0,0,0,0,0,0,0,0,0],"split_type":[0,0,0,0,0,0,0,0,0,0,0,0,0,0,0,0,0,0,0,0,0,0,0,0,0,0,0,0,0,0,0,0,0,0,0,0,0,0,0,0,0,0,0,0,0,0,0,0,0,0,0,0,0,0,0,0,0,0,0,0,0,0,0],"sum_hessian":[1.5183425E4,8.314751E3,6.8686733E3,6.457593E3,1.8571586E3,1.7735734E3,5.0950996E3,4.8385903E3,1.6190026E3,1.4039277E3,4.532308E2,8.940802E2,8.794931E2,1.3587635E3,3.7363362E3,6.2677747E2,4.211813E3,1.3483594E3,2.7064316E2,3.923044E2,1.0116233E3,2.2541609E2,2.2781471E2,7.663611E2,1.2771913E2,3.3712964E2,5.4236346E2,7.51194E2,6.0756964E2,7.838699E2,2.9524663E3,3.0272296E2,3.2405453E2,2.0518303E3,2.1599827E3,1.0245474E3,3.2381195E2,2.670105E2,3.632643E0,3.493415E2,4.2962936E1,6.92241E2,3.1938226E2,3.2974495E1,1.9244159E2,1.13596756E2,1.1421796E2,3.0163214E2,4.6472894E2,7.181657E1,5.590256E1,1.9051129E2,1.4661836E2,1.5391753E2,3.8844595E2,1.20237564E2,6.309564E2,2.266639E2,3.8090573E2,4.356114E1,7.403087E2,4.4676367E2,2.5057026E3],"tree_param":{"num_deleted":"0","num_feature":"14","num_nodes":"63","size_leaf_vector":"1"}},{"base_weights":[-6.5559456E-3,-8.3222044E-1,9.4234157E-1,-1.0047396E0,-2.3190697E-1,3.61978E-1,1.1566058E0,-1.1151812E0,-6.7240006E-1,-3.491436E-1,2.707611E-1,1.8419982E-1,6.044736E-1,9.1162604E-1,1.2787223E0,-9.553765E-1,-1.1452283E0,-7.5560534E-1,-3.6789876E-1,1.4640488E-1,-5.3408915E-1,-2.1531608E-2,4.1972518E-1,1.1978482E-1,6.055947E-1,4.323568E-1,7.6636696E-1,7.767873E-1,1.0647339E0,1.0119853E0,1.325834E0,-4.107134E-2,-5.3630944E-2,-5.2297827E-2,-5.767091E-2,-4.15821E-2,-2.4766205E-2,-2.6383055E-2,-5.8647916E-3,8.868548E-3,-5.259261E-3,-3.6171965E-2,-7.3803416E-3,5.2753966E-2,-4.715304E-3,3.0901393E-2,1.1079698E-2,-3.0855413E-3,1.2405924E-2,4.06162E-2,1.5688336E-2,1.1303678E-2,2.5588972E-2,5.58114E-2,3.1441223E-2,2.4642507E-2,4.211342E-2,4.5023736E-2,5.6083478E-2,1.7737797E-2,5.3873103E-2,5.5591732E-2,6.803463E-2],"categories":[],"categories_nodes":[],"categories_segments":[],"categories_sizes":[],"default_left":[1,0,0,0,1,0,0,0,1,0,0,1,1,0,0,0,0,0,0,0,1,0,0,0,0,0,0,0,0,0,0,0,0,0,0,0,0,0,0,0,0,0,0,0,0,0,0,0,0,0,0,0,0,0,0,0,0,0,0,0,0,0,0],"id":12,"left_children":[1,3,5,7,9,11,13,15,17,19,21,23,25,27,29,31,33,35,37,39,41,43,45,47,49,51,53,55,57,59,61,-1,-1,-1,-1,-1,-1,-1,-1,-1,-1,-1,-1,-1,-1,-1,-1,-1,-1,-1,-1,-1,-1,-1,-1,-1,-1,-1,-1,-1,-1,-1,-1],"loss_changes":[1.1711671E4,8.2759375E2,8.644658E2,2.2713232E2,1.0532387E2,8.080081E1,1.5078809E2,2.1274414E1,3.90213E1,1.3282062E2,1.4737377E1,2.93619E1,2.1778748E1,3.4127808E1,4.1223633E1,1.0792358E1,1.9775391E0,2.367926E1,1.3343758E1,3.091525E0,7.7094635E1,9.121128E0,8.668613E0,2.195267E1,8.404438E0,6.2229843E0,1.8911621E1,1.6392212E1,6.3796997E0,2.167981E1,1.9937012E1,0E0,0E0,0E0,0E0,0E0,0E0,0E0,0E0,0E0,0E0,0E0,0E0,0E0,0E0,0E0,0E0,0E0,0E0,0E0,0E0,0E0,0E0,0E0,0E0,0E0,0E0,0E0,0E0,0E0,0E0,0E0,0E0],"parents":[2147483647,0,0,1,1,2,2,3,3,4,4,5,5,6,6,7,7,8,8,9,9,10,10,11,11,12,12,13,13,14,14,15,15,16,16,17,17,18,18,19,19,20,20,21,21,22,22,23,23,24,24,25,25,26,26,27,27,28,28,29,29,30,30],"right_children":[2,4,6,8,10,12,14,16,18,20,22,24,26,28,30,32,34,36,38,40,42,44,46,48,50,52,54,56,58,60,62,-1,-1,-1,-1,-1,-1,-1,-1,-1,-1,-1,-1,-1,-1,-1,-1,-1,-1,-1,-1,-1,-1,-1,-1,-1,-1,-1,-1,-1,-1,-1,-1],"split_conditions":[1.6E1,1E1,7.1E1,1E0,8.5E1,6.5E1,8.1E1,9.9E1,7.5E1,2E0,3E0,8.4E1,5.9E1,7.9E1,5.9E1,3E0,6E0,2E0,2.6E1,4E0,1.7E1,5E0,2.2E1,2.9E1,1E0,7.7E1,1E0,4E0,8.9E1,2.4E1,8.8E1,-4.107134E-2,-5.3630944E-2,-5.2297827E-2,-5.767091E-2,-4.15821E-2,-2.4766205E-2,-2.6383055E-2,-5.8647916E-3,8.868548E-3,-5.259261E-3,-3.6171965E-2,-7.3803416E-3,5.2753966E-2,-4.715304E-3,3.0901393E-2,1.1079698E-2,-3.0855413E-3,1.2405924E-2,4.06162E-2,1.5688336E-2,1.1303678E-2,2.5588972E-2,5.58114E-2,3.1441223E-2,2.4642507E-2,4.211342E-2,4.5023736E-2,5.6083478E-2,1.7737797E-2,5.3873103E-2,5.5591732E-2,6.803463E-2],"split_indices":[4,5,4,9,5,5,6,11,8,1,10,8,8,5,8,2,1,4,6,2,8,11,1,4,3,5,3,12,4,5,4,0,0,0,0,0,0,0,0,0,0,0,0,0,0,0,0,0,0,0,0,0,0,0,0,0,0,0,0,0,0,0,0],"split_type":[0,0,0,0,0,0,0,0,0,0,0,0,0,0,0,0,0,0,0,0,0,0,0,0,0,0,0,0,0,0,0,0,0,0,0,0,0,0,0,0,0,0,0,0,0,0,0,0,0,0,0,0,0,0,0,0,0,0,0,0,0,0,0],"sum_hessian":[1.4946442E4,7.992259E3,6.9541836E3,6.2076255E3,1.7846333E3,1.8758584E3,5.078325E3,4.657509E3,1.5501167E3,1.4473704E3,3.372629E2,1.083375E3,7.924834E2,1.6921471E3,3.3861782E3,7.423158E2,3.915193E3,1.2162844E3,3.3383224E2,3.9342487E2,1.0539454E3,1.1414553E2,2.2311739E2,9.40841E2,1.4253401E2,3.858927E2,4.0659073E2,9.0298285E2,7.891642E2,5.1167276E2,2.8745054E3,3.5020816E2,3.9210764E2,3.081977E2,3.6069954E3,9.39601E2,2.7668338E2,2.031904E2,1.3064185E2,3.5057108E2,4.285379E1,7.0679297E2,3.4715247E2,6.3726015E0,1.07772934E2,1.10451256E2,1.1266613E2,3.8991855E2,5.509225E2,8.238755E1,6.0146454E1,1.0834259E2,2.7755008E2,1.1272964E2,2.938611E2,1.7081711E2,7.321657E2,2.0745973E2,5.8170447E2,4.6938736E1,4.6473404E2,4.0725134E2,2.4672542E3],"tree_param":{"num_deleted":"0","num_feature":"14","num_nodes":"63","size_leaf_vector":"1"}},{"base_weights":[-6.6596097E-3,-8.1397456E-1,8.976312E-1,-9.885468E-1,-2.2220188E-1,3.9873824E-1,1.1287063E0,-6.9537944E-1,-1.1188941E0,-3.354524E-1,2.5647962E-1,1.858704E-1,6.098487E-1,8.499918E-1,1.2212173E0,-7.7192116E-1,-3.6681083E-1,-1.0017488E0,-1.1372864E0,1.3871026E-1,-5.156811E-1,-4.542779E-1,3.107332E-1,1.8010896E-2,3.2080856E-1,4.430734E-1,7.670642E-1,7.266552E-1,9.8510015E-1,9.543257E-1,1.2575457E0,-4.2148955E-2,-2.6269129E-2,-2.4613334E-2,1.6946368E-3,-5.0927114E-2,1.1333919E-2,-5.1569354E-2,-5.7327814E-2,8.398042E-3,-5.0145327E-3,-3.5133276E-2,-7.0389137E-3,-3.672408E-2,-7.843898E-3,2.7886624E-2,9.716909E-3,3.66421E-2,-2.5765114E-3,2.842844E-2,1.0029833E-2,1.4287694E-2,2.9008184E-2,2.9322356E-2,4.635515E-2,2.419861E-2,3.9298195E-2,4.4536855E-2,5.4929752E-2,3.152766E-2,5.407859E-2,7.240241E-2,6.122135E-2],"categories":[],"categories_nodes":[],"categories_segments":[],"categories_sizes":[],"default_left":[1,0,0,0,1,0,0,0,0,0,0,0,1,0,0,0,0,0,0,0,1,0,0,1,0,0,0,0,1,0,0,0,0,0,0,0,0,0,0,0,0,0,0,0,0,0,0,0,0,0,0,0,0,0,0,0,0,0,0,0,0,0,0],"id":13,"left_children":[1,3,5,7,9,11,13,15,17,19,21,23,25,27,29,31,33,35,37,39,41,43,45,47,49,51,53,55,57,59,61,-1,-1,-1,-1,-1,-1,-1,-1,-1,-1,-1,-1,-1,-1,-1,-1,-1,-1,-1,-1,-1,-1,-1,-1,-1,-1,-1,-1,-1,-1,-1,-1],"loss_changes":[1.0738449E4,8.026123E2,7.993662E2,2.2853174E2,9.61253E1,9.865201E1,1.21208496E2,4.6230774E1,7.8066406E0,1.22538574E2,1.32331505E1,2.4814243E1,2.8580688E1,1.9027527E1,3.3290527E1,2.5820251E1,1.7679485E1,1.2027832E1,2.3330078E0,2.7815843E0,7.270767E1,1.9250875E0,8.977266E0,2.436485E1,1.7976482E1,1.14285965E1,1.5828766E1,8.5894165E0,5.046875E0,1.7047821E1,1.7961914E1,0E0,0E0,0E0,0E0,0E0,0E0,0E0,0E0,0E0,0E0,0E0,0E0,0E0,0E0,0E0,0E0,0E0,0E0,0E0,0E0,0E0,0E0,0E0,0E0,0E0,0E0,0E0,0E0,0E0,0E0,0E0,0E0],"parents":[2147483647,0,0,1,1,2,2,3,3,4,4,5,5,6,6,7,7,8,8,9,9,10,10,11,11,12,12,13,13,14,14,15,15,16,16,17,17,18,18,19,19,20,20,21,21,22,22,23,23,24,24,25,25,26,26,27,27,28,28,29,29,30,30],"right_children":[2,4,6,8,10,12,14,16,18,20,22,24,26,28,30,32,34,36,38,40,42,44,46,48,50,52,54,56,58,60,62,-1,-1,-1,-1,-1,-1,-1,-1,-1,-1,-1,-1,-1,-1,-1,-1,-1,-1,-1,-1,-1,-1,-1,-1,-1,-1,-1,-1,-1,-1,-1,-1],"split_conditions":[1.6E1,1E1,7.6E1,6.3E1,8.5E1,5.9E1,6.9E1,2E0,1.28E2,2E0,2E0,3.2E1,6E1,7.6E1,6.9E1,1E0,8E0,4.4E1,6E0,4E0,1.7E1,2E1,1E1,3E0,1E0,5.8E1,6E1,4E0,7.3E1,6.8E1,2E0,-4.2148955E-2,-2.6269129E-2,-2.4613334E-2,1.6946368E-3,-5.0927114E-2,1.1333919E-2,-5.1569354E-2,-5.7327814E-2,8.398042E-3,-5.0145327E-3,-3.5133276E-2,-7.0389137E-3,-3.672408E-2,-7.843898E-3,2.7886624E-2,9.716909E-3,3.66421E-2,-2.5765114E-3,2.842844E-2,1.0029833E-2,1.4287694E-2,2.9008184E-2,2.9322356E-2,4.635515E-2,2.419861E-2,3.9298195E-2,4.4536855E-2,5.4929752E-2,3.152766E-2,5.407859E-2,7.240241E-2,6.122135E-2],"split_indices":[4,5,4,11,5,5,6,10,11,1,9,4,8,5,5,4,12,12,1,2,8,1,11,13,3,4,4,12,8,7,2,0,0,0,0,0,0,0,0,0,0,0,0,0,0,0,0,0,0,0,0,0,0,0,0,0,0,0,0,0,0,0,0],"split_type":[0,0,0,0,0,0,0,0,0,0,0,0,0,0,0,0,0,0,0,0,0,0,0,0,0,0,0,0,0,0,0,0,0,0,0,0,0,0,0,0,0,0,0,0,0,0,0,0,0,0,0,0,0,0,0,0,0,0,0,0,0,0,0],"sum_hessian":[1.4707247E4,7.770317E3,6.93693E3,5.9997324E3,1.7705846E3,2.1967832E3,4.7401475E3,1.8485183E3,4.151214E3,1.432072E3,3.3851254E2,1.094775E3,1.1020082E3,1.1838043E3,3.556343E3,1.498164E3,3.503544E2,5.708425E2,3.5803716E3,3.9447638E2,1.0375957E3,2.3483961E1,3.150286E2,4.8837857E2,6.063965E2,5.3659875E2,5.6540936E2,6.221966E2,5.616077E2,4.2934763E2,3.1269954E3,1.1610922E3,3.3707175E2,2.6664294E2,8.3711464E1,5.633125E2,7.530048E0,2.97217E2,3.2831545E3,3.517269E2,4.27495E1,6.91722E2,3.458737E2,1.1334844E1,1.2149117E1,9.968902E1,2.1533958E2,4.245318E1,4.4592538E2,1.968837E2,4.095128E2,2.5130048E2,2.8529828E2,2.6781836E2,2.97591E2,1.23993385E2,4.982032E2,3.1148117E2,2.5012654E2,1.2281224E2,3.065354E2,4.5678677E2,2.6702085E3],"tree_param":{"num_deleted":"0","num_feature":"14","num_nodes":"63","size_leaf_vector":"1"}},{"base_weights":[-6.7384224E-3,-7.960595E-1,8.5597616E-1,-9.7271895E-1,-2.1289633E-1,3.7757748E-1,1.0798035E0,-6.759403E-1,-1.1069759E0,-3.2222727E-1,2.4259405E-1,1.7610312E-1,5.7718927E-1,8.312647E-1,1.1802167E0,-7.320707E-1,-2.232953E-1,-9.862449E-1,-1.1260393E0,1.3144296E-1,-4.977706E-1,-2.86695E-2,3.7979305E-1,9.03216E-2,4.3188128E-1,4.1920614E-1,7.262161E-1,7.187974E-1,9.746377E-1,8.958398E-1,1.2120631E0,-2.8457811E-2,-4.2071607E-2,-1.5955225E-2,1.9223386E-2,-5.0168615E-2,1.07604405E-2,-5.0860327E-2,-5.6780364E-2,7.95417E-3,-4.780708E-3,-1.54590225E-2,-4.3326568E-2,4.79731E-2,-4.85287E-3,2.8266594E-2,9.692832E-3,3.2051407E-2,1.7839106E-3,1.250312E-2,3.244902E-2,6.739275E-3,2.4557002E-2,2.7717281E-2,4.394884E-2,2.9551527E-2,4.345116E-2,4.656933E-2,6.819131E-2,2.5880039E-2,5.052182E-2,6.972956E-2,5.896933E-2],"categories":[],"categories_nodes":[],"categories_segments":[],"categories_sizes":[],"default_left":[1,0,0,0,1,0,0,1,0,0,0,0,1,0,0,0,0,0,0,0,0,0,0,1,0,0,0,0,1,0,0,0,0,0,0,0,0,0,0,0,0,0,0,0,0,0,0,0,0,0,0,0,0,0,0,0,0,0,0,0,0,0,0],"id":14,"left_children":[1,3,5,7,9,11,13,15,17,19,21,23,25,27,29,31,33,35,37,39,41,43,45,47,49,51,53,55,57,59,61,-1,-1,-1,-1,-1,-1,-1,-1,-1,-1,-1,-1,-1,-1,-1,-1,-1,-1,-1,-1,-1,-1,-1,-1,-1,-1,-1,-1,-1,-1,-1,-1],"loss_changes":[9.853315E3,7.782529E2,7.3987744E2,2.3031738E2,8.763145E1,8.858151E1,1.1654785E2,4.579474E1,8.075684E0,1.13012375E2,1.2697678E1,2.4071705E1,2.5764343E1,2.1205322E1,2.9269531E1,2.8185486E1,1.1826841E1,1.1581848E1,2.4267578E0,2.5033998E0,7.08607E1,7.893483E0,7.702774E0,2.4778425E1,1.0721012E1,1.097863E1,1.443634E1,1.4172119E1,8.735168E0,1.4274475E1,1.6316406E1,0E0,0E0,0E0,0E0,0E0,0E0,0E0,0E0,0E0,0E0,0E0,0E0,0E0,0E0,0E0,0E0,0E0,0E0,0E0,0E0,0E0,0E0,0E0,0E0,0E0,0E0,0E0,0E0,0E0,0E0,0E0,0E0],"parents":[2147483647,0,0,1,1,2,2,3,3,4,4,5,5,6,6,7,7,8,8,9,9,10,10,11,11,12,12,13,13,14,14,15,15,16,16,17,17,18,18,19,19,20,20,21,21,22,22,23,23,24,24,25,25,26,26,27,27,28,28,29,29,30,30],"right_children":[2,4,6,8,10,12,14,16,18,20,22,24,26,28,30,32,34,36,38,40,42,44,46,48,50,52,54,56,58,60,62,-1,-1,-1,-1,-1,-1,-1,-1,-1,-1,-1,-1,-1,-1,-1,-1,-1,-1,-1,-1,-1,-1,-1,-1,-1,-1,-1,-1,-1,-1,-1,-1],"split_conditions":[1.6E1,1E1,7.6E1,6.3E1,8.5E1,5.9E1,7.6E1,6.5E1,1.28E2,2E0,3E0,6.2E1,6E1,7.2E1,6.5E1,3E0,3E0,4.4E1,6E0,4E0,1.8E2,5E0,2.2E1,3E0,2.1E1,2.3E1,6E1,7.1E1,1.4E1,6.1E1,2E0,-2.8457811E-2,-4.2071607E-2,-1.5955225E-2,1.9223386E-2,-5.0168615E-2,1.07604405E-2,-5.0860327E-2,-5.6780364E-2,7.95417E-3,-4.780708E-3,-1.54590225E-2,-4.3326568E-2,4.79731E-2,-4.85287E-3,2.8266594E-2,9.692832E-3,3.2051407E-2,1.7839106E-3,1.250312E-2,3.244902E-2,6.739275E-3,2.4557002E-2,2.7717281E-2,4.394884E-2,2.9551527E-2,4.345116E-2,4.656933E-2,6.819131E-2,2.5880039E-2,5.052182E-2,6.972956E-2,5.896933E-2],"split_indices":[4,5,4,11,5,5,6,6,11,1,10,4,8,8,5,2,4,12,1,2,7,11,1,13,5,6,4,5,13,7,2,0,0,0,0,0,0,0,0,0,0,0,0,0,0,0,0,0,0,0,0,0,0,0,0,0,0,0,0,0,0,0,0],"split_type":[0,0,0,0,0,0,0,0,0,0,0,0,0,0,0,0,0,0,0,0,0,0,0,0,0,0,0,0,0,0,0,0,0,0,0,0,0,0,0,0,0,0,0,0,0,0,0,0,0,0,0,0,0,0,0,0,0,0,0,0,0,0,0],"sum_hessian":[1.4467769E4,7.555298E3,6.9124707E3,5.7981714E3,1.7571265E3,2.2041355E3,4.708335E3,1.807867E3,3.9903044E3,1.4172401E3,3.398863E2,1.0978866E3,1.1062489E3,1.3575238E3,3.3508113E3,1.6078657E3,2.0000124E2,5.513373E2,3.4389673E3,3.9546378E2,1.02177637E3,1.14430534E2,2.2545578E2,8.2316956E2,2.7471707E2,5.388393E2,5.674096E2,7.641271E2,5.9339667E2,3.4038873E2,3.0104226E3,6.48302E2,9.5956366E2,1.7317628E2,2.682496E1,5.437507E2,7.5865993E0,2.8657687E2,3.1523904E3,3.528139E2,4.264987E1,6.7725543E2,3.4452094E2,6.563617E0,1.0786691E2,1.1182722E2,1.13628555E2,7.333675E1,7.498328E2,1.5067754E2,1.2403953E2,1.09350464E2,4.2948886E2,2.691824E2,2.9822723E2,4.155968E2,3.4853027E2,5.371009E2,5.62958E1,8.0431694E1,2.5995703E2,4.5077133E2,2.5596511E3],"tree_param":{"num_deleted":"0","num_feature":"14","num_nodes":"63","size_leaf_vector":"1"}},{"base_weights":[-6.78765E-3,-7.835437E-1,8.117708E-1,-9.614996E-1,-2.0445505E-1,3.1948942E-1,1.0205072E0,-6.8230146E-1,-1.1032739E0,-3.3798003E-1,1.5131754E-1,1.5651232E-1,5.3402644E-1,7.740646E-1,1.1219612E0,-8.1135565E-1,-4.557155E-1,-1.0010616E0,-1.1153364E0,1.2457657E-1,-5.5311906E-1,-3.0044496E-1,2.5110987E-1,9.6926235E-2,5.4115665E-1,3.9181086E-1,6.69541E-1,6.763788E-1,9.414752E-1,8.830725E-1,1.1636658E0,-3.134876E-2,-4.6247013E-2,-2.6075426E-2,1.9229142E-4,-5.2209843E-2,-2.9315477E-2,-5.0168257E-2,-5.62613E-2,7.5352318E-3,-4.5573404E-3,-1.7631685E-2,-4.3763768E-2,7.6761255E-3,-2.0323487E-2,2.5282333E-2,6.84551E-3,-3.4422723E-3,1.0732445E-2,3.754345E-2,1.3537997E-2,3.8133643E-3,2.218159E-2,4.916603E-2,2.7914373E-2,2.3297109E-2,3.7816636E-2,4.482932E-2,6.8220064E-2,4.7118697E-2,2.171278E-2,4.8224248E-2,6.0557436E-2],"categories":[],"categories_nodes":[],"categories_segments":[],"categories_sizes":[],"default_left":[1,0,0,0,1,0,0,0,0,0,0,1,1,1,0,0,0,0,0,0,0,0,0,0,0,0,0,0,1,0,0,0,0,0,0,0,0,0,0,0,0,0,0,0,0,0,0,0,0,0,0,0,0,0,0,0,0,0,0,0,0,0,0],"id":15,"left_children":[1,3,5,7,9,11,13,15,17,19,21,23,25,27,29,31,33,35,37,39,41,43,45,47,49,51,53,55,57,59,61,-1,-1,-1,-1,-1,-1,-1,-1,-1,-1,-1,-1,-1,-1,-1,-1,-1,-1,-1,-1,-1,-1,-1,-1,-1,-1,-1,-1,-1,-1,-1,-1],"loss_changes":[9.048011E3,7.5225586E2,7.116553E2,2.2031982E2,8.1647156E1,7.2103836E1,1.20774414E2,5.4708313E1,3.447754E0,1.2438428E2,2.1238108E1,2.6870909E1,1.6907166E1,2.261847E1,3.3285645E1,2.452539E1,2.073703E1,6.5544434E0,2.5288086E0,2.2536058E0,5.4773895E1,4.1722465E0,1.112295E1,1.9887913E1,8.719166E0,7.113655E0,1.5327042E1,1.4816742E1,8.6763E0,1.3325867E1,2.6534912E1,0E0,0E0,0E0,0E0,0E0,0E0,0E0,0E0,0E0,0E0,0E0,0E0,0E0,0E0,0E0,0E0,0E0,0E0,0E0,0E0,0E0,0E0,0E0,0E0,0E0,0E0,0E0,0E0,0E0,0E0,0E0,0E0],"parents":[2147483647,0,0,1,1,2,2,3,3,4,4,5,5,6,6,7,7,8,8,9,9,10,10,11,11,12,12,13,13,14,14,15,15,16,16,17,17,18,18,19,19,20,20,21,21,22,22,23,23,24,24,25,25,26,26,27,27,28,28,29,29,30,30],"right_children":[2,4,6,8,10,12,14,16,18,20,22,24,26,28,30,32,34,36,38,40,42,44,46,48,50,52,54,56,58,60,62,-1,-1,-1,-1,-1,-1,-1,-1,-1,-1,-1,-1,-1,-1,-1,-1,-1,-1,-1,-1,-1,-1,-1,-1,-1,-1,-1,-1,-1,-1,-1,-1],"split_conditions":[1.5E1,1E1,7.3E1,7.2E1,6.8E1,6.5E1,7.5E1,1E0,1.28E2,2E0,2E0,8.4E1,6E1,7.2E1,8.8E1,3E0,2E0,1.4E1,6E0,4E0,1.8E2,4E0,1E1,2.9E1,1E0,2.3E1,1E0,1.7E1,1.4E1,1.3E1,8.3E1,-3.134876E-2,-4.6247013E-2,-2.6075426E-2,1.9229142E-4,-5.2209843E-2,-2.9315477E-2,-5.0168257E-2,-5.62613E-2,7.5352318E-3,-4.5573404E-3,-1.7631685E-2,-4.3763768E-2,7.6761255E-3,-2.0323487E-2,2.5282333E-2,6.84551E-3,-3.4422723E-3,1.0732445E-2,3.754345E-2,1.3537997E-2,3.8133643E-3,2.218159E-2,4.916603E-2,2.7914373E-2,2.3297109E-2,3.7816636E-2,4.482932E-2,6.8220064E-2,4.7118697E-2,2.171278E-2,4.8224248E-2,6.0557436E-2],"split_indices":[4,5,4,11,5,5,6,10,11,1,10,8,8,8,4,2,4,12,1,2,7,12,11,4,3,4,3,5,13,11,7,0,0,0,0,0,0,0,0,0,0,0,0,0,0,0,0,0,0,0,0,0,0,0,0,0,0,0,0,0,0,0,0],"split_type":[0,0,0,0,0,0,0,0,0,0,0,0,0,0,0,0,0,0,0,0,0,0,0,0,0,0,0,0,0,0,0,0,0,0,0,0,0,0,0,0,0,0,0,0,0,0,0,0,0,0,0,0,0,0,0,0,0,0,0,0,0,0,0],"sum_hessian":[1.4228453E4,7.300664E3,6.927789E3,5.584017E3,1.7166471E3,2.0635852E3,4.864204E3,1.8825322E3,3.7014849E3,1.2482256E3,4.6842142E2,1.173695E3,8.8989014E2,1.4210219E3,3.4431821E3,1.1977572E3,6.84775E2,3.995856E2,3.3018994E3,3.9639124E2,8.518344E2,8.438728E1,3.8403415E2,1.0173475E3,1.563475E2,4.361083E2,4.5378183E2,9.0057E2,5.2045184E2,5.1505554E2,2.9281267E3,4.590717E2,7.3868555E2,5.98899E2,8.587604E1,3.60568E2,3.901761E1,2.7627936E2,3.0256199E3,3.5383652E2,4.255471E1,5.263618E2,3.2547256E2,1.5892444E1,6.849484E1,1.1787586E2,2.661583E2,4.2263184E2,5.9471564E2,8.7053925E1,6.929359E1,6.186666E1,3.7424164E2,1.1672682E2,3.37055E2,2.4983597E2,6.507341E2,4.733328E2,4.711904E1,4.539731E2,6.1082397E1,5.6776953E2,2.3603572E3],"tree_param":{"num_deleted":"0","num_feature":"14","num_nodes":"63","size_leaf_vector":"1"}},{"base_weights":[-6.8355603E-3,-7.6631343E-1,7.754549E-1,-9.463825E-1,-1.9589034E-1,3.745135E-1,1.0154923E0,-6.6350675E-1,-1.0926162E0,-3.2173392E-1,1.5270886E-1,1.8487166E-1,5.707719E-1,8.209678E-1,1.1263175E0,-7.9282534E-1,-4.394022E-1,-9.8713905E-1,-1.1051267E0,1.18086524E-1,-5.260803E-1,-2.8335395E-1,2.4605949E-1,7.795113E-2,5.054131E-1,4.5509613E-1,8.523565E-1,6.0991216E-1,9.2539334E-1,9.17903E-1,1.1681279E0,-3.0425845E-2,-4.5379546E-2,-2.5194434E-2,1.8276749E-4,-5.1565673E-2,-2.848146E-2,-4.9490865E-2,-5.576807E-2,9.909284E-3,2.5519491E-3,-1.6538877E-2,-4.2758778E-2,5.789554E-3,-1.8800221E-2,2.4524927E-2,6.8222196E-3,2.9865166E-2,1.467266E-3,4.2968422E-2,4.90074E-4,1.1379104E-2,2.6884079E-2,1.9050872E-2,4.4851642E-2,2.6919166E-2,3.9359204E-2,3.9392006E-2,4.9948048E-2,2.9108763E-2,4.9117383E-2,4.6938527E-2,5.9621464E-2],"categories":[],"categories_nodes":[],"categories_segments":[],"categories_sizes":[],"default_left":[1,0,0,0,1,0,0,0,0,0,0,1,0,0,0,0,0,0,0,0,0,0,0,1,0,0,1,0,0,0,0,0,0,0,0,0,0,0,0,0,0,0,0,0,0,0,0,0,0,0,0,0,0,0,0,0,0,0,0,0,0,0,0],"id":16,"left_children":[1,3,5,7,9,11,13,15,17,19,21,23,25,27,29,31,33,35,37,39,41,43,45,47,49,51,53,55,57,59,61,-1,-1,-1,-1,-1,-1,-1,-1,-1,-1,-1,-1,-1,-1,-1,-1,-1,-1,-1,-1,-1,-1,-1,-1,-1,-1,-1,-1,-1,-1,-1,-1],"loss_changes":[8.313344E3,7.290664E2,6.62979E2,2.2248486E2,7.483389E1,9.602313E1,9.2010254E1,5.3017395E1,3.6015625E0,1.12665695E2,1.8503746E1,4.5029594E1,4.0939423E1,3.400049E1,2.283496E1,2.4119568E1,1.931662E1,6.5384827E0,2.6374512E0,2.1287365E0,5.471045E1,3.0136638E0,9.941629E0,2.4904877E1,5.7660957E1,1.6815796E1,7.413788E0,6.195801E0,9.810547E0,9.447601E0,1.1597168E1,0E0,0E0,0E0,0E0,0E0,0E0,0E0,0E0,0E0,0E0,0E0,0E0,0E0,0E0,0E0,0E0,0E0,0E0,0E0,0E0,0E0,0E0,0E0,0E0,0E0,0E0,0E0,0E0,0E0,0E0,0E0,0E0],"parents":[2147483647,0,0,1,1,2,2,3,3,4,4,5,5,6,6,7,7,8,8,9,9,10,10,11,11,12,12,13,13,14,14,15,15,16,16,17,17,18,18,19,19,20,20,21,21,22,22,23,23,24,24,25,25,26,26,27,27,28,28,29,29,30,30],"right_children":[2,4,6,8,10,12,14,16,18,20,22,24,26,28,30,32,34,36,38,40,42,44,46,48,50,52,54,56,58,60,62,-1,-1,-1,-1,-1,-1,-1,-1,-1,-1,-1,-1,-1,-1,-1,-1,-1,-1,-1,-1,-1,-1,-1,-1,-1,-1,-1,-1,-1,-1,-1,-1],"split_conditions":[1.5E1,1E1,8.1E1,7.2E1,7E1,5.8E1,8.8E1,1E0,1.28E2,2E0,2E0,7.5E1,5E0,6.5E1,8.2E1,3E0,2E0,1.4E1,6E0,3E0,1.8E2,4E0,1E1,3E0,1E0,2.1E1,3E0,7.6E1,6.7E1,9E1,6.6E1,-3.0425845E-2,-4.5379546E-2,-2.5194434E-2,1.8276749E-4,-5.1565673E-2,-2.848146E-2,-4.9490865E-2,-5.576807E-2,9.909284E-3,2.5519491E-3,-1.6538877E-2,-4.2758778E-2,5.789554E-3,-1.8800221E-2,2.4524927E-2,6.8222196E-3,2.9865166E-2,1.467266E-3,4.2968422E-2,4.90074E-4,1.1379104E-2,2.6884079E-2,1.9050872E-2,4.4851642E-2,2.6919166E-2,3.9359204E-2,3.9392006E-2,4.9948048E-2,2.9108763E-2,4.9117383E-2,4.6938527E-2,5.9621464E-2],"split_indices":[4,5,4,11,5,4,7,10,11,1,10,6,10,5,5,2,4,12,1,2,7,12,11,13,3,5,13,8,6,4,8,0,0,0,0,0,0,0,0,0,0,0,0,0,0,0,0,0,0,0,0,0,0,0,0,0,0,0,0,0,0,0,0],"split_type":[0,0,0,0,0,0,0,0,0,0,0,0,0,0,0,0,0,0,0,0,0,0,0,0,0,0,0,0,0,0,0,0,0,0,0,0,0,0,0,0,0,0,0,0,0,0,0,0,0,0,0,0,0,0,0,0,0,0,0,0,0,0,0],"sum_hessian":[1.3990411E4,7.0987197E3,6.8916914E3,5.3949893E3,1.7037303E3,2.5817993E3,4.309892E3,1.8404135E3,3.554576E3,1.251881E3,4.518494E2,1.3140206E3,1.2677788E3,1.5673049E3,2.7425872E3,1.1653914E3,6.7502216E2,3.8537384E2,3.1692021E3,3.972629E2,8.5461804E2,7.931499E1,3.725344E2,9.8627856E2,3.2774207E2,9.004767E2,3.673021E2,5.210486E2,1.0462562E3,4.6209814E2,2.280489E3,4.4962122E2,7.157701E2,5.891367E2,8.5885445E1,3.4717142E2,3.8202446E1,2.6632462E2,2.9028774E3,1.8012206E2,2.1714085E2,5.37589E2,3.1702905E2,1.4895275E1,6.441971E1,1.142608E2,2.582736E2,8.343958E1,9.02839E2,1.9076663E2,1.3697543E2,2.408145E2,6.596622E2,3.2625736E1,3.3467636E2,3.7412634E2,1.4692224E2,3.686606E2,6.775957E2,7.60331E1,3.8606503E2,2.2227596E2,2.0582131E3],"tree_param":{"num_deleted":"0","num_feature":"14","num_nodes":"63","size_leaf_vector":"1"}},{"base_weights":[-6.8635885E-3,-8.239153E-1,6.745561E-1,-9.908012E-1,-2.305077E-1,1.9218491E-1,9.3075633E-1,-7.584994E-1,-1.0767016E0,-4.229386E-1,8.654247E-2,3.360628E-2,4.2021328E-1,7.095074E-1,1.0460582E0,-5.6591785E-1,-8.707447E-1,-1.0879011E0,-9.5474505E-1,-5.332835E-1,-2.183164E-1,-3.2815713E-1,1.8623048E-1,-4.630453E-2,2.4446994E-1,1.9043589E-1,5.348702E-1,5.9293306E-1,8.4596395E-1,7.823877E-1,1.0937237E0,-8.069416E-3,-3.1622022E-2,-4.6966206E-2,-3.0128358E-2,-4.8990823E-2,-5.502103E-2,-4.939194E-2,-3.4297936E-2,-3.1292107E-2,-1.0148085E-2,-1.2739685E-2,3.8021173E-2,-1.0801173E-2,-3.168535E-2,3.0556751E-2,6.897386E-3,-1.6075254E-3,-5.71083E-2,7.903878E-3,3.2811087E-2,-1.6987795E-3,1.7739331E-2,9.87745E-3,2.9444827E-2,1.6809301E-2,3.2623403E-2,3.4579203E-2,4.503728E-2,8.989154E-3,4.225479E-2,4.4571437E-2,5.648437E-2],"categories":[],"categories_nodes":[],"categories_segments":[],"categories_sizes":[],"default_left":[0,0,1,0,0,1,0,0,0,1,0,1,1,0,0,0,0,0,1,0,0,0,0,0,0,0,0,0,0,0,0,0,0,0,0,0,0,0,0,0,0,0,0,0,0,0,0,0,0,0,0,0,0,0,0,0,0,0,0,0,0,0,0],"id":17,"left_children":[1,3,5,7,9,11,13,15,17,19,21,23,25,27,29,31,33,35,37,39,41,43,45,47,49,51,53,55,57,59,61,-1,-1,-1,-1,-1,-1,-1,-1,-1,-1,-1,-1,-1,-1,-1,-1,-1,-1,-1,-1,-1,-1,-1,-1,-1,-1,-1,-1,-1,-1,-1,-1],"loss_changes":[7.6592896E3,6.1930273E2,9.268357E2,9.661035E1,8.3894394E1,9.412208E1,1.24229004E2,2.8071472E1,3.8266602E0,1.920021E1,2.155712E1,2.5902802E1,2.8028168E1,2.6245483E1,3.9592773E1,1.3068863E1,1.4753723E1,3.3266602E0,2.059967E0,1.6844742E1,1.0954689E1,3.3281517E0,8.528969E0,1.7259779E1,1.4923309E1,1.3178433E1,1.2854706E1,1.3692261E1,5.9086304E0,1.8600403E1,1.8804932E1,0E0,0E0,0E0,0E0,0E0,0E0,0E0,0E0,0E0,0E0,0E0,0E0,0E0,0E0,0E0,0E0,0E0,0E0,0E0,0E0,0E0,0E0,0E0,0E0,0E0,0E0,0E0,0E0,0E0,0E0,0E0,0E0],"parents":[2147483647,0,0,1,1,2,2,3,3,4,4,5,5,6,6,7,7,8,8,9,9,10,10,11,11,12,12,13,13,14,14,15,15,16,16,17,17,18,18,19,19,20,20,21,21,22,22,23,23,24,24,25,25,26,26,27,27,28,28,29,29,30,30],"right_children":[2,4,6,8,10,12,14,16,18,20,22,24,26,28,30,32,34,36,38,40,42,44,46,48,50,52,54,56,58,60,62,-1,-1,-1,-1,-1,-1,-1,-1,-1,-1,-1,-1,-1,-1,-1,-1,-1,-1,-1,-1,-1,-1,-1,-1,-1,-1,-1,-1,-1,-1,-1,-1],"split_conditions":[1.1E1,1E0,7.1E1,7.6E1,5.7E1,2.7E1,8.1E1,3E0,1E0,8.8E1,2E0,4E1,2.3E1,7.9E1,5.9E1,1.1E1,3E0,1.28E2,1.4E1,8.6E1,1.8E1,1.6E1,7E0,1E0,1.8E2,5.8E1,2.3E1,4E0,8.9E1,2.4E1,8.9E1,-8.069416E-3,-3.1622022E-2,-4.6966206E-2,-3.0128358E-2,-4.8990823E-2,-5.502103E-2,-4.939194E-2,-3.4297936E-2,-3.1292107E-2,-1.0148085E-2,-1.2739685E-2,3.8021173E-2,-1.0801173E-2,-3.168535E-2,3.0556751E-2,6.897386E-3,-1.6075254E-3,-5.71083E-2,7.903878E-3,3.2811087E-2,-1.6987795E-3,1.7739331E-2,9.87745E-3,2.9444827E-2,1.6809301E-2,3.2623403E-2,3.4579203E-2,4.503728E-2,8.989154E-3,4.225479E-2,4.4571437E-2,5.648437E-2],"split_indices":[4,10,4,11,5,6,6,2,6,8,10,4,8,5,8,11,9,11,13,7,12,11,11,3,7,5,7,12,4,5,4,0,0,0,0,0,0,0,0,0,0,0,0,0,0,0,0,0,0,0,0,0,0,0,0,0,0,0,0,0,0,0,0],"split_type":[0,0,0,0,0,0,0,0,0,0,0,0,0,0,0,0,0,0,0,0,0,0,0,0,0,0,0,0,0,0,0,0,0,0,0,0,0,0,0,0,0,0,0,0,0,0,0,0,0,0,0,0,0,0,0,0,0,0,0,0,0,0,0],"sum_hessian":[1.3755019E4,6.254906E3,7.5001123E3,4.881419E3,1.3734869E3,2.602293E3,4.8978193E3,1.320419E3,3.561E3,8.545134E2,5.189736E2,1.5355602E3,1.0667329E3,1.6804365E3,3.2173828E3,4.8843814E2,8.3198083E2,3.2542366E3,3.0676343E2,5.541016E2,3.0041183E2,1.0013261E2,4.1884094E2,1.1141226E3,4.214376E2,3.5598477E2,7.107481E2,9.091218E2,7.713147E2,4.9524695E2,2.722136E3,6.946167E1,4.189765E2,6.605579E2,1.7142291E2,3.460375E2,2.908199E3,2.7075247E2,3.6010963E1,4.321228E2,1.219788E2,2.90331E2,1.0080861E1,7.449917E1,2.5633434E1,4.154791E1,3.7729303E2,1.1009324E3,1.3190183E1,3.4949222E2,7.194538E1,1.5082932E2,2.0515547E2,9.8763054E1,6.119851E2,1.7237862E2,7.367432E2,2.0558406E2,5.6573065E2,4.704333E1,4.482036E2,4.147835E2,2.3073523E3],"tree_param":{"num_deleted":"0","num_feature":"14","num_nodes":"63","size_leaf_vector":"1"}},{"base_weights":[-6.893148E-3,-8.076661E-1,6.4486605E-1,-9.775238E-1,-2.2086383E-1,1.8229857E-1,8.933612E-1,-7.402852E-1,-1.0665398E0,-4.0737474E-1,8.2092814E-2,3.189741E-2,3.9786762E-1,6.38932E-1,9.917015E-1,-5.4841274E-1,-8.5335875E-1,-1.0782332E0,-9.4008964E-1,-5.1556456E-1,-2.0877637E-1,-1.9702934E-1,2.1756117E-1,-4.409154E-2,2.3163626E-1,1.8059663E-1,5.060457E-1,5.095239E-1,8.03165E-1,8.262065E-1,1.06255E0,-7.7123726E-3,-3.0714989E-2,-4.4763725E-2,-2.0279156E-2,-4.832784E-2,-5.456193E-2,-4.868875E-2,-3.347117E-2,-3.09401E-2,-1.149577E-2,-1.2201561E-2,3.5528082E-2,1.4893666E-2,-1.6953757E-2,-2.9624032E-3,1.4701149E-2,6.812956E-3,-6.2048244E-3,2.273126E-2,4.142998E-3,-1.6154855E-3,1.67917E-2,3.30283E-2,1.9886633E-2,1.8003259E-2,3.0625282E-2,3.3122085E-2,4.4407625E-2,3.532301E-2,4.440006E-2,3.9877117E-2,5.493259E-2],"categories":[],"categories_nodes":[],"categories_segments":[],"categories_sizes":[],"default_left":[0,0,1,0,0,1,0,0,0,1,0,1,1,0,0,0,0,0,1,0,0,0,1,0,0,0,0,0,1,0,0,0,0,0,0,0,0,0,0,0,0,0,0,0,0,0,0,0,0,0,0,0,0,0,0,0,0,0,0,0,0,0,0],"id":18,"left_children":[1,3,5,7,9,11,13,15,17,19,21,23,25,27,29,31,33,35,37,39,41,43,45,47,49,51,53,55,57,59,61,-1,-1,-1,-1,-1,-1,-1,-1,-1,-1,-1,-1,-1,-1,-1,-1,-1,-1,-1,-1,-1,-1,-1,-1,-1,-1,-1,-1,-1,-1,-1,-1],"loss_changes":[7.059073E3,6.0469214E2,8.569304E2,9.8598145E1,7.708707E1,8.451365E1,1.2072705E2,2.746167E1,4.0427246E0,1.8031372E1,1.972245E1,2.333488E1,2.5089188E1,2.8387573E1,4.0118652E1,1.237468E1,1.4805725E1,3.4824219E0,2.0586853E0,1.5953705E1,9.877106E0,1.2092915E1,7.44372E0,1.6091751E1,1.4018059E1,1.1831953E1,1.169841E1,1.148555E1,6.5323486E0,7.161804E0,2.2514404E1,0E0,0E0,0E0,0E0,0E0,0E0,0E0,0E0,0E0,0E0,0E0,0E0,0E0,0E0,0E0,0E0,0E0,0E0,0E0,0E0,0E0,0E0,0E0,0E0,0E0,0E0,0E0,0E0,0E0,0E0,0E0,0E0],"parents":[2147483647,0,0,1,1,2,2,3,3,4,4,5,5,6,6,7,7,8,8,9,9,10,10,11,11,12,12,13,13,14,14,15,15,16,16,17,17,18,18,19,19,20,20,21,21,22,22,23,23,24,24,25,25,26,26,27,27,28,28,29,29,30,30],"right_children":[2,4,6,8,10,12,14,16,18,20,22,24,26,28,30,32,34,36,38,40,42,44,46,48,50,52,54,56,58,60,62,-1,-1,-1,-1,-1,-1,-1,-1,-1,-1,-1,-1,-1,-1,-1,-1,-1,-1,-1,-1,-1,-1,-1,-1,-1,-1,-1,-1,-1,-1,-1,-1],"split_conditions":[1.1E1,1E0,7.1E1,7.6E1,5.7E1,2.7E1,7.7E1,3E0,1E0,8.8E1,2.7E1,4E1,2.3E1,7.7E1,8.8E1,1.1E1,4E0,1.28E2,1.4E1,7.9E1,1.8E1,8E0,4.5E1,3E0,3E0,5.8E1,1E0,1.7E1,6.3E1,6.7E1,8.8E1,-7.7123726E-3,-3.0714989E-2,-4.4763725E-2,-2.0279156E-2,-4.832784E-2,-5.456193E-2,-4.868875E-2,-3.347117E-2,-3.09401E-2,-1.149577E-2,-1.2201561E-2,3.5528082E-2,1.4893666E-2,-1.6953757E-2,-2.9624032E-3,1.4701149E-2,6.812956E-3,-6.2048244E-3,2.273126E-2,4.142998E-3,-1.6154855E-3,1.67917E-2,3.30283E-2,1.9886633E-2,1.8003259E-2,3.0625282E-2,3.3122085E-2,4.4407625E-2,3.532301E-2,4.440006E-2,3.9877117E-2,5.493259E-2],"split_indices":[4,10,4,11,5,6,5,2,6,8,8,4,8,8,7,11,9,11,13,7,12,11,6,2,9,5,3,5,6,6,4,0,0,0,0,0,0,0,0,0,0,0,0,0,0,0,0,0,0,0,0,0,0,0,0,0,0,0,0,0,0,0,0],"split_type":[0,0,0,0,0,0,0,0,0,0,0,0,0,0,0,0,0,0,0,0,0,0,0,0,0,0,0,0,0,0,0,0,0,0,0,0,0,0,0,0,0,0,0,0,0,0,0,0,0,0,0,0,0,0,0,0,0,0,0,0,0,0,0],"sum_hessian":[1.3523433E4,6.0679316E3,7.455501E3,4.7052646E3,1.3626671E3,2.6060808E3,4.8494204E3,1.2863363E3,3.4189282E3,8.432114E2,5.194557E2,1.5357474E3,1.0703334E3,1.3539456E3,3.4954749E3,4.7914084E2,8.071955E2,3.1226375E3,2.9629092E2,5.448171E2,2.9839438E2,1.695848E2,3.4987088E2,1.113069E3,4.2267844E2,3.566623E2,7.136711E2,7.595542E2,5.9439136E2,1.0516302E3,2.4438445E3,6.9099304E1,4.1004153E2,7.371888E2,7.000675E1,3.3357608E2,2.7890613E3,2.6118747E2,3.5103443E1,3.9932816E2,1.454889E2,2.8808154E2,1.0312815E1,3.7574436E1,1.3201036E2,7.5774605E1,2.7409628E2,3.4182007E2,7.712489E2,1.6832849E2,2.5434995E2,1.5072983E2,2.0593246E2,2.9200113E2,4.2166995E2,3.1169028E2,4.4786392E2,2.2711903E2,3.6727234E2,3.6219565E2,6.8943463E2,2.9577628E2,2.148068E3],"tree_param":{"num_deleted":"0","num_feature":"14","num_nodes":"63","size_leaf_vector":"1"}},{"base_weights":[-6.90099E-3,-7.916203E-1,6.1674607E-1,-9.644649E-1,-2.1158455E-1,1.7295147E-1,8.580218E-1,-7.2230864E-1,-1.056706E0,-3.6580947E-1,1.2933989E-1,2.3147313E-2,3.6749348E-1,6.434416E-1,9.721251E-1,-5.312459E-1,-8.3618075E-1,-1.0689136E0,-9.2564374E-1,-4.789321E-1,-1.4570288E-1,-1.7427401E-1,2.3702978E-1,-4.2508382E-2,2.0326428E-1,1.3118075E-1,4.6859163E-1,5.345916E-1,7.7266204E-1,7.133697E-1,1.0194691E0,-1.4331901E-2,-3.1801406E-2,-4.538633E-2,-2.8141124E-2,-4.767442E-2,-5.4121595E-2,-4.7997504E-2,-3.2653004E-2,-2.8293744E-2,-1.4809029E-2,-1.4763876E-2,8.259415E-3,2.053315E-2,-1.6756248E-2,1.7282045E-2,2.7163564E-3,-3.3769298E-3,2.7399918E-2,1.9540533E-2,-1.0570771E-3,-3.7147496E-3,1.524061E-2,1.9294687E-2,3.250512E-2,1.4538661E-2,2.9564304E-2,3.374944E-2,4.2769607E-2,-4.210822E-4,3.798728E-2,4.0890068E-2,5.280005E-2],"categories":[],"categories_nodes":[],"categories_segments":[],"categories_sizes":[],"default_left":[0,0,1,0,0,1,0,0,0,1,0,1,1,0,0,0,0,0,1,1,0,0,0,1,1,0,0,0,1,0,0,0,0,0,0,0,0,0,0,0,0,0,0,0,0,0,0,0,0,0,0,0,0,0,0,0,0,0,0,0,0,0,0],"id":19,"left_children":[1,3,5,7,9,11,13,15,17,19,21,23,25,27,29,31,33,35,37,39,41,43,45,47,49,51,53,55,57,59,61,-1,-1,-1,-1,-1,-1,-1,-1,-1,-1,-1,-1,-1,-1,-1,-1,-1,-1,-1,-1,-1,-1,-1,-1,-1,-1,-1,-1,-1,-1,-1,-1],"loss_changes":[6.507725E3,5.9014575E2,7.932124E2,1.0056299E2,7.119367E1,7.607653E1,1.16887695E2,2.6848755E1,4.2631836E0,2.3134407E1,1.3845644E1,1.7463697E1,2.707138E1,2.306427E1,3.7634277E1,1.189476E1,1.4827515E1,3.6433105E0,2.058609E0,9.60611E0,1.4827092E1,1.0592575E1,6.174021E0,1.6037624E1,1.6610495E1,1.2212733E1,1.1682892E1,1.2396362E1,5.571167E0,1.6330246E1,1.8620605E1,0E0,0E0,0E0,0E0,0E0,0E0,0E0,0E0,0E0,0E0,0E0,0E0,0E0,0E0,0E0,0E0,0E0,0E0,0E0,0E0,0E0,0E0,0E0,0E0,0E0,0E0,0E0,0E0,0E0,0E0,0E0,0E0],"parents":[2147483647,0,0,1,1,2,2,3,3,4,4,5,5,6,6,7,7,8,8,9,9,10,10,11,11,12,12,13,13,14,14,15,15,16,16,17,17,18,18,19,19,20,20,21,21,22,22,23,23,24,24,25,25,26,26,27,27,28,28,29,29,30,30],"right_children":[2,4,6,8,10,12,14,16,18,20,22,24,26,28,30,32,34,36,38,40,42,44,46,48,50,52,54,56,58,60,62,-1,-1,-1,-1,-1,-1,-1,-1,-1,-1,-1,-1,-1,-1,-1,-1,-1,-1,-1,-1,-1,-1,-1,-1,-1,-1,-1,-1,-1,-1,-1,-1],"split_conditions":[1.1E1,1E0,7.1E1,7.6E1,7E1,2.3E1,8.1E1,3E0,1E0,6.4E1,1.3E1,4E1,1.7E1,7.9E1,5.9E1,2.1E1,3E0,1.28E2,1.4E1,8.8E1,2.425E3,4E0,1.5E1,8.4E1,1E0,6E1,6.1E1,4E0,6.3E1,7.7E1,8.9E1,-1.4331901E-2,-3.1801406E-2,-4.538633E-2,-2.8141124E-2,-4.767442E-2,-5.4121595E-2,-4.7997504E-2,-3.2653004E-2,-2.8293744E-2,-1.4809029E-2,-1.4763876E-2,8.259415E-3,2.053315E-2,-1.6756248E-2,1.7282045E-2,2.7163564E-3,-3.3769298E-3,2.7399918E-2,1.9540533E-2,-1.0570771E-3,-3.7147496E-3,1.524061E-2,1.9294687E-2,3.250512E-2,1.4538661E-2,2.9564304E-2,3.374944E-2,4.2769607E-2,-4.210822E-4,3.798728E-2,4.0890068E-2,5.280005E-2],"split_indices":[4,10,4,11,5,6,6,2,6,6,8,4,8,5,8,11,9,11,13,8,0,12,11,8,7,5,4,12,8,4,4,0,0,0,0,0,0,0,0,0,0,0,0,0,0,0,0,0,0,0,0,0,0,0,0,0,0,0,0,0,0,0,0],"split_type":[0,0,0,0,0,0,0,0,0,0,0,0,0,0,0,0,0,0,0,0,0,0,0,0,0,0,0,0,0,0,0,0,0,0,0,0,0,0,0,0,0,0,0,0,0,0,0,0,0,0,0,0,0,0,0,0,0,0,0,0,0,0,0],"sum_hessian":[1.3295686E4,5.887422E3,7.4082637E3,4.5352905E3,1.3521315E3,2.6097302E3,4.7985337E3,1.2534628E3,3.2818274E3,9.309308E2,4.2120065E2,1.4750269E3,1.1347034E3,1.6681276E3,3.130406E3,4.7019727E2,7.8326556E2,2.995645E3,2.8618237E2,6.1412726E2,3.1680347E2,1.1011926E2,3.110814E2,1.0815481E3,3.934787E2,3.4067868E2,7.940247E2,9.082187E2,7.5990894E2,4.8666125E2,2.6437446E3,1.4213268E2,3.2806458E2,6.189481E2,1.6431744E2,3.2156E2,2.6740852E3,2.5195107E2,3.423132E1,4.147273E2,1.9940001E2,2.1392906E2,1.0287442E2,2.3415468E1,8.670379E1,1.9454095E2,1.1654046E2,1.0384176E3,4.313049E1,2.1393866E2,1.7954002E2,1.5629318E2,1.8438548E2,5.476408E2,2.4638394E2,1.7249988E2,7.357188E2,3.526822E2,4.072267E2,2.943018E1,4.5723108E2,4.0904776E2,2.234697E3],"tree_param":{"num_deleted":"0","num_feature":"14","num_nodes":"63","size_leaf_vector":"1"}},{"base_weights":[-6.9011087E-3,-7.7575564E-1,5.9008694E-1,-9.5160073E-1,-2.0266184E-1,1.6415362E-1,8.2445776E-1,-7.045912E-1,-1.0471629E0,-3.786226E-1,7.6152E-2,7.481645E-2,4.573952E-1,5.861324E-1,9.251918E-1,-5.144327E-1,-8.192353E-1,-1.0599056E0,-9.113741E-1,-4.8374683E-1,-1.888284E-1,-3.0021808E-1,1.6436318E-1,1.5935972E-2,3.3367607E-1,7.337464E-1,2.9444236E-1,4.472524E-1,7.388986E-1,7.211725E-1,9.797635E-1,-6.7283646E-3,-2.898397E-2,-4.460055E-2,-2.7257511E-2,-4.7028936E-2,-5.36982E-2,-4.731637E-2,-3.1843252E-2,-2.8742557E-2,-8.398769E-3,-1.1159434E-2,3.4121256E-2,-1.1500534E-2,-4.1393317E-2,3.3995472E-3,1.7394457E-2,-6.509905E-4,2.22399E-2,9.963143E-3,2.8562117E-2,5.1752746E-2,2.7658358E-2,-3.8399395E-2,2.0131567E-2,1.2185911E-2,2.5488114E-2,2.9551351E-2,4.0914234E-2,3.8871482E-2,2.806747E-2,3.777289E-2,5.106601E-2],"categories":[],"categories_nodes":[],"categories_segments":[],"categories_sizes":[],"default_left":[0,0,1,0,0,1,0,0,0,1,0,1,0,0,0,0,0,0,1,0,0,0,0,1,0,0,0,0,0,0,0,0,0,0,0,0,0,0,0,0,0,0,0,0,0,0,0,0,0,0,0,0,0,0,0,0,0,0,0,0,0,0,0],"id":20,"left_children":[1,3,5,7,9,11,13,15,17,19,21,23,25,27,29,31,33,35,37,39,41,43,45,47,49,51,53,55,57,59,61,-1,-1,-1,-1,-1,-1,-1,-1,-1,-1,-1,-1,-1,-1,-1,-1,-1,-1,-1,-1,-1,-1,-1,-1,-1,-1,-1,-1,-1,-1,-1,-1],"loss_changes":[6.000855E3,5.756765E2,7.345344E2,1.0247217E2,6.5914825E1,6.843133E1,1.1342236E2,2.6235474E1,4.4853516E0,1.6339317E1,1.7328264E1,3.0544865E1,2.7257195E1,2.9649414E1,3.642383E1,1.138752E1,1.4696472E1,3.8115234E0,2.0592957E0,1.5131248E1,8.989044E0,3.4834146E0,7.4450607E0,2.0296747E1,1.1745106E1,1.1703926E1,4.4614147E1,9.32515E0,7.3973694E0,5.9256287E0,2.3728516E1,0E0,0E0,0E0,0E0,0E0,0E0,0E0,0E0,0E0,0E0,0E0,0E0,0E0,0E0,0E0,0E0,0E0,0E0,0E0,0E0,0E0,0E0,0E0,0E0,0E0,0E0,0E0,0E0,0E0,0E0,0E0,0E0],"parents":[2147483647,0,0,1,1,2,2,3,3,4,4,5,5,6,6,7,7,8,8,9,9,10,10,11,11,12,12,13,13,14,14,15,15,16,16,17,17,18,18,19,19,20,20,21,21,22,22,23,23,24,24,25,25,26,26,27,27,28,28,29,29,30,30],"right_children":[2,4,6,8,10,12,14,16,18,20,22,24,26,28,30,32,34,36,38,40,42,44,46,48,50,52,54,56,58,60,62,-1,-1,-1,-1,-1,-1,-1,-1,-1,-1,-1,-1,-1,-1,-1,-1,-1,-1,-1,-1,-1,-1,-1,-1,-1,-1,-1,-1,-1,-1,-1,-1],"split_conditions":[1.1E1,1E0,7.1E1,7.6E1,5.7E1,7.5E1,7.9E1,3E0,1E0,8.8E1,2E0,5.9E1,1E0,7E1,6.6E1,1.1E1,3E0,1.28E2,1.4E1,8.6E1,1.8E1,4E0,2.425E3,8.5E1,7.7E1,6E0,4.4E1,8E1,9E1,8E0,9E1,-6.7283646E-3,-2.898397E-2,-4.460055E-2,-2.7257511E-2,-4.7028936E-2,-5.36982E-2,-4.731637E-2,-3.1843252E-2,-2.8742557E-2,-8.398769E-3,-1.1159434E-2,3.4121256E-2,-1.1500534E-2,-4.1393317E-2,3.3995472E-3,1.7394457E-2,-6.509905E-4,2.22399E-2,9.963143E-3,2.8562117E-2,5.1752746E-2,2.7658358E-2,-3.8399395E-2,2.0131567E-2,1.2185911E-2,2.5488114E-2,2.9551351E-2,4.0914234E-2,3.8871482E-2,2.806747E-2,3.777289E-2,5.106601E-2],"split_indices":[4,10,4,11,5,6,5,2,6,8,10,4,3,7,8,11,9,11,13,7,12,2,0,7,8,12,4,4,4,11,4,0,0,0,0,0,0,0,0,0,0,0,0,0,0,0,0,0,0,0,0,0,0,0,0,0,0,0,0,0,0,0,0],"split_type":[0,0,0,0,0,0,0,0,0,0,0,0,0,0,0,0,0,0,0,0,0,0,0,0,0,0,0,0,0,0,0,0,0,0,0,0,0,0,0,0,0,0,0,0,0,0,0,0,0,0,0,0,0,0,0,0,0,0,0,0,0,0,0],"sum_hessian":[1.3071849E4,5.7133657E3,7.3584824E3,4.3714062E3,1.3419597E3,2.612451E3,4.7460317E3,1.2217631E3,3.149643E3,8.225111E2,5.1944867E2,2.0033713E3,6.090795E2,1.4120651E3,3.3339663E3,4.616004E2,7.6016266E2,2.8732092E3,2.76434E2,5.2832874E2,2.9418237E2,9.8172646E1,4.2127603E2,1.6329911E3,3.703803E2,2.2462904E2,3.844505E2,7.417062E2,6.703589E2,7.065826E2,2.6273838E3,6.8112495E1,3.934879E2,5.988896E2,1.6127304E2,3.0998312E2,2.563226E3,2.4304031E2,3.339367E1,4.0939288E2,1.1893584E2,2.8373627E2,1.04460945E1,8.791132E1,1.0261322E1,2.7712433E2,1.4415169E2,1.530617E3,1.02374115E2,2.3771928E2,1.3266103E2,8.2402756E1,1.4222629E2,3.49674E1,3.4948312E2,1.7542276E2,5.662834E2,2.3712112E2,4.332378E2,5.197634E2,1.8681912E2,4.136821E2,2.2137017E3],"tree_param":{"num_deleted":"0","num_feature":"14","num_nodes":"63","size_leaf_vector":"1"}},{"base_weights":[-6.8883323E-3,-7.6002276E-1,5.647079E-1,-9.388896E-1,-1.9406421E-1,1.700832E-1,8.007968E-1,-6.8708766E-1,-1.0378765E0,-3.643191E-1,7.219252E-2,6.750883E-2,4.14412E-1,5.949443E-1,9.0913254E-1,-4.9792752E-1,-8.0247265E-1,-9.926488E-1,-1.0802138E0,-4.49193E-1,-1.3428925E-1,-2.881139E-1,1.5572679E-1,1.2905186E-2,3.090808E-1,6.256631E-1,3.1910625E-1,4.566325E-1,6.9099987E-1,6.711108E-1,9.531373E-1,-1.4285739E-2,-3.073111E-2,-4.2345982E-2,-1.7456463E-2,-3.8168196E-2,-5.0653476E-2,-5.4421008E-2,-4.5711458E-2,-2.7500508E-2,-1.2397884E-2,-1.0425808E-2,2.4664178E-2,-1.1002867E-2,-4.0356264E-2,2.730161E-2,5.552308E-3,-1.0940637E-3,2.3461659E-2,3.2735486E-2,1.0361995E-2,1.7679242E-2,4.02973E-2,-4.291121E-2,2.0327015E-2,-1.9747624E-4,2.4703344E-2,1.722989E-2,3.5772603E-2,4.8898566E-3,3.669267E-2,3.6480226E-2,4.9441006E-2],"categories":[],"categories_nodes":[],"categories_segments":[],"categories_sizes":[],"default_left":[0,0,1,0,0,1,0,0,0,0,0,1,0,0,0,0,0,0,0,1,0,0,0,1,0,0,0,0,0,0,0,0,0,0,0,0,0,0,0,0,0,0,0,0,0,0,0,0,0,0,0,0,0,0,0,0,0,0,0,0,0,0,0],"id":21,"left_children":[1,3,5,7,9,11,13,15,17,19,21,23,25,27,29,31,33,35,37,39,41,43,45,47,49,51,53,55,57,59,61,-1,-1,-1,-1,-1,-1,-1,-1,-1,-1,-1,-1,-1,-1,-1,-1,-1,-1,-1,-1,-1,-1,-1,-1,-1,-1,-1,-1,-1,-1,-1,-1],"loss_changes":[5.534098E3,5.6133203E2,6.807744E2,1.0433472E2,6.046746E1,6.856645E1,1.01431885E2,2.5622375E1,4.7165527E0,1.5820908E1,1.5722104E1,2.5439632E1,1.6090271E1,2.06698E1,3.0719727E1,1.1075798E1,1.4592712E1,6.12854E0,1.1166992E0,1.1910072E1,1.0382175E1,3.2974977E0,7.3246603E0,2.5001245E1,1.23802185E1,1.2002342E1,5.79532E1,1.1214676E1,7.632782E0,1.6853806E1,1.9414062E1,0E0,0E0,0E0,0E0,0E0,0E0,0E0,0E0,0E0,0E0,0E0,0E0,0E0,0E0,0E0,0E0,0E0,0E0,0E0,0E0,0E0,0E0,0E0,0E0,0E0,0E0,0E0,0E0,0E0,0E0,0E0,0E0],"parents":[2147483647,0,0,1,1,2,2,3,3,4,4,5,5,6,6,7,7,8,8,9,9,10,10,11,11,12,12,13,13,14,14,15,15,16,16,17,17,18,18,19,19,20,20,21,21,22,22,23,23,24,24,25,25,26,26,27,27,28,28,29,29,30,30],"right_children":[2,4,6,8,10,12,14,16,18,20,22,24,26,28,30,32,34,36,38,40,42,44,46,48,50,52,54,56,58,60,62,-1,-1,-1,-1,-1,-1,-1,-1,-1,-1,-1,-1,-1,-1,-1,-1,-1,-1,-1,-1,-1,-1,-1,-1,-1,-1,-1,-1,-1,-1,-1,-1],"split_conditions":[1.1E1,1E0,7.3E1,7.6E1,5.7E1,6.8E1,8.1E1,3E0,3E0,7.4E1,2E0,5.9E1,1E0,3E0,5.9E1,2.4E1,4E0,1.28E2,1E0,8.9E1,2E0,4E0,7E0,8.2E1,3E0,2.3E1,4.4E1,3E0,3E0,2.4E1,8.8E1,-1.4285739E-2,-3.073111E-2,-4.2345982E-2,-1.7456463E-2,-3.8168196E-2,-5.0653476E-2,-5.4421008E-2,-4.5711458E-2,-2.7500508E-2,-1.2397884E-2,-1.0425808E-2,2.4664178E-2,-1.1002867E-2,-4.0356264E-2,2.730161E-2,5.552308E-3,-1.0940637E-3,2.3461659E-2,3.2735486E-2,1.0361995E-2,1.7679242E-2,4.02973E-2,-4.291121E-2,2.0327015E-2,-1.9747624E-4,2.4703344E-2,1.722989E-2,3.5772603E-2,4.8898566E-3,3.669267E-2,3.6480226E-2,4.9441006E-2],"split_indices":[4,10,4,11,5,5,6,2,2,6,10,4,3,10,8,11,9,11,5,8,4,2,11,6,9,4,4,12,12,5,4,0,0,0,0,0,0,0,0,0,0,0,0,0,0,0,0,0,0,0,0,0,0,0,0,0,0,0,0,0,0,0,0],"split_type":[0,0,0,0,0,0,0,0,0,0,0,0,0,0,0,0,0,0,0,0,0,0,0,0,0,0,0,0,0,0,0,0,0,0,0,0,0,0,0,0,0,0,0,0,0,0,0,0,0,0,0,0,0,0,0,0,0,0,0,0,0,0,0],"sum_hessian":[1.2853386E4,5.54585E3,7.307535E3,4.2135356E3,1.3323147E3,2.736003E3,4.571532E3,1.1912314E3,3.0223042E3,8.124405E2,5.198742E2,1.9279045E3,8.0809845E2,1.5785554E3,2.9929766E3,4.533435E2,7.378879E2,1.4730903E3,1.5492139E3,5.927728E2,2.196677E2,9.738344E1,4.2249078E2,1.5733306E3,3.5457388E2,2.4950043E2,5.58598E2,6.493297E2,9.2922577E2,4.6953168E2,2.5234448E3,1.620674E2,2.9127612E2,6.712123E2,6.6675606E1,1.2360677E2,1.3494836E3,1.4709323E3,7.828158E1,3.937662E2,1.990066E2,1.9703133E2,2.2636366E1,8.735306E1,1.0030378E1,4.224458E1,3.802462E2,1.4627736E3,1.1055704E2,7.946293E1,2.7511096E2,1.0061548E2,1.4888495E2,3.8006824E1,5.2059125E2,4.8875393E1,6.0045435E2,6.2263374E1,8.6696234E2,4.656846E1,4.229632E2,3.5032208E2,2.1731228E3],"tree_param":{"num_deleted":"0","num_feature":"14","num_nodes":"63","size_leaf_vector":"1"}},{"base_weights":[-6.871604E-3,-7.4443704E-1,5.4056126E-1,-9.2629784E-1,-1.8580568E-1,2.1094282E-1,8.063474E-1,-6.697873E-1,-1.028809E0,-3.154914E-1,1.4097947E-1,7.822944E-2,4.177444E-1,6.2443095E-1,9.1508806E-1,-4.8177356E-1,-7.858429E-1,-1.0427792E0,-8.816228E-1,-4.2912441E-1,-1.133215E-1,-1.3869283E-1,2.2255541E-1,-1.5132671E-2,2.954018E-1,3.172521E-1,6.684165E-1,4.3948245E-1,7.206935E-1,7.0754385E-1,9.587531E-1,-1.6491648E-2,-3.215378E-2,-4.3080334E-2,-2.5373358E-2,-4.5740403E-2,-5.2901197E-2,-4.5934852E-2,-2.9715208E-2,-2.5642693E-2,-1.2752036E-2,1.8541269E-2,-1.0139673E-2,-1.0126515E-2,6.124684E-2,1.6965432E-2,9.5878897E-4,1.1042962E-3,-1.8769499E-2,2.2931151E-2,-3.7673668E-3,5.9571867E-3,1.9511523E-2,1.8783629E-2,3.6874115E-2,1.7136244E-2,2.7291356E-2,2.9669106E-2,3.9580293E-2,1.9521846E-2,3.8510017E-2,3.9142504E-2,4.9505714E-2],"categories":[],"categories_nodes":[],"categories_segments":[],"categories_sizes":[],"default_left":[0,0,1,0,0,1,0,0,0,0,0,1,0,0,0,0,0,0,1,1,0,0,0,0,0,0,1,0,0,0,0,0,0,0,0,0,0,0,0,0,0,0,0,0,0,0,0,0,0,0,0,0,0,0,0,0,0,0,0,0,0,0,0],"id":22,"left_children":[1,3,5,7,9,11,13,15,17,19,21,23,25,27,29,31,33,35,37,39,41,43,45,47,49,51,53,55,57,59,61,-1,-1,-1,-1,-1,-1,-1,-1,-1,-1,-1,-1,-1,-1,-1,-1,-1,-1,-1,-1,-1,-1,-1,-1,-1,-1,-1,-1,-1,-1,-1,-1],"loss_changes":[5.104241E3,5.469597E2,6.355149E2,1.0613794E2,5.615075E1,8.890146E1,7.888403E1,2.4995117E1,5.04541E0,2.1731918E1,8.627829E0,4.004878E1,3.1689758E1,2.6492676E1,2.2084229E1,1.0728867E1,1.4694183E1,4.1899414E0,2.2015228E0,8.710739E0,1.4911535E1,7.7090473E0,6.929742E0,1.8540707E1,3.596965E1,1.3050827E1,7.032089E0,5.1433105E0,8.457153E0,8.449707E0,1.0657227E1,0E0,0E0,0E0,0E0,0E0,0E0,0E0,0E0,0E0,0E0,0E0,0E0,0E0,0E0,0E0,0E0,0E0,0E0,0E0,0E0,0E0,0E0,0E0,0E0,0E0,0E0,0E0,0E0,0E0,0E0,0E0,0E0],"parents":[2147483647,0,0,1,1,2,2,3,3,4,4,5,5,6,6,7,7,8,8,9,9,10,10,11,11,12,12,13,13,14,14,15,15,16,16,17,17,18,18,19,19,20,20,21,21,22,22,23,23,24,24,25,25,26,26,27,27,28,28,29,29,30,30],"right_children":[2,4,6,8,10,12,14,16,18,20,22,24,26,28,30,32,34,36,38,40,42,44,46,48,50,52,54,56,58,60,62,-1,-1,-1,-1,-1,-1,-1,-1,-1,-1,-1,-1,-1,-1,-1,-1,-1,-1,-1,-1,-1,-1,-1,-1,-1,-1,-1,-1,-1,-1,-1,-1],"split_conditions":[1.1E1,1E0,8.1E1,7.6E1,7.6E1,5.8E1,8.8E1,3E0,1E0,6.4E1,4E0,3.5E1,5E0,6.5E1,8.2E1,3.7E1,3E0,1.28E2,1.4E1,8.8E1,8E0,4.5E1,1.5E1,1E0,1E0,2.1E1,4E0,1.7E1,6.7E1,9E1,8.5E1,-1.6491648E-2,-3.215378E-2,-4.3080334E-2,-2.5373358E-2,-4.5740403E-2,-5.2901197E-2,-4.5934852E-2,-2.9715208E-2,-2.5642693E-2,-1.2752036E-2,1.8541269E-2,-1.0139673E-2,-1.0126515E-2,6.124684E-2,1.6965432E-2,9.5878897E-4,1.1042962E-3,-1.8769499E-2,2.2931151E-2,-3.7673668E-3,5.9571867E-3,1.9511523E-2,1.8783629E-2,3.6874115E-2,1.7136244E-2,2.7291356E-2,2.9669106E-2,3.9580293E-2,1.9521846E-2,3.8510017E-2,3.9142504E-2,4.9505714E-2],"split_indices":[4,10,4,11,5,4,7,2,6,6,8,7,10,5,5,11,9,11,13,8,11,13,11,3,3,5,13,5,6,4,8,0,0,0,0,0,0,0,0,0,0,0,0,0,0,0,0,0,0,0,0,0,0,0,0,0,0,0,0,0,0,0,0],"split_type":[0,0,0,0,0,0,0,0,0,0,0,0,0,0,0,0,0,0,0,0,0,0,0,0,0,0,0,0,0,0,0,0,0,0,0,0,0,0,0,0,0,0,0,0,0,0,0,0,0,0,0,0,0,0,0,0,0,0,0,0,0,0,0],"sum_hessian":[1.2639537E4,5.3845215E3,7.2550156E3,4.0616162E3,1.3229054E3,3.23941E3,4.0156055E3,1.1618604E3,2.8997559E3,9.470859E2,3.7581952E2,1.9739929E3,1.2654171E3,1.5048402E3,2.5107654E3,4.4541888E2,7.164414E2,2.6428247E3,2.569312E2,6.0558435E2,3.415015E2,8.4708275E1,2.9111124E2,1.3811631E3,5.9282983E2,9.049115E2,3.6050558E2,5.170333E2,9.878069E2,4.394103E2,2.071355E3,2.3093315E2,2.1448575E2,5.615207E2,1.549207E2,2.8781116E2,2.3550134E3,2.256207E2,3.1310516E1,4.0759598E2,1.9798837E2,5.2776257E1,2.8872525E2,8.173345E1,2.9748228E0,1.8451767E2,1.06593575E2,1.2526853E3,1.2847766E2,4.114522E2,1.8137762E2,2.4431693E2,6.605946E2,7.004604E1,2.9045953E2,2.729305E2,2.4410283E2,3.567281E2,6.310788E2,7.369058E1,3.6571973E2,3.173452E2,1.7540098E3],"tree_param":{"num_deleted":"0","num_feature":"14","num_nodes":"63","size_leaf_vector":"1"}},{"base_weights":[-6.8330956E-3,-7.289684E-1,5.1749736E-1,-9.1381127E-1,-1.7780532E-1,2.0038347E-1,7.766806E-1,-6.527036E-1,-1.0199409E0,-2.9029465E-1,1.7246042E-1,6.9905505E-2,3.9312518E-1,5.3971875E-1,8.5850537E-1,-4.6594474E-1,-7.6938534E-1,-1.0375292E0,-8.929639E-1,-4.1747287E-1,-1.2957229E-1,-1.15146555E-1,2.5835234E-1,-3.5735622E-2,2.2838947E-1,1.2006561E-1,4.5890602E-1,4.580094E-1,6.7073804E-1,6.057384E-1,8.936711E-1,-5.0240965E-3,-2.6544247E-2,-4.2827263E-2,-2.5804773E-2,-4.511024E-2,-5.272467E-2,-4.0615413E-2,-4.8341256E-2,1.6542634E-2,-2.2697693E-2,-1.2845921E-2,4.548689E-3,-5.003656E-2,-1.3733605E-3,2.6872206E-2,7.7743344E-3,7.601071E-3,-5.7286397E-3,2.2554683E-2,7.0915893E-3,-3.3598659E-3,1.2611704E-2,1.0417531E-2,2.565371E-2,8.82941E-3,2.572585E-2,2.2060402E-2,3.6184594E-2,1.7505443E-2,3.6772545E-2,5.448797E-2,4.293834E-2],"categories":[],"categories_nodes":[],"categories_segments":[],"categories_sizes":[],"default_left":[0,0,1,0,0,1,0,0,0,0,0,1,0,1,0,0,0,0,0,0,0,0,0,0,0,0,0,0,0,0,0,0,0,0,0,0,0,0,0,0,0,0,0,0,0,0,0,0,0,0,0,0,0,0,0,0,0,0,0,0,0,0,0],"id":23,"left_children":[1,3,5,7,9,11,13,15,17,19,21,23,25,27,29,31,33,35,37,39,41,43,45,47,49,51,53,55,57,59,61,-1,-1,-1,-1,-1,-1,-1,-1,-1,-1,-1,-1,-1,-1,-1,-1,-1,-1,-1,-1,-1,-1,-1,-1,-1,-1,-1,-1,-1,-1,-1,-1],"loss_changes":[4.707838E3,5.326875E2,5.9189465E2,1.07864746E2,5.1854027E1,8.14787E1,7.638428E1,2.4366302E1,5.28833E0,2.0295319E1,7.9404926E0,3.238595E1,2.3441345E1,1.0612427E1,2.563086E1,1.0361458E1,1.4940735E1,4.645508E0,1.274353E0,1.5310287E1,1.2415558E1,5.7443786E0,7.004633E0,1.72066E1,1.4848919E1,6.3358135E0,1.4195511E1,9.949448E0,4.416458E0,1.1769302E1,1.6740723E1,0E0,0E0,0E0,0E0,0E0,0E0,0E0,0E0,0E0,0E0,0E0,0E0,0E0,0E0,0E0,0E0,0E0,0E0,0E0,0E0,0E0,0E0,0E0,0E0,0E0,0E0,0E0,0E0,0E0,0E0,0E0,0E0],"parents":[2147483647,0,0,1,1,2,2,3,3,4,4,5,5,6,6,7,7,8,8,9,9,10,10,11,11,12,12,13,13,14,14,15,15,16,16,17,17,18,18,19,19,20,20,21,21,22,22,23,23,24,24,25,25,26,26,27,27,28,28,29,29,30,30],"right_children":[2,4,6,8,10,12,14,16,18,20,22,24,26,28,30,32,34,36,38,40,42,44,46,48,50,52,54,56,58,60,62,-1,-1,-1,-1,-1,-1,-1,-1,-1,-1,-1,-1,-1,-1,-1,-1,-1,-1,-1,-1,-1,-1,-1,-1,-1,-1,-1,-1,-1,-1,-1,-1],"split_conditions":[1.1E1,1E0,8.1E1,7.6E1,8.5E1,5.9E1,6.9E1,3E0,1E0,6.9E1,4E0,3.2E1,1.9E1,6.7E1,6.9E1,1.1E1,1E0,1.28E2,3E0,5E0,2.2E1,3E0,1E1,3E0,1E0,7.7E1,2.7E1,4E0,2E1,4E0,2E0,-5.0240965E-3,-2.6544247E-2,-4.2827263E-2,-2.5804773E-2,-4.511024E-2,-5.272467E-2,-4.0615413E-2,-4.8341256E-2,1.6542634E-2,-2.2697693E-2,-1.2845921E-2,4.548689E-3,-5.003656E-2,-1.3733605E-3,2.6872206E-2,7.7743344E-3,7.601071E-3,-5.7286397E-3,2.2554683E-2,7.0915893E-3,-3.3598659E-3,1.2611704E-2,1.0417531E-2,2.565371E-2,8.82941E-3,2.572585E-2,2.2060402E-2,3.6184594E-2,1.7505443E-2,3.6772545E-2,5.448797E-2,4.293834E-2],"split_indices":[4,10,4,11,5,5,6,2,7,7,8,4,7,8,5,11,4,11,2,11,5,13,11,2,3,5,8,11,7,10,2,0,0,0,0,0,0,0,0,0,0,0,0,0,0,0,0,0,0,0,0,0,0,0,0,0,0,0,0,0,0,0,0],"split_type":[0,0,0,0,0,0,0,0,0,0,0,0,0,0,0,0,0,0,0,0,0,0,0,0,0,0,0,0,0,0,0,0,0,0,0,0,0,0,0,0,0,0,0,0,0,0,0,0,0,0,0,0,0,0,0,0,0,0,0,0,0,0,0],"sum_hessian":[1.2431631E4,5.2292476E3,7.2023833E3,3.915465E3,1.3137826E3,3.2399895E3,3.962394E3,1.1336146E3,2.7818503E3,9.9454987E2,3.1923273E2,1.9328767E3,1.3071129E3,1.0190001E3,2.9433938E3,4.3782794E2,6.957867E2,2.4371013E3,3.44749E2,5.5432214E2,4.4022775E2,7.3334236E1,2.458985E2,1.160256E3,7.726207E2,2.5430501E2,1.0528079E3,6.303697E2,3.886305E2,3.6170776E2,2.581686E3,6.644483E1,3.7138312E2,5.158836E2,1.7990303E2,2.775162E2,2.1595852E3,1.7052992E2,1.7421909E2,2.539203E1,5.289301E2,2.7897757E2,1.6125018E2,5.668396E0,6.766584E1,6.50856E1,1.808129E2,3.428361E2,8.174199E2,2.1506607E2,5.575547E2,1.0542506E2,1.4887994E2,1.8801045E2,8.647974E2,1.0609859E2,5.2427106E2,7.460125E1,3.1402924E2,1.2300195E2,2.387058E2,3.855411E2,2.196145E3],"tree_param":{"num_deleted":"0","num_feature":"14","num_nodes":"63","size_leaf_vector":"1"}},{"base_weights":[-6.794644E-3,-7.241007E-1,4.8822346E-1,-9.082183E-1,-1.7771727E-1,1.2324089E-1,7.065117E-1,-6.557521E-1,-1.0138891E0,-3.3375552E-1,7.2645865E-2,4.3494017E-3,2.9361555E-1,5.275029E-1,8.3139426E-1,-4.6187907E-1,-7.8429955E-1,-1.035772E0,-8.9642626E-1,4.8352534E-1,-3.6052826E-1,-5.8634613E-2,2.6188838E-1,-5.580092E-2,1.652446E-1,1.0532118E-1,3.8740045E-1,2.611343E-1,5.9606725E-1,5.720163E-1,8.8312626E-1,-3.038006E-3,-2.6218716E-2,-2.9693982E-2,-4.4457644E-2,-5.204277E-2,-3.1595137E-2,-4.092613E-2,-4.8492167E-2,-1.6329108E-2,3.741223E-2,-2.236825E-2,-5.7326495E-3,1.1536107E-2,-7.507683E-3,2.211008E-2,3.996952E-3,5.8887205E-3,-7.298305E-3,2.1974552E-2,3.137605E-3,-5.000645E-4,1.4147765E-2,2.6161639E-2,1.4247409E-2,1.7546095E-2,-1.1285208E-2,2.5256827E-2,3.4696177E-2,1.2088266E-2,3.1868596E-2,3.262187E-2,4.566921E-2],"categories":[],"categories_nodes":[],"categories_segments":[],"categories_sizes":[],"default_left":[0,0,1,0,0,1,0,0,0,0,0,1,1,0,0,0,0,0,0,1,0,0,0,0,0,0,0,0,0,0,0,0,0,0,0,0,0,0,0,0,0,0,0,0,0,0,0,0,0,0,0,0,0,0,0,0,0,0,0,0,0,0,0],"id":24,"left_children":[1,3,5,7,9,11,13,15,17,19,21,23,25,27,29,31,33,35,37,39,41,43,45,47,49,51,53,55,57,59,61,-1,-1,-1,-1,-1,-1,-1,-1,-1,-1,-1,-1,-1,-1,-1,-1,-1,-1,-1,-1,-1,-1,-1,-1,-1,-1,-1,-1,-1,-1,-1,-1],"loss_changes":[4.3432266E3,5.0227563E2,5.765139E2,9.898901E1,4.925012E1,5.488744E1,1.0079639E2,2.7176056E1,5.835205E0,1.7163467E1,1.2055268E1,1.5465034E1,1.9626518E1,3.3881836E1,3.5264893E1,1.1072891E1,1.2709564E1,3.8833008E0,1.6121521E0,5.6174774E0,1.6012863E1,7.633486E0,6.482788E0,1.8221672E1,1.2194705E1,7.6163335E0,1.0191536E1,1.6833986E1,1.2831177E1,9.474716E0,1.4905029E1,0E0,0E0,0E0,0E0,0E0,0E0,0E0,0E0,0E0,0E0,0E0,0E0,0E0,0E0,0E0,0E0,0E0,0E0,0E0,0E0,0E0,0E0,0E0,0E0,0E0,0E0,0E0,0E0,0E0,0E0,0E0,0E0],"parents":[2147483647,0,0,1,1,2,2,3,3,4,4,5,5,6,6,7,7,8,8,9,9,10,10,11,11,12,12,13,13,14,14,15,15,16,16,17,17,18,18,19,19,20,20,21,21,22,22,23,23,24,24,25,25,26,26,27,27,28,28,29,29,30,30],"right_children":[2,4,6,8,10,12,14,16,18,20,22,24,26,28,30,32,34,36,38,40,42,44,46,48,50,52,54,56,58,60,62,-1,-1,-1,-1,-1,-1,-1,-1,-1,-1,-1,-1,-1,-1,-1,-1,-1,-1,-1,-1,-1,-1,-1,-1,-1,-1,-1,-1,-1,-1,-1,-1],"split_conditions":[9E0,1E0,7.1E1,8E1,5.9E1,2.7E1,8.8E1,3E0,1E0,5E0,4E0,3.8E1,2.3E1,2E1,9E1,1.1E1,1.6E1,2.5E1,3E0,4E0,8E0,9E0,2.2E1,2E0,1E0,7.3E1,1E0,5E0,7.7E1,6.6E1,6.6E1,-3.038006E-3,-2.6218716E-2,-2.9693982E-2,-4.4457644E-2,-5.204277E-2,-3.1595137E-2,-4.092613E-2,-4.8492167E-2,-1.6329108E-2,3.741223E-2,-2.236825E-2,-5.7326495E-3,1.1536107E-2,-7.507683E-3,2.211008E-2,3.996952E-3,5.8887205E-3,-7.298305E-3,2.1974552E-2,3.137605E-3,-5.000645E-4,1.4147765E-2,2.6161639E-2,1.4247409E-2,1.7546095E-2,-1.1285208E-2,2.5256827E-2,3.4696177E-2,1.2088266E-2,3.1868596E-2,3.262187E-2,4.566921E-2],"split_indices":[4,10,4,11,5,6,7,2,8,11,10,4,8,5,4,11,11,12,2,8,12,11,1,1,3,5,3,9,6,6,8,0,0,0,0,0,0,0,0,0,0,0,0,0,0,0,0,0,0,0,0,0,0,0,0,0,0,0,0,0,0,0,0],"split_type":[0,0,0,0,0,0,0,0,0,0,0,0,0,0,0,0,0,0,0,0,0,0,0,0,0,0,0,0,0,0,0,0,0,0,0,0,0,0,0,0,0,0,0,0,0,0,0,0,0,0,0,0,0,0,0,0,0,0,0,0,0,0,0],"sum_hessian":[1.2229704E4,4.993463E3,7.236241E3,3.7344006E3,1.2590623E3,2.7087383E3,4.527503E3,1.1039858E3,2.6304148E3,7.754387E2,4.836235E2,1.5960219E3,1.1127164E3,1.8627003E3,2.6648027E3,4.419849E2,6.62001E2,2.2107437E3,4.1967126E2,2.4055193E1,7.5138354E2,2.8594745E2,1.9767604E2,1.162192E3,4.338298E2,3.7065863E2,7.420578E2,3.822988E2,1.4804015E3,4.4511386E2,2.219689E3,5.984546E1,3.8213943E2,2.37447E2,4.2455392E2,2.1817053E3,2.9038202E1,2.0950836E2,2.1016292E2,5.867001E0,1.818819E1,5.546693E2,1.9671422E2,6.834363E1,2.1760384E2,9.8566E1,9.911004E1,3.9721484E2,7.649772E2,1.1712965E2,3.1670016E2,2.2532094E2,1.4533769E2,3.1728757E2,4.2477026E2,3.2300598E2,5.9292805E1,7.7054895E2,7.0985254E2,7.431069E1,3.7080316E2,2.5999936E2,1.9596896E3],"tree_param":{"num_deleted":"0","num_feature":"14","num_nodes":"63","size_leaf_vector":"1"}},{"base_weights":[-6.7486432E-3,-7.0890266E-1,4.674857E-1,-9.6737736E-1,-3.1786695E-1,1.7281425E-1,7.214258E-1,-7.531965E-1,-1.0113038E0,-5.1787555E-1,-4.3817356E-2,5.5060416E-2,3.6547938E-1,4.916081E-1,8.02615E-1,-5.8755076E-1,-9.1694593E-1,-1.0364412E0,-8.839384E-1,-3.3879393E-1,-6.351519E-1,-2.0992166E-1,1.6031335E-1,-4.2073117E-3,3.4446096E-1,1.9091702E-1,4.8640928E-1,4.1445723E-1,6.1661553E-1,5.519336E-1,8.381161E-1,-3.029992E-2,1.7864777E-2,-4.0952306E-2,-4.938333E-2,-5.2039452E-2,-3.0502636E-2,-4.0224135E-2,-4.796437E-2,-1.8915152E-2,4.0332835E-2,-3.4867804E-2,-1.8126475E-2,-1.6226022E-2,6.4419457E-3,2.0633254E-2,3.6727828E-3,1.7414074E-3,-1.5616394E-2,2.7644841E-2,-3.0900233E-3,4.13124E-2,8.389155E-3,1.2176688E-3,2.6168142E-2,7.3128315E-3,2.342784E-2,2.8922055E-2,4.8206784E-2,1.54054165E-2,3.3870813E-2,5.1880296E-2,4.0149186E-2],"categories":[],"categories_nodes":[],"categories_segments":[],"categories_sizes":[],"default_left":[0,0,1,0,0,1,0,0,0,0,0,1,0,1,0,0,0,0,0,